1448734230126,80406247193600,2.1369746,1.7320553,9.851691
1448734230149,80406266938473,-0.36257192,3.1494226,8.999355
1448734230164,80406286805417,2.1369746,1.7320553,9.851691
1448734230170,80406306977536,-0.36257192,3.1494226,8.999355
1448734230190,80406326905514,2.1369746,1.7320553,9.851691
1448734230211,80406346864011,-0.36257192,3.1494226,8.999355
1448734230233,80406366883542,2.1369746,1.7320553,9.851691
1448734230252,80406386933591,-0.36257192,3.1494226,8.999355
1448734230277,80406407014157,2.1369746,1.7320553,9.851691
1448734230296,80406426881100,-0.36257192,3.1494226,8.999355
1448734230321,80406447419430,2.1369746,1.7320553,9.851691
1448734230343,80406476960446,-0.36257192,3.1494226,8.999355
1448734230368,80406497803952,2.1369746,1.7320553,9.851691
1448734230387,80406516938473,-0.36257192,3.1494226,8.999355
1448734230407,80406536927487,2.1369746,1.7320553,9.851691
1448734230431,80406558320309,-0.36257192,3.1494226,8.999355
1448734230454,80406577027585,2.1369746,1.7320553,9.851691
1448734230474,80406606843259,-0.36257192,3.1494226,8.999355
1448734230490,80406626801755,2.1369746,1.7320553,9.851691
1448734230510,80406647004391,-0.36257192,3.1494226,8.999355
1448734230530,80406666901852,2.1369746,1.7320553,9.851691
1448734230550,80406686951901,-0.36257192,3.1494226,8.999355
1448734230571,80406707154538,-0.36257192,3.1494226,8.999355
1448734230590,80406726929929,-6.81734,0.42242697,2.8055556
1448734230610,80406746918942,-5.184494,0.84141225,2.4536078
1448734230630,80406766877438,-9.211541,-0.7794623,3.514239
1448734230650,80406786958005,-8.114997,-0.20245968,3.202993
1448734230670,80406806977536,-11.964873,-2.7786207,4.483891
1448734230690,80406826905514,-10.612149,-1.6796821,3.6961985
1448734230710,80406846925046,-14.505121,-2.1585224,3.5166333
1448734230730,80406866914059,-13.408577,-2.996493,4.2803836
1448734230750,80406886964108,-19.415628,-1.808969,2.3147442
1448734230770,80406906922604,-16.221764,-1.2822447,2.3434746
1448734230790,80406926881100,-23.308601,-4.456956,5.6666265
1448734230810,80406946931149,-21.668573,-3.0587423,3.5190275
1448734230830,80406967042233,-19.935171,-5.546318,9.966613
1448734230850,80406986909177,-22.671743,-5.237466,8.214057
1448734230870,80407006989743,-13.545047,-4.337246,7.3401737
1448734230890,80407026917721,-16.494703,-5.1632457,8.841338
1448734230910,80407046906735,-12.33358,-1.3468881,4.1343374
1448734230930,80407066926266,-12.594548,-3.2790089,5.5110035
1448734230950,80407086976315,-10.81805,-0.6477812,3.205387
1448734230970,80407106904294,-11.672781,-0.45145667,3.3394625
1448734230990,80407126923825,-8.828469,-2.4290674,4.057723
1448734231010,80407146912839,-9.699959,-1.440262,3.463961
1448734231030,80407166901852,-8.067113,-3.7746086,5.8988643
1448734231050,80407186921384,-8.529194,-3.3316813,4.972308
1448734231070,80407206879880,-7.5763016,-3.5830724,6.3346086
1448734231090,80407226929929,-7.7726264,-3.9517796,6.2508116
1448734231110,80407247041012,-8.016835,-2.79538,5.4870615
1448734231130,80407266907956,-7.779809,-3.1688757,6.123919
1448734231150,80407286896970,-9.130138,-2.5008934,4.400094
1448734231170,80407306947018,-8.593838,-2.543989,5.0034328
1448734231190,80407327027585,-10.004023,-2.0866964,3.238906
1448734231211,80407346833493,-9.668834,-2.3045688,3.8829463
1448734231232,80407367097165,-10.923395,-1.4785691,2.8438628
1448734231252,80407386964108,-10.480469,-1.6629227,2.9037178
1448734231272,80407407105710,-11.648839,-1.5767314,3.00188
1448734231293,80407426942136,-11.294497,-1.4689924,3.0090625
1448734231312,80407447114255,-12.007969,-1.8185458,3.0545526
1448734231332,80407466981198,-11.890653,-1.7108067,2.9851205
1448734231352,80407487061764,-11.960085,-1.6796821,2.7385178
1448734231372,80407506989743,-11.99121,-1.8760067,2.9827263
1448734231392,80407527100827,-11.85474,-1.2128128,2.4368484
1448734231412,80407546967770,-12.089372,-1.3995606,2.5828948
1448734231432,80407567109372,-11.292103,-0.7722797,1.7616836
1448734231452,80407586976315,-11.538706,-1.0045172,1.9651906
1448734231472,80407607087399,-10.707917,-0.42751464,1.6204256
1448734231492,80407626984860,-10.92579,-0.6262334,1.6587329
1448734231512,80407647095944,-10.664822,-0.13302784,1.7497126
1448734231532,80407666993405,-10.66961,-0.17133506,1.7449241
1448734231552,80407687104489,-10.382306,0.22849663,2.135179
1448734231572,80407706971432,-10.497228,0.058508303,1.9747674
1448734231592,80407727113034,-10.576237,0.51101243,2.4368484
1448734231612,80407746979977,-10.133309,0.15188217,2.2860136
1448734231632,80407767060544,-11.399841,1.2627918,2.8151324
1448734231652,80407786988522,-11.335198,0.9180267,2.6786628
1448734231672,80407807099606,-9.204359,0.779163,3.5717
1448734231692,80407826966550,-10.150068,0.9156325,3.0617352
1448734231712,80407847108151,-9.537153,1.3130699,4.0840592
1448734231732,80407866975095,-9.079861,1.2556092,3.928436
1448734231752,80407887086179,-9.980081,1.7583915,4.155885
1448734231772,80407906983639,-10.128521,1.4806641,4.2684126
1448734231792,80407927033688,-8.419061,1.3178585,2.7385178
1448734231812,80407946992184,-9.283367,1.6769886,3.605219
1448734231832,80407967103268,-6.4917283,0.1925836,1.9723732
1448734231852,80407987000729,-7.4565916,0.82225865,2.0920835
1448734231872,80408007111813,-5.162946,-0.5400421,2.1495442
1448734231892,80408026978757,-5.7279778,-0.34371758,1.9508255
1448734231912,80408047089841,-5.756708,-0.49455228,2.7241526
1448734231932,80408066987302,-5.170129,-0.6405986,2.3195326
1448734231952,80408087098386,-6.903531,-0.3700538,3.0401874
1448734231972,80408106965329,-6.3744125,-0.3748422,2.9635727
1448734231992,80408127045895,-8.502858,-0.43709144,4.0050507
1448734232012,80408147004391,-7.6265798,-0.33653498,3.356222
1448734232032,80408167115475,-9.309704,-0.32216978,5.3458033
1448734232052,80408186982419,-9.120562,-0.49934068,4.677821
1448734232072,80408207093503,-9.297732,-0.2527379,5.860557
1448734232092,80408226990964,-9.182811,-0.31259295,5.7887306
1448734232112,80408247102048,-10.624121,-0.56398416,5.1351137
1448734232132,80408266968991,-9.994446,-0.21682489,5.503821
1448734232152,80408287049557,-10.808474,-1.9550153,5.2284875
1448734232172,80408306977536,-11.081413,-1.2774563,5.0249805
1448734232192,80408327088620,-8.806921,-2.642151,5.1590557
1448734232211,80408346864011,-9.953744,-2.3620296,5.3027077
1448734232233,80408367249753,-12.12289,-3.3675942,5.0872297
1448734232250,80408386903073,-9.716718,-3.116203,4.749647
1448734232272,80408406922604,-12.821998,-4.387524,6.8110547
1448734232290,80408426911618,-12.833968,-3.7291188,5.719299
1448734232312,80408446961667,-9.513211,-3.8943188,6.344186
1448734232331,80408467225339,-10.688764,-4.607791,7.074417
1448734232351,80408487031247,-10.545112,-2.6086323,4.83105
1448734232370,80408506898190,-9.939379,-3.1545103,5.3673515
1448734232390,80408526978757,-11.56983,-2.0412066,3.61719
1448734232410,80408546876218,-10.889876,-2.3093572,4.1846156
1448734232431,80408567017819,-11.747001,-0.645387,2.9492075
1448734232450,80408586884762,-11.878682,-1.3875896,3.3514335
1448734232471,80408607026364,-11.830798,0.28835166,1.9747674
1448734232490,80408626923825,-11.751789,-0.008529344,2.4512136
1448734232511,80408647034909,-11.861922,-0.11866262,1.7999908
1448734232531,80408666932370,-11.782914,0.1997662,1.8239328
1448734232551,80408686982419,-11.725453,-0.6405986,2.3027732
1448734232570,80408706910397,-11.7326355,-0.40596682,1.9627964
1448734232591,80408726990964,-12.06543,-0.7507319,2.3171384
1448734232610,80408746918942,-11.926566,-0.7890391,2.3410804
1448734232631,80408767030026,-11.299285,-0.5304653,1.136797
1448734232650,80408786896970,-12.0031805,-0.57116675,1.7760488
1448734232671,80408807038571,-11.079019,-0.7962217,0.54542905
1448734232690,80408826874997,-10.97128,-0.7770681,0.7992145
1448734232711,80408847047116,-10.767773,-0.9255086,0.5909189
1448734232730,80408866883542,-11.031135,-0.89438397,0.5837363
1448734232750,80408886964108,-10.360758,-0.17133506,0.52866966
1448734232773,80408906922604,-10.454132,-0.7603087,0.6890812
1448734232797,80408927827145,-9.350405,0.83422965,1.8406922
1448734232812,80408946992184,-10.3870945,0.446369,0.74175364
1448734232832,80408967103268,-6.7694554,0.92999774,3.9356186
1448734232852,80408986970212,-7.777415,0.71212536,2.9085062
1448734232872,80409007111813,-6.0559835,2.060061,4.9627314
1448734232892,80409027039792,-6.1302037,1.5788264,4.498256
1448734232912,80409047150876,-7.2554784,2.629881,4.8789344
1448734232931,80409067017819,-6.8724065,2.431162,5.3338323
1448734232951,80409086976315,-7.0040874,2.2994812,3.6459203
1448734232972,80409106873776,-7.17647,2.6729765,4.330662
1448734232992,80409127137448,-7.4326496,1.1382933,2.7600656
1448734233012,80409147004391,-7.095067,1.7679683,2.9492075
1448734233031,80409167023923,-8.277802,0.0537199,3.6842275
1448734233052,80409186921384,-7.842058,0.43918636,3.1024365
1448734233072,80409207093503,-9.893888,-0.5065233,4.8645687
1448734233092,80409227021481,-9.094226,-0.26231474,4.2420764
1448734233112,80409247132565,-10.734254,-0.34371758,5.44636
1448734233130,80409266968991,-10.530746,-0.43469724,5.3458033
1448734233153,80409287141110,-10.090214,-0.28386253,5.7025394
1448734233170,80409306855466,-10.68637,-0.26470894,5.6163483
1448734233195,80409327058102,-8.838046,-0.80101013,4.912453
1448734233211,80409346955563,-9.307309,-0.38681322,5.431995
1448734233233,80409366944577,-10.097396,-0.8608652,5.4032645
1448734233251,80409386994626,-9.474904,-0.9638158,5.0154037
1448734233272,80409406983639,-10.312874,-1.1984476,6.088006
1448734233291,80409427064206,-10.406248,-0.8417115,5.9491425
1448734233312,80409447022702,-8.964938,-1.5049055,5.44636
1448734233331,80409467255856,-9.508423,-1.4091374,5.9108353
1448734233352,80409488587643,-12.678346,-1.5934908,6.3250318
1448734233374,80409506898190,-10.3870945,-1.7108067,5.4391775
1448734233392,80409527039792,-11.533917,-1.9023429,6.918794
1448734233411,80409546967770,-13.375058,-1.559972,7.2731357
1448734233430,80409566956784,-10.523564,-1.571943,5.554099
1448734233452,80409586884762,-10.468497,-2.0005052,6.1047654
1448734233472,80409607087399,-10.947338,-1.7108067,4.919636
1448734233492,80409627076413,-10.808474,-1.3229461,5.4152355
1448734233512,80409647095944,-12.563424,-0.9709984,3.892523
1448734233532,80409667054440,-11.6608095,-1.7682676,4.3019314
1448734233552,80409688508298,-13.157186,1.0544962,3.0665236
1448734233574,80409706879880,-13.121273,0.3218705,3.5118449
1448734233592,80409727082516,-11.696723,0.72649056,2.3506572
1448734233611,80409746979977,-12.472445,1.1263223,2.6714802
1448734233630,80409766938473,-10.6576395,-0.16415246,1.8574516
1448734233653,80409787171628,-11.021558,0.20934302,2.0609589
1448734233672,80409807130124,-9.793332,-0.12823942,1.3905823
1448734233692,80409826997067,-10.31048,-0.2264017,1.6754923
1448734233711,80409847016598,-8.507647,0.41045594,0.8423101
1448734233733,80409866914059,-9.149292,0.12794015,1.1128548
1448734233752,80409887086179,-6.841282,0.35299513,0.65316814
1448734233772,80409907014157,-7.628974,0.4559458,0.6914754
1448734233791,80409926972653,-5.8261404,0.36017773,0.75133044
1448734233812,80409946931149,-6.1996355,0.30989948,0.5981015
1448734233832,80409967103268,-5.9578214,0.5900211,0.92610717
1448734233852,80409987031247,-5.8021984,0.4966472,0.7800608
1448734233871,80410006989743,-6.3289227,0.30271688,1.4264953
1448734233892,80410026917721,-6.1756935,0.60438627,1.0721534
1448734233912,80410047120358,-7.46138,0.5684733,1.6108488
1448734233931,80410067048337,-6.4917283,0.4535516,1.4193127
1448734233951,80410086976315,-10.399065,0.3362357,2.4033296
1448734233972,80410106873776,-8.909872,0.23089083,2.0202572
1448734233992,80410127167966,-13.319991,0.43200377,3.238906
1448734234011,80410147004391,-11.814038,0.4798878,2.7217584
1448734234031,80410166993405,-15.730952,-0.30062196,4.541352
1448734234053,80410186921384,-14.888194,0.08245032,3.880552
1448734234072,80410207093503,-13.731794,-0.31977555,5.352986
1448734234092,80410227021481,-15.003116,-0.4777929,5.2524295
1448734234111,80410247163083,-11.246613,0.063296705,4.3977
1448734234133,80410266846921,-12.247389,-0.18330607,5.1303253
1448734234151,80410287019040,-10.466104,0.43679217,3.428048
1448734234172,80410306855466,-10.822839,0.25004444,3.6770449
1448734234191,80410326997067,-9.304915,-0.16894086,3.4926913
1448734234213,80410347169186,-9.965715,0.27398646,3.4448073
1448734234231,80410367036130,-8.174852,-1.2846389,3.679439
1448734234252,80410386842038,-8.694394,-0.9279028,3.45199
1448734234272,80410407044675,-7.6696754,-1.37083,4.299537
1448734234292,80410427277829,-7.9330378,-1.2176012,3.9954736
1448734234311,80410446992184,-6.972963,-1.0140941,4.8262615
1448734234333,80410466950680,-7.2985744,-1.3468881,4.625149
1448734234352,80410487092282,-6.6952353,-0.6429928,4.948366
1448734234371,80410507020261,-6.656928,-0.69566524,4.993856
1448734234391,80410527009274,-7.9402204,-0.07317279,5.6666265
1448734234412,80410546906735,-7.1716814,-0.39639002,5.2979193
1448734234432,80410567139889,-9.362376,0.4511574,6.432771
1448734234452,80410587006833,-8.689606,0.09442133,6.0329394
1448734234471,80410606965329,-9.405472,0.542137,6.21011
1448734234493,80410626923825,-9.539547,0.6450877,6.368128
1448734234512,80410647065427,-8.926631,0.68578917,5.384111
1448734234531,80410667054440,-9.187599,0.5445312,5.8988643
1448734234551,80410686982419,-8.682423,0.83183545,4.7089458
1448734234573,80410706879880,-8.7470665,0.7384616,5.0345573
1448734234592,80410727143552,-8.907477,0.7456442,4.1606736
1448734234611,80410747010495,-8.672846,0.9108441,4.421642
1448734234631,80410766968991,-11.117326,0.38651395,4.1343374
1448734234653,80410786927487,-9.728689,0.5636849,4.0720882
1448734234672,80410807099606,-14.974385,0.68818337,4.8621745
1448734234692,80410826997067,-13.252954,0.51340663,4.522198
1448734234711,80410847016598,-13.497163,0.07287352,3.6147957
1448734234733,80410866883542,-14.572159,0.4727052,4.481497
1448734234752,80410887086179,-13.001563,0.5684733,2.1136312
1448734234772,80410907014157,-13.394212,0.16145898,2.6547208
1448734234791,80410926972653,-11.469274,0.8701427,1.7137995
1448734234813,80410946900632,-12.295273,0.68578917,1.8430864
1448734234832,80410967133786,-10.030358,0.51340663,2.6523266
1448734234851,80410987000729,-10.576237,0.83422965,2.0154688
1448734234871,80411007020261,-8.8188925,-0.03007716,3.1958103
1448734234892,80411026887204,-9.352799,-0.13302784,2.965967
1448734234912,80411047120358,-7.619397,-0.43948564,4.8142905
1448734234931,80411067017819,-8.203583,-0.360477,3.7584476
1448734234951,80411086976315,-6.8221283,0.16385318,6.801478
1448734234973,80411106904294,-7.080702,0.42242697,5.479879
1448734234992,80411127137448,-6.2116065,0.08245032,8.934711
1448734235011,80411147004391,-6.678476,-0.070778586,8.281095
1448734235031,80411166993405,-5.0001407,-0.6429928,9.779865
1448734235050,80411186860348,-5.601085,-0.106691614,9.0137205
1448734235073,80411207001950,-5.0001407,-0.91114336,10.320954
1448734235103,80411237000729,-4.432715,-0.870442,9.935488
1448734235126,80411257294919,-2.3234231,-1.2128128,10.117448
1448734235142,80411277070309,-2.8357823,-0.5376479,10.440664
1448734235161,80411297181393,-1.9379567,-1.1481694,9.174132
1448734235181,80411316926266,-1.9978117,-1.167323,9.648184
1448734235201,80411337159421,-1.0018238,-0.006135142,7.787889
1448734235221,80411357270505,-1.4279916,-0.69327104,8.554034
1448734235241,80411377137448,-0.9994296,-0.60707974,7.773524
1448734235261,80411397004391,-0.72649056,0.034566287,7.8381677
1448734235281,80411417176511,-1.5429133,-0.56637836,6.9092174
1448734235301,80411437043454,-1.0832267,-0.6597522,7.5317097
1448734235321,80411457154538,-2.558055,-2.4937108,4.3258734
1448734235341,80411477021481,-2.1270986,-1.6174328,5.721693
1448734235361,80411497132565,-4.4494743,-3.9852984,2.9851205
1448734235381,80411516999509,-3.7982514,-3.6956,3.593248
1448734235401,80411537171628,-5.431097,-5.153669,2.2955904
1448734235421,80411557008054,-5.0169,-4.3420343,2.6235962
1448734235441,80411577149655,-3.3026516,-6.9421372,1.4767735
1448734235461,80411597016598,-4.396802,-6.3962593,2.6235962
1448734235481,80411617127682,-7.901913,-4.0810666,18.600103
1448734235501,80411636994626,-7.5619364,-2.2542906,8.024915
1448734235521,80411657166745,-4.0951324,-8.055441,5.9275947
1448734235541,80411677003171,-8.586655,-14.359374,14.999225
1448734235561,80411697175290,4.993257,-4.526388,5.2284875
1448734235581,80411717042233,2.1561282,-5.00044,5.6809916
1448734235601,80411737153317,5.0411415,-6.5470943,6.341791
1448734235621,80411757050778,5.1823993,-4.6413097,5.1470847
1448734235641,80411777131345,3.2023945,-11.876587,7.9578776
1448734235661,80411796998288,3.7339072,-9.369858,7.7112746
1448734235681,80411817170407,0.01810615,-3.4130843,6.6793737
1448734235701,80411837006833,2.651728,-6.9110126,6.0951886
1448734235721,80411857117917,1.9095255,-6.9732623,7.194127
1448734235741,80411877015378,0.70045364,-4.181623,7.7112746
1448734235761,80411897095944,2.2566848,-7.052271,5.76
1448734235781,80411917023923,2.9869163,-7.1336737,6.2244754
1448734235801,80411937165524,1.7539024,-6.298097,6.6913447
1448734235822,80411957001950,2.1465514,-6.451326,6.229264
1448734235841,80411977021481,1.0045172,-6.331616,6.6506433
1448734235861,80411997010495,0.9614216,-6.484845,6.813449
1448734235881,80412017121579,1.1338041,-6.4609027,6.669797
1448734235901,80412037019040,1.0571897,-6.295703,6.648249
1448734235921,80412057160641,1.3420997,-5.6133556,6.878093
1448734235941,80412077027585,1.2702737,-6.1951466,6.82542
1448734235961,80412097108151,0.80340433,-6.2765493,6.7511997
1448734235981,80412117005612,0.8776246,-6.2214828,6.844574
1448734236001,80412137208249,0.58553195,-6.3292217,6.5069914
1448734236024,80412156953122,0.41554365,-6.4441433,6.571635
1448734236041,80412177033688,0.98536366,-5.407454,7.4215765
1448734236061,80412196961667,0.7435493,-6.66441,6.904429
1448734236083,80412217072751,0.61186814,-6.118532,7.1510315
1448734236103,80412237275387,0.55440736,-6.2693667,7.522133
1448734236123,80412257294919,0.70284784,-6.130503,7.012168
1448734236143,80412277039792,0.6501754,-6.381894,6.9092174
1448734236162,80412297242429,0.59750295,-5.9341784,6.9810433
1448734236183,80412317048337,0.6645406,-6.1568394,6.9355536
1448734236206,80412337281491,0.621445,-6.116138,6.767959
1448734236223,80412357026364,0.6382044,-6.1352916,6.7942953
1448734236242,80412377229001,0.6190508,-6.2669725,6.777536
1448734236263,80412397034909,0.5017349,-6.322039,6.657826
1448734236282,80412417268063,0.5137059,-6.439355,6.9331594
1448734236303,80412437073971,0.6190508,-6.367529,6.7607765
1448734236322,80412457246091,0.5304653,-6.3627405,6.9259768
1448734236343,80412477082516,0.4849755,-6.480057,6.82542
1448734236362,80412497254636,0.56158996,-6.319645,6.854151
1448734236383,80412517030026,0.58313775,-6.283732,6.952313
1448734236402,80412537263180,0.43469724,-6.4489317,6.645855
1448734236423,80412557038571,0.5137059,-6.3531637,6.681768
1448734236442,80412577241208,0.46103346,-6.427384,6.5812116
1448734236463,80412597047116,0.4897639,-6.4776626,6.583606
1448734236486,80412617493893,0.633416,-6.357952,6.7631707
1448734236503,80412637025143,0.49455228,-6.4202013,6.729652
1448734236522,80412657197262,0.39399582,-6.4321723,6.87091
1448734236543,80412677003171,0.4849755,-6.532729,6.904429
1448734236562,80412697205807,0.6429928,-6.173599,6.894852
1448734236583,80412717011716,0.43230304,-6.3866825,6.8613334
1448734236602,80412737214352,0.55201316,-6.2166944,6.741623
1448734236623,80412757020261,0.5400421,-6.322039,6.844574
1448734236642,80412777222897,0.45145667,-6.343587,6.583606
1448734236663,80412796998288,0.5041291,-6.3531637,6.803872
1448734236682,80412817170407,0.46342766,-6.465691,6.633884
1448734236703,80412837006833,0.55919576,-6.2310596,6.813449
1448734236722,80412857148434,0.44666827,-6.381894,6.6314898
1448734236744,80412877137448,0.43709144,-6.463297,6.6386724
1448734236762,80412897156979,0.4873697,-6.5710363,6.9092174
1448734236783,80412917054440,0.3628712,-6.45372,6.6171246
1448734236802,80412937226559,0.56158996,-6.5135756,6.523751
1448734236823,80412957062985,0.41554365,-6.6237087,6.8733044
1448734236842,80412977265622,0.32456398,-6.468086,6.6410666
1448734236863,80412997041012,0.44906247,-6.5877957,6.552481
1448734236882,80413017243649,0.44427404,-6.4489317,6.684162
1448734236903,80413037049557,0.3772364,-6.480057,6.5429044
1448734236930,80413057252194,0.44187984,-6.518364,6.6674027
1448734236945,80413076966550,0.45863926,-6.5111814,6.669797
1448734236962,80413097260739,0.44427404,-6.5949783,6.657826
1448734236983,80413117066647,0.45385087,-6.417807,6.684162
1448734237002,80413137238766,0.5304653,-6.4202013,6.7272577
1448734237023,80413157014157,0.4897639,-6.427384,6.669797
1448734237042,80413177247311,0.5376479,-6.496816,6.6171246
1448734237063,80413197053220,0.4825813,-6.5016046,6.6530375
1448734237082,80413217255856,0.5184943,-6.4489317,6.648249
1448734237103,80413237031247,0.46342766,-6.441749,6.6027594
1448734237123,80413257264401,0.44187984,-6.439355,6.8206315
1448734237143,80413277039792,0.5472247,-6.4561143,6.7344403
1448734237162,80413297242429,0.47300446,-6.508787,6.624307
1448734237183,80413317048337,0.44427404,-6.556671,6.672191
1448734237206,80413337281491,0.5304653,-6.465691,6.645855
1448734237223,80413357026364,0.5184943,-6.468086,6.672191
1448734237242,80413377259518,0.49455228,-6.480057,6.720075
1448734237263,80413397034909,0.5184943,-6.494422,6.6506433
1448734237282,80413417268063,0.5161001,-6.5494885,6.777536
1448734237303,80413437043454,0.5113117,-6.6069493,6.6985273
1448734237322,80413457246091,0.5400421,-6.5470943,6.70571
1448734237343,80413477051999,0.5137059,-6.5734305,6.732046
1448734237362,80413497254636,0.47300446,-6.4489317,6.684162
1448734237383,80413517030026,0.4801871,-6.5447,6.6314898
1448734237402,80413537263180,0.4753987,-6.4561143,6.5668464
1448734237423,80413557038571,0.43469724,-6.4609027,6.6075478
1448734237442,80413577241208,0.5472247,-6.355558,6.609942
1448734237463,80413597047116,0.4849755,-6.4920278,6.681768
1448734237482,80413617249753,0.44666827,-6.5734305,6.6889505
1448734237503,80413637055661,0.46103346,-6.47048,6.6171246
1448734237522,80413657258298,0.4825813,-6.465691,6.669797
1448734237543,80413677033688,0.46342766,-6.4896336,6.633884
1448734237562,80413697236325,0.4897639,-6.554277,6.6171246
1448734237583,80413717042233,0.55680156,-6.357952,6.621913
1448734237602,80413737214352,0.5496189,-6.465691,6.657826
1448734237623,80413757050778,0.4873697,-6.4441433,6.624307
1448734237642,80413777253415,0.5448305,-6.580613,6.732046
1448734237663,80413797028805,0.5400421,-6.5614595,6.7511997
1448734237682,80413817261960,0.57116675,-6.5016046,6.6410666
1448734237703,80413837037350,0.60468554,-6.4776626,6.5333276
1448734237722,80413857239987,0.6190508,-6.319645,6.5548754
1448734237743,80413877045895,0.58553195,-6.4010477,6.6027594
1448734237762,80413897218014,0.6669348,-6.429778,6.6434608
1448734237783,80413917084958,0.6382044,-6.343587,6.6650085
1448734237817,80413938599850,0.7531261,-6.5375175,6.777536
1448734237823,80413956910397,0.6669348,-6.3531637,6.717681
1448734237842,80413977113034,0.7842507,-6.580613,6.755988
1448734237869,80413996918942,0.8105869,-6.602161,6.856545
1448734237883,80414017182614,0.7866449,-6.3866825,6.681768
1448734237902,80414036927487,0.8369231,-6.47048,6.6267014
1448734237921,80414057130124,0.88959557,-6.2286654,6.6434608
1448734237941,80414076936032,0.9350854,-6.298097,6.7128925
1448734237963,80414097382809,0.96621,-6.113744,6.7607765
1448734237983,80414117066647,0.98296946,-6.235848,6.6195188
1448734238001,80414137238766,0.9614216,-6.4249897,6.6530375
1448734238021,80414157014157,0.930297,-6.480057,6.6913447
1448734238041,80414177155759,0.98296946,-6.4561143,6.753594
1448734238061,80414197022702,1.0236709,-6.3004913,6.6314898
1448734238081,80414217164304,1.0907085,-6.367529,6.7464113
1448734238101,80414237000729,1.0883143,-6.322039,6.7033157
1448734238122,80414257264401,1.1840824,-6.3866825,6.729652
1448734238141,80414277009274,1.0619781,-6.4872394,6.7871127
1448734238161,80414297120358,1.0164883,-6.604555,6.801478
1448734238181,80414317048337,1.1314099,-6.6308913,6.791901
1448734238204,80414337250973,0.73157823,-6.532729,6.866122
1448734238221,80414356995846,0.90874916,-6.403442,6.856545
1448734238241,80414377167966,0.2575263,-6.3268275,7.024139
1448734238261,80414397004391,0.4873697,-6.3723173,6.803872
1448734238281,80414417176511,1.2199954,-5.8527756,9.138219
1448734238301,80414437012936,-0.20934302,-6.5039988,7.0887823
1448734238321,80414457124020,-2.8980315,-8.551041,7.062446
1448734238341,80414477021481,-2.0552726,-8.182334,8.288278
1448734238361,80414497163083,-4.0113354,-8.218247,6.126313
1448734238381,80414516999509,-3.8964136,-8.041076,5.5229745
1448734238401,80414537141110,-6.1421747,-2.8863597,4.5988126
1448734238421,80414557008054,-5.3473,-4.4785037,4.6323314
1448734238441,80414577119137,-6.2140007,-2.7259483,7.570017
1448734238461,80414597016598,-6.204424,-2.5368063,5.9036527
1448734238481,80414617127682,-5.866842,-1.6365865,7.2228575
1448734238501,80414637025143,-6.3863835,-2.4577978,8.079982
1448734238521,80414657136227,-5.21083,0.15188217,6.7511997
1448734238541,80414677003171,-5.308993,-0.7531261,6.5452986
1448734238561,80414697175290,-5.5077114,1.1071687,8.72881
1448734238581,80414717011716,-5.457433,0.95633394,7.6035357
1448734238601,80414737153317,-5.4622216,-0.18330607,9.327361
1448734238621,80414757020261,-5.335329,0.71451956,8.932318
1448734238641,80414777161862,-5.3042045,-2.1609166,10.191668
1448734238661,80414797028805,-5.4741926,-1.1840824,9.806201
1448734238681,80414817139889,-4.9881697,-3.219154,10.692056
1448734238701,80414837037350,-5.2635026,-2.8241105,10.452636
1448734238721,80414857117917,-4.933103,-3.5734956,10.658537
1448734238741,80414877015378,-4.8397293,-3.257461,10.771065
1448734238761,80414897095944,-4.5859437,-3.9900868,10.845284
1448734238781,80414917023923,-4.8924017,-3.8368578,10.955418
1448734238801,80414937165524,-3.2858922,-4.8519993,10.117448
1448734238825,80414956940915,-4.1190743,-4.239084,10.318561
1448734238841,80414977113034,-1.3346179,-5.6229324,9.91394
1448734238861,80414996949460,-2.2755392,-5.0770545,9.901969
1448734238883,80415016968991,0.49694648,-7.258172,9.576358
1448734238903,80415037293698,-0.38411975,-6.568642,9.751135
1448734238921,80415057252194,1.6964415,-7.9189715,8.142231
1448734238941,80415076997067,1.1218331,-7.830386,8.915558
1448734238962,80415096955563,1.844882,-9.585336,7.5029793
1448734238983,80415117036130,1.8879777,-8.764125,7.787889
1448734239002,80415137238766,1.8999487,-8.603713,6.894852
1448734239023,80415157044675,1.9191023,-9.281273,7.2587705
1448734239042,80415177247311,1.2966099,-6.9612913,5.817461
1448734239063,80415197053220,1.7323545,-7.746589,6.3896756
1448734239082,80415217255856,0.33653498,-6.1927524,5.4367833
1448734239103,80415237031247,0.8417115,-6.59019,5.5948005
1448734239123,80415257294919,-0.6498761,-5.1847935,5.2069397
1448734239143,80415277039792,-0.13512276,-5.5367413,4.9387894
1448734239162,80415297211911,-1.5644612,-4.363582,6.5572696
1448734239183,80415317048337,-1.2723686,-4.907066,5.9275947
1448734239206,80415337250973,-1.5213655,-2.3955483,7.8238025
1448734239223,80415357026364,-1.6889597,-3.434632,7.3976345
1448734239242,80415377259518,-1.0712556,-0.3796306,8.32419
1448734239263,80415397034909,-1.2508208,-1.5384243,8.307431
1448734239282,80415417268063,-1.2364556,1.7224785,7.79986
1448734239303,80415437043454,-1.1191397,0.8845079,8.170961
1448734239322,80415457246091,-2.8285997,2.0026002,7.474249
1448734239343,80415477082516,-1.9140146,1.9690813,7.570017
1448734239362,80415497254636,-4.9259205,2.0456958,7.1893387
1448734239383,80415517030026,-3.9227498,1.9523219,7.5556517
1448734239402,80415537263180,-7.3320932,1.6841712,5.386505
1448734239423,80415557038571,-6.027253,2.0768204,6.5907884
1448734239442,80415577241208,-11.258584,0.72170216,4.1223664
1448734239463,80415597047116,-9.043947,1.3202527,4.5748706
1448734239482,80415617249753,-16.719757,-1.7562966,4.4551606
1448734239503,80415637055661,-13.995156,-0.03007716,4.4288244
1448734239522,80415657227780,-19.992632,-3.5734956,3.442413
1448734239543,80415677033688,-18.685398,-3.257461,4.02181
1448734239562,80415697266843,-17.794754,-4.0810666,3.1215901
1448734239583,80415717042233,-19.949535,-3.7506666,3.1886277
1448734239602,80415737244870,-13.475615,-4.607791,5.0872297
1448734239623,80415757050778,-15.460408,-4.3899183,4.175039
1448734239642,80415777253415,-9.630527,-5.16564,3.952378
1448734239663,80415797028805,-11.476457,-5.1369095,5.16145
1448734239682,80415817261960,-8.936208,-3.8823476,2.2333412
1448734239703,80415837037350,-8.991275,-4.6125793,2.9563901
1448734239723,80415857575680,-9.680805,-2.318934,1.529446
1448734239742,80415876984860,-9.115773,-3.008464,1.8526632
1448734239761,80415897095944,-9.254637,-2.8863597,1.802385
1448734239781,80415916962887,-9.87713,-2.2878094,1.6778865
1448734239802,80415937073971,-7.3225164,-4.124162,3.2436943
1448734239823,80415957276608,-8.186823,-3.755455,2.4512136
1448734239841,80415977113034,-6.8340993,-3.8105216,4.057723
1448734239861,80415997041012,-6.9705687,-4.1050086,3.7536592
1448734239881,80416017121579,-7.5619364,-3.6548986,5.2907367
1448734239901,80416037019040,-7.008876,-3.566313,4.6443024
1448734239921,80416057160641,-9.223513,-3.908684,6.205322
1448734239941,80416077027585,-8.462156,-3.9015014,5.956325
1448734239961,80416097138669,-10.643274,-2.5296237,5.1590557
1448734239981,80416117005612,-9.776573,-3.3340755,5.623531
1448734240001,80416137116696,-11.629685,-1.785027,3.8757637
1448734240021,80416157014157,-11.23943,-2.165705,4.6227546
1448734240041,80416177125241,-11.849952,-0.5400421,2.3147442
1448734240061,80416197022702,-11.840375,-1.1290157,2.8869584
1448734240081,80416217164304,-11.763761,0.25962123,2.1615152
1448734240101,80416237000729,-11.821221,-0.14499883,2.123208
1448734240121,80416257172848,-10.808474,-0.5424363,1.9843442
1448734240142,80416276978757,-11.392659,0.08245032,2.26686
1448734240161,80416297059323,-12.180351,-1.773056,1.1296142
1448734240181,80416316987302,-10.921001,-1.3109751,1.256507
1448734240204,80416337250973,-11.311256,-2.6349685,1.7161937
1448734240221,80416357026364,-12.5682125,-2.0124762,1.5007155
1448734240241,80416377167966,-12.130074,-3.6357448,0.92131877
1448734240261,80416397004391,-11.191546,-3.5160348,1.3379098
1448734240281,80416417145993,-13.458856,-4.193594,-0.29254153
1448734240301,80416437043454,-12.752565,-3.8344636,0.45205522
1448734240321,80416457124020,-10.830022,-4.301333,-1.8439842
1448734240341,80416477051999,-12.685528,-4.2582374,-1.022773
1448734240361,80416497163083,-9.496451,-3.4418147,-1.7266684
1448734240381,80416516999509,-9.810092,-3.839252,-1.9589059
1448734240401,80416537171628,-9.592219,-3.1425393,-0.33803135
1448734240421,80416557008054,-9.577854,-3.1377509,-0.9437644
1448734240441,80416577149655,-10.078242,-3.5280058,0.1551742
1448734240461,80416597047116,-9.78615,-3.2598553,0.16714521
1448734240481,80416617097165,-9.886706,-3.4370263,-0.16804303
1448734240501,80416636994626,-10.011205,-3.6285622,-0.019602526
1448734240521,80416657166745,-9.733478,-2.654122,0.07616554
1448734240541,80416677003171,-9.958532,-3.0515597,-0.060303956
1448734240561,80416697175290,-9.134927,-2.7666497,0.4185364
1448734240581,80416717011716,-9.312098,-2.5248353,0.2677017
1448734240601,80416737122800,-9.673622,-3.3388638,0.8423101
1448734240621,80416757020261,-9.257031,-3.1329625,0.66513914
1448734240641,80416777161862,-10.961703,-3.0276177,1.2205939
1448734240662,80416796967770,-10.454132,-3.3268929,1.055394
1448734240683,80416817170407,-11.33041,-2.4817398,1.268478
1448734240703,80416837067868,-11.172393,-2.6900353,1.2445359
1448734240721,80416857239987,-12.819603,-2.2806268,1.4671967
1448734240741,80416877045895,-11.926566,-2.4458268,1.2972084
1448734240761,80416897095944,-13.35351,-1.6102502,1.6443677
1448734240781,80416917023923,-13.482798,-1.8999487,1.5557822
1448734240801,80416937165524,-13.557017,-0.89198977,1.9556139
1448734240821,80416957001950,-13.238588,-1.3828012,1.6156372
1448734240841,80416977143552,-12.817209,0.14230536,2.9085062
1448734240861,80416997010495,-13.542652,-0.14739305,2.5685296
1448734240881,80417017152096,-10.7151,0.30032268,3.0066683
1448734240901,80417037019040,-11.665598,0.3386299,3.0808887
1448734240921,80417057130124,-9.482086,0.470311,4.151097
1448734240941,80417076997067,-9.972898,0.24525604,3.214964
1448734240961,80417097138669,-8.7710085,1.2915221,5.1351137
1448734240981,80417117005612,-9.039159,1.004218,4.737676
1448734241001,80417137147214,-8.61778,1.918803,5.709722
1448734241021,80417157044675,-8.742278,1.5333365,5.575647
1448734241041,80417177155759,-8.335263,2.1701941,5.659444
1448734241061,80417197022702,-8.385542,2.1366754,5.6522613
1448734241081,80417217164304,-8.507647,2.0983682,5.503821
1448734241101,80417237000729,-8.447791,2.0792146,5.68578
1448734241122,80417257264401,-8.438214,1.5620669,4.641908
1448734241141,80417277009274,-8.51004,1.8326118,5.1446905
1448734241161,80417297150876,-9.132533,0.45834,3.569306
1448734241181,80417317017819,-8.696788,1.0999861,4.0649056
1448734241204,80417337250973,-10.612149,-0.59510875,3.2820017
1448734241221,80417357026364,-9.841216,-0.0851438,3.214964
1448734241241,80417377137448,-12.010364,-1.5910966,3.4735377
1448734241261,80417397004391,-11.349564,-1.0404303,3.3394625
1448734241281,80417417176511,-12.2426,-2.2040124,3.083283
1448734241301,80417437012936,-12.290484,-2.2183776,3.394529
1448734241321,80417457124020,-12.09416,-2.3237224,2.0777183
1448734241341,80417477021481,-12.216265,-2.2064066,2.5948658
1448734241361,80417497163083,-11.85474,-2.7642555,2.2333412
1448734241381,80417516999509,-11.967268,-2.414702,2.0250456
1448734241401,80417537141110,-11.28492,-3.446603,2.8055556
1448734241421,80417557008054,-11.694328,-3.2143655,2.5182512
1448734241441,80417577149655,-10.734254,-3.5399768,3.0928597
1448734241461,80417597016598,-11.124509,-3.6357448,2.977938
1448734241481,80417617158200,-9.915437,-3.5088522,2.8917468
1448734241501,80417637025143,-10.229077,-3.4896986,3.0689178
1448734241521,80417657136227,-10.284143,-3.3819594,2.752883
1448734241541,80417677003171,-9.992051,-3.4202669,2.8366802
1448734241561,80417697144772,-10.897059,-3.578284,3.1766567
1448734241582,80417716981198,-10.6336975,-3.4777277,2.8654106
1448734241600,80417737061764,-9.972898,-2.9510033,3.8422449
1448734241624,80417756959225,-11.696723,-3.3628058,3.7608418
1448734241641,80417777131345,-7.8588176,-2.4170961,2.300379
1448734241661,80417796937253,-8.304139,-2.807351,2.9946973
1448734241684,80417817353512,-7.6840405,-2.1082442,1.8119618
1448734241703,80417837037350,-7.5499654,-2.1273978,1.7928082
1448734241721,80417857239987,-7.248296,-2.022053,2.1639094
1448734241741,80417877015378,-7.365612,-2.0052936,1.9125183
1448734241763,80417897095944,-7.5643306,-2.2303486,3.262848
1448734241783,80417917054440,-7.4446206,-2.2686558,2.4727614
1448734241802,80417937257077,-8.2059765,-1.9167081,4.1127896
1448734241823,80417957032468,-7.801357,-2.1561282,3.8230913
1448734241842,80417977265622,-8.354417,-2.4434326,4.447978
1448734241863,80417997041012,-8.488492,-1.7754502,4.270807
1448734241882,80418017243649,-9.240272,-2.879177,5.1829977
1448734241903,80418037049557,-8.502858,-2.9510033,4.663456
1448734241922,80418057252194,-10.573842,-4.0307884,6.1287074
1448734241943,80418077027585,-9.7262945,-2.9893105,5.9491425
1448734241962,80418097260739,-13.406183,-5.9748797,8.137443
1448734241983,80418117036130,-12.086978,-5.4505496,6.5692406
1448734242002,80418137238766,-11.588984,-7.756166,9.296236
1448734242023,80418157044675,-12.951284,-6.6691985,9.186103
1448734242042,80418177277829,-12.010364,-7.5311112,11.175685
1448734242063,80418197053220,-11.584195,-8.800038,9.684097
1448734242082,80418217255856,-10.561872,-5.4242134,13.955353
1448734242103,80418237031247,-11.617714,-6.3268275,12.559533
1448734242123,80418257294919,-11.773337,-6.130503,16.191538
1448734242143,80418277039792,-10.69834,-6.0874076,15.243433
1448734242162,80418297242429,-11.763761,-3.4130843,15.894656
1448734242183,80418317048337,-12.063036,-4.727501,15.971271
1448734242206,80418337281491,-9.896283,-5.0148053,15.006408
1448734242223,80418357026364,-10.846781,-3.6884174,15.470882
1448734242242,80418377259518,-6.7862153,-4.7849617,14.106188
1448734242263,80418397034909,-8.696788,-5.630115,14.685584
1448734242282,80418417268063,-2.5173535,-3.5208232,11.125406
1448734242303,80418437073971,-4.7152305,-3.8200984,13.0024605
1448734242322,80418457215573,0.0899322,-3.4633625,9.954641
1448734242343,80418477051999,-0.8845079,-3.2790089,10.184485
1448734242362,80418497254636,2.1776762,-1.2080244,8.824578
1448734242383,80418517030026,1.3540707,-2.6565163,9.901969
1448734242402,80418537263180,2.0771196,1.5309423,5.721693
1448734242423,80418557038571,2.1369746,0.07287352,7.2084923
1448734242442,80418577241208,0.669329,2.716072,5.3793225
1448734242463,80418597047116,1.749114,2.3545477,4.7903485
1448734242482,80418617249753,-1.4974235,0.93478614,2.4727614
1448734242509,80418637025143,-1.0185832,2.0672436,3.808726
1448734242523,80418657380368,-1.1191397,-0.19767128,0.9093477
1448734242541,80418676942136,-1.4974235,0.93478614,2.4727614
1448734242562,80418696931149,2.0890906,10.547506,-13.819781
1448734242581,80418716950680,1.2990041,0.115969144,-0.14410101
1448734242602,80418736909177,-11.919383,9.977686,19.375826
1448734242621,80418757264401,2.0890906,10.547506,-13.819781
1448734242643,80418776978757,3.932626,0.7695862,-0.22071546
1448734242661,80418796998288,8.055441,-7.0594535,-3.3403602
1448734242683,80418817048337,10.95482,-1.37083,-6.151153
1448734242701,80418837006833,3.932626,0.7695862,-0.22071546
1448734242721,80418856965329,10.270078,-1.2343606,-0.02439093
1448734242743,80418876923825,6.5111814,-0.0037409402,-0.3835212
1448734242762,80418897126462,8.883835,-0.9757868,1.6994343
1448734242782,80418917054440,10.270078,-1.2343606,-0.02439093
1448734242801,80418936982419,9.341127,3.2906806,1.5366286
1448734242821,80418956879880,8.27092,5.241955,-0.98925424
1448734242841,80418977021481,7.9836154,0.7815572,2.2237644
1448734242860,80418996888425,9.341127,3.2906806,1.5366286
1448734242880,80419016968991,9.628431,2.249203,0.36107555
1448734242900,80419036896970,9.345916,3.2188547,1.9508255
1448734242921,80419057069089,9.314792,0.11836334,1.8885763
1448734242942,80419076905514,9.628431,2.249203,0.36107555
1448734242962,80419097138669,8.665962,4.6338277,5.9850554
1448734242981,80419117005612,10.571747,-0.28625673,3.9715316
1448734243001,80419136964108,8.495975,2.5484781,4.139126
1448734243023,80419156922604,8.665962,4.6338277,5.9850554
1448734243042,80419177125241,7.1336737,2.8836663,2.6499324
1448734243061,80419197022702,7.3228154,2.6370635,2.5062802
1448734243081,80419217042233,7.4497085,2.965069,3.071312
1448734243103,80419236909177,7.1336737,2.8836663,2.6499324
1448734243123,80419257142331,10.179098,0.25483283,3.4495957
1448734243142,80419277009274,10.614842,0.72409636,3.202993
1448734243161,80419297028805,10.57893,0.70733696,2.810344
1448734243183,80419316926266,10.179098,0.25483283,3.4495957
1448734243206,80419337128903,10.854263,1.1694179,3.5214217
1448734243221,80419356995846,10.729765,0.42721537,2.9013236
1448734243241,80419377015378,10.2557125,0.8581717,4.713734
1448734243263,80419396882321,10.854263,1.1694179,3.5214217
1448734243282,80419417145993,8.127267,1.4160206,4.92203
1448734243301,80419437012936,9.039458,2.3353941,3.9356186
1448734243321,80419456971432,8.366688,1.8900726,3.6722565
1448734243343,80419476899411,8.127267,1.4160206,4.92203
1448734243362,80419497102048,8.998756,1.6602292,3.8470333
1448734243382,80419516999509,9.082554,1.4758757,3.880552
1448734243401,80419536988522,8.725818,2.6705823,4.055329
1448734243422,80419556916501,8.998756,1.6602292,3.8470333
1448734243442,80419576966550,9.17114,1.7679683,1.4049475
1448734243461,80419597443845,8.967632,1.265186,3.7416883
1448734243483,80419616975095,8.941296,2.6107273,1.0386347
1448734243501,80419636964108,9.17114,1.7679683,1.4049475
1448734243523,80419656953122,9.9372835,-0.6621464,2.8031614
1448734243541,80419676972653,10.047417,-0.106691614,3.2724247
1448734243563,80419697297360,9.604489,-0.67651165,3.1383495
1448734243581,80419717011716,9.58773,-0.6405986,3.035399
1448734243603,80419737031247,8.936507,1.0999861,2.3674166
1448734243621,80419757050778,9.501539,0.82704705,2.5182512
1448734243641,80419777009274,8.891018,2.2108955,2.8654106
1448734243661,80419796876218,9.197475,1.1406875,2.3937528
1448734243681,80419817017819,8.780885,1.4998177,4.6443024
1448734243703,80419836945798,8.993968,1.2077252,3.0569468
1448734243722,80419857087399,9.27409,1.325041,3.382558
1448734243742,80419877015378,8.349928,0.8629601,3.7440825
1448734243761,80419897034909,8.606108,-1.1936592,7.6011415
1448734243782,80419916901852,9.321974,0.6259341,5.929989
1448734243802,80419937104489,8.694694,-1.0332477,5.0273747
1448734243822,80419957032468,8.625261,0.80310506,2.1303906
1448734243841,80419977051999,9.664345,-0.6645406,3.205387
1448734243863,80419996949460,9.851092,-1.8137574,3.6578913
1448734243882,80420017060544,8.960449,-0.43948564,2.8127382
1448734243902,80420037019040,9.250148,-0.08035539,2.8989294
1448734243921,80420056977536,9.295638,-0.633416,3.643526
1448734243943,80420076874997,9.444078,-0.19767128,3.0234277
1448734243962,80420097138669,9.032275,0.50861824,3.655497
1448734243982,80420117005612,9.709835,-0.45624506,3.3753755
1448734244001,80420137025143,8.996363,0.51340663,3.928436
1448734244022,80420156922604,8.589348,0.29314008,4.179827
1448734244042,80420177155759,9.061006,0.5541081,3.880552
1448734244061,80420197022702,8.9101715,0.3314473,3.8111203
1448734244081,80420216981198,8.8622875,0.4774936,2.5110686
1448734244103,80420236909177,9.190293,0.542137,3.1239843
1448734244123,80420257172848,9.432107,0.36257192,2.171092
1448734244142,80420277039792,9.17114,0.27877486,2.2740426
1448734244161,80420296967770,10.270078,0.29553428,1.9053357
1448734244183,80420316956784,9.614066,0.032172084,2.0441992
1448734244206,80420337159421,9.360281,-0.7507319,3.85661
1448734244222,80420356995846,9.489568,0.13512276,3.4328363
1448734244241,80420377015378,9.099313,0.06569091,3.583671
1448734244263,80420396912839,9.238177,-0.29822776,3.7488708
1448734244282,80420417145993,8.637232,1.0137948,5.908441
1448734244302,80420437043454,8.883835,0.30750528,5.2428527
1448734244321,80420456971432,5.7450366,3.2164602,8.326585
1448734244343,80420476929929,7.4209776,2.689736,6.0089974
1448734244362,80420497132565,6.4369607,1.9355625,7.570017
1448734244383,80420516999509,5.8623524,3.2092776,8.661773
1448734244401,80420537171628,9.901371,-2.0028994,5.3338323
1448734244423,80420556885983,7.902212,-1.1505636,7.5532575
1448734244442,80420577119137,9.863064,-1.641375,-0.49126026
1448734244486,80420596864011,10.3514805,-1.4929343,2.6547208
1448734244488,80420618714596,7.818415,0.16385318,-5.8518777
1448734244500,80420636903073,8.486398,-0.99494046,-3.965247
1448734244520,80420656831052,5.1105733,1.3441947,-6.527043
1448734244540,80420676820065,6.2454247,0.7935282,-6.732944
1448734244560,80420696931149,4.1864114,0.01062427,-4.5997105
1448734244580,80420716889645,4.6389155,1.0951977,-6.316353
1448734244600,80420736939694,6.1927524,-0.5304653,-1.5949873
1448734244620,80420756898190,5.5511065,0.15906477,-2.9764416
1448734244641,80420776978757,6.6213145,0.015412673,-0.33324295
1448734244660,80420796876218,6.0634656,-0.20964229,-1.3483845
1448734244681,80420817017819,6.968474,0.5828385,2.8630164
1448734244700,80420836854245,6.7410245,1.0616788,1.9532197
1448734244721,80420856965329,7.5718126,2.203713,5.245247
1448734244740,80420876893307,6.7865143,1.3106757,4.0481462
1448734244761,80420897065427,9.072977,1.2675802,4.747253
1448734244782,80420916901852,8.127267,2.0026002,4.234894
1448734244802,80420937073971,9.295638,1.8397944,4.3833346
1448734244821,80420956971432,8.692299,1.2268788,3.770419
1448734244841,80420977021481,11.069741,3.568408,6.052093
1448734244863,80420996918942,10.408941,2.9004257,4.9986444
1448734244882,80421017091061,11.960384,4.945074,5.008221
1448734244902,80421037019040,12.609213,4.7152305,5.2524295
1448734244921,80421057008054,12.908488,4.7894506,2.420089
1448734244942,80421076874997,12.381763,4.9761987,2.4488194
1448734244962,80421096986081,14.981867,5.895572,1.0027215
1448734244981,80421117005612,12.518233,5.06239,0.9165303
1448734245001,80421136994626,14.560488,6.108656,-1.1855787
1448734245022,80421156892087,12.724134,5.5460186,-0.35718498
1448734245042,80421177094723,13.9260235,4.334553,-2.1432595
1448734245061,80421196992184,13.167062,5.115062,-0.8551789
1448734245081,80421216950680,13.360992,5.7830443,-2.828001
1448734245103,80421236909177,13.473519,5.526865,-2.2294507
1448734245123,80421257081296,14.47669,1.7081133,-2.2893057
1448734245142,80421276948239,13.5597105,3.721637,-3.1847372
1448734245162,80421296998288,13.420847,3.190124,-2.4880245
1448734245182,80421316956784,13.71294,2.2899044,-2.1911435
1448734245206,80421337098386,12.625973,1.0209774,-0.79292965
1448734245222,80421356965329,12.862998,1.9834465,-1.7123032
1448734245241,80421376984860,11.115231,1.9738697,-0.20156185
1448734245263,80421396882321,13.004256,2.0169654,0.009127894
1448734245290,80421417115475,10.6220255,2.761562,1.9651906
1448734245302,80421436951901,10.887782,2.1630116,1.6659155
1448734245321,80421457062985,10.011504,5.244349,2.2955904
1448734245341,80421476929929,9.817574,4.480599,1.2780548
1448734245361,80421497041012,8.653992,6.3648357,1.5246576
1448734245381,80421516907956,8.912565,4.540454,3.0090625
1448734245400,80421536927487,8.653992,5.280262,0.4233248
1448734245423,80421556885983,8.98918,6.096685,1.838298
1448734245442,80421577058102,8.694694,4.468628,-0.32845455
1448734245462,80421597016598,9.547029,5.9099374,0.18390462
1448734245481,80421616944577,8.694694,3.8724716,-1.0131962
1448734245502,80421636872555,8.7114525,4.921132,-0.74265146
1448734245522,80421657075192,7.794473,2.467075,-1.6165351
1448734245542,80421677003171,7.9716444,2.2707508,-0.8216601
1448734245561,80421696992184,7.794473,0.14230536,-1.0802339
1448734245583,80421716920163,8.0267105,1.5453075,-1.1688193
1448734245602,80421737061764,9.17114,-0.8105869,-1.4249989
1448734245621,80421756989743,8.4409075,-0.070778586,-1.1831845
1448734245641,80421777009274,9.17114,-1.8879777,-0.16086042
1448734245662,80421796906735,9.185505,-1.5264533,-0.29732993
1448734245682,80421817109372,9.76969,-2.2088008,0.7992145
1448734245702,80421836976315,10.282049,-2.165705,0.54782325
1448734245721,80421856934811,9.76969,-2.0124762,1.5390228
1448734245743,80421876893307,9.79842,-2.2495022,1.2708722
1448734245762,80421897095944,9.001151,-1.0547955,2.1327848
1448734245781,80421916993405,9.333945,-1.6629227,1.0362405
1448734245801,80421936951901,9.001151,-1.0547955,2.3147442
1448734245822,80421956910397,9.690681,-0.9757868,1.9723732
1448734245842,80421977113034,9.10889,0.82944125,1.5869068
1448734245862,80421996979977,9.111284,-0.03007716,1.7161937
1448734245881,80422016938473,9.10889,0.82944125,2.1279964
1448734245902,80422036896970,8.831162,0.23328502,2.0944777
1448734245922,80422057099606,8.733001,1.217302,1.8406922
1448734245942,80422076966550,8.828769,1.1598411,1.9125183
1448734245961,80422096955563,8.733001,1.217302,1.4480431
1448734245982,80422116883542,8.840739,1.6793828,1.7209821
1448734246002,80422137055661,9.475203,1.5931916,1.1559505
1448734246021,80422156983639,9.175928,1.8326118,1.0817302
1448734246041,80422176942136,9.475203,1.5931916,0.49515083
1448734246062,80422196931149,9.659556,1.1502643,0.92131877
1448734246082,80422217103268,10.298808,0.30271688,0.50951606
1448734246101,80422236970212,9.872641,0.6666355,0.7082348
1448734246122,80422257111813,10.416124,-0.7698855,0.2964321
1448734246143,80422276917721,10.011504,-0.058807578,0.16475101
1448734246162,80422297059323,10.179098,-0.9709984,-0.18240824
1448734246182,80422316987302,10.552593,-0.8369231,0.042646717
1448734246204,80422337067868,10.631602,-1.2798505,0.119261175
1448734246229,80422356751706,10.384999,-1.167323,-0.050727148
1448734246243,80422377015378,10.48795,-1.0787375,-0.18719664
1448734246261,80422396973874,10.6220255,-0.99972886,-0.08185177
1448734246283,80422416962887,10.48795,-0.6405986,-0.029179333
1448734246301,80422436982419,10.768072,-0.9398738,0.20305823
1448734246322,80422456940915,10.701035,-0.31738135,0.07616554
1448734246341,80422477021481,10.875811,-0.5400421,-0.033967737
1448734246361,80422496949460,10.456825,-0.31738135,0.07616554
1448734246382,80422516877438,10.404153,-0.051624972,0.473603
1448734246402,80422537110593,9.19987,0.42003277,1.4863503
1448734246421,80422557008054,10.131214,0.01062427,0.48078564
1448734246441,80422576997067,9.19987,0.42003277,1.4863503
1448734246462,80422596894528,8.7353945,0.755221,0.4209306
1448734246482,80422617097165,8.076989,1.384896,1.1439795
1448734246502,80422636964108,8.352323,0.6690297,1.0242695
1448734246521,80422656953122,8.076989,1.384896,1.1439795
1448734246542,80422676881100,7.516746,1.1981484,1.1391912
1448734246562,80422697114255,5.663634,1.9906291,1.0601825
1448734246581,80422716981198,6.2454247,1.8302176,0.75851303
1448734246601,80422736970212,5.663634,1.9906291,1.0601825
1448734246623,80422756898190,5.2949266,1.9714755,-1.3005004
1448734246642,80422777070309,6.8942533,-1.3875896,-2.1001637
1448734246661,80422796967770,6.298097,-0.025288755,-0.89348614
1448734246681,80422817017819,6.8942533,-1.3875896,-2.1001637
1448734246702,80422836884762,6.7146883,-1.1290157,-1.2909236
1448734246722,80422857087399,7.6771574,0.5948095,-1.9613001
1448734246741,80422876984860,7.35394,-0.8488941,-1.6907554
1448734246761,80422896943356,7.6771574,0.5948095,-1.9613001
1448734246783,80422916901852,8.512733,2.0097828,-2.3012767
1448734246802,80422937104489,9.585336,3.4630632,-2.53112
1448734246821,80422956971432,8.409783,1.823035,-1.8942624
1448734246841,80422976960446,9.585336,3.4630632,-2.53112
1448734246862,80422996888425,7.9500966,1.9978117,-2.1312885
1448734246882,80423017060544,8.249372,2.9459155,-3.230227
1448734246901,80423036988522,8.82398,2.5125651,-3.254169
1448734246921,80423056947018,8.249372,2.9459155,-3.230227
1448734246942,80423076874997,8.905383,2.8022635,-2.6340709
1448734246962,80423097108151,9.891794,2.7184663,-2.045097
1448734246981,80423116975095,9.908553,3.0680199,-1.853561
1448734247001,80423136933591,9.891794,2.7184663,-2.045097
1448734247022,80423156892087,9.676316,2.73762,-1.4680946
1448734247042,80423177064206,9.594913,2.1534348,0.8207623
1448734247062,80423196992184,10.803985,4.2076597,0.033069912
1448734247081,80423217011716,10.519074,2.1534348,0.8207623
1448734247103,80423236878659,8.649203,1.3681366,2.6068368
1448734247123,80423257081296,8.730606,1.3633482,4.0050507
1448734247142,80423276948239,9.17114,1.5165771,3.4136827
1448734247161,80423297059323,8.730606,1.3633482,4.0050507
1448734247181,80423316926266,9.307609,1.5572785,3.7345057
1448734247201,80423337006833,9.43929,1.7296611,3.5286045
1448734247222,80423356812741,9.472809,0.9156325,7.1989155
1448734247241,80423377015378,8.852711,1.4471453,5.0848355
1448734247263,80423396882321,8.871864,3.0728083,5.482273
1448734247281,80423417115475,9.8894,2.5484781,9.0855465
1448734247302,80423436890866,11.325921,0.43200377,6.042516
1448734247322,80423457093503,10.059388,3.484611,8.927529
1448734247341,80423476990964,8.6635685,2.2300491,9.775077
1448734247361,80423496979977,10.3275385,1.6626234,8.927529
1448734247382,80423516877438,9.484779,1.2843395,10.536433
1448734247402,80423537141110,6.4225955,-0.96621,10.433482
1448734247422,80423557008054,6.044312,1.0449194,8.319402
1448734247441,80423576966550,5.639692,-0.15218145,10.433482
1448734247463,80423596894528,4.739472,-0.3628712,11.2666645
1448734247482,80423617097165,4.38513,0.19018939,12.85402
1448734247501,80423636994626,5.8384104,-0.39399582,12.18125
1448734247521,80423656953122,4.3563995,-2.0052936,12.85402
1448734247543,80423676881100,4.8065095,-0.71481884,10.708816
1448734247562,80423697083737,3.9661448,-0.39160162,10.866833
1448734247581,80423716981198,3.030012,-1.6964415,12.650513
1448734247601,80423736970212,3.9182608,0.058508303,10.866833
1448734247622,80423756898190,5.5056167,1.5764322,9.609877
1448734247642,80423777131345,3.221548,0.4727052,11.81733
1448734247661,80423796967770,1.8855835,-1.1002853,14.644883
1448734247681,80423817017819,3.401113,-0.18809447,12.676849
1448734247702,80423836884762,5.5247703,1.7272669,12.391939
1448734247722,80423857056882,4.727501,1.5548843,12.698397
1448734247741,80423876984860,4.4904747,-0.47300446,12.166884
1448734247761,80423897004391,4.3683705,0.52298343,12.822895
1448734247783,80423916901852,3.9757216,0.39609075,11.877186
1448734247802,80423937104489,4.8089037,1.064073,10.950629
1448734247822,80423958222653,4.547936,0.72888476,11.702409
1448734247841,80423977631833,5.349993,0.8701427,10.502913
1448734247860,80423996888425,5.1584573,1.2460324,11.192444
1448734247881,80424016999509,6.3052797,-0.39878422,10.313772
1448734247900,80424036896970,4.847211,1.2508208,9.1334305
1448734247920,80424056977536,5.642086,1.5500959,9.425523
1448734247943,80424076905514,7.380276,1.2125136,7.653814
1448734247962,80424097108151,6.3148565,1.2244846,8.647408
1448734247982,80424116975095,6.4225955,0.8701427,7.93633
1448734248001,80424136964108,7.4521027,3.403208,5.4248123
1448734248023,80424156861569,6.808062,2.4335563,4.330662
1448734248042,80424177064206,7.1791635,3.4415152,4.7304935
1448734248068,80424196931149,9.958832,4.4853873,5.3888993
1448734248080,80424216889645,8.242189,3.9610572,3.9092824
1448734248103,80424236848141,8.665962,4.8109984,1.7928082
1448734248123,80424257142331,7.8926353,0.07766192,1.5869068
1448734248141,80424277009274,9.151985,4.140622,4.282778
1448734248161,80424296998288,10.736947,0.07766192,1.5869068
1448734248182,80424316895749,10.57893,5.3736362,0.5645827
1448734248206,80424337098386,9.726594,-2.8265047,1.8526632
1448734248221,80424356995846,9.860669,3.4247558,2.5350106
1448734248241,80424376954343,9.726594,-2.8265047,1.8526632
1448734248263,80424396882321,10.552593,4.9378915,-1.0155904
1448734248282,80424417115475,8.49358,9.565884,-3.4217632
1448734248301,80424436982419,8.278102,1.205331,1.9101241
1448734248321,80424456940915,8.900595,-1.1721114,0.34910452
1448734248343,80424476929929,7.6556096,3.4127848,-2.7058969
1448734248362,80424497071530,8.155997,7.17647,-2.7489924
1448734248382,80424516968991,9.008333,-0.45624506,-0.17761984
1448734248401,80424536958005,8.740183,0.9946412,-3.170372
1448734248422,80424556885983,7.6412444,2.9459155,-2.7513866
1448734248442,80424577088620,8.651597,3.7024832,-2.2174797
1448734248461,80424596986081,8.199094,-0.99015206,-1.6093525
1448734248481,80424617005612,5.85517,-0.5256769,-2.5143607
1448734248503,80424636872555,5.9126306,1.3753192,-2.8639143
1448734248522,80424657105710,6.532729,2.297087,-2.2605753
1448734248542,80424676972653,7.392247,-0.7818565,-0.3907038
1448734248561,80424696900632,6.7793317,0.5565023,-1.8559552
1448734248583,80424716889645,7.734618,1.9571103,-1.0945991
1448734248602,80424737061764,8.912565,2.4359505,-0.8049007
1448734248621,80424756989743,9.053823,0.94675714,-0.48168346
1448734248641,80424777009274,8.29965,2.095974,-0.42661682
1448734248662,80424796876218,6.7625723,2.2922986,-0.14888942
1448734248682,80424817109372,5.4361844,2.596362,-0.5726631
1448734248701,80424836976315,6.106561,1.1789947,0.04743512
1448734248721,80424856965329,5.309292,0.5876269,0.413748
1448734248743,80424876893307,5.6732106,0.67860657,-0.15846622
1448734248762,80424897065427,6.154445,1.3130699,0.52866966
1448734248781,80424916993405,6.3028855,2.000206,0.4400842
1448734248801,80424936982419,6.616526,1.2005426,0.011522096
1448734248823,80424956879880,6.0850134,1.4926351,-0.31169513
1448734248842,80424977082516,6.439355,1.2101194,-0.6133646
1448734248861,80424996979977,6.6691985,1.5644612,-0.6109703
1448734248881,80425016999509,5.788132,1.6171336,-1.7434278
1448734248902,80425036927487,5.6612396,2.3473651,-1.5351322
1448734248922,80425057069089,6.307674,1.6171336,-2.3204303
1448734248941,80425076966550,6.5375175,1.8852842,-2.104952
1448734248961,80425097016598,7.2054996,2.3880665,-2.2270565
1448734248980,80425116791989,7.602937,3.733608,-2.3276129
1448734249002,80425136964108,7.7992616,1.5716438,-1.5494974
1448734249021,80425156922604,8.656385,3.4558804,-0.6133646
1448734249042,80425176911618,9.54224,3.1613936,-1.2382512
1448734249061,80425196931149,8.560617,2.819023,0.6890812
1448734249082,80425216920163,9.453655,3.8102224,0.73696524
1448734249101,80425237000729,10.554988,1.6985365,1.9556139
1448734249122,80425257081296,11.301979,2.8477533,1.3307272
1448734249142,80425276887204,9.01791,3.0775967,3.308338
1448734249162,80425297120358,11.165509,1.8733132,2.7816133
1448734249181,80425316987302,10.935666,0.3482067,4.9675198
1448734249204,80425337067868,11.550976,1.3322237,5.245247
1448734249222,80425356873776,10.001927,1.6793828,4.675427
1448734249242,80425377106930,9.185505,1.3322237,5.245247
1448734249261,80425396973874,9.51351,-0.55201316,8.051251
1448734249281,80425416993405,9.374646,1.574038,5.635502
1448734249303,80425436890866,8.917354,3.0632315,3.9547722
1448734249322,80425457124020,7.8950295,2.0792146,5.6929626
1448734249341,80425476990964,8.22543,0.7839514,6.13589
1448734249361,80425496949460,8.867076,2.9626749,4.258836
1448734249383,80425516877438,9.666739,4.504541,7.239617
1448734249402,80425537110593,10.3514805,1.8445828,7.8238025
1448734249421,80425556977536,9.0298815,2.416797,7.9052052
1448734249441,80425576966550,8.244583,2.1606174,5.029769
1448734249462,80425596894528,6.566248,1.0951977,10.268282
1448734249482,80425617066647,8.610896,0.80789346,9.312996
1448734249501,80425636964108,5.3428106,1.1670237,9.214833
1448734249521,80425656953122,2.7905917,-0.31738135,12.4134865
1448734249543,80425676881100,6.8487635,1.9499277,8.759935
1448734249562,80425697083737,4.227113,0.9132383,13.136536
1448734249582,80425716981198,-0.16145898,-2.9246671,14.15886
1448734249601,80425736970212,2.2135892,-0.06359598,13.098228
1448734249622,80425756898190,3.7291188,0.16864158,13.136536
1448734249642,80425777070309,1.808969,-1.002123,13.040768
1448734249661,80425796967770,1.2439374,-0.9614216,14.237868
1448734249681,80425816987302,1.9933226,-0.41793784,14.68319
1448734249702,80425836884762,2.1369746,-0.72918403,14.51799
1448734249722,80425857087399,2.3452702,0.14709377,13.682414
1448734249741,80425876984860,3.2359133,0.4918588,13.49806
1448734249761,80425897004391,3.1329625,0.13751696,15.40145
1448734249782,80425916901852,2.6756701,0.21652561,14.927399
1448734249802,80425937104489,3.8679824,0.37933132,12.016049
1448734249822,80425956971432,4.6269445,0.1997662,12.746281
1448734249841,80425976960446,3.6979942,0.3314473,13.897892
1448734249862,80425996888425,4.619762,0.041748893,11.745504
1448734249882,80426017121579,4.67004,0.68100077,10.488548
1448734249903,80426036958005,4.4401965,0.52777183,12.159701
1448734249921,80426057069089,4.8807297,1.004218,8.494179
1448734249942,80426076813962,4.998046,1.004218,11.223569
1448734249961,80426097016598,4.847211,1.7105075,9.38961
1448734249982,80426116822507,5.8886886,1.1909657,10.234763
1448734250001,80426136994626,5.16564,1.7272669,9.822961
1448734250022,80426156892087,5.895871,5.5579896,7.2228575
1448734250042,80426177064206,7.8734818,1.289128,9.006537
1448734250062,80426196900632,6.94932,0.50382984,7.3377795
1448734250082,80426217072751,5.3643584,5.0001407,6.9331594
1448734250102,80426236970212,6.59019,2.227655,6.7823243
1448734250123,80426257050778,6.271761,0.9970354,7.342568
1448734250141,80426277406003,5.92939,2.7543795,5.781548
1448734250163,80426296998288,5.168034,2.773533,6.4591074
1448734250180,80426316895749,7.636456,3.925144,6.126313
1448734250207,80426337098386,7.777714,4.140622,2.4224832
1448734250221,80426356873776,7.39943,4.1932945,2.7217584
1448734250241,80426377015378,9.594913,4.150199,2.4224832
1448734250262,80426396912839,8.033894,4.6865,1.814356
1448734250282,80426417115475,7.650821,4.3561006,0.6100725
1448734250301,80426437043454,9.949255,5.7854385,-0.48647186
1448734250321,80426456910397,7.7274356,2.5053825,-1.0443208
1448734250341,80426477509762,8.524705,3.793463,-1.6835726
1448734250363,80426496979977,7.988404,2.0265422,-1.9182044
1448734250384,80426516877438,7.2749314,2.7232547,-2.8136358
1448734250402,80426537141110,8.507945,3.4917936,-3.0123546
1448734250421,80426557008054,8.076989,1.7655741,-2.567033
1448734250441,80426576997067,9.0634,-0.34371758,-3.4361284
1448734250462,80426596925046,7.6891284,2.2683566,-3.4864066
1448734250482,80426617036130,8.996363,2.6107273,-2.7729344
1448734250502,80426637116696,9.96362,2.368913,-3.419369
1448734250521,80426657014157,8.974814,-0.69805944,-1.7362452
1448734250542,80426676881100,7.672369,0.85098904,-1.4944308
1448734250562,80426697114255,9.087342,1.4710873,-2.1887493
1448734250581,80426716981198,10.301203,2.3425767,-2.2150855
1448734250601,80426736939694,9.8894,1.1694179,-1.3866917
1448734250623,80426756898190,7.674763,0.5804443,-0.18240824
1448734250642,80426777070309,6.496816,0.30750528,1.0625767
1448734250662,80426796998288,8.062624,1.645864,-1.5710453
1448734250681,80426816956784,4.6365213,0.8653543,-0.03875614
1448734250703,80426836915280,3.207183,0.25722703,0.9069535
1448734250722,80426857087399,3.9158666,1.2627918,0.62204355
1448734250742,80426876984860,4.4186487,2.45271,0.67232174
1448734250761,80426896973874,5.1009965,1.253215,2.0106804
1448734250782,80426916871335,7.0498767,2.0696378,1.6874633
1448734250802,80426937104489,6.508787,2.9028199,0.9141361
1448734250822,80426956940915,6.628497,2.1678,1.6611271
1448734250841,80426977051999,7.4856215,2.0169654,0.5574001
1448734250861,80426996918942,6.5279408,1.9307741,0.088136554
1448734250882,80427016907956,6.0275526,1.9547161,-0.19677345
1448734250901,80427036927487,6.4872394,1.253215,-1.0515034
1448734250922,80427056916501,6.6428623,1.2723686,-1.6931496
1448734250941,80427076966550,5.651663,1.2556092,-2.5766098
1448734250961,80427096955563,6.0874076,1.3513772,-3.826383
1448734250983,80427116914059,6.5255466,1.0449194,-3.3547256
1448734251002,80427137116696,7.23423,0.5565023,-2.7250504
1448734251021,80427156983639,9.120861,2.581997,-4.5159135
1448734251041,80427176881100,8.335563,2.5915737,-4.0418615
1448734251063,80427196900632,8.536675,1.3202527,-3.845537
1448734251082,80427217103268,8.8622875,3.4295442,-1.1496657
1448734251102,80427236970212,10.60766,2.5005941,-2.5813982
1448734251122,80427257081296,7.854328,1.8685248,-1.5423148
1448734251143,80427276917721,9.836727,3.1566052,0.28446108
1448734251162,80427297059323,8.929325,0.4631284,3.4208653
1448734251181,80427316987302,9.424925,2.3617303,1.6060604
1448734251204,80427337067868,9.989956,2.2228665,4.3737574
1448734251222,80427356873776,8.843134,0.7528268,5.2021513
1448734251242,80427377106930,10.035446,2.084003,5.113566
1448734251262,80427397004391,9.398588,0.27638066,6.205322
1448734251281,80427416901852,8.371476,2.3904607,7.68015
1448734251302,80427436890866,10.827927,-0.0013467384,6.7607765
1448734251322,80427457062985,8.879046,0.95154554,6.648249
1448734251341,80427476990964,7.5095634,3.2858922,6.0832176
1448734251361,80427496979977,8.536675,2.2635682,6.1550436
1448734251383,80427516877438,9.760113,1.2556092,6.109554
1448734251403,80427537965085,10.262896,4.040066,4.1343374
1448734251422,80427556977536,9.858275,5.2611084,9.0855465
1448734251442,80427577058102,12.848633,1.2627918,8.633042
1448734251462,80427597016598,10.090512,2.2539914,8.206875
1448734251482,80427616975095,7.720253,2.6035447,9.392004
1448734251501,80427636964108,6.4752684,2.5077767,8.154202
1448734251521,80427657014157,4.1888056,-1.2367548,7.9291472
1448734251543,80427676911618,2.958186,-1.4450504,10.213216
1448734251562,80427697114255,4.727501,1.1789947,9.49256
1448734251581,80427716981198,1.5503953,-1.1960534,11.898733
1448734251601,80427737000729,1.808969,-2.8360815,12.830078
1448734251623,80427756898190,1.9957168,-1.9478327,12.576293
1448734251642,80427777100827,1.4211084,-0.7866449,12.408698
1448734251661,80427796998288,1.1314099,0.15188217,11.393557
1448734251681,80427816956784,1.8161516,-1.1074679,12.107029
1448734251701,80427836884762,0.4873697,-1.0260651,14.266599
1448734251721,80427856965329,-0.27638066,-0.6382044,14.965706
1448734251740,80427876832272,1.0356419,0.08245032,13.866767
1448734251762,80427896943356,1.9765631,-0.6525696,15.004013
1448734251781,80427916932370,0.32456398,-1.155352,14.948947
1448734251802,80427936921384,0.042048167,-1.1768998,13.914651
1448734251821,80427956910397,1.9598037,-1.0571897,13.615376
1448734251842,80427976929929,1.8496704,-0.56398416,14.103793
1448734251861,80427997010495,1.749114,-0.90874916,13.079075
1448734251883,80428016968991,2.2375312,-1.1601404,13.957747
1448734251901,80428036988522,2.4338558,-0.71242464,13.505243
1448734251921,80428056885983,2.4937108,-0.7722797,12.549956
1448734251942,80428076874997,3.032406,-1.0308535,12.485313
1448734251962,80428097108151,3.9398086,-1.6246156,14.257022
1448734251981,80428117005612,2.3716063,-1.9238907,14.343213
1448734252001,80428136933591,2.294992,0.0034416649,9.176526
1448734252023,80428156892087,4.3109097,2.0648494,8.980202
1448734252042,80428177094723,4.397101,0.5732617,12.537986
1448734252062,80428197022702,4.4497733,0.8988731,10.7567
1448734252081,80428216981198,6.8846765,3.640234,5.4391775
1448734252102,80428236878659,8.850316,3.6809354,7.4670663
1448734252123,80428257142331,8.4026,5.6992474,5.5493107
1448734252141,80428277009274,8.479215,4.1238627,5.6642323
1448734252161,80428296937253,10.176704,2.486229,4.699369
1448734252183,80428316895749,7.646033,4.6314335,4.534169
1448734252206,80428337067868,6.068254,3.3265936,6.717681
1448734252222,80428356965329,6.9995985,0.25483283,5.80549
1448734252241,80428376984860,5.3643584,3.1087213,4.577265
1448734252263,80428396882321,5.608567,6.192453,5.8485856
1448734252282,80428417115475,6.8032737,2.0528784,6.408829
1448734252301,80428436982419,7.0953665,-0.05641338,4.783166
1448734252321,80428456940915,8.61329,8.294562,1.8789995
1448734252342,80428476899411,6.9612913,5.380819,2.4272716
1448734252362,80428497071530,7.411401,0.35299513,4.055329
1448734252382,80428516968991,9.925313,2.7926867,0.17911622
1448734252401,80428536958005,7.8112326,5.7160068,-0.5702689
1448734252422,80428556916501,7.413795,4.1549873,-0.41704002
1448734252442,80428577058102,9.377041,-2.424279,2.159121
1448734252461,80428596986081,7.4090066,2.4120085,-3.8048353
1448734252481,80428616883542,8.237401,5.186888,-2.5263317
1448734252503,80428636903073,6.8391867,0.17342998,-1.0682628
1448734252522,80428657105710,7.1815577,-1.1481694,-2.0498855
1448734252541,80428676972653,6.9612913,2.084003,-2.8806736
1448734252560,80428696900632,8.072201,2.677765,-4.2908583
1448734252580,80428716889645,6.2669725,0.6211457,-3.6755486
1448734252600,80428736939694,7.39943,-1.1194389,-2.174384
1448734252620,80428756898190,7.6556096,0.09202713,-3.6372414
1448734252640,80428776948239,6.6596217,-1.0571897,-2.0355203
1448734252660,80428796784665,8.479215,-0.3676596,-1.5231612
1448734252680,80428816926266,9.077765,-1.2223896,-1.4585178
1448734252700,80428836823727,8.737789,0.3434183,-1.9445407
1448734252720,80428856904294,9.434502,0.7504326,-0.11776479
1448734252740,80428876832272,9.082554,-0.26470894,0.54064065
1448734252761,80428896973874,7.502381,-0.039653964,-0.99164844
1448734252780,80428916901852,6.355558,1.574038,0.15278
1448734252801,80428937012936,5.8623524,1.8517654,0.14080898
1448734252822,80428956879880,5.996428,1.3178585,0.75851303
1448734252842,80428977021481,5.4361844,1.0664672,0.95483756
1448734252862,80428996949460,5.807286,2.5748143,0.011522096
1448734252882,80429017030026,6.298097,2.2587798,1.7042227
1448734252902,80429036958005,7.681946,1.8613422,0.66992754
1448734252922,80429057038571,7.801656,1.8900726,1.3474866
1448734252942,80429076966550,7.1671925,1.2699744,1.3187562
1448734252961,80429096955563,7.437737,1.7033249,0.22700025
1448734252982,80429116883542,8.005163,2.119916,0.1479916
1448734253002,80429137086179,7.0857897,2.4742577,-1.3244425
1448734253022,80429156983639,7.6292734,0.1949778,-0.4122516
1448734253041,80429176972653,7.80405,1.0377368,-1.3842975
1448734253062,80429196900632,6.6955347,1.7751509,-2.885462
1448734253082,80429217103268,6.8511577,1.0760441,-2.397045
1448734253101,80429236970212,8.546252,0.8629601,-3.1009402
1448734253122,80429257081296,6.843975,0.9132383,-1.9205986
1448734253143,80429276887204,8.919748,1.1861773,-2.3443723
1448734253162,80429297089841,8.850316,1.9930233,-1.8056769
1448734253181,80429316987302,8.100931,1.2388498,-1.84159
1448734253204,80429337067868,8.01474,3.0273185,-0.20874447
1448734253222,80429356843259,9.434502,2.5724201,-0.08664017
1448734253242,80429377076413,7.794473,1.7033249,1.8861821
1448734253261,80429396973874,8.697087,3.6138978,-0.5056255
1448734253281,80429416993405,8.541464,2.095974,2.573318
1448734253302,80429436890866,9.27409,1.8254292,1.6276083
1448734253322,80429457062985,9.652373,4.090344,2.2740426
1448734253342,80429476990964,10.689063,2.6370635,2.7337294
1448734253361,80429496857907,8.668357,-0.3676596,5.0704703
1448734253382,80429516877438,10.052205,2.953098,3.382558
1448734253402,80429537019040,9.982774,1.8493712,4.0265985
1448734253422,80429557008054,9.731382,0.6498761,4.4647374
1448734253442,80429577088620,10.552593,0.7504326,3.3227031
1448734253461,80429597016598,10.638785,1.3801076,4.0050507
1448734253481,80429616944577,8.218247,0.6738181,5.2189107
1448734253503,80429636872555,10.3035965,-0.5448305,8.901193
1448734253522,80429657105710,9.973197,1.7176901,8.108712
1448734253541,80429676972653,8.359505,2.4982,5.7743654
1448734253561,80429696992184,8.160786,0.25243863,8.027309
1448734253580,80429716798093,8.776096,1.2843395,8.264336
1448734253602,80429736939694,9.3938,1.5429133,8.453477
1448734253621,80429756928708,6.614132,1.4758757,8.987384
1448734253642,80429776917721,7.054665,0.7408558,10.36405
1448734253661,80429796906735,5.9772744,1.5093945,8.996961
1448734253683,80429816956784,5.1249385,2.0337248,11.360038
1448734253701,80429836976315,5.4625206,1.2220904,11.30976
1448734253721,80429856995846,1.5647604,-1.8137574,13.0024605
1448734253743,80429876893307,3.4801219,-1.3444939,12.95697
1448734253762,80429897065427,3.7410898,-0.054019175,12.092664
1448734253781,80429916993405,3.233519,-1.7155951,12.267441
1448734253801,80429936982419,0.19288288,-1.5767314,12.729522
1448734253821,80429956879880,1.7155951,-0.3796306,12.391939
1448734253841,80429976960446,1.6701053,-0.07796119,13.4956665
1448734253863,80429996888425,1.2319664,-1.1194389,13.936199
1448734253882,80430017060544,0.24555531,-1.3085809,13.689596
1448734253902,80430036988522,2.7067947,-0.47061026,13.368773
1448734253922,80430057069089,2.2088008,-0.6621464,14.379127
1448734253942,80430076966550,0.942268,-1.1577462,14.467712
1448734253961,80430096986081,1.8520646,-0.5424363,13.646501
1448734253982,80430116883542,2.804957,-0.68369424,13.158084
1448734254002,80430137055661,3.053954,-1.1194389,14.082246
1448734254021,80430157014157,2.496105,-1.464204,13.24188
1448734254041,80430176942136,3.5016696,-0.5376479,11.850849
1448734254062,80430196900632,5.1249385,0.16145898,13.462148
1448734254082,80430217103268,3.6405332,-0.6358102,11.034427
1448734254101,80430236970212,3.3675942,-0.40836102,11.783812
1448734254122,80430257081296,5.4122424,0.30750528,9.923517
1448734254142,80430276887204,6.4082303,1.9595045,10.538827
1448734254162,80430297059323,5.783344,1.3178585,9.91394
1448734254181,80430317017819,6.8942533,-0.7770681,9.849297
1448734254204,80430337098386,5.984457,4.8109984,8.86528
1448734254223,80430356873776,7.7154646,3.2882864,6.305878
1448734254242,80430377076413,5.7306714,2.0169654,9.298631
1448734254261,80430396973874,6.5854015,2.4886231,6.6745853
1448734254281,80430417023923,8.814404,2.984223,7.0815997
1448734254302,80430436890866,6.5997667,3.3864486,6.717681
1448734254322,80430457093503,6.820033,1.9762639,5.4008703
1448734254342,80430477021481,6.685958,2.0863972,5.3817167
1448734254361,80430496979977,7.016358,4.576367,4.5748706
1448734254383,80430516877438,8.955661,3.6593876,1.8335096
1448734254402,80430536988522,8.6875105,4.7176247,3.619584
1448734254422,80430556977536,8.333169,3.4798226,2.3817818
1448734254440,80430576936032,10.222194,3.3577182,-0.5367501
1448734254463,80430596894528,8.388235,5.0719666,0.9859622
1448734254482,80430616975095,9.46802,5.7375546,0.13123219
1448734254501,80430636933591,8.065018,1.43278,0.37065235
1448734254523,80430656922604,6.9876275,4.006547,-0.45295304
1448734254541,80430676911618,9.068189,4.9019785,0.1719336
1448734254562,80430696931149,7.9333367,3.0967503,-2.078616
1448734254581,80430716920163,6.235848,3.1613936,-2.420987
1448734254603,80430736970212,6.7673607,2.1055508,-2.6101289
1448734254621,80430756989743,6.226271,-1.2080244,-1.1688193
1448734254643,80430776978757,7.174375,-0.17612346,-2.8327894
1448734254661,80430796967770,7.94052,0.16864158,-1.8631378
1448734254683,80430817017819,9.338734,-0.645387,-1.3771149
1448734254701,80430836976315,8.565406,-0.99254626,-2.660407
1448734254721,80430856934811,7.0977607,-0.17133506,-2.6268883
1448734254743,80430876893307,7.368305,-1.1649288,-0.21592706
1448734254762,80430897065427,9.776873,-1.0524013,-0.90545714
1448734254782,80430917023923,8.867076,-0.7698855,-1.3890859
1448734254801,80430937012936,5.725883,-0.30301616,0.21502924
1448734254823,80430956910397,7.016358,1.171812,-0.7163152
1448734254842,80430977113034,8.290073,0.6307225,-0.65646017
1448734254862,80430996979977,6.769755,-0.31977555,0.7130232
1448734254881,80431016938473,5.16564,2.605939,0.09771336
1448734254903,80431036896970,5.519982,3.580379,0.40417117
1448734254922,80431057099606,6.451326,1.7033249,0.5645827
1448734254942,80431076966550,6.238242,2.3904607,0.92610717
1448734254961,80431096955563,5.6708164,3.9299324,1.3905823
1448734254983,80431116883542,6.484845,3.6905122,2.3865702
1448734255002,80431137055661,7.7753196,1.1382933,1.6108488
1448734255022,80431156983639,6.2909145,1.7320553,1.3738228
1448734255041,80431177003171,6.022764,0.85577744,2.0705357
1448734255062,80431196900632,7.8591166,1.1885715,0.461632
1448734255082,80431217103268,7.926154,1.1502643,0.7728782
1448734255102,80431236970212,7.5095634,0.046537295,0.74414784
1448734255121,80431257020261,7.8615108,0.080056116,-1.3028946
1448734255140,80431276887204,7.0115695,1.3106757,-1.2813468
1448734255161,80431296998288,7.0259347,0.4918588,-2.1552305
1448734255180,80431316895749,7.4880157,0.4727052,-2.6436477
1448734255204,80431337037350,6.8367925,1.6147394,-2.5742157
1448734255222,80431356873776,7.540688,2.024148,-3.6420298
1448734255242,80431377106930,8.709059,1.7943045,-3.3236008
1448734255261,80431396973874,8.179939,1.7200843,-2.4880245
1448734255281,80431416962887,7.526323,2.8285997,-1.0084078
1448734255302,80431436890866,9.367464,1.8733132,-2.4545057
1448734255322,80431457093503,7.744195,2.7926867,1.055394
1448734255341,80431477021481,9.559,3.3840544,-0.43619362
1448734255361,80431496979977,7.7992616,1.5931916,2.669086
1448734255382,80431516877438,8.802432,2.3760955,1.3857939
1448734255403,80431536988522,8.893412,1.6506524,2.2884078
1448734255421,80431557008054,9.673922,3.4367268,1.5749358
1448734255443,80431576997067,9.27409,1.0832267,5.748029
1448734255461,80431596986081,8.881441,-0.7674913,4.972308
1448734255483,80431616944577,8.986786,3.247585,4.7568297
1448734255501,80431636964108,10.976367,0.25483283,5.7169046
1448734255522,80431656953122,9.326762,-0.70524204,8.573188
1448734255541,80431677003171,8.603713,-0.123451024,6.6434608
1448734255563,80431696992184,8.713847,1.621922,6.9020348
1448734255581,80431716981198,8.51034,0.7863456,6.097583
1448734255601,80431736939694,11.064953,0.70733696,8.455872
1448734255622,80431756898190,10.717793,2.9076083,7.677756
1448734255642,80431777131345,8.759336,2.4742577,8.7431755
1448734255662,80431796967770,7.7848964,0.046537295,11.395951
1448734255681,80431816956784,7.56463,0.1782184,8.712051
1448734255702,80431836884762,7.614908,1.4854525,8.62586
1448734255722,80431857056882,3.305345,-0.5161001,9.770288
1448734255741,80431876984860,3.3987188,-0.23837271,11.71438
1448734255761,80431896973874,3.8296752,0.4679168,10.40954
1448734255782,80431916901852,1.4594156,-1.785027,13.062316
1448734255802,80431937073971,0.43948564,-2.958186,14.3240595
1448734255821,80431957001950,1.0428245,-2.0076878,12.815713
1448734255841,80431976990964,0.5400421,-1.0739491,12.195615
1448734255863,80431996918942,0.5304653,-0.17612346,12.470947
1448734255882,80432017060544,-1.0257658,-1.1721114,13.850008
1448734255902,80432036988522,-1.0114006,-0.90396076,13.610588
1448734255921,80432056947018,-0.13272856,-0.71242464,13.447782
1448734255943,80432076874997,0.26231474,-0.8464999,14.680796
1448734255962,80432097077634,-0.9036615,-1.2463316,15.4541235
1448734255982,80432116975095,0.16175826,0.060902506,15.121329
1448734256001,80432136933591,0.8129811,-0.7890391,14.874726
1448734256022,80432156892087,-0.08245032,-1.3588591,13.885921
1448734256042,80432177094723,1.3875896,-0.17372926,13.442993
1448734256061,80432196992184,2.3931541,-0.24316111,14.496443
1448734256081,80432216981198,1.4570214,-2.1489456,14.901062
1448734256102,80432236878659,1.9262849,-1.0739491,14.704738
1448734256123,80432257111813,3.4657567,0.25004444,11.4582
1448734256141,80432276978757,4.349217,0.25962123,10.081534
1448734256161,80432296967770,3.5615246,-1.9669863,12.334478
1448734256182,80432316895749,2.424279,-1.4139258,12.087875
1448734256206,80432337067868,3.3077393,0.6474819,9.511714
1448734256221,80432356965329,4.9046717,1.004218,12.104635
1448734256241,80432376954343,4.4018893,0.28116906,8.958653
1448734256263,80432396882321,4.1528926,1.9810523,9.526079
1448734256282,80432417115475,7.0091753,3.070414,7.8070426
1448734256301,80432437043454,7.626879,4.6553755,9.305813
1448734256320,80432456940915,6.628497,4.1573815,5.965902
1448734256342,80432476838376,7.3850646,6.3384995,6.6626143
1448734256361,80432497010495,7.3467574,2.476652,7.7831006
1448734256382,80432516816403,6.5016046,4.1430163,5.2404585
1448734256401,80432537019040,4.6413097,1.2101194,6.6554317
1448734256423,80432556885983,5.7330656,1.7033249,6.327426
1448734256441,80432577058102,7.3970356,2.7878983,3.9212534
1448734256462,80432596894528,7.648427,1.9451393,2.8654106
1448734256482,80432617097165,8.730606,3.5755906,2.942025
1448734256501,80432636964108,8.883835,1.6123452,3.7776015
1448734256521,80432657014157,6.125715,2.479046,-1.72188
1448734256543,80432676881100,7.042694,5.6633344,-1.9469349
1448734256562,80432697114255,8.211064,4.0616136,0.2964321
1448734256581,80432716981198,7.6436386,0.6498761,-0.98686004
1448734256601,80432736878659,7.30845,3.829376,-3.2134676
1448734256623,80432756898190,6.7146883,5.4981346,-2.042703
1448734256642,80432777100827,9.2764845,3.7671268,-3.443311
1448734256661,80432796967770,9.446472,1.1861773,-2.8782794
1448734256681,80432816956784,6.9660797,1.4710873,-3.503166
1448734256703,80432836884762,8.2733135,2.2013187,-2.5383027
1448734256722,80432857056882,8.160786,0.82704705,-3.6396356
1448734256741,80432877015378,8.448091,-0.41075522,-3.110517
1448734256761,80432897004391,8.577377,-0.31019875,-3.5869632
1448734256782,80432916932370,6.2765493,-0.7411551,-1.0515034
1448734256802,80432937073971,7.4473143,-1.6557401,-1.7984943
1448734256822,80432957001950,9.022698,-1.8400936,-1.1544541
1448734256841,80432976960446,10.648362,-1.404349,-0.66124856
1448734256863,80432996888425,10.253319,0.44397476,-0.7977181
1448734256882,80433017060544,8.816797,1.1215339,0.37544075
1448734256901,80433037049557,8.651597,1.0664672,0.74175364
1448734256921,80433056977536,8.404995,1.0544962,0.53345805
1448734256942,80433076874997,6.8104563,0.8892963,0.4185364
1448734256962,80433097047116,6.2286654,2.1534348,-0.2901473
1448734256981,80433116975095,5.5894136,3.4008138,-0.15607202
1448734257001,80433136933591,5.203947,2.215684,0.8183681
1448734257023,80433156892087,5.4266076,2.3737013,0.7202058
1448734257042,80433177094723,5.409848,2.0696378,1.5797242
1448734257061,80433196992184,6.1592336,2.3952491,0.4400842
1448734257081,80433217011716,7.8232036,3.1949124,1.6228198
1448734257103,80433236878659,8.13445,2.012177,1.1104606
1448734257123,80433257142331,7.9716444,1.0999861,1.7305589
1448734257141,80433276978757,8.28289,1.1574469,0.8063971
1448734257161,80433296998288,7.8950295,1.217302,-0.06748656
1448734257183,80433316895749,6.7625723,0.01062427,0.6771102
1448734257206,80433337098386,6.6715927,0.017806875,-0.725892
1448734257228,80433356904294,6.757784,0.115969144,-0.43140522
1448734257240,80433376893307,6.5351233,0.03696049,-1.520767
1448734257263,80433396882321,6.1831756,-0.2311901,-0.9796774
1448734257281,80433417115475,7.8830585,1.0832267,-2.5957634
1448734257303,80433436890866,8.328381,0.6426935,-1.8751088
1448734257321,80433457124020,7.16001,2.3234231,-2.303671
1448734257342,80433476899411,8.37387,2.476652,-2.6005518
1448734257361,80433497071530,8.127267,2.830994,-1.6668133
1448734257383,80433516907956,9.125649,1.4902409,-2.1672015
1448734257402,80433537080075,8.9101715,4.44708,-1.3842975
1448734257421,80433557008054,8.060229,2.833388,0.44487262
1448734257441,80433576936032,7.56463,2.4096143,1.5390228
1448734257463,80433596894528,9.606884,3.9778166,1.3738228
1448734257482,80433617066647,8.04347,1.2627918,3.1024365
1448734257501,80433636964108,8.395418,2.4383447,1.4887445
1448734257521,80433656953122,9.784055,2.440739,5.259612
1448734257543,80433676881100,9.626038,1.6171336,4.8023195
1448734257562,80433697114255,8.984391,1.9331683,4.761618
1448734257581,80433716981198,8.256555,0.7624036,4.139126
1448734257601,80433737000729,8.548647,1.2388498,5.858163
1448734257623,80433756898190,10.262896,1.3322237,5.793519
1448734257642,80433777070309,9.484779,1.3777134,3.6483145
1448734257662,80433796967770,8.759336,2.1031566,2.7121816
1448734257681,80433816956784,7.7130704,3.8700774,6.6626143
1448734257703,80433836884762,6.9876275,2.464681,10.4789715
1448734257722,80433857087399,9.9851675,-1.2630911,6.9451303
1448734257741,80433876984860,8.625261,1.9858407,7.830985
1448734257761,80433896943356,5.9030538,0.20934302,6.475867
1448734257782,80433916932370,7.7753196,-0.42512044,8.937106
1448734257802,80433937104489,7.39943,-0.28146833,10.39278
1448734257821,80433956971432,5.177611,0.71451956,11.755081
1448734257842,80433978333737,3.590255,-0.042048167,9.655367
1448734257860,80433996888425,5.191976,0.7767688,10.811766
1448734257881,80434016999509,2.864812,-0.28146833,12.595447
1448734257900,80434036866452,-0.44158056,-3.4873044,13.620165
1448734257921,80434057008054,1.0069114,-2.7067947,13.775787
1448734257941,80434076905514,1.6365865,0.60438627,12.940211
1448734257961,80434096955563,-0.10878654,-3.4322379,12.85402
1448734257983,80434116914059,-2.0648494,-2.733131,13.340043
1448734258002,80434137055661,-1.2580034,-0.9326912,13.280188
1448734258021,80434156983639,-0.92281514,-0.006135142,12.983307
1448734258041,80434176972653,-1.6123452,-1.2080244,14.072669
1448734258063,80434196900632,-2.237232,-2.2782326,13.428628
1448734258082,80434217103268,-0.30989948,-1.0595839,14.223503
1448734258101,80434236970212,-0.70733696,-0.12584522,14.046332
1448734258122,80434257111813,-0.83183545,-1.1242273,13.859585
1448734258142,80434276826169,-0.6139631,-1.0811317,13.629742
1448734258161,80434296998288,0.72200143,-0.11866262,13.454965
1448734258182,80434316834714,0.34371758,-1.7108067,13.869162
1448734258202,80434337006833,0.6286276,-1.3947722,13.076681
1448734258221,80434356904294,1.4450504,-0.90635496,13.047951
1448734258243,80434377015378,2.4290674,-0.18330607,12.351237
1448734258261,80434396973874,1.0739491,-1.6653169,13.244275
1448734258283,80434417023923,0.7411551,-1.0356419,12.545168
1448734258301,80434437012936,3.317316,0.6570587,10.028862
1448734258321,80434456940915,2.934244,-0.07317279,11.5372095
1448734258342,80434476899411,2.3476644,-2.4697688,11.872397
1448734258362,80434497132565,1.6677111,0.115969144,11.793388
1448734258381,80434516999509,2.3835773,2.1486464,8.158991
1448734258401,80434536958005,5.4146366,1.1598411,10.208427
1448734258422,80434556885983,2.2518964,-0.7363667,9.6745205
1448734258442,80434577088620,2.7498903,-0.7698855,9.363274
1448734258461,80434596986081,6.8224273,2.5508723,6.8876696
1448734258481,80434616944577,6.901436,1.7871219,5.396082
1448734258503,80434636872555,8.6635685,2.4886231,6.150255
1448734258522,80434657136227,9.051429,1.7296611,4.2085576
1448734258541,80434676972653,8.598925,1.4064438,4.007445
1448734258561,80434696992184,8.94369,3.9610572,3.4807203
1448734258582,80434716889645,9.04664,3.3720834,2.7337294
1448734258602,80434737092282,9.743354,2.4144027,3.6219783
1448734258621,80434756989743,9.432107,0.4870704,4.651485
1448734258641,80434776978757,9.539846,3.5492544,2.8055556
1448734258663,80434796876218,11.050588,5.6657286,0.028281508
1448734258682,80434816987302,9.34831,3.5133414,2.1136312
1448734258701,80434836976315,8.172757,-2.5727193,2.360234
1448734258721,80434856934811,9.853487,2.965069,-2.471265
1448734258743,80434876893307,9.908553,7.813328,-2.2749405
1448734258762,80434897065427,7.1336737,0.5828385,0.8135797
1448734258781,80434917023923,8.213459,0.69057757,-1.460912
1448734258801,80434936982419,7.5191402,2.842965,-1.697938
1448734258823,80434956910397,9.800815,5.548413,-1.3675381
1448734258842,80434977143552,9.750536,0.40566754,-0.5367501
1448734258861,80434997010495,8.206276,0.80071086,-3.8048353
1448734258881,80435016999509,6.044312,3.2427967,-0.6804022
1448734258903,80435036896970,6.9062243,1.811064,-1.9229928
1448734258922,80435057099606,9.894188,0.92999774,-1.733851
1448734258942,80435076966550,8.179939,-1.8424878,-0.36197338
1448734258961,80435096986081,7.282114,1.5453075,-1.6356887
1448734258982,80435116883542,7.801656,0.08963293,-0.21113867
1448734259002,80435137086179,8.045864,0.8940847,-0.7187094
1448734259022,80435156953122,8.582166,0.8581717,0.54542905
1448734259041,80435177064206,7.662792,-0.5161001,0.48078564
1448734259062,80435196839596,5.481674,0.50143564,1.7808372
1448734259081,80435217011716,7.555053,0.8725369,1.1798925
1448734259102,80435236817624,6.3603463,1.004218,1.4528315
1448734259122,80435257020261,5.47928,1.9403509,-0.25902268
1448734259142,80435277009274,5.1967645,2.581997,0.124049574
1448734259161,80435296998288,5.4744916,1.8134582,2.0250456
1448734259183,80435316895749,6.7625723,2.0504842,2.6116252
1448734259206,80435337067868,6.5830073,0.4918588,1.2756606
1448734259221,80435356965329,7.0570593,1.9954175,1.5150808
1448734259241,80435376984860,8.404995,1.669806,2.4224832
1448734259263,80435396882321,7.9333367,0.197372,0.94765496
1448734259282,80435417145993,7.7633486,0.69297177,2.2716484
1448734259302,80435436982419,7.612514,0.6307225,1.2110171
1448734259321,80435456971432,7.5933604,0.43439797,1.1344028
1448734259343,80435476899411,7.4880157,-0.88241297,1.8861821
1448734259362,80435497071530,8.215853,-0.80101013,0.97877955
1448734259381,80435516968991,8.060229,0.79831666,0.85188687
1448734259401,80435536958005,8.155997,0.17342998,0.011522096
1448734259423,80435556916501,7.8088384,0.16864158,-0.65167177
1448734259442,80435577088620,7.401824,0.72888476,0.3179799
1448734259461,80435596986081,8.61329,0.6426935,-1.5111902
1448734259481,80435617005612,8.756943,0.4894646,-1.0610802
1448734259502,80435636872555,7.717859,1.609951,-1.3962685
1448734259522,80435657075192,8.661174,2.6586113,-1.8080711
1448734259542,80435676972653,9.089736,1.8374002,-0.9724948
1448734259561,80435696961667,9.211841,2.095974,-1.9062334
1448734259582,80435716889645,7.1073375,3.2308257,-0.88869774
1448734259602,80435737122800,8.199094,3.8030398,-0.66843116
1448734259621,80435756989743,9.810391,2.2635682,-0.02439093
1448734259641,80435776978757,8.594136,4.734384,-0.6947674
1448734259663,80435796876218,8.455273,1.6602292,3.04737
1448734259682,80435817139889,8.381053,2.0456958,1.0003273
1448734259701,80435837006833,8.433725,3.7790978,1.3139678
1448734259721,80435856965329,7.68434,0.95393974,4.7161283
1448734259742,80435876893307,8.888623,1.5644612,2.6188078
1448734259762,80435897095944,7.899818,1.5141829,3.4567783
1448734259781,80435917023923,8.007557,1.9834465,4.457555
1448734259801,80435936951901,9.992351,3.7407906,4.701763
1448734259823,80435956879880,11.043405,2.072032,4.1463084
1448734259842,80435977082516,8.900595,0.048931498,5.4296007
1448734259861,80435996979977,7.4497085,-2.3692122,6.4471364
1448734259881,80436016968991,9.683498,-0.7555203,5.9946322
1448734259903,80436036896970,10.147974,1.4926351,6.257994
1448734259923,80436057069089,9.860669,-0.13302784,6.547693
1448734259941,80436076905514,10.226982,-0.17612346,7.1127243
1448734259962,80436096955563,11.730541,2.3904607,7.3282027
1448734259981,80436116914059,11.172692,1.6075568,8.48939
1448734260009,80436136903073,12.657097,1.669806,6.8756986
1448734260032,80436167084958,11.85504,1.6291046,7.7567644
1448734260054,80436187073971,4.993257,-0.71242464,6.0449104
1448734260072,80436207032468,5.4912515,-1.0284593,9.257929
1448734260096,80436227418210,0.6549638,-2.6373627,12.482919
1448734260118,80436246979977,2.4075193,-1.0715549,9.952248
1448734260136,80436267030026,2.2854152,-1.6437691,11.245116
1448734260152,80436287049557,2.129792,-2.6924295,11.130195
1448734260175,80436307038571,2.318934,-1.452233,11.846061
1448734260192,80436326966550,3.0395887,-1.7012299,10.17012
1448734260215,80436347047116,2.318934,-2.7762265,12.186038
1448734260233,80436367036130,0.89438397,-1.6629227,11.091887
1448734260255,80436387055661,-0.060902506,-2.7762265,10.81416
1448734260273,80436407014157,1.0188825,-1.0116999,12.518832
1448734260295,80436427125241,0.2264017,-2.8624177,13.196391
1448734260312,80436447022702,-0.16864158,-0.18091187,10.921899
1448734260335,80436467164304,1.5743372,-1.641375,13.794941
1448734260353,80436487000729,-0.30032268,-3.1569047,13.09344
1448734260375,80436507111813,1.5432127,-0.29583356,12.798953
1448734260392,80436527009274,-0.71451956,-1.6365865,14.417434
1448734260415,80436547120358,1.749114,-0.29583356,15.786917
1448734260433,80436567017819,4.3659763,-0.3820248,12.877962
1448734260455,80436587128903,0.8201637,-0.3700538,12.097452
1448734260473,80436606995846,1.3971664,-1.1840824,13.395109
1448734260495,80436627106930,5.168034,-1.5264533,13.191603
1448734260512,80436647004391,3.4609683,-0.56158996,11.920281
1448734260535,80436667145993,2.1489456,-1.5264533,11.204415
1448734260552,80436687012936,4.8328457,-0.72918403,10.51728
1448734260575,80436707154538,5.3547816,-1.9214965,11.204415
1448734260596,80436727235104,1.6485575,-3.0371945,12.475737
1448734260616,80436747041012,7.806444,1.040131,7.1630025
1448734260632,80436766968991,6.6476507,-1.0978911,7.0528693
1448734260655,80436787110593,7.806444,1.040131,3.7129579
1448734260672,80436807008054,5.5894136,-0.5328595,8.762329
1448734260696,80436827058102,12.489503,1.7799393,3.2197523
1448734260712,80436846986081,11.349863,2.203713,6.171803
1448734260736,80436867066647,9.9372835,5.893178,1.6970401
1448734260752,80436886964108,9.681105,4.7415667,2.0561705
1448734260776,80436907075192,8.179939,4.9977465,3.262848
1448734260792,80436927064206,9.989956,4.743961,1.1320084
1448734260814,80436946961667,8.179939,4.9977465,3.262848
1448734260833,80436967255856,8.582166,2.785504,3.0282161
1448734260855,80436987183835,8.280497,3.2164602,6.6386724
1448734260871,80437006989743,7.0690303,6.2451253,1.0410289
1448734260892,80437027100827,6.614132,3.982605,6.6386724
1448734260912,80437047028805,9.17114,-0.67651165,6.21011
1448734260935,80437067414548,9.092131,2.2635682,1.3666402
1448734260953,80437087006833,6.3148565,3.9849992,2.7337294
1448734260975,80437107117917,8.3690815,2.4718635,0.37544075
1448734260992,80437127015378,8.996363,1.1622353,0.66513914
1448734261015,80437147126462,9.31958,3.295469,0.54064065
1448734261033,80437167145993,8.584559,4.3010335,-2.1265001
1448734261055,80437187135007,8.948479,3.7168486,-2.255787
1448734261072,80437207001950,9.003545,4.351312,-2.873491
1448734261095,80437227143552,9.168745,4.4973583,-4.846313
1448734261113,80437247010495,8.979603,2.8262055,-3.0722096
1448734261135,80437267152096,10.672304,2.0863972,-2.5766098
1448734261153,80437287019040,8.474426,5.4981346,-3.8599021
1448734261175,80437307099606,9.326762,3.271527,-2.258181
1448734261193,80437326997067,9.221417,0.13751696,-1.2262802
1448734261216,80437347047116,6.8104563,0.115969144,-1.0443208
1448734261233,80437367097165,8.304439,0.35538933,-1.3842975
1448734261255,80437387116696,6.8104563,0.115969144,-1.0443208
1448734261273,80437407075192,8.019528,-0.8512883,-1.1831845
1448734261295,80437427094723,7.064242,0.2045546,-0.7163152
1448734261313,80437447022702,6.5758247,1.1694179,-0.8192659
1448734261335,80437467133786,8.622867,-0.106691614,0.5861305
1448734261353,80437487000729,8.546252,0.4679168,0.8638579
1448734261375,80437507142331,9.226206,1.0951977,1.2181997
1448734261392,80437527009274,7.8926353,1.4734815,1.1439795
1448734261415,80437547150876,8.443302,1.7392379,2.0513818
1448734261432,80437567017819,7.753772,1.7919103,1.8742111
1448734261455,80437587128903,6.4489317,4.0735846,0.75372463
1448734261473,80437607087399,5.7546134,2.2994812,2.1423616
1448734261495,80437627137448,6.3507695,1.9858407,1.4767735
1448734261512,80437647004391,6.178387,3.0608373,1.5438112
1448734261535,80437667145993,7.23423,1.6075568,2.7265468
1448734261553,80437687012936,7.8088384,1.1502643,1.529446
1448734261575,80437707124020,7.1935287,0.048931498,1.3307272
1448734261592,80437727021481,6.3244333,1.9307741,-1.0945991
1448734261615,80437747132565,7.4449196,0.42482117,0.7034464
1448734261633,80437767121579,8.594136,-2.994099,-0.03875614
1448734261655,80437787141110,7.8686934,0.68339497,-0.34521395
1448734261672,80437807008054,7.9979806,0.44397476,-0.6851906
1448734261694,80437827119137,8.579771,-0.03247136,-0.7354688
1448734261712,80437846986081,7.926154,-0.14739305,-0.37155017
1448734261732,80437867097165,7.708282,1.4878467,-1.5806221
1448734261751,80437887025143,7.681946,0.080056116,-0.036361936
1448734261771,80437907075192,6.554277,2.0385132,-1.9325697
1448734261791,80437927064206,5.677999,2.7088895,-0.8072949
1448734261810,80437946900632,6.685958,1.2580034,-0.87912095
1448734261832,80437967072751,6.712294,2.1031566,-2.385074
1448734261850,80437986970212,6.4585085,2.3497593,-2.1935377
1448734261872,80438007081296,7.9381256,2.0193596,-1.1281179
1448734261890,80438026887204,8.184729,2.6490345,-2.8543375
1448734261912,80438047059323,8.4026,3.0057707,-2.1791725
1448734261930,80438066895749,9.039458,1.4878467,-1.55668
1448734261953,80438087037350,8.670751,2.842965,-1.6069583
1448734261971,80438107026364,9.355493,4.090344,-0.962918
1448734261993,80438127045895,9.508721,2.5676317,0.088136554
1448734262010,80438146973874,9.479991,2.9937997,1.3307272
1448734262033,80438167054440,9.982774,2.0337248,1.0601825
1448734262051,80438187012936,9.67871,2.2061071,2.3793876
1448734262072,80438207032468,9.405771,1.2220904,3.9308302
1448734262090,80438226899411,9.594913,0.30271688,4.529381
1448734262113,80438247041012,9.846304,0.3314473,3.796755
1448734262130,80438266999509,8.843134,0.4798878,4.342633
1448734262152,80438287080075,9.087342,-0.3532944,6.2148986
1448734262170,80438306977536,9.841516,-0.123451024,5.3505917
1448734262193,80438327027585,10.250924,-0.34371758,4.7520413
1448734262210,80438346894528,9.080159,2.0552726,3.4855087
1448734262232,80438367036130,9.185505,0.5397428,4.6921864
1448734262250,80438386872555,9.43929,3.0368953,9.1334305
1448734262272,80438407075192,14.871734,4.126257,2.9707553
1448734262290,80438426972653,8.788067,2.6370635,5.1662383
1448734262313,80438447053220,3.183241,-1.7155951,11.743111
1448734262331,80438467042233,3.9637506,0.38411975,9.983372
1448734262352,80438487031247,7.028329,1.3298295,8.685715
1448734262370,80438506989743,4.0786724,-0.20245968,9.289054
1448734262392,80438527039792,1.7203835,1.1598411,11.132589
1448734262410,80438546967770,2.8863597,0.39609075,12.767829
1448734262432,80438567078854,3.161693,0.36736032,12.068722
1448734262450,80438586976315,2.1082442,0.22370823,12.99049
1448734262473,80438607026364,0.8393173,-1.25112,12.09027
1448734262490,80438626984860,0.90635496,-2.5487773,12.236316
1448734262513,80438647034909,-0.12075755,-0.41793784,13.608193
1448734262530,80438666993405,-1.4040496,-2.1896472,12.497284
1448734262553,80438687043454,-1.2460324,-2.0148704,12.818107
1448734262570,80438707001950,-1.7871219,-0.8249521,12.537986
1448734262592,80438727051999,-2.380884,-1.5671546,12.442217
1448734262611,80438747224118,-2.7567737,-0.88959557,12.940211
1448734262631,80438766968991,-1.1766005,-1.5863082,12.923451
1448734262650,80438787019040,-1.7583915,-0.55201316,13.9338045
1448734262671,80438806947018,-2.4000375,-0.6597522,14.134918
1448734262690,80438826966550,-0.6355109,-1.2056302,12.6600895
1448734262711,80438847382809,-0.81268185,-0.88720137,14.412645
1448734262730,80438867005612,-1.5333365,-0.954239,13.814095
1448734262751,80438887025143,-0.470311,-0.858471,12.032809
1448734262771,80438907014157,0.96621,-1.5168765,12.526014
1448734262791,80438927064206,-1.7536031,-1.9621979,12.303353
1448734262811,80438947022702,0.07317279,0.6642413,11.824513
1448734262833,80438967042233,1.1984476,-0.9231144,12.394333
1448734262852,80438988251950,-0.29792848,-1.3875896,12.439823
1448734262872,80439007142331,0.69327104,-0.98296946,11.798177
1448734262890,80439026978757,3.0611365,0.5349544,10.083929
1448734262912,80439046998288,2.2638674,-2.0244472,9.887604
1448734262930,80439067048337,0.89677817,-0.645387,11.518056
1448734262953,80439087067868,1.9645921,-0.99494046,9.511714
1448734262971,80439106995846,2.3740005,-1.4977227,10.213216
1448734262992,80439127076413,4.00924,1.3633482,11.881974
1448734263010,80439146973874,4.6484923,2.0768204,7.474249
1448734263032,80439167054440,5.3021092,1.7440263,11.922675
1448734263050,80439186982419,5.6827874,1.0568904,7.158214
1448734263073,80439207062985,6.226271,5.7016416,8.209269
1448734263091,80439227051999,5.9892454,3.4367268,6.767959
1448734263112,80439247041012,7.3491516,2.4455273,8.391228
1448734263131,80439267060544,7.2366242,4.4638395,7.5388923
1448734263152,80439287049557,6.7075057,2.5412955,7.9219646
1448734263170,80439306885983,6.3531637,3.4558804,7.7232456
1448734263193,80439327027585,7.9189715,1.8445828,6.858939
1448734263210,80439346894528,7.3012676,2.2827218,3.7871783
1448734263233,80439367036130,7.4090066,1.442357,5.882105
1448734263250,80439386964108,7.0810013,-0.16415246,7.2084923
1448734263273,80439407044675,8.457667,3.1350574,1.3355156
1448734263290,80439427003171,7.516746,3.3241994,1.2134113
1448734263313,80439447053220,6.9636855,0.4894646,1.9125183
1448734263330,80439466981198,7.693917,0.9108441,1.5988778
1448734263353,80439487061764,8.189517,3.7958572,-3.8479311
1448734263371,80439507020261,7.598149,3.6713586,0.22939445
1448734263392,80439527039792,7.914183,0.72409636,-0.4122516
1448734263410,80439546876218,8.586954,2.9507039,-2.8639143
1448734263433,80439567048337,9.187899,7.9809217,-3.3738792
1448734263450,80439586976315,7.392247,1.811064,-2.409016
1448734263473,80439607026364,6.4130187,-1.0140941,-2.030732
1448734263491,80439627045895,8.352323,3.6665702,-3.029114
1448734263512,80439646943356,9.080159,5.404761,-3.776105
1448734263531,80439667054440,7.988404,-0.33414078,-0.8168717
1448734263551,80439687073971,6.7099,-1.1074679,-1.544709
1448734263570,80439706971432,7.4736505,2.3258173,-1.4369699
1448734263593,80439727051999,8.019528,2.2994812,-1.7841291
1448734263611,80439747010495,7.952491,1.7033249,-0.9533412
1448734263632,80439767030026,8.515128,-0.34611177,0.97638535
1448734263650,80439786896970,8.962844,1.5022119,1.067365
1448734263673,80439807069089,10.380211,2.1175218,2.135179
1448734263691,80439827027585,11.409718,0.73367316,2.017863
1448734263712,80439847047116,10.440066,0.779163,2.2165818
1448734263730,80439866975095,9.755324,0.94675714,3.3753755
1448734263752,80439887025143,8.960449,0.82704705,4.177433
1448734263771,80439906983639,8.5917425,0.12554595,4.874146
1448734263793,80439927033688,7.5598416,1.1406875,2.8845642
1448734263811,80439947053220,6.472874,0.52777183,2.6642976
1448734263833,80439967042233,7.11452,1.337012,3.2197523
1448734263851,80439987031247,6.8822823,1.4734815,4.0720882
