1448849214142,195391564998756,0.5472247,1.6291046,10.119842
1448849214159,195391585292945,1.5384243,-0.978181,9.64579
1448849214174,195391605068336,0.5472247,1.6291046,10.119842
1448849214199,195391626247535,1.5384243,-0.978181,9.64579
1448849214219,195391645687232,0.5472247,1.6291046,10.119842
1448849214244,195391665676246,1.5384243,-0.978181,9.64579
1448849214262,195391695186744,0.5472247,1.6291046,10.119842
1448849214285,195391715084205,1.5384243,-0.978181,9.64579
1448849214305,195391734951148,0.5472247,1.6291046,10.119842
1448849214330,195391755367408,1.5384243,-0.978181,9.64579
1448849214349,195391775386939,0.5472247,1.6291046,10.119842
1448849214374,195391799251685,1.5384243,-0.978181,9.64579
1448849214396,195391825100074,0.5472247,1.6291046,10.119842
1448849214423,195391845089088,1.5384243,-0.978181,9.64579
1448849214439,195391865230689,0.5472247,1.6291046,10.119842
1448849214464,195391886592994,1.5384243,-0.978181,9.64579
1448849214485,195391905208717,0.5472247,1.6291046,10.119842
1448849214500,195391925167213,1.5384243,-0.978181,9.64579
1448849214514,195391945125709,0.5472247,1.6291046,10.119842
1448849214537,195391965145240,1.5384243,-0.978181,9.64579
1448849214553,195391985073218,1.5384243,-0.978181,9.64579
1448849214577,195392005184302,-6.3959603,-1.9957168,14.5706625
1448849214611,195392025325904,1.5384243,-0.978181,9.64579
1448849214623,195392055324683,-11.893047,-4.8065095,11.68565
1448849214647,195392075252662,-10.911425,-5.591808,13.82846
1448849214663,195392095089088,-10.408642,-6.149657,7.2827125
1448849214683,195392115261207,-11.42139,-4.2223244,9.473407
1448849214704,195392135006080,-6.5420065,-3.329287,5.8557687
1448849214729,195392155880103,-8.019229,-4.526388,6.6195188
1448849214745,195392175869117,-5.9841576,-5.3308396,6.1909566
1448849214765,195392195278297,-5.7638907,-3.5088522,5.6331077
1448849214782,195392215084205,-5.0312653,-8.258948,3.9619548
1448849214805,195392235378394,-5.610662,-7.3850646,4.8142905
1448849214824,195392255031715,-6.8843775,-12.036999,3.0665236
1448849214846,195392275417457,-5.488558,-8.967632,3.6890159
1448849214864,195392295131812,-4.2531495,-16.775124,0.33234513
1448849214887,195392315517554,-6.781427,-16.190939,0.96202016
1448849214903,195392335079322,-1.6171336,-15.051299,-0.87433255
1448849214925,195392355281959,-2.3760955,-16.54528,-0.713921
1448849214943,195392375087867,0.9350854,-10.016293,-4.867861
1448849214963,195392395290504,0.049230773,-12.365005,-3.9269397
1448849214985,195392415340552,2.6780643,-11.278037,-4.082563
1448849215005,195392435329566,0.21443069,-11.160721,-3.3283892
1448849215024,195392455227027,1.8760067,-9.6188545,-4.192696
1448849215045,195392475338111,2.2135892,-10.200646,-4.918139
1448849215064,195392495510230,4.2869678,-6.310068,-2.9117982
1448849215085,195392515377174,3.6453216,-8.385841,-3.5702035
1448849215102,195392535091529,5.558289,-7.267749,-3.4600704
1448849215125,195392555385718,4.7251067,-5.867141,-3.55105
1448849215144,195392575069556,4.6987705,-8.893412,-2.9477112
1448849215166,195392595424781,5.608567,-8.546252,-3.1895256
1448849215184,195392615139136,5.2590137,-8.486398,-2.7944822
1448849215206,195392635280738,4.6508865,-9.391406,-2.7896938
1448849215223,195392655147681,5.699547,-6.6668043,-2.1456537
1448849215245,195392675380836,5.824045,-7.4999866,-2.5143607
1448849215265,195392695034156,5.711518,-6.6428623,-1.1305121
1448849215286,195392715419898,5.6708164,-6.6931405,-1.484854
1448849215303,195392735134254,5.7210946,-5.048324,0.63640875
1448849215325,195392755336890,6.032341,-5.345205,0.06419453
1448849215342,195392775051246,6.017976,-4.7825675,0.018704701
1448849215363,195392795223365,5.80968,-5.49604,0.16475101
1448849215382,195392815090308,6.7099,-5.8743234,-1.2262802
1448849215405,195392835353980,6.640468,-4.919037,-0.87912095
1448849215423,195392855037818,8.680328,-6.2550015,-2.9955952
1448849215445,195392875270972,7.8327804,-6.0131874,-1.7721581
1448849215465,195392895046363,8.388235,-7.1288853,-4.132841
1448849215486,195392915401588,8.4409075,-7.4616795,-4.0993223
1448849215503,195392935146461,9.551817,-3.4729393,-5.358672
1448849215525,195392955349097,8.728212,-4.535965,-4.6835074
1448849215544,195392975063453,9.362676,-4.9262195,-4.6835074
1448849215566,195392995296607,9.568577,-4.301333,-5.7297735
1448849215583,195393015163550,8.555829,-5.5487123,-2.4784477
1448849215605,195393035396705,9.1807165,-5.4840684,-2.993201
1448849215625,195393055111060,8.49358,-6.480057,-2.2414217
1448849215646,195393075374732,8.378658,-5.9222074,-2.3324013
1448849215665,195393095241675,7.966856,-5.2422543,-2.8136358
1448849215686,195393115413795,8.433725,-6.1233206,-2.804059
1448849215704,195393135036597,6.6596217,-2.6948237,-1.6955438
1448849215726,195393155422340,7.401824,-3.0587423,-2.4066217
1448849215743,195393175167213,6.781726,-3.8224926,-1.0371382
1448849215765,195393195339332,6.5135756,-3.5519478,-1.6069583
1448849215782,195393215053687,6.6093435,-4.3444285,-1.1305121
1448849215805,195393235378394,6.7027173,-3.920655,-1.1137527
1448849215822,195393255031715,7.186346,-5.1608515,-0.5199907
1448849215845,195393275386939,6.8248215,-4.6125793,-0.79292965
1448849215862,195393295040259,7.2869024,-5.666028,-0.440982
1448849215885,195393315364967,7.0450883,-5.349993,0.0163105
1448849215905,195393335048804,7.80405,-5.677999,-0.017208325
1448849215926,195393355404029,7.624485,-6.0850134,-1.0778397
1448849215943,195393375148902,8.608501,-6.6811695,0.21502924
1448849215965,195393395382056,7.734618,-5.9916396,-0.043544542
1448849215985,195393415065894,9.851092,-6.592584,-0.2733879
1448849216006,195393435390601,9.250148,-6.939743,0.23897126
1448849216023,195393455135474,9.123255,-5.1704283,0.20545243
1448849216045,195393475368629,9.487174,-5.723489,-0.4385878
1448849216065,195393495052467,10.250924,-3.5136406,0.8925883
1448849216086,195393515407691,9.372252,-4.241478,1.1798925
1448849216103,195393535213599,8.802432,-5.982063,1.3091794
1448849216125,195393555385718,9.673922,-4.5072346,0.49275663
1448849216142,195393575039039,9.049035,-5.8886886,1.7521068
1448849216165,195393595394263,9.412953,-6.6691985,2.087295
1448849216184,195393615047584,6.5039988,-3.9829042,3.2484827
1448849216206,195393635402808,7.555053,-4.6724343,2.2477064
1448849216223,195393655178199,4.5575128,-4.1624694,6.186168
1448849216245,195393675380836,5.2685905,-3.683629,4.945972
1448849216265,195393695064674,4.435408,-6.152051,4.198981
1448849216286,195393715419898,4.3587937,-5.2422543,5.386505
1448849216304,195393735164771,4.7705965,-7.076213,3.4567783
1448849216326,195393755397925,4.5407534,-6.7745433,3.380164
1448849216344,195393775142799,4.6413097,-6.4369607,3.9835026
1448849216365,195393795223365,4.717924,-6.90383,3.751265
1448849216383,195393815151343,4.8543935,-5.6827874,4.3785458
1448849216405,195393835384498,4.8567877,-5.859958,4.227711
1448849216422,195393855068336,4.7969327,-4.9884686,5.2380643
1448849216451,195393875393043,4.895095,-5.373935,4.8166847
1448849216462,195393894985328,5.508011,-5.508011,5.008221
1448849216487,195393915371070,5.608567,-5.632509,4.9890676
1448849216503,195393935146461,5.8743234,-5.273379,4.3258734
1448849216524,195393955379615,5.6492686,-5.6492686,4.225317
1448849216545,195393975093970,6.415413,-5.9102364,4.651485
1448849216566,195393995388160,5.869535,-5.144092,4.663456
1448849216583,195394015163550,6.736236,-5.713912,4.424036
1448849216605,195394035427222,6.662016,-6.101773,4.210952
1448849216625,195394055080543,7.303662,-5.785738,4.249259
1448849216646,195394075435767,7.0450883,-5.9389668,4.5269866
1448849216664,195394095180640,8.507945,-5.4122424,3.8757637
1448849216685,195394115230689,7.8854527,-5.3883004,3.9930794
1448849216705,195394135067115,8.627655,-5.9700913,4.5006504
1448849216726,195394155452857,8.689905,-6.6715927,4.402488
1448849216743,195394175167213,8.742578,-5.168034,3.3873465
1448849216765,195394195400367,9.022698,-4.6724343,4.0649056
1448849216784,195394215084205,8.646809,-5.8264394,7.0169563
1448849216806,195394235439429,8.409783,-6.149657,4.8478093
1448849216823,195394255184302,7.8615108,-1.8999487,7.778312
1448849216845,195394275417457,8.306832,-4.073884,7.9459066
1448849216864,195394295070777,7.7729254,-1.1314099,8.000973
1448849216886,195394315456519,7.6532154,-1.7922096,7.342568
1448849216903,195394335170875,7.1576157,0.23089083,7.728034
1448849216925,195394355404029,7.411401,-0.087538,8.527698
1448849216944,195394375087867,6.3747115,0.10878654,6.8397856
1448849216966,195394395443092,6.7649665,0.4918588,7.026533
1448849216983,195394415157447,7.102549,-0.5328595,4.4527664
1448849217005,195394435421119,6.3531637,-0.27189153,5.6546555
1448849217024,195394455104957,6.4896336,-0.30780455,3.7488708
1448849217046,195394475429664,7.2270474,-0.13063364,3.5525465
1448849217063,195394495174537,6.451326,-1.4474446,1.8191444
1448849217085,195394515407691,6.5039988,-0.46342766,3.4591725
1448849217105,195394535091529,5.603779,-2.7379193,3.8183029
1448849217126,195394555446754,6.8224273,-2.2662616,2.1399674
1448849217143,195394575161109,5.6253266,-4.006846,3.5549407
1448849217165,195394595424781,5.16564,-3.5998318,4.582053
1448849217184,195394615078101,5.429002,-4.8663645,2.1447558
1448849217206,195394635433326,5.821651,-4.3204865,2.348263
1448849217223,195394655178199,4.705953,-6.1688104,2.2237644
1448849217246,195394675777564,5.0650835,-5.859958,1.969979
1448849217265,195394695003638,4.5575128,-6.6428623,0.9093477
1448849217284,195394715358863,4.4378023,-5.323657,0.1599626
1448849217305,195394735012183,4.097826,-8.335563,3.6626797
1448849217324,195394755336890,4.2247186,-8.529493,2.693028
1448849217343,195394775417457,4.3180923,-7.389853,2.0657473
1448849217363,195394795070777,3.8009448,-6.8128505,2.7624598
1448849217385,195394815029273,4.885518,-7.9189715,3.988291
1448849217404,195394835353980,4.607791,-8.8622875,3.6698623
1448849217423,195394855129371,5.68997,-8.110508,3.7057753
1448849217443,195394875362525,5.4840684,-7.636456,3.4136827
1448849217464,195394895015845,5.8384104,-8.649203,4.1846156
1448849217486,195394915371070,5.747431,-8.864681,3.8422449
1448849217503,195394935146461,6.5518827,-9.451261,3.988291
1448849217525,195394955379615,6.2143,-8.946084,4.055329
1448849217544,195394975032935,6.125715,-7.7154646,4.9890676
1448849217566,195394995327125,6.6715927,-9.503933,4.119972
1448849217583,195395015133033,6.662016,-7.2509894,6.547693
1448849217608,195395035915504,6.5877957,-6.7410245,6.085612
1448849217626,195395055477271,5.105785,-4.0571246,7.4479127
1448849217646,195395075344215,5.594202,-5.6851816,7.7208514
1448849217663,195395095180640,4.1289506,-0.32216978,8.197298
1448849217685,195395115413795,4.634127,-3.068319,6.9954085
1448849217704,195395135067115,3.4059017,1.6889597,9.396792
1448849217726,195395155452857,3.9972694,1.6722002,8.230817
1448849217743,195395175167213,3.7841854,-2.934244,9.466225
1448849217765,195395195400367,3.4298437,-0.8105869,9.894787
1448849217784,195395215084205,3.7650318,-0.20724809,7.706486
1448849217806,195395235408912,3.9541738,-2.010082,8.537274
1448849217823,195395255153785,3.3149219,-0.98775786,7.828591
1448849217845,195395275386939,3.5280058,-0.55201316,7.751976
1448849217864,195395295070777,3.0731075,-0.16175826,7.4814315
1448849217886,195395315456519,3.2766147,-0.10908581,7.44073
1448849217903,195395335170875,3.00607,-1.1194389,7.1127243
1448849217925,195395355404029,2.982128,-0.73397243,7.3210196
1448849217944,195395375087867,3.3747768,-1.6341923,6.490232
1448849217966,195395395443092,3.1114147,-0.8441057,6.866122
1448849217984,195395415249000,4.6125793,-3.2047887,5.343409
1448849218004,195395435421119,4.016423,-2.4314616,5.5588875
1448849218022,195395455013404,5.309292,-6.4202013,5.85098
1448849218046,195395475338111,5.2542253,-4.9836802,5.283554
1448849218064,195395495082984,6.5830073,-5.747431,8.060828
1448849218086,195395515438209,5.663634,-6.058677,7.311443
1448849218103,195395535183082,6.6691985,-3.8344636,7.5388923
1448849218125,195395555416236,7.2031054,-5.35957,7.253982
1448849218145,195395575039039,7.272537,-1.4306852,7.323414
1448849218166,195395595455299,6.7745433,-2.8576293,7.390452
1448849218183,195395615169654,6.724265,-3.719542,6.5309334
1448849218205,195395635372291,6.992416,-2.1944356,6.109554
1448849218225,195395655117164,6.5255466,-3.2119713,8.599524
1448849218246,195395675411353,6.628497,-4.0307884,7.802254
1448849218263,195395695156226,5.385906,-1.1864766,7.9554834
1448849218285,195395715419898,5.859958,-2.1130326,8.515726
1448849218305,195395735073218,4.00924,-0.7579145,7.644237
1448849218326,195395755428443,4.6269445,-0.59750295,7.6107183
1448849218344,195395775173316,3.6333506,-1.2942157,8.905981
1448849218363,195395795253883,3.7530608,-1.3995606,8.372074
1448849218384,195395815090308,3.827281,0.40566754,8.527698
1448849218406,195395835445533,3.6213796,-0.11866262,9.09273
1448849218423,195395855159888,4.315698,-2.5296237,8.561216
1448849218445,195395875423560,4.1050086,-1.0547955,8.568399
1448849218464,195395895076881,4.4737153,-4.028394,7.1606083
1448849218486,195395915401588,4.4521675,-3.4178727,8.29546
1448849218503,195395935176978,4.421043,-6.3148565,7.998579
1448849218525,195395955410133,4.7705965,-5.5247703,6.803872
1448849218545,195395975063453,3.2311249,-5.5295587,5.7169046
1448849218566,195395995388160,4.143316,-6.4321723,6.3657336
1448849218583,195396015163550,3.341258,-4.4282255,6.241235
1448849218605,195396035427222,3.3843536,-4.239084,6.049699
1448849218624,195396055080543,2.4123077,-4.622156,6.030545
1448849218646,195396075435767,2.663699,-5.1225443,5.7767596
1448849218663,195396095180640,4.061913,-4.6532807,5.0608935
1448849218685,195396115413795,3.614197,-4.6604633,5.431995
1448849218704,195396135097633,4.9741035,-5.9461493,4.287566
1448849218726,195396155422340,4.4425907,-5.323657,4.3929114
1448849218743,195396175197730,5.867141,-4.978892,4.0265985
1448849218765,195396195400367,5.1009965,-5.6372976,3.8494275
1448849218785,195396215084205,7.416189,-4.6724343,3.8254855
1448849218813,195396235439429,7.1073375,-4.777779,4.270807
1448849218824,195396255123267,9.286061,-4.6963763,3.8159087
1448849218846,195396275447974,8.524705,-4.3683705,3.5549407
1448849218863,195396295162330,9.350704,-3.9134724,3.9116766
1448849218883,195396315395484,9.539846,-4.6006083,4.1726446
1448849218904,195396335079322,9.2286005,-2.5511715,2.9731495
1448849218927,195396355434547,9.310003,-2.8456583,3.727323
1448849218960,195396375179420,9.544635,-2.697218,2.6858454
1448849218973,195396398586402,9.432107,-2.8241105,2.4033296
1448849218993,195396425197730,8.3211975,-2.6014497,2.9324481
1448849219019,195396445186744,7.942914,-3.863194,3.428048
1448849219034,195396465175758,7.315633,-5.409848,3.6459203
1448849219055,195396485317359,7.942914,-3.863194,3.428048
1448849219074,195396505336890,6.3387985,-7.7872906,1.2349591
1448849219134,195396536373267,6.614132,-9.479991,0.052223526
1448849219136,195396554988990,6.8822823,-9.908553,-0.10579379
1448849219146,195396575252662,6.6931405,-8.328381,0.38022915
1448849219162,195396595119605,6.3842883,-7.7250414,1.2158055
1448849219188,195396615902076,6.4992104,-9.025093,1.4863503
1448849219206,195396635433326,6.089802,-9.307609,2.5924716
1448849219226,195396655422340,6.1712046,-9.3243685,3.7776015
1448849219243,195396675167213,7.222259,-8.9101715,2.989909
1448849219265,195396695400367,7.75856,-7.626879,2.989909
1448849219284,195396715053687,7.6196966,-6.968474,3.0162451
1448849219306,195396735439429,7.16001,-6.781726,4.043358
1448849219323,195396755153785,6.9086185,-6.3866825,4.924424
1448849219345,195396775417457,7.2031054,-5.2949266,4.629937
1448849219367,195396795101295,7.375488,-4.2965446,3.5621233
1448849219387,195396815456519,7.4305544,-3.7961564,2.6642976
1448849219407,195396835384498,7.0235405,-4.1888056,3.4208653
1448849219426,195396855220924,5.9102364,-4.6149735,4.795137
1448849219447,195396875270972,5.9485435,-5.321263,6.174197
1448849219466,195396895382056,6.0850134,-4.4066777,6.2029276
1448849219487,195396915340552,5.8623524,-3.1353567,6.257994
1448849219506,195396935207496,5.4601264,-1.9454385,6.111948
1448849219527,195396955288062,4.7801733,-1.6677111,5.587618
1448849219546,195396975368629,4.2749968,-1.8927661,6.269965
1448849219569,195396995296607,3.6501102,-1.6772879,6.133496
1448849219586,195397015255103,2.7235541,-1.5934908,6.265177
1448849219607,195397035457740,2.0914848,-2.3692122,6.803872
1448849219628,195397055416236,1.2894273,-2.5368063,7.8980227
1448849219644,195397075222144,0.025288755,-5.783344,9.88521
1448849219664,195397095211158,-0.38651395,-7.3467574,10.751911
1448849219683,195397115169654,-0.81268185,-9.250148,12.537986
1448849219703,195397135158668,-2.237232,-11.407324,14.719103
1448849219723,195397155300269,-1.9379567,-10.813561,13.021614
1448849219743,195397175197730,-1.2508208,-6.6596217,9.997737
1448849219763,195397195308814,-1.3777134,-5.4026656,6.6626143
1448849219783,195397215175758,-0.5995979,-5.824045,5.6307135
1448849219803,195397235286842,0.17851767,-4.966921,5.9874496
1448849219823,195397255184302,0.73157823,-1.3564649,6.1167364
1448849219843,195397275325904,1.6796821,0.111180745,6.439954
1448849219863,195397295192847,3.053954,-0.621445,6.207716
1448849219883,195397315303931,4.5814548,-2.3380876,5.721693
1448849219903,195397335201392,5.0531125,-2.022053,6.305878
1448849219923,195397355312476,3.731513,-1.0547955,6.502203
1448849219943,195397375179420,3.1569047,-0.44906247,6.5548754
1448849219963,195397395290504,1.8161516,0.79831666,6.384887
1448849219983,195397415157447,0.7674913,-4.8543935,10.292224
1448849220013,195397436061988,2.0771196,-11.665897,15.506796
1448849220025,195397455165992,5.4002714,-10.179098,17.448494
1448849220042,195397475093970,4.3228807,-5.749825,8.566005
1448849220064,195397495052467,2.0603602,-2.9893105,5.0465283
1448849220082,195397515071998,1.6796821,-4.6389155,6.253206
1448849220107,195397535091529,1.7802386,-6.166416,8.98499
1448849220123,195397555599342,0.8249521,-4.6772227,10.227581
1448849220143,195397575161109,-0.10399814,-2.4386442,9.214833
1448849220165,195397595302711,-0.95154554,-2.6948237,8.422353
1448849220185,195397615200172,-1.0760441,-3.4513915,8.087165
1448849220204,195397635402808,-0.8653543,-4.6724343,8.372074
1448849220223,195397655208717,-0.6738181,-4.7131357,8.300248
1448849220243,195397675319800,-1.0449194,-4.6149735,8.233211
1448849220263,195397695156226,-0.8797195,-4.411466,8.276306
1448849220283,195397715328345,-0.70733696,-4.107403,8.391228
1448849220303,195397735164771,-0.9156325,-3.24549,8.34095
1448849220323,195397755306373,-1.0544962,-3.0395887,7.3856635
1448849220344,195397775203834,-1.1358991,-5.1728225,7.713669
1448849220365,195397795131812,-1.0856209,-7.590966,7.3473563
1448849220385,195397815212379,-0.81747025,-7.4090066,7.7567644
1448849220405,195397835750709,-0.8892963,-6.403442,7.6993036
1448849220424,195397855098853,-0.73367316,-4.7466545,7.5388923
1448849220445,195397875118384,-0.81028765,-2.891148,7.730428
1448849220464,195397895107398,-0.9874586,-2.891148,8.850915
1448849220483,195397915310035,-0.50382984,-4.279785,8.427141
1448849220503,195397935421119,-0.27159226,-3.5519478,8.331373
1448849220525,195397955318580,-0.5924153,-2.8719945,8.556428
1448849220545,195397975185523,-1.3633482,-4.409072,9.449465
1448849220564,195397995357642,-1.7368437,-5.421819,9.825355
1448849220583,195398015194068,-1.574038,-4.1983824,9.0376625
1448849220603,195398035335670,-1.4471453,-2.6229975,8.168568
1448849220623,195398055172095,-2.2515972,-2.4697688,8.309825
1448849220643,195398075252662,-2.821417,-2.7762265,8.13026
1448849220664,195398095180640,-2.845359,-3.020435,7.8070426
1448849220683,195398115169654,-3.3816602,0.058508303,9.030479
1448849220703,195398135189185,-3.2427967,0.5708675,9.320178
1448849220723,195398155330787,-2.6993127,-0.72678983,10.229975
1448849220743,195398175167213,-2.440739,-1.6341923,10.002525
1448849220763,195398195278297,-2.1941361,-0.80819273,9.593118
1448849220783,195398215236793,-1.7703625,-0.5017349,9.126248
1448849220803,195398235286842,-1.846977,-0.7435493,8.4486885
1448849220823,195398255153785,-2.3880665,-2.3213282,8.7910595
1448849220843,195398275295386,-3.5253124,-3.3508348,9.86845
1448849220863,195398295162330,-4.746355,-5.0148053,10.498125
1448849220883,195398315334449,-4.248361,-6.530335,11.05358
1448849220903,195398335201392,-4.4901757,-4.655675,10.387992
1448849220923,195398355281959,-3.6450224,-2.508076,9.176526
1448849220943,195398375209937,-2.6753707,-0.32935238,8.235605
1448849220963,195398395290504,-1.0904093,0.95154554,7.301866
1448849220983,195398415157447,-0.10878654,0.83662385,7.0815997
1448849221003,195398435299049,0.5065233,0.27159226,7.368904
1448849221023,195398455165992,1.4426562,0.16145898,6.6027594
1448849221043,195398475307593,1.8736125,1.442357,5.7887306
1448849221063,195398495174537,0.30780455,0.5636849,7.9052052
1448849221083,195398515285621,0.4825813,0.4750994,8.077588
1448849221103,195398535183082,-0.50143564,-7.380276,12.2698345
1448849221123,195398555324683,0.07796119,-14.261212,17.939304
1448849221143,195398575161109,2.0555718,-9.420136,11.156531
1448849221163,195398595333228,0.32935238,-3.7339072,7.038504
1448849221184,195398615291724,-1.5046061,-3.353229,6.150255
1448849221203,195398635250220,-0.9874586,-5.498434,6.8613334
1448849221226,195398655178199,-0.7959224,-6.4489317,7.000197
1448849221243,195398675350318,-1.918803,-6.1951466,7.2970777
1448849221263,195398695156226,-2.510171,-6.5447,7.1749735
1448849221283,195398715206275,-3.1230865,-8.187122,7.775918
1448849221303,195398735164771,-3.6091094,-8.644415,7.6107183
1448849221323,195398755245338,-3.3098342,-5.7905264,7.878869
1448849221343,195398775173316,-2.830994,-5.024382,7.9698486
1448849221365,195398795498023,-1.9235914,-4.4282255,8.08477
1448849221385,195398815151343,-0.83662385,-3.614197,8.348132
1448849221404,195398835384498,0.11866262,-2.7642555,8.374469
1448849221425,195398855129371,1.2463316,-2.4889224,7.5556517
1448849221445,195398875759254,1.6820763,-3.293374,6.9140058
1448849221465,195398895198951,2.3165398,-4.203171,6.2148986
1448849221484,195398915401588,2.318934,-4.9046717,6.1406784
1448849221505,195398935207496,1.7251719,-4.9717093,6.4495306
1448849221524,195398955379615,1.5072997,-5.1129675,7.4215765
1448849221545,195398975185523,1.2199954,-5.800103,8.132654
1448849221564,195398995357642,1.37083,-4.727501,9.526079
1448849221585,195399015194068,0.43230304,-3.9374144,9.516502
1448849221604,195399035427222,0.008529344,-2.654122,9.1334305
1448849221625,195399055202613,-0.4798878,-1.7323545,8.470237
1448849221644,195399075405250,-0.31947628,-1.9741689,7.9195704
1448849221665,195399095211158,0.05641338,-2.757073,7.414394
1448849221684,195399115413795,0.15218145,-4.2965446,7.2444053
1448849221705,195399135189185,0.24555531,-3.9733274,7.682544
1448849221724,195399155391822,0.07796119,-3.3197103,7.4574895
1448849221745,195399175228248,-0.30989948,-2.9079075,7.7352166
1448849221764,195399195400367,-0.6355109,-2.5008934,8.079982
1448849221785,195399215206275,-0.96351653,-2.4530094,8.328979
1448849221804,195399235408912,-0.9898528,-2.1824646,8.513332
1448849221825,195399255184302,-1.1766005,-1.9789573,8.484602
1448849221844,195399275417457,-1.3657424,-1.4115316,8.357709
1448849221865,195399295192847,-1.2699744,-1.8496704,9.815778
1448849221884,195399315395484,-1.8972552,-3.17127,10.818949
1448849221905,195399335201392,-1.4040496,-4.969315,12.013656
1448849221924,195399355404029,-0.42960957,-6.381894,10.155755
1448849221952,195399375209937,-0.3410241,-5.0435357,8.649802
1448849221965,195399395748267,-0.5493196,-4.1265564,7.9315414
1448849221983,195399415096412,-0.73367316,-3.4896986,8.0823765
1448849222004,195399435085425,-1.3441947,-3.6932058,9.07597
1448849222023,195399455104957,-1.7129017,-4.181623,9.777471
1448849222044,195399475093970,-1.8565538,-4.7370777,9.729587
1448849222063,195399495418677,-1.4974235,-4.622156,9.430311
1448849222085,195399515194068,-1.3322237,-4.0307884,9.473407
1448849222103,195399535183082,-1.1215339,-4.5311766,9.102306
1448849222125,195399555172095,-1.88289,-5.189582,8.486996
1448849222143,195399575161109,-2.4503157,-6.2573957,8.0728
1448849222163,195399595180640,-2.2635682,-5.9102364,7.72564
1448849222185,195399615047584,-2.1534348,-4.6652517,7.4455185
1448849222204,195399635250220,-1.5046061,-3.9302318,7.658602
1448849222224,195399655178199,-1.1981484,-3.2957683,8.106318
1448849222243,195399675136695,-0.70254856,-2.6325743,8.508544
1448849222265,195399695034156,-0.40087914,-2.424279,8.530091
1448849222284,195399715297828,-0.23328502,-2.9988873,9.123854
1448849222303,195399735164771,-0.17342998,-2.6804585,8.937106
1448849222323,195399755153785,0.025288755,-2.165705,8.7671175
1448849222345,195399775081763,0.5472247,-1.5120881,8.319402
1448849222364,195399795101295,0.8225579,-1.2702737,8.240394
1448849222384,195399815181861,1.2343606,-1.3013983,8.032098
1448849222403,195399835140357,1.6820763,-1.3325229,7.8238025
1448849222425,195399855037818,1.7634792,-1.0739491,8.412776
1448849222444,195399875270972,1.6605285,-0.8776246,8.755147
1448849222464,195399895168433,1.6892589,-0.5376479,8.7671175
1448849222483,195399915157447,1.2223896,-1.203236,9.052028
1448849222505,195399935085425,1.559972,-3.4537857,9.056816
1448849222524,195399955257545,0.7555203,-3.2766147,9.535657
1448849222544,195399975185523,-0.4487632,-1.4091374,9.5787525
1448849222563,195399995174537,-1.4064438,-1.6653169,9.49256
1448849222584,195400015041480,-2.581997,-2.2734442,9.559599
1448849222604,195400035305152,-3.4199674,-3.17127,10.112659
1448849222624,195400055202613,-3.5755906,-3.9852984,10.146178
1448849222643,195400075191627,-3.6354456,-4.2989388,10.00492
1448849222665,195400095119605,-3.1997008,-3.1640873,9.878027
1448849222684,195400115230689,-3.118298,-1.6389807,9.399187
1448849222704,195400135189185,-3.0297127,-1.0093056,9.260324
1448849222723,195400155147681,-2.974646,-0.96621,9.181314
1448849222743,195400175350318,-3.0033765,-0.8225579,8.994567
1448849222762,195400195125709,-3.0488663,-0.30541036,8.98499
1448849222784,195400215023170,-3.2667387,0.03696049,8.941895
1448849222803,195400235134254,-3.5468602,-0.20006548,8.642619
1448849222823,195400255062232,-3.7910688,-0.06120178,8.309825
1448849222843,195400275142799,-4.233996,-0.15696985,8.484602
1448849222863,195400295070777,-4.468628,-0.49455228,8.762329
1448849222884,195400315487037,-4.708048,0.01062427,8.803031
1448849222904,195400335140357,-4.7870564,0.18779519,9.054422
1448849222924,195400355220924,-4.825364,-0.43230304,8.910769
1448849222944,195400375240455,-4.588338,-0.942268,8.656984
1448849222964,195400395229468,-4.336947,-0.6190508,8.539668
1448849222984,195400415126929,-4.233996,-0.8201637,8.59713
1448849223004,195400435268531,-4.090344,-1.155352,8.630649
1448849223024,195400455165992,-4.152593,-1.2678795,8.582765
1448849223044,195400475307593,-4.102315,-0.8441057,8.439112
1448849223063,195400495174537,-4.0759788,-1.1745056,8.070405
1448849223083,195400515194068,-4.2866683,-1.9693805,7.766341
1448849223105,195400535091529,-4.257938,-2.532018,7.558046
1448849223124,195400555233131,-4.102315,-2.8241105,7.380875
1448849223143,195400575161109,-4.0975266,-2.972551,7.330597
1448849223163,195400595211158,-4.269909,-2.3716063,7.44073
1448849223185,195400615078101,-4.2076597,-1.4354736,7.802254
1448849223204,195400635158668,-4.1334395,-1.3851954,8.273912
1448849223224,195400655208717,-4.212448,-1.3157635,8.410381
1448849223243,195400675136695,-4.04246,-1.0093056,8.252364
1448849223265,195400695064674,-4.186112,-0.7842507,8.154202
1448849223284,195400715236793,-4.7367783,-1.0404303,8.515726
1448849223304,195400735195289,-5.198859,-1.0667665,8.685715
1448849223323,195400755153785,-5.2036476,-0.80819273,8.455872
1448849223345,195400775051246,-5.198859,-0.9805752,8.149414
1448849223364,195400795223365,-5.06239,-1.3780127,8.4008045
1448849223384,195400815181861,-4.779874,-0.99015206,8.41517
1448849223403,195400835201392,-4.5572133,-0.71242464,8.561216
1448849223424,195400855068336,-4.5691843,-1.0571897,8.652196
1448849223444,195400875209937,-4.6050973,-1.0571897,8.668956
1448849223464,195400895168433,-4.602703,-1.3205519,8.688109
1448849223483,195400915157447,-4.334553,-1.3971664,8.5205145
1448849223510,195400934963355,-4.080767,-1.5336359,8.259547
1448849223525,195400955349097,-3.8820484,-1.7754502,8.197298
1448849223543,195400975093970,-3.8796542,-2.0507834,8.257153
1448849223564,195400995082984,-3.9538746,-1.6222212,8.135049
1448849223583,195401015102515,-3.87726,-1.53603,7.9339356
1448849223605,195401035396705,-3.7360022,-1.9502269,7.8477445
1448849223623,195401055172095,-3.7192428,-2.1800704,7.778312
1448849223645,195401075130592,-3.8389528,-1.844882,7.8836575
1448849223663,195401095180640,-3.9514802,-1.392378,7.876475
1448849223683,195401115139136,-4.090344,-1.5144823,7.9794254
1448849223705,195401135067115,-3.9442976,-1.5025113,8.348132
1448849223724,195401155300269,-3.8078282,-1.6102502,8.642619
1448849223744,195401175197730,-3.769521,-1.7132009,8.630649
1448849223763,195401195156226,-3.700089,-2.5176528,8.750359
1448849223785,195401215084205,-3.6593876,-2.7977743,8.774301
1448849223804,195401235256324,-3.6713586,-2.484134,8.666561
1448849223824,195401255153785,-3.8078282,-2.864812,8.5444565
1448849223843,195401275142799,-3.8150108,-2.4769514,8.515726
1448849223865,195401295070777,-3.7192428,-2.4434326,8.319402
1448849223884,195401315334449,-3.7024832,-2.3356934,8.144626
1448849223903,195401335170875,-3.721637,-2.6373627,8.381651
1448849223923,195401355129371,-3.5253124,-2.5224411,8.532486
1448849223943,195401375057349,-3.4343326,-2.259079,8.393622
1448849223963,195401395198951,-3.3984196,-2.7307367,8.501361
1448849223985,195401415065894,-3.4439094,-2.7738323,8.712051
1448849224004,195401435299049,-3.4917936,-2.3356934,8.613889
1448849224023,195401455165992,-3.4008138,-2.342876,8.343344
1448849224043,195401475185523,-3.3696892,-2.5056818,8.393622
1448849224065,195401495082984,-3.30744,-2.8121395,8.410381
1448849224084,195401515285621,-3.3241994,-2.4793456,8.321796
1448849224103,195401535183082,-3.3481414,-2.4218848,8.458265
1448849224125,195401555111060,-3.3170168,-2.6924295,8.484602
1448849224142,195401575069556,-3.4678516,-2.6086323,8.561216
1448849224163,195401595150123,-3.4295442,-2.4673746,8.305037
1448849224183,195401615078101,-3.403208,-2.2423196,8.190115
1448849224203,195401635128150,-3.3960254,-2.2327428,8.31222
1448849224223,195401655117164,-3.4606688,-2.424279,8.441506
1448849224243,195401675167213,-3.4247558,-2.5104702,8.467842
1448849224267,195401694942603,-3.3241994,-2.129792,8.357709
1448849224285,195401715603004,-3.3649008,-2.5846903,8.396016
1448849224303,195401735103736,-3.3649008,-2.673276,8.630649
1448849224324,195401755062232,-3.3218052,-2.642151,8.623466
1448849224343,195401775112281,-3.2882864,-2.6828527,8.422353
1448849224364,195401795009742,-3.223643,-2.2303486,8.202086
1448849224387,195401815181861,-3.259556,-2.5655367,8.386439
1448849224404,195401835201392,-3.3601124,-2.5631425,8.556428
1448849224425,195401855342994,-3.1997008,-2.2088008,8.218845
1448849224444,195401875026832,-3.0919619,-2.1752818,8.103924
1448849224466,195401895778785,-3.2811038,-2.5272295,8.475025
1448849224484,195401915218482,-3.3385646,-2.9557917,8.805425
1448849224509,195401935451636,-3.1757588,-2.5463831,8.618677
1448849224524,195401955227027,-3.046472,-2.4913166,8.611495
1448849224549,195401975429664,-3.1949124,-2.8576293,8.635437
1448849224564,195401995174537,-3.1398458,-2.7044005,8.697686
1448849224588,195402015346656,-2.9794345,-2.5655367,8.556428
1448849224604,195402035183082,-2.929156,-2.7642555,8.549245
1448849224629,195402055446754,-2.9818287,-2.8217163,8.58037
1448849224644,195402075222144,-3.0847793,-2.448221,8.566005
1448849224669,195402095394263,-3.1709704,-2.6493337,8.558823
1448849224684,195402115230689,-3.0297127,-2.342876,8.642619
1448849224709,195402135433326,-2.9794345,-2.3237224,8.53488
1448849224724,195402155208717,-3.0177417,-2.3620296,8.391228
1448849224749,195402175441871,-3.1087213,-1.619827,7.9075994
1448849224764,195402195217261,-3.259556,-3.5806782,8.62586
1448849224788,195402215450416,-2.5365071,-5.0626893,8.870069
1448849224804,195402235164771,-2.6226983,-3.6333506,8.855703
1448849224829,195402255397925,-3.166182,-3.0635307,8.752752
1448849224844,195402275234351,-3.4989762,-2.4649804,8.372074
1448849224869,195402295436988,-3.5899558,-2.2207718,8.4439
1448849224884,195402315242896,-3.7671268,-1.9574095,8.077588
1448849224909,195402335445533,-3.8964136,-2.2159834,8.252364
1448849224924,195402355220924,-4.020912,-2.5415947,8.759935
1448849224949,195402375454078,-3.8126166,-2.7714381,8.697686
1448849224964,195402395198951,-3.616292,-3.0467713,8.4486885
1448849224989,195402415432105,-3.42715,-2.946215,8.0728
1448849225004,195402435207496,-3.451092,-2.8336873,7.8956285
1448849225032,195402455227027,-3.7838862,-3.0946553,8.7671175
1448849225052,195402485134254,-4.0376716,-2.5631425,8.975413
1448849225073,195402505092750,-4.030489,-2.1010616,8.668956
1448849225092,195402525112281,-4.0472484,-1.8879777,8.226028
1448849225113,195402545101295,-4.0472484,-1.428291,8.436718
1448849225132,195402565090308,-4.1932945,-2.2303486,8.642619
1448849225153,195402585140357,-4.2387843,-2.520047,8.546851
1448849225172,195402605098853,-4.317793,-2.034024,8.288278
1448849225193,195402625118384,-4.0879498,-0.71481884,7.977031
1448849225212,195402645137916,-4.016124,0.020201078,7.9099936
1448849225233,195402665096412,-3.8868368,0.10878654,8.180538
1448849225252,195402685085425,-3.9035962,0.8892963,8.261941
1448849225274,195402705104957,-4.3680716,1.4926351,8.566005
1448849225292,195402725124488,-4.626645,1.906832,8.230817
1448849225314,195402745113502,-4.7655087,2.3473651,8.240394
1448849225333,195402765163550,-4.9115553,1.8421886,8.063223
1448849225358,195402785213599,-4.6529813,1.2029368,7.452701
1448849225373,195402805111060,-4.5811553,1.0568904,7.2563763
1448849225394,195402825161109,-4.411167,1.3441947,6.906823
1448849225412,195402845058570,-4.284274,1.5213655,6.9594955
1448849225434,195402865169654,-4.1334395,1.2029368,6.87091
1448849225452,195402885097633,-3.9562688,1.4064438,6.70571
1448849225474,195402905178199,-4.028095,1.6291046,6.586
1448849225492,195402925106177,-4.018518,2.0026002,6.504597
1448849225514,195402945186744,-3.8796542,2.467075,6.430377
1448849225532,195402965023170,-4.016124,3.6833296,6.5692406
1448849225555,195402985164771,-4.746355,4.324976,6.8326025
1448849225572,195403005092750,-4.9857755,4.5260887,7.476643
1448849225594,195403025173316,-5.1797056,4.8014216,8.20448
1448849225612,195403045009742,-5.0169,4.1358337,8.977807
1448849225635,195403065181861,-4.346524,3.0321069,9.664944
1448849225653,195403085170875,-4.018518,3.709666,9.985766
1448849225674,195403105190406,-4.1956887,4.435109,10.361656
1448849225692,195403125118384,-4.4279265,4.080767,10.560375
1448849225714,195403145168433,-4.4039845,2.8908489,9.569176
1448849225732,195403165096412,-3.9802108,2.3473651,9.205256
1448849225755,195403185176978,-3.5899558,2.1270986,9.226805
1448849225773,195403205165992,-3.259556,2.6753707,8.958653
1448849225795,195403225155006,-3.0967503,2.842965,8.645014
1448849225813,195403245113502,-2.866907,2.6370635,8.59713
1448849225833,195403265255103,-2.4934115,2.6825533,8.616283
1448849225853,195403285122047,-2.6250925,2.8788779,8.688109
1448849225876,195403305294166,-2.716072,3.082385,8.922741
1448849225892,195403325069556,-2.9602807,3.604321,8.793454
1448849225920,195403345241675,-2.4982,3.7719152,9.095123
1448849225932,195403365108619,-2.4598925,3.5372834,8.788666
1448849225960,195403385219703,-2.1534348,3.2978632,8.649802
1448849225972,195403405117164,-1.9762639,3.8748658,8.664167
1448849226000,195403425228248,-1.8613422,4.4015903,9.087941
1448849226012,195403445125709,-1.918803,4.052037,8.961048
1448849226040,195403465297828,-1.7919103,3.7767036,8.726417
1448849226053,195403485134254,-1.8781016,4.360889,8.898799
1448849226080,195403505245338,-1.9379567,4.6673465,8.855703
1448849226093,195403525112281,-1.9618987,4.423138,8.831761
1448849226120,195403545223365,-1.7536031,4.3106103,8.795848
1448849226132,195403565120826,-1.8374002,4.4518685,8.733599
1448849226160,195403585231910,-1.7129017,4.528483,8.539668
1448849226172,195403605098853,-1.621922,4.7008653,8.396016
1448849226201,195403625270972,-1.4567221,4.9163437,8.384046
1448849226213,195403645107398,-1.4758757,4.89719,8.283489
1448849226240,195403665218482,-1.5117887,4.837335,8.20448
1448849226253,195403685146461,-1.6626234,5.0576015,8.065617
1448849226280,195403705257545,-1.657835,4.9714103,8.278701
1448849226292,195403725093970,-1.5309423,5.0911202,8.259547
1448849226320,195403745296607,-1.4160206,5.194071,8.403199
1448849226332,195403765102515,-1.6075568,4.909161,8.637831
1448849226364,195403785305152,-1.7440263,4.61228,8.32419
1448849226383,195403815273414,-1.7559973,4.506935,8.654591
1448849226405,195403835292945,-2.0433016,4.5356655,8.7192335
1448849226423,195403855251441,-2.000206,4.564396,8.764724
1448849226445,195403875270972,-1.9379567,4.3824368,8.525303
1448849226463,195403895259986,-2.237232,3.75755,8.884434
1448849226485,195403915279517,-2.4263737,4.032883,8.872462
1448849226503,195403935268531,-2.522142,3.5660138,8.874857
1448849226525,195403955257545,-2.677765,3.6330514,9.147796
1448849226543,195403975246558,-2.7807157,3.5660138,8.666561
1448849226565,195403995296607,-2.7783215,3.2643445,8.429535
1448849226582,195404014980445,-2.996194,3.4079964,8.666561
1448849226604,195404035335670,-3.1997008,2.4239795,8.051251
1448849226625,195404055263648,-3.4415152,3.0033765,8.228422
1448849226645,195404075252662,-3.8245876,3.709666,8.707263
1448849226663,195404095333228,-3.709666,3.4319384,8.099135
1448849226685,195404115261207,-3.6689644,3.1997008,8.22124
1448849226703,195404135158668,-4.2172365,3.4319384,7.428759
1448849226725,195404155269752,-4.9498625,2.941127,7.960272
1448849226743,195404175258765,-5.289839,2.1151276,7.48622
1448849226765,195404195278297,-5.5795374,3.0009823,8.087165
1448849226783,195404215267310,-5.5220766,2.7998693,7.7807064
1448849226805,195404235286842,-5.6537576,2.060061,7.0768113
1448849226823,195404255245338,-5.883601,2.04809,6.9116116
1448849226846,195404275295386,-5.931485,2.0337248,7.301866
1448849226863,195404295223365,-6.23076,1.5548843,7.239617
1448849226885,195404315303931,-6.56116,1.2149078,7.098359
1448849226903,195404335201392,-6.8460703,0.791134,6.7128925
1448849226925,195404355312476,-6.9107137,0.20934302,6.9978027
1448849226943,195404375270972,-7.238719,-0.11148002,6.2986956
1448849226965,195404395321021,-7.5164466,0.6762124,6.609942
1448849226983,195404415157447,-7.2961802,1.1095629,6.2986956
1448849227005,195404435268531,-6.7239656,1.2723686,6.243629
1448849227023,195404455257545,-6.15654,0.24765024,6.46629
1448849227045,195404475277076,-5.5699606,-0.41075522,6.1430726
1448849227063,195404495235572,-5.026477,-0.8273463,6.46629
1448849227085,195404515316138,-5.220407,-0.55440736,6.564452
1448849227103,195404535183082,-5.890784,-0.2551321,6.708104
1448849227125,195404555294166,-6.522853,-0.16654666,7.4455185
1448849227143,195404575161109,-6.582708,0.30750528,7.5173445
1448849227165,195404595302711,-6.877195,0.24765024,7.23004
1448849227183,195404615169654,-6.9921165,-0.38681322,7.203704
1448849227205,195404635250220,-6.89156,-0.28625673,7.3258085
1448849227223,195404655239234,-7.0423946,-0.5017349,7.4670663
1448849227245,195404675289283,-7.4805336,0.29553428,7.1653967
1448849227263,195404695156226,-6.8604355,1.5141829,6.9499187
1448849227286,195404715328345,-5.835717,1.2627918,6.9475245
1448849227303,195404735164771,-5.0097175,1.1574469,6.480655
1448849227325,195404755245338,-4.7056537,1.3394063,6.8373914
1448849227342,195404775020728,-5.5340476,1.2867337,7.263559
1448849227367,195404795162330,-7.0184526,1.1646295,7.972243
1448849227383,195404815334449,-7.521235,1.3777134,7.608324
1448849227405,195404835170875,-6.6952353,1.5261539,7.5867763
1448849227423,195404855159888,-5.91712,1.8421886,7.608324
1448849227445,195404875332008,-5.7112184,2.392855,7.5628343
1448849227463,195404895168433,-5.7878327,2.4958057,7.4814315
1448849227483,195404915157447,-5.9362736,2.2946928,7.6035357
1448849227505,195404935085425,-5.7040358,2.5676317,7.2563763
1448849227524,195404955288062,-6.2211833,2.2779334,7.414394
1448849227543,195404975155006,-6.2930098,2.0313306,7.2563763
1448849227563,195404995205054,-6.099079,2.072032,7.2013097
1448849227585,195405015041480,-5.883601,2.333,7.0313215
1448849227604,195405035305152,-5.9243026,2.644246,7.024139
1448849227624,195405055172095,-5.9482446,2.5508723,7.179762
1448849227643,195405075191627,-5.929091,2.5077767,7.0648403
1448849227665,195405095058570,-5.9961286,2.2468088,7.0911765
1448849227684,195405115261207,-6.1493573,2.1582232,7.206098
1448849227703,195405135158668,-6.0344357,2.2396262,7.0911765
1448849227723,195405155147681,-5.845294,2.2204723,7.215675
1448849227745,195405175075660,-5.895572,2.3473651,7.4072113
1448849227764,195405195278297,-6.1421747,2.3306057,7.4910083
1448849227783,195405215175758,-6.0703487,2.3473651,7.4072113
1448849227803,195405235134254,-5.893178,2.3258173,7.414394
1448849227825,195405255062232,-5.7854385,2.2827218,7.27553
1448849227844,195405275264869,-5.7854385,2.3832781,7.404817
1448849227863,195405295162330,-5.7614965,2.2252607,7.27553
1448849227883,195405315181861,-5.7614965,2.2204723,7.323414
1448849227904,195405335079322,-5.7160068,2.131887,7.5436807
1448849227924,195405355281959,-5.6872764,2.1630116,7.2851067
1448849227943,195405375179420,-5.589114,2.131887,7.5436807
1448849227963,195405395198951,-5.54123,2.0935798,7.4550953
1448849227985,195405415096412,-5.5939026,1.9738697,7.730428
1448849228004,195405435299049,-5.646575,1.7248727,7.8836575
1448849228023,195405455165992,-5.625027,1.7966987,7.730428
1448849228043,195405475155006,-5.656152,1.9020436,7.8070426
1448849228065,195405495052467,-5.6034794,1.9523219,7.802254
1448849228084,195405515285621,-5.658546,1.9331683,7.7807064
1448849228105,195405535274634,-5.672911,1.9403509,7.641843
1448849228124,195405555263648,-5.622633,1.8661306,7.72564
1448849228144,195405575191627,-5.672911,1.9403509,7.641843
1448849228163,195405595180640,-5.6393924,1.9954175,7.4215765
1448849228185,195405615047584,-5.505317,1.88289,7.313837
1448849228204,195405635250220,-5.526865,1.7679683,7.215675
1448849228224,195405655178199,-5.6058736,1.8613422,7.313837
1448849228243,195405675197730,-5.4837694,1.7895161,7.368904
1448849228265,195405695095191,-5.4382796,1.8206408,7.8477445
1448849228284,195405715267310,-5.490952,1.9571103,7.558046
1448849228304,195405735164771,-5.524471,1.7583915,7.8477445
1448849228324,195405755275855,-5.63221,1.7057191,8.020126
1448849228343,195405775173316,-5.811775,1.6626234,8.0823765
1448849228363,195405795070777,-5.646575,1.8613422,8.091953
1448849228385,195405815090308,-5.4382796,1.9164088,7.763947
1448849228404,195405835262427,-5.440674,2.0744262,7.819014
1448849228424,195405855190406,-5.5196824,2.060061,7.763947
1448849228443,195405875179420,-5.5316534,1.8900726,7.416788
1448849228465,195405895046363,-5.5579896,1.8038813,7.3760867
1448849228484,195405915279517,-5.6513634,1.8086698,7.1725793
1448849228504,195405935176978,-5.658546,2.1247044,7.3760867
1448849228523,195405955165992,-5.452645,2.0624552,7.500585
1448849228545,195405975063453,-5.601085,2.0863972,7.8261967
1448849228564,195405995296607,-5.596297,2.000206,7.5915647
1448849228584,195406015163550,-5.5939026,1.823035,7.8261967
1448849228603,195406035152564,-5.823746,1.8541596,8.015338
1448849228625,195406055050025,-5.6872764,2.036119,7.6993036
1448849228644,195406075252662,-5.5819316,2.0385132,7.751976
1448849228664,195406095180640,-5.634604,2.0145712,7.6993036
1448849228683,195406115139136,-5.682488,2.0289364,7.6346602
1448849228705,195406135067115,-5.6298156,2.1247044,7.2683473
1448849228724,195406155300269,-5.493346,2.155829,7.4239707
1448849228744,195406175167213,-5.6034794,2.0073886,7.2683473
1448849228763,195406195125709,-5.718401,2.1007624,7.313837
1448849228785,195406215053687,-5.7926216,2.0504842,7.4215765
1448849228804,195406235256324,-5.7734675,2.1151276,7.5317097
1448849228823,195406255153785,-5.7231894,2.107945,7.4479127
1448849228843,195406275142799,-5.6417866,1.9523219,7.4000287
1448849228863,195406295131812,-5.744737,1.9810523,7.5293155
1448849228883,195406315212379,-5.7136126,2.0528784,7.5077677
1448849228904,195406335079322,-5.672911,2.0217538,7.644237
1448849228924,195406355251441,-5.6992474,1.9523219,7.4957967
1448849228943,195406375179420,-5.766285,1.9618987,7.5628343
1448849228963,195406395198951,-5.7614965,2.0073886,7.6250834
1448849228985,195406415035377,-5.6298156,2.0073886,7.60593
1448849229004,195406435299049,-5.5795374,2.0504842,7.620295
1448849229023,195406455196509,-5.718401,1.9140146,7.641843
1448849229043,195406475124488,-5.70643,1.9307741,7.6131124
1448849229065,195406495113502,-5.625027,1.9355625,7.5173445
1448849229084,195406515255103,-5.613056,2.0049944,7.572411
1448849229103,195406535183082,-5.646575,2.000206,7.6226892
1448849229123,195406555904517,-5.5939026,2.0768204,7.572411
1448849229142,195406575069556,-5.692065,2.012177,7.5771995
1448849229163,195406595180640,-5.730372,1.9020436,7.5628343
1448849229182,195406615078101,-5.646575,1.9403509,7.5436807
1448849229203,195406635128150,-5.6393924,1.9235914,7.464672
1448849229223,195406655117164,-5.577143,2.0456958,7.438336
1448849229243,195406675197730,-5.6513634,2.0073886,7.581988
1448849229265,195406695034156,-5.6058736,1.9283798,7.644237
1448849229284,195406715328345,-5.6417866,1.9954175,7.6011415
1448849229303,195406735195289,-5.684882,2.024148,7.5795937
1448849229323,195406755184302,-5.6657286,1.9930233,7.7112746
1448849229345,195406775081763,-5.6776996,1.88289,7.5293155
1448849229364,195406795162330,-5.670517,2.0169654,7.608324
1448849229383,195406815181861,-5.7351604,2.0911856,7.6131124
1448849229403,195406835170875,-5.680094,1.9595045,7.5867763
1448849229424,195406855037818,-5.4741926,2.0409074,7.3856635
1448849229444,195406875270972,-5.7112184,2.1247044,7.5053735
1448849229463,195406895198951,-5.682488,2.0935798,7.6155066
1448849229483,195406915126929,-5.598691,2.0073886,7.5412865
1448849229505,195406935054908,-5.7040358,1.8996494,7.450307
1448849229524,195406955288062,-5.7112184,2.0624552,7.476643
1448849229543,195406975155006,-5.550807,2.155829,7.5652285
1448849229563,195406995174537,-5.3784246,2.1965303,7.5269213
1448849229584,195407015071998,-5.5077114,2.2994812,7.4838257
1448849229612,195407035335670,-5.490952,2.2468088,7.5173445
1448849229625,195407055263648,-5.8141694,1.7583915,7.5748053
1448849229644,195407075283179,-5.8524766,2.143858,7.7447934
1448849229663,195407095180640,-5.620239,2.941127,7.5748053
1448849229683,195407115169654,-5.7614965,2.2922986,7.682544
1448849229705,195407135067115,-5.625027,2.2228665,7.653814
1448849229724,195407155300269,-5.6537576,1.9738697,7.5388923
1448849229743,195407175167213,-5.7255836,1.1957542,7.593959
1448849229763,195407195186744,-5.6537576,1.3705308,7.474249
1448849229785,195407215053687,-5.8644476,1.6674118,7.5077677
1448849229804,195407235286842,-5.7375546,1.609951,7.5556517
1448849229823,195407255153785,-5.625027,1.6913539,7.596353
1448849229843,195407275173316,-5.553201,1.7248727,7.5676227
1448849229865,195407295040259,-5.464616,1.4375684,7.653814
1448849229884,195407315273414,-5.490952,1.3657424,7.728034
1448849229903,195407335170875,-5.538836,1.4782699,7.96506
1448849229923,195407355129371,-5.42152,1.4399626,8.032098
1448849229945,195407375057349,-5.232378,1.6530466,7.9674544
1448849229964,195407395259986,-5.0599957,1.6362872,8.252364
1448849229984,195407415157447,-5.115062,1.59798,8.230817
1448849230003,195407435207496,-5.002535,1.7512089,8.180538
1448849230025,195407455104957,-4.954651,1.5046061,8.185327
1448849230044,195407475277076,-4.882825,1.0832267,8.237999
1448849230063,195407495174537,-4.9378915,1.2220904,8.307431
1448849230083,195407515133033,-4.918738,1.3657424,8.036886
1448849230105,195407535122047,-4.8086042,1.3441947,8.235605
1448849230124,195407555294166,-4.746355,1.1215339,8.6091
1448849230144,195407575191627,-4.6098857,1.0353426,8.237999
1448849230163,195407595150123,-4.600309,0.8869021,8.48939
1448849230185,195407615047584,-4.4734163,0.83901805,8.455872
1448849230204,195407635219703,-4.7487493,1.0305542,8.319402
1448849230224,195407655178199,-4.3561006,1.4615105,8.288278
1448849230243,195407675136695,-4.2268133,0.80789346,8.905981
1448849230265,195407695064674,-4.317793,0.5756559,8.7431755
1448849230284,195407715297828,-4.444686,0.36017773,8.419958
1448849230303,195407735164771,-4.293851,0.9036615,8.4486885
1448849230323,195407755123267,-4.114286,1.3633482,8.300248
1448849230345,195407775051246,-3.9730282,0.30271688,8.465448
1448849230364,195407795162330,-4.3656774,-0.16415246,8.812608
1448849230385,195407815456519,-4.4015903,-0.43948564,8.831761
1448849230403,195407835201392,-4.4973583,-0.6142624,9.277082
1448849230423,195407855098853,-4.224419,-0.2287959,8.843732
1448849230444,195407875087867,-3.9849992,0.30032268,8.755147
1448849230463,195407895107398,-4.1310453,-0.39160162,9.420734
1448849230485,195407915371070,-4.37286,-0.7914333,10.110265
1448849230503,195407935176978,-4.6553755,-1.0595839,10.775853
1448849230523,195407955196509,-4.4853873,-0.88241297,11.321731
1448849230545,195407975063453,-4.0855556,-0.27907413,12.391939
1448849230564,195407995296607,-3.8006456,1.3465889,12.537986
1448849230584,195408015163550,-3.3122284,1.2149078,11.822119
1448849230603,195408035061011,-2.5412955,1.1789947,9.820566
1448849230625,195408055080543,-1.6027684,2.285116,8.34095
1448849230644,195408075283179,-0.93478614,1.6195278,7.5771995
1448849230664,195408095180640,0.03247136,-0.3652654,6.9714665
1448849230683,195408115139136,-0.15667057,-2.3237224,6.13589
1448849230705,195408135067115,-0.4559458,-3.2167597,5.554099
1448849230724,195408155300269,-0.9970354,-3.875165,5.4487543
1448849230743,195408175197730,-0.82944125,-5.6013846,4.6802154
1448849230763,195408195186744,-0.5828385,-4.095432,4.1487026
1448849230785,195408215084205,-0.5972037,-2.843264,3.8877347
1448849230804,195408235256324,-0.3458125,-4.6173677,4.385729
1448849230823,195408255062232,-0.37693712,-6.7075057,5.7049336
1448849230844,195408275234351,0.006135142,-8.563012,7.5029793
1448849230864,195408295131812,-0.25962123,-9.903765,9.88521
1448849230884,195408315242896,1.3229461,-9.037064,8.381651
1448849230904,195408335140357,0.91832596,-7.389853,6.600365
1448849230924,195408355220924,-0.197372,-5.5774426,6.344186
1448849230944,195408375179420,-0.5373486,-6.472874,7.313837
1448849230964,195408395229468,-0.60678047,-7.102549,7.8956285
1448849230984,195408415126929,-0.5373486,-6.954108,7.1630025
1448849231004,195408435238013,-0.82225865,-6.66441,6.4950204
1448849231024,195408455135474,-0.70494276,-6.853552,6.3106666
1448849231044,195408475246558,-0.43200377,-7.3491516,6.121525
1448849231064,195408495327125,-0.35538933,-7.231836,6.293907
1448849231084,195408515285621,-0.08963293,-7.0498767,6.1311016
1448849231103,195408535183082,-0.03696049,-6.927772,5.9467483
1448849231122,195408554988990,-0.13751696,-7.076213,6.121525
1448849231145,195408575222144,0.12823942,-7.0235405,5.6043773
1448849231163,195408595211158,0.42033204,-6.568642,5.56607
1448849231185,195408615017066,0.121056825,-7.186346,5.8916817
1448849231203,195408635189185,-0.034566287,-5.9341784,5.80549
1448849231225,195408655025611,0.360477,-7.3491516,6.8182373
1448849231243,195408675533424,0.039653964,-9.096919,4.8142905
1448849231265,195408695034156,0.19527708,-7.80405,4.483891
1448849231283,195408715328345,-0.70733696,-8.376265,5.0704703
1448849231305,195408735073218,-0.25483283,-7.9070005,5.0249805
1448849231324,195408755214820,0.40357262,-7.329998,5.6450787
1448849231344,195408775173316,0.6358102,-7.2246532,6.078429
1448849231363,195408795070777,1.0045172,-7.1336737,5.793519
1448849231385,195408815090308,0.7411551,-7.7034936,5.9754786
1448849231404,195408835262427,0.38920742,-7.8471456,5.9228063
1448849231424,195408855159888,0.022894554,-7.765743,5.503821
1448849231443,195408875148902,-0.013018472,-7.3491516,4.83105
1448849231465,195408895107398,-0.015412673,-7.578995,5.455937
1448849231484,195408915249000,0.18330607,-7.2150764,6.040122
1448849231503,195408935207496,0.5280711,-6.925378,5.817461
1448849231523,195408955135474,0.7627029,-7.926154,5.8892875
1448849231545,195408975063453,0.60707974,-7.16001,6.2963014
1448849231564,195408995296607,0.29583356,-7.2246532,6.042516
1448849231583,195409015194068,0.21921909,-6.7625723,5.89647
1448849231603,195409035152564,-0.28116906,-7.0953665,6.463896
1448849231625,195409055050025,-0.044143096,-7.3132386,6.4016466
1448849231644,195409075283179,-0.07526772,-7.567024,6.7224693
1448849231663,195409095180640,-0.20934302,-6.1807814,6.6650085
1448849231683,195409115200172,-0.7480384,-4.919037,7.287501
1448849231705,195409135067115,-1.6961423,-6.8822823,7.050475
1448849231724,195409155269752,-1.8326118,-7.492804,6.463896
1448849231744,195409175197730,-2.2515972,-5.9150248,5.3888993
1448849231763,195409195186744,-2.61791,-4.9046717,6.303484
1448849231785,195409215053687,-2.4982,-4.131345,8.230817
1448849231804,195409235256324,-2.7232547,-3.6764464,7.960272
1448849231823,195409255184302,-3.02253,-4.691588,7.2324343
1448849231843,195409275173316,-3.2643445,-4.562301,7.131878
1448849231865,195409295070777,-3.2380083,-2.9079075,6.8613334
1448849231884,195409315120826,-3.5133414,-3.1185973,7.737611
1448849231903,195409335598121,-3.3936312,-4.4880805,7.8453503
1448849231925,195409355098853,-3.1757588,-4.0044518,7.9339356
1448849231943,195409375148902,-3.1398458,-2.1920414,7.1366663
1448849231965,195409395107398,-3.0752025,-3.08029,7.414394
1448849231983,195409415126929,-3.0728083,-4.6987705,7.498191
1448849232005,195409435421119,-3.6617818,-4.1983824,8.34095
1448849232023,195409455165992,-3.8150108,-4.622156,8.151808
1448849232045,195409475185523,-3.4678516,-5.711518,8.135049
1448849232063,195409495174537,-2.1701941,-4.215142,8.652196
1448849232083,195409515163550,-2.1390696,-3.128174,8.901193
1448849232103,195409535061011,-2.4838347,-4.0116343,8.522909
1448849232123,195409555202613,-2.2132897,-3.8368578,8.077588
1448849232145,195409575069556,-1.6889597,-2.424279,8.491784
1448849232164,195409595302711,-1.8781016,-2.7474961,9.018509
1448849232183,195409615200172,-1.0880151,-3.434632,8.81979
1448849232203,195409635158668,-0.6618471,-3.2885857,8.982595
1448849232225,195409655056129,-0.94675714,-3.434632,9.485378
1448849232244,195409675258765,-1.2077252,-3.4489973,9.593118
1448849232263,195409695156226,-1.4519337,-3.6548986,9.904364
1448849232283,195409715145240,-1.4567221,-3.6070144,9.636213
1448849232305,195409735042701,-1.7224785,-2.6756701,9.50932
1448849232324,195409755245338,-1.5285481,-1.8736125,9.131037
1448849232344,195409775173316,-1.1622353,-0.9279028,8.874857
1448849232364,195409795162330,-1.0904093,-1.1625346,8.563611
1448849232384,195409815181861,-0.7887398,-1.0978911,8.300248
1448849232403,195409835140357,-0.11836334,-0.38920742,8.357709
1448849232424,195409855037818,0.6477812,-0.106691614,8.999355
1448849232444,195409875301490,0.7746739,-0.8776246,9.827749
1448849232464,195409895198951,1.1002853,-0.59271455,10.040833
1448849232483,195409915157447,1.0691607,-0.42033204,9.83972
1448849232504,195409935085425,0.9638158,0.09202713,9.478195
1448849232524,195409955257545,0.8728362,-0.19288288,9.322573
1448849232544,195409975155006,0.46582186,-0.57116675,9.363274
1448849232563,195409995144019,-0.13033436,-0.4849755,9.521291
1448849232585,195410015071998,-0.22131401,0.4918588,9.143007
1448849232604,195410035274634,-0.43679217,0.3242647,9.128642
1448849232623,195410055172095,-0.80310506,-0.73157823,9.351303
1448849232642,195410074978004,-0.84141225,-0.8512883,9.767894
1448849232665,195410095241675,-0.9874586,-0.8441057,10.064775
1448849232683,195410115261207,-0.93478614,-0.98775786,10.81416
1448849232705,195410135036597,-0.22610243,-0.978181,11.003303
1448849232723,195410155269752,0.13302784,-1.1194389,11.115829
1448849232745,195410175045142,0.5161001,-1.2439374,11.376798
1448849232763,195410195613990,1.0739491,-1.4713866,11.42947
1448849232785,195410215114722,1.1385926,-1.4665982,10.567557
1448849232803,195410235286842,1.5144823,-0.8177695,10.115053
1448849232825,195410255031715,1.8712183,-0.9518448,9.947459
1448849232844,195410275295386,2.5727193,-2.2902036,9.6266365
1448849232864,195410295162330,2.9438207,-3.4154785,10.062381
1448849232883,195410315151343,3.1257799,-3.5687072,10.2611
1448849232905,195410335048804,3.566313,-2.709189,9.763105
1448849232924,195410355251441,3.7482724,-0.98536366,8.862885
1448849232943,195410375179420,3.8799534,0.1806126,7.6633906
1448849232963,195410395168433,3.4777277,0.6379051,6.669797
1448849232985,195410415035377,3.5615246,0.6690297,5.953931
1448849233004,195410435268531,3.7506666,0.14948797,5.7169046
1448849233024,195410455196509,3.6213796,-0.657358,5.482273
1448849233044,195410475277076,3.3005567,-1.2678795,5.293131
1448849233063,195410495205054,2.7474961,-1.6772879,5.2021513
1448849233083,195410515133033,2.0866964,-1.9286791,5.1231427
1448849233105,195410535061011,1.0739491,-2.2495022,5.625925
1448849233124,195410555263648,0.24316111,-2.2279544,6.3777046
1448849233143,195410575161109,-0.35299513,-2.984522,6.9499187
1448849233163,195410595150123,-0.71930796,-3.0898669,7.1773677
1448849233185,195410615047584,-1.2125136,-3.2311249,6.7847185
1448849233204,195410635280738,-2.0073886,-3.9038956,7.0576577
1448849233224,195410655208717,-2.8118403,-4.799327,7.0073795
1448849233243,195410675167213,-3.3696892,-6.2550015,6.978649
1448849233265,195410695064674,-3.451092,-7.650821,6.70571
1448849233284,195410715328345,-3.8940194,-8.512733,6.0353336
1448849233304,195410735164771,-4.2435727,-8.347534,6.6410666
1448849233323,195410755184302,-6.6114383,-7.7154646,8.683321
1448849233344,195410775081763,-4.6673465,-6.357952,11.462989
1448849233364,195410795162330,-3.082385,-10.552593,9.353697
1448849233383,195410815181861,-6.573131,-9.563788,7.4239707
1448849233402,195410834987769,-4.554819,-7.2031054,4.09603
1448849233425,195410855220924,-3.8078282,-5.8168626,4.1941924
1448849233443,195410875270972,-3.2858922,-6.166416,5.455937
1448849233465,195410895015845,-2.677765,-6.82961,6.609942
1448849233483,195410915187965,-1.4136264,-7.4592853,7.8836575
1448849233505,195410935024390,-0.52298343,-6.925378,8.470237
1448849233523,195410955532203,-0.060902506,-5.967697,8.398411
1448849233545,195410975032935,0.042048167,-5.397877,7.5508633
1448849233563,195410995266090,-0.31947628,-4.4976573,7.1773677
1448849233585,195411015071998,-0.8916905,-3.9589622,7.3066545
1448849233604,195411035274634,-1.2963105,-4.097826,7.1390605
1448849233624,195411055172095,-1.6314988,-5.452944,7.1175127
1448849233643,195411075161109,-1.835006,-6.5447,7.2946835
1448849233664,195411095089088,-1.5357307,-6.9756565,7.3186255
1448849233684,195411115261207,-1.5093945,-6.7529955,7.4694605
1448849233703,195411135158668,-1.7727567,-5.752219,7.5029793
1448849233723,195411155147681,-1.6674118,-4.727501,7.048081
1448849233745,195411175075660,-0.5972037,-3.9852984,7.790283
1448849233764,195411195247779,1.0116999,-1.8185458,10.174909
1448849233783,195411215206275,2.72116,3.2882864,14.819659
1448849233803,195411235134254,4.5431476,8.268226,15.138088
1448849233825,195411255062232,0.91353756,7.5140524,11.304972
1448849233844,195411275264869,-3.4941878,-0.7411551,9.866056
1448849233864,195411295162330,-7.152528,-8.785673,10.522068
1448849233883,195411315151343,-10.166828,-11.031434,10.440664
1448849233905,195411335048804,-11.876287,-7.437737,3.9499838
1448849233924,195411355281959,-11.61532,-3.8368578,-1.2550106
1448849233944,195411375179420,-14.201057,1.2125136,-4.022708
1448849233963,195411395137916,-19.777153,0.74325,-7.563732
1448849233985,195411415096412,-16.432453,-0.6310218,-14.269891
1448849234004,195411435268531,-4.4063787,-4.646098,-16.960974
1448849234024,195411455196509,1.2247838,-17.993773,-9.337835
1448849234043,195411475185523,-7.6265798,-18.008139,-0.65646017
1448849234065,195411495113502,-8.419061,-12.1423435,-0.98446584
1448849234084,195411515255103,-6.510882,-10.538228,-4.640412
1448849234104,195411535213599,-2.9387329,-13.133543,-5.581333
1448849234123,195411555141578,-2.558055,-13.880534,-5.394585
1448849234152,195411575008521,-4.4063787,-10.291626,-2.9261634
1448849234162,195411594997535,-5.553201,-10.547805,-2.4545057
1448849234185,195411615230689,-6.278644,-10.638785,-2.3443723
1448849234203,195411635219703,-4.044854,-9.882217,-4.4584527
1448849234224,195411655056129,-3.5851674,-9.752931,-3.9939773
1448849234243,195411675228248,-4.969016,-7.4090066,-0.64448917
1448849234264,195411695003638,-4.708048,-7.126491,-2.5813982
1448849234284,195411715541968,-5.232378,-5.5151935,-2.5215433
1448849234304,195411735164771,-5.25632,-7.2892966,-3.9125745
1448849234323,195411755123267,-4.674529,-7.8112326,-6.7736454
1448849234344,195411775112281,-6.9442325,-9.04664,-6.5461965
1448849234364,195411795162330,-8.423849,-14.160656,-4.298041
1448849234384,195411815212379,-4.9738045,-14.151079,-12.900408
1448849234403,195411835170875,-5.174917,-8.196699,-8.073697
1448849234425,195411855098853,-7.619397,-0.006135142,-2.933346
1448849234444,195411875270972,-9.63771,-2.3524528,-0.33324295
1448849234463,195411895168433,-1.9762639,-8.584559,-4.420145
1448849234483,195411915157447,-5.1773114,-7.2869024,-8.30354
1448849234505,195411935054908,-4.435109,-6.2789435,-5.5238724
1448849234524,195411955257545,-3.3601124,-6.403442,-8.495076
1448849234544,195411975155006,-4.954651,-4.8543935,-7.269245
1448849234563,195411995144019,-2.9076083,-6.66441,-8.281993
1448849234585,195412015102515,-3.2547677,-6.271761,-5.7058315
1448849234604,195412035274634,-3.970634,-5.431396,-4.6092873
1448849234623,195412055172095,-3.7886746,-6.6093435,-4.831948
1448849234643,195412075161109,-4.176535,-5.7210946,-5.5358434
1448849234665,195412095058570,-4.5117235,-5.510405,-6.052991
1448849234684,195412115322242,-3.8317702,-6.8128505,-7.3075523
1448849234703,195412135189185,-3.8269818,-5.998822,-7.2117844
1448849234723,195412155147681,-3.7072716,-6.02037,-6.6419644
1448849234745,195412175075660,-4.308216,-5.6253266,-5.914127
1448849234764,195412195308814,-3.9658456,-5.9365726,-6.052991
1448849234784,195412215175758,-4.1094975,-6.077831,-6.199037
1448849234803,195412235195289,-4.1094975,-5.824045,-6.421698
1448849234825,195412255062232,-3.5731964,-5.8743234,-6.505495
1448849234844,195412275295386,-3.8485296,-5.9030538,-6.1176343
1448849234863,195412295192847,-3.8078282,-5.994034,-6.7736454
1448849234883,195412315151343,-3.5971384,-6.1472626,-7.1160164
1448849234912,195412335048804,-3.7144544,-6.089802,-7.2860045
1448849234925,195412355648170,-3.508553,-6.817639,-7.7121725
1448849234943,195412375118384,-3.568408,-6.6715927,-7.930045
1448849234964,195412395076881,-3.9203556,-6.006005,-7.851036
1448849234983,195412415096412,-3.3361704,-6.8750997,-7.6403465
1448849235004,195412435085425,-4.2986393,-5.35957,-4.858284
1448849235023,195412455410133,-2.4000375,-6.006005,-7.9132857
1448849235045,195412475155006,-3.2284315,-7.1671925,-8.286781
1448849235063,195412495205054,-2.9914055,-4.931008,-8.231714
1448849235085,195412515133033,-4.5356655,-3.4130843,-1.2574048
1448849235103,195412535213599,-1.9834465,-6.274155,-9.139117
1448849235123,195412555202613,-1.4710873,-7.0594535,-11.734431
1448849235145,195412575069556,-3.3218052,-5.275773,-5.4233155
1448849235164,195412595302711,-3.1637878,-6.152051,-9.515006
1448849235183,195412615200172,-1.253215,-6.2550015,-11.76795
1448849235203,195412635158668,-1.918803,-6.7625723,-8.370578
1448849235224,195412655086646,-3.2380083,-6.496816,-7.171083
1448849235244,195412675289283,-1.1047745,-6.2071176,-11.91639
1448849235264,195412695156226,-1.3322237,-6.7146883,-11.080814
1448849235283,195412715175758,-2.701707,-6.6835637,-7.6762595
1448849235305,195412735073218,-0.7504326,-6.7051115,-10.487052
1448849235324,195412755245338,-0.44397476,-6.142474,-11.868506
1448849235343,195412775173316,-1.2268788,-6.808062,-8.813505
1448849235363,195412795040259,-0.80789346,-6.580613,-8.791958
1448849235385,195412815120826,0.39639002,-6.080225,-10.520571
1448849235404,195412835292945,0.4873697,-5.8384104,-10.355371
1448849235424,195412855159888,0.59989715,-6.8966475,-8.528595
1448849235443,195412875209937,1.2223896,-6.058677,-9.93878
1448849235465,195412895046363,1.9478327,-5.297321,-9.433603
1448849235484,195412915249000,1.8185458,-5.5750484,-8.313117
1448849235504,195412935176978,2.5966613,-5.49604,-8.205379
1448849235523,195412955135474,3.116203,-5.0507183,-7.879767
1448849235544,195412975032935,3.5758898,-4.78975,-7.2955813
1448849235564,195412995266090,3.4753335,-4.4545617,-6.6036572
1448849235584,195413015163550,4.5814548,-3.6884174,-6.5102835
1448849235603,195413035152564,4.8879123,-3.4896986,-5.722591
1448849235625,195413055080543,5.311686,-3.1664815,-5.4640174
1448849235644,195413075313697,5.385906,-3.317316,-5.332336
1448849235669,195413095119605,6.451326,-2.0292356,-4.252551
1448849235683,195413115230689,6.5255466,-2.165705,-3.479224
1448849235704,195413135006080,6.628497,-1.796998,-4.1711483
1448849235723,195413155178199,7.2390184,-0.7866449,-2.7035027
1448849235744,195413175014625,7.0211463,-0.9733926,-2.231845
1448849235763,195413195491920,7.756166,0.14709377,-1.2286744
1448849235785,195413215053687,7.851934,0.1806126,-1.4872482
1448849235804,195413235256324,8.096143,0.70254856,-0.8120833
1448849235823,195413255153785,8.285285,1.0305542,0.7800608
1448849235843,195413275173316,8.103325,0.92042094,-0.74504566
1448849235865,195413295040259,8.776096,2.1342812,1.6515503
1448849235884,195413315273414,8.725818,1.894861,0.7273884
1448849235903,195413335170875,8.986786,2.000206,1.5629648
1448849235923,195413355129371,8.761731,2.7232547,2.1399674
1448849235944,195413375057349,8.618078,2.2348375,1.0266637
1448849235964,195413395229468,9.051429,3.3361704,2.2716484
1448849235983,195413415157447,9.03467,3.3960254,2.5757122
1448849236003,195413435176978,8.77849,3.2332199,1.4743793
1448849236025,195413455043922,9.254936,3.8269818,3.119196
1448849236044,195413475277076,9.3243685,3.8126166,2.657115
1448849236064,195413495205054,9.463232,3.8796542,3.0090625
1448849236083,195413515163550,9.2525425,3.7407906,3.320309
1448849236105,195413535061011,8.972421,3.75755,3.1646857
1448849236124,195413555263648,9.082554,3.7551558,3.8709753
1448849236144,195413575161109,8.359505,3.676147,3.533393
1448849236163,195413595150123,8.649203,3.7982514,2.8127382
1448849236185,195413615047584,8.61329,2.1989245,2.0106804
1448849236204,195413635280738,8.565406,3.7503674,3.8230913
1448849236224,195413655208717,9.106496,4.257938,3.1239843
1448849236243,195413675045142,8.835951,3.2260373,0.7752724
1448849236265,195413695034156,8.041076,0.755221,1.0649709
1448849236284,195413715267310,8.328381,1.2987047,1.86224
1448849236303,195413735195289,8.977209,3.6713586,2.6188078
1448849236323,195413755184302,8.780885,1.9762639,-0.08185177
1448849236345,195413775081763,7.267749,-1.0524013,-1.7482162
1448849236364,195413795162330,8.620473,2.2348375,1.5749358
1448849236383,195413815181861,9.032275,2.0792146,-1.2621932
1448849236403,195413835140357,7.2629604,-2.2782326,-4.523096
1448849236423,195413855312476,7.136068,-0.4801871,-1.2621932
1448849236443,195413875087867,8.306832,0.7887398,-0.14888942
1448849236464,195413895015845,7.078607,-2.0603602,-4.872649
1448849236483,195413915187965,5.8527756,-2.259079,-5.09531
1448849236504,195413935024390,6.4249897,-1.5168765,-3.2445922
1448849236523,195413955532203,5.984457,-1.1721114,-3.1631894
1448849236545,195413975063453,5.9485435,-3.614197,-4.908562
1448849236564,195413995296607,5.749825,-3.219154,-6.8574424
1448849236583,195414015163550,3.5136406,-2.3165398,-5.6196404
1448849236603,195414035152564,3.032406,-3.9589622,-5.8375125
1448849236625,195414055080543,4.6628575,-4.751443,-6.5102835
1448849236644,195414075283179,2.946215,-4.315698,-8.279598
1448849236663,195414095180640,1.4570214,-3.9829042,-7.2883987
1448849236683,195414115169654,1.6150386,-5.132121,-6.091298
1448849236705,195414135067115,0.657358,-5.117756,-10.209325
1448849236724,195414155269752,1.2104186,-6.1089554,-9.881319
1448849236743,195414175167213,0.24076691,-5.2781672,-8.478317
1448849236763,195414195125709,-0.96830493,-6.070648,-12.141446
1448849236785,195414215084205,-1.3633482,-6.90383,-10.420014
1448849236805,195414235378394,-0.15906477,-6.4249897,-9.687389
1448849236823,195414255184302,-1.8757074,-6.2406363,-8.700978
1448849236843,195414275173316,-0.8653543,-7.0714245,-11.868506
1448849236865,195414295040259,-2.1989245,-6.685958,-10.192566
1448849236884,195414315273414,-1.7224785,-7.7250414,-10.443956
1448849236904,195414335170875,-1.5955858,-7.0738187,-10.55409
1448849236923,195414355129371,-2.4191911,-7.363517,-11.346571
1448849236945,195414375087867,-2.2707508,-7.650821,-10.592398
1448849236964,195414395290504,-1.8565538,-7.2653546,-10.676194
1448849236984,195414415187965,-1.835006,-8.529493,-12.100744
1448849237003,195414435146461,-1.6985365,-10.83511,-11.2627735
1448849237025,195414455074439,-0.60678047,-8.302044,-15.028853
1448849237044,195414475246558,-2.6825533,-6.7434187,-10.563666
1448849237063,195414495174537,-4.540454,-6.3172507,-5.6699185
1448849237083,195414515133033,-0.6738181,-7.1193085,-12.151023
1448849237105,195414535091529,-0.7959224,-7.5358996,-10.994623
1448849237124,195414555263648,-3.4295442,-6.1807814,-8.18383
1448849237144,195414575191627,-2.0049944,-6.554277,-11.554867
1448849237162,195414594997535,-0.5349544,-6.3292217,-10.961104
1448849237185,195414615230689,-1.8972552,-7.327604,-8.689007
1448849237203,195414635189185,-2.012177,-6.853552,-9.627534
1448849237225,195414655025611,0.21921909,-5.6229324,-12.055255
1448849237243,195414675197730,-0.9802759,-6.7553897,-9.797523
1448849237265,195414695003638,-1.1454759,-6.867917,-8.576479
1448849237283,195414715541968,0.5352537,-5.7665844,-10.539724
1448849237305,195414735073218,1.1218331,-5.323657,-10.029759
1448849237323,195414755306373,0.4873697,-6.7649665,-8.818294
1448849237345,195414775112281,0.72200143,-5.9389668,-9.0098295
1448849237364,195414795223365,2.5368063,-4.691588,-8.576479
1448849237383,195414815181861,2.5727193,-5.326051,-8.255656
1448849237403,195414835170875,2.4554036,-5.036353,-6.9220862
1448849237425,195414855068336,3.389142,-4.8519993,-7.46557
1448849237444,195414875270972,3.7985506,-3.4873044,-6.7520976
1448849237463,195414895168433,4.6891937,-4.037971,-5.6316113
1448849237483,195414915187965,4.849605,-3.8991072,-5.698649
1448849237504,195414935085425,5.5367413,-2.7858033,-5.1336174
1448849237524,195414955318580,5.6851816,-2.7522845,-4.9636292
1448849237544,195414975155006,6.3795,-2.3380876,-4.460847
1448849237563,195414995144019,6.25979,-1.7539024,-2.5957634
1448849237585,195415015071998,7.294085,-1.3564649,-2.8208184
1448849237604,195415035305152,7.4616795,-0.90874916,-2.0618565
1448849237623,195415055172095,7.516746,-0.71960723,-1.4465468
1448849237643,195415075161109,7.454497,-0.28625673,-1.6548423
1448849237665,195415095089088,8.383447,1.0449194,-0.9246108
1448849237684,195415115261207,8.302044,0.29553428,-1.1017817
1448849237704,195415135189185,8.278102,1.5070003,0.7728782
1448849237723,195415155147681,8.256555,0.767192,-0.75462246
1448849237744,195415175045142,8.325986,1.8374002,0.5574001
1448849237764,195415195247779,8.783278,2.2994812,1.9244893
1448849237783,195415215175758,8.79525,2.510171,1.7975966
1448849237803,195415235195289,9.051429,2.6035447,1.9292777
1448849237825,195415255031715,8.907777,2.6107273,1.4839561
1448849237844,195415275295386,8.905383,3.3098342,2.1519384
1448849237864,195415295192847,8.668357,3.3720834,2.4368484
1448849237883,195415315151343,8.8622875,3.9059904,4.400094
1448849237905,195415335079322,9.075371,3.4558804,2.9875147
1448849237925,195415355190406,9.187899,4.3034277,3.344251
1448849237943,195415375179420,8.448091,3.9873934,3.6842275
1448849237965,195415395168433,8.685117,3.8796542,3.3250973
1448849237983,195415415157447,8.754548,4.23639,3.7680244
1448849238005,195415435176978,8.713847,3.8988078,3.0784945
1448849238023,195415455165992,8.644415,3.9227498,3.7129579
1448849238043,195415475185523,8.182334,4.04246,4.0026565
1448849238065,195415495052467,8.280497,3.3840544,2.8031614
1448849238084,195415515285621,8.929325,3.3505356,2.3985412
1448849238104,195415535183082,8.979603,3.3601124,3.1096191
1448849238123,195415555141578,8.148815,2.4239795,2.26686
1448849238145,195415575069556,8.424149,2.5149593,1.6850691
1448849238164,195415595302711,8.65878,2.0385132,1.5007155
1448849238184,195415615169654,8.376265,1.2220904,0.63162035
1448849238203,195415635158668,8.246978,0.767192,-0.15846622
1448849238225,195415655056129,8.500763,1.5548843,0.7728782
1448849238244,195415675258765,7.981221,0.25243863,-1.8798972
1448849238263,195415695186744,7.3252096,-0.8441057,-2.7346272
1448849238283,195415715175758,7.765743,0.72409636,-0.5463269
1448849238305,195415735042701,7.914183,-0.2264017,-1.7266684
1448849238324,195415755245338,7.6053314,-2.4386442,-4.0753803
1448849238344,195415775173316,6.142474,-2.1680992,-4.420145
1448849238363,195415795101295,7.100155,-0.90156657,-2.0283377
1448849238385,195415815059791,7.7370124,-2.1441572,-3.6947021
1448849238404,195415835262427,5.393089,-3.3843536,-6.184672
1448849238424,195415855159888,5.9030538,-3.3628058,-4.748151
1448849238443,195415875148902,5.5989904,-3.7937622,-6.5701385
1448849238464,195415895046363,4.4066777,-4.148104,-7.8845553
1448849238484,195415915249000,5.0028343,-4.0020576,-7.7720275
1448849238504,195415935207496,4.064307,-3.128174,-7.5350018
1448849238523,195415955196509,2.982128,-3.6285622,-6.1679125
1448849238545,195415975032935,2.651728,-6.4130187,-6.890961
1448849238564,195415995296607,4.559907,-5.105785,-9.122357
1448849238584,195416015194068,1.4378678,-6.3387985,-10.285939
1448849238603,195416035213599,3.353229,-4.990863,-10.24045
1448849238624,195416055080543,2.2207718,-5.9006596,-6.888567
1448849238644,195416075252662,2.6565163,-6.59019,-10.46311
1448849238669,195416095119605,0.6477812,-6.1927524,-13.609092
1448849238683,195416115230689,1.2008418,-6.6596217,-11.624298
1448849238704,195416135006080,2.9270613,-6.175993,-10.19496
1448849238723,195416155208717,-0.7887398,-5.263802,-7.7935753
1448849238744,195416175014625,1.2128128,-6.9636855,-11.509377
1448849238763,195416195491920,0.9326912,-7.2653546,-11.231649
1448849238785,195416215084205,0.7387609,-5.582231,-10.534936
1448849238804,195416235256324,0.49694648,-6.8942533,-9.876531
1448849238823,195416255184302,0.58553195,-7.1671925,-12.019341
1448849238843,195416275203834,0.8321347,-6.7649665,-9.632322
1448849238862,195416294979224,1.3636475,-6.877494,-11.38009
1448849238883,195416315181861,0.8608652,-7.0211463,-11.006594
1448849238903,195416335109840,1.0140941,-7.351546,-11.28911
1448849238923,195416355190406,0.7531261,-7.0977607,-11.423185
1448849238942,195416375057349,0.59510875,-6.853552,-11.485435
1448849238964,195416395198951,1.0212767,-7.028329,-11.435156
1448849238983,195416415065894,1.0452187,-6.4872394,-11.133487
1448849239011,195416435176978,1.191265,-6.817639,-11.135881
1448849239022,195416455013404,1.5408185,-6.080225,-10.767174
1448849239042,195416475063453,1.4809633,-6.4130187,-10.254815
1448849239062,195416494991431,1.8305168,-6.211906,-10.31467
1448849239082,195416515071998,2.0986674,-5.543924,-9.929203
1448849239103,195416535061011,2.378789,-5.5654716,-9.232491
1448849239123,195416555141578,2.828899,-5.1991587,-8.406491
1448849239144,195416576351295,3.2143655,-4.6963763,-8.107216
1448849239163,195416595180640,3.7698202,-4.871153,-8.557325
1448849239183,195416615078101,3.839252,-4.1624694,-6.8981442
1448849239203,195416635158668,4.267814,-3.9110782,-5.42571
1448849239222,195416655056129,5.2949266,-3.7937622,-6.5845037
1448849239243,195416675167213,5.1512747,-2.9246671,-5.5741506
1448849239264,195416695034156,5.23986,-2.807351,-4.6715364
1448849239284,195416715267310,6.125715,-2.6900353,-4.511125
1448849239303,195416735134254,6.90383,-2.3213282,-3.9700353
1448849239323,195416755092750,6.832004,-1.9909283,-3.206285
1448849239345,195416775051246,7.0331173,-1.3181577,-2.567033
1448849239364,195416795131812,7.454497,-0.6645406,-2.0881927
1448849239389,195416815090308,8.323592,-0.942268,-2.4497173
1448849239403,195416835048804,7.777714,-0.039653964,-0.6827964
1448849239425,195416855037818,7.935731,0.15667057,-2.1911435
1448849239443,195416875270972,9.192687,1.1382933,0.6028899
1448849239464,195416895046363,8.563012,0.74325,0.95004916
1448849239484,195416915249000,7.842357,0.22131401,-2.1552305
1448849239504,195416935176978,8.474426,2.392855,0.8423101
1448849239523,195416955135474,9.3004265,2.1725883,2.1543326
1448849239545,195416975032935,8.452879,1.3298295,0.4424784
1448849239564,195416995266090,8.601319,2.3593361,0.8710405
1448849239583,195417015163550,8.819192,2.4838347,1.4576199
1448849239603,195417035183082,9.2046585,3.0057707,2.3626282
1448849239625,195417055050025,9.166351,2.5005941,2.1926398
1448849239644,195417075222144,9.080159,2.854936,1.517475
1448849239664,195417095150123,9.611672,3.6210804,2.3291094
1448849239683,195417115169654,9.479991,3.520524,3.04737
1448849239705,195417135067115,9.125649,2.941127,1.9915268
1448849239724,195417155239234,9.635614,3.628263,3.1622915
1448849239743,195417175136695,9.432107,3.2068834,3.0306103
1448849239763,195417195156226,9.666739,3.6665702,3.0377932
1448849239785,195417215084205,9.01791,4.068796,3.226935
1448849239804,195417235225806,9.053823,3.7743094,2.9156888
1448849239824,195417255123267,8.76652,3.5157356,3.0689178
1448849239843,195417275142799,8.285285,3.3888428,4.045752
1448849239864,195417295040259,8.177546,2.9770403,2.918083
1448849239884,195417315273414,8.460061,3.2044892,1.7090111
1448849239904,195417335140357,8.51034,3.0488663,2.8031614
1448849239923,195417355098853,8.246978,3.3218052,3.119196
1448849239943,195417375087867,7.8327804,1.870919,1.1751041
1448849239963,195417395137916,8.220641,1.8421886,1.6419735
1448849239984,195417415035377,7.9070005,1.2915221,0.27249008
1448849240004,195417435299049,7.9070005,1.2915221,0.27249008
1448849240023,195417455135474,8.500763,0.45834,-0.7043442
1448849240043,195417475155006,7.602937,-0.3652654,-1.9421465
1448849240065,195417495082984,7.612514,-1.1194389,-2.9237692
1448849240084,195417515224586,7.612514,-1.1194389,-2.9237692
1448849240104,195417535183082,7.7370124,-1.1840824,-2.7226563
1448849240123,195417555050025,7.0259347,-1.9334675,-4.8750434
1448849240145,195417575008521,7.0379057,-2.0316298,-4.1232643
1448849240163,195417595241675,7.0379057,-2.0316298,-4.1232643
1448849240185,195417615017066,7.006781,-2.8360815,-4.16636
1448849240203,195417635219703,5.2709846,-3.2430959,-5.6435823
1448849240225,195417655056129,5.417031,-3.4489973,-5.552603
1448849240243,195417675289283,5.417031,-3.4489973,-5.552603
1448849240264,195417695064674,6.2669725,-4.0140285,-7.7385087
1448849240284,195417715267310,4.6293387,-5.0507183,-8.6674595
1448849240304,195417735134254,4.195988,-3.7051768,-9.45994
1448849240323,195417755092750,4.195988,-3.7051768,-9.45994
1448849240344,195417775051246,3.293374,-4.2821794,-5.3299417
1448849240364,195417795131812,3.839252,-6.116138,-9.895684
1448849240383,195417815151343,2.55596,-4.83524,-8.444798
1448849240403,195417835170875,2.55596,-4.83524,-8.444798
1448849240425,195417855037818,4.705953,-4.9764977,-7.005883
1448849240444,195417875240455,0.41314942,-5.5247703,-9.412056
1448849240463,195417895137916,3.5399768,-5.776161,-7.230938
1448849240483,195417915096412,3.5399768,-5.776161,-7.230938
1448849240505,195417935054908,1.3612533,-5.4266076,-11.571626
1448849240524,195417955257545,1.7347487,-6.468086,-9.0098295
1448849240543,195417975124488,1.0835259,-5.457732,-7.683442
1448849240563,195417995144019,1.0835259,-5.457732,-7.683442
1448849240585,195418015041480,1.1625346,-5.6229324,-10.362554
1448849240604,195418035274634,0.80340433,-5.6827874,-9.337835
1448849240623,195418055141578,1.0691607,-6.616526,-10.563666
1448849240643,195418075100074,1.0691607,-6.616526,-10.563666
1448849240665,195418095089088,0.99733466,-6.3627405,-9.883714
1448849240685,195418115230689,1.2199954,-6.772149,-11.597962
1448849240703,195418135128150,1.2870331,-7.0019927,-11.375301
1448849240723,195418155178199,1.2870331,-7.0019927,-11.375301
1448849240745,195418175075660,1.3181577,-6.970868,-10.85576
1448849240764,195418195125709,1.2583027,-6.9636855,-11.425579
1448849240784,195418215145240,1.2894273,-6.6835637,-11.284322
1448849240803,195418235103736,1.2894273,-6.6835637,-11.284322
1448849240824,195418255031715,1.4258968,-6.9660797,-11.068844
1448849240844,195418275234351,1.8999487,-6.465691,-10.846183
1448849240865,195418295223365,2.0436008,-6.4369607,-10.475081
1448849240884,195418315242896,2.0436008,-6.4369607,-10.475081
1448849240903,195418335109840,2.1321862,-5.8886886,-9.981875
1448849240924,195418355068336,2.5104702,-5.429002,-8.868572
1448849240943,195418375118384,3.2287307,-5.2326775,-8.636334
1448849240965,195418395168433,3.2287307,-5.2326775,-8.636334
1448849240983,195418415126929,3.5615246,-4.933402,-8.550143
1448849241003,195418435115943,4.229507,-4.148104,-6.6659064
1448849241024,195418455043922,4.5575128,-3.6812348,-5.7800517
1448849241044,195418475216041,4.5575128,-3.6812348,-5.7800517
1448849241064,195418495144019,5.6971526,-3.9278376,-6.0386257
1448849241083,195418515163550,5.4505496,-2.2614732,-4.43451
1448849241105,195418535061011,6.877494,-2.9318497,-4.8511014
1448849241124,195418555263648,6.640468,-1.6485575,-2.9046156
1448849241144,195418575130592,6.6811695,-1.8879777,-3.6851254
1448849241163,195418595180640,7.3587284,-0.8417115,-2.8878562
1448849241185,195418615047584,7.416189,-0.6262334,-2.1312885
1448849241204,195418635280738,7.954885,-0.28625673,-1.0179846
1448849241223,195418655178199,7.586178,-0.26710314,-2.1288943
1448849241243,195418675106177,8.165574,1.4878467,0.17672202
1448849241265,195418695034156,8.579771,0.5612907,-0.13452421
1448849241284,195418715267310,8.268525,1.8685248,0.33473933
1448849241304,195418735164771,8.414572,2.0337248,1.5246576
1448849241323,195418755153785,8.677934,2.2013187,1.6395793
1448849241345,195418775051246,8.445696,2.215684,1.7329531
1448849241364,195418795192847,8.51034,2.605939,1.9364603
1448849241384,195418815151343,9.010728,3.5660138,2.669086
1448849241403,195418835109840,9.032275,3.604321,2.5350106
1448849241425,195418855037818,8.70427,3.6186862,2.9946973
1448849241444,195418875240455,8.529493,3.9203556,3.277213
1448849241464,195418895137916,8.845528,4.056825,3.5549407
1448849241483,195418915096412,8.443302,4.006547,3.9428012
1448849241505,195418935054908,8.302044,4.4494743,4.1846156
1448849241524,195418955257545,8.589348,4.080767,4.237288
1448849241543,195418975124488,8.6156845,4.4183497,4.807108
1448849241563,195418995144019,8.1464205,4.150199,4.3737574
1448849241592,195419015041480,8.199094,4.4734163,4.424036
1448849241605,195419035183082,7.976433,4.3561006,3.7823899
1448849241623,195419055111060,8.141632,3.9107788,4.043358
1448849241645,195419075069556,8.450484,3.9658456,4.1606736
1448849241663,195419095119605,8.503157,4.0113354,3.3179147
1448849241684,195419115078101,8.625261,3.1494226,2.503886
1448849241703,195419135158668,8.39063,3.3457472,3.5286045
1448849241725,195419155147681,7.8806643,2.2300491,1.7975966
1448849241743,195419175136695,8.354716,1.7871219,1.4049475
1448849241763,195419195125709,8.017134,2.0672436,2.041805
1448849241784,195419215053687,7.614908,1.0856209,0.12883797
1448849241804,195419235256324,8.072201,1.0664672,-1.4106337
1448849241824,195419255184302,8.1224785,0.8869021,0.28206688
1448849241843,195419275112281,7.734618,-0.070778586,-1.5997757
1448849241865,195419295040259,6.6332855,-0.6286276,-3.1368532
1448849241884,195419315273414,7.1169143,-0.04683657,-1.3268367
1448849241903,195419335170875,7.957279,-0.7794623,-3.053056
1448849241923,195419355098853,7.368305,-2.1273978,-3.4959834
1448849241944,195419375057349,5.8048916,-1.9645921,-3.8982093
1448849241964,195419395259986,6.187964,-2.2159834,-4.934899
1448849241983,195419415126929,6.417807,-3.2478843,-4.1472063
1448849242003,195419435115943,4.67004,-5.6468744,-11.03293
1448849242025,195419455043922,3.7506666,-3.0826843,-5.7561097
1448849242044,195419475246558,5.579837,-1.9191023,-4.1160817
1448849242063,195419495144019,5.3404164,-5.522376,-10.6259165
1448849242083,195419515133033,3.140145,-4.279785,-8.945187
1448849242105,195419535061011,3.8536172,-3.743484,-8.217349
1448849242124,195419555233131,2.864812,-5.2183123,-8.430433
1448849242144,195419575130592,2.9414265,-5.8503814,-6.946028
1448849242163,195419595119605,3.3005567,-5.8886886,-9.524583
1448849242184,195419615047584,2.1154268,-5.7067294,-10.0369425
1448849242204,195419635219703,2.6373627,-5.4242134,-9.761609
1448849242224,195419655178199,2.5775077,-6.5758247,-11.2627735
1448849242243,195419675136695,1.0356419,-6.2813377,-10.994623
1448849242264,195419695064674,2.0172646,-5.783344,-10.539724
1448849242284,195419715267310,1.7395371,-6.056283,-12.251579
1448849242303,195419735134254,1.3780127,-6.712294,-11.21489
1448849242323,195419755123267,1.7203835,-6.331616,-11.080814
1448849242342,195419775112281,1.0954969,-5.9748797,-11.006594
1448849242363,195419795040259,1.3037925,-6.5997667,-10.771962
1448849242385,195419815029273,1.380407,-6.8463693,-12.191724
1448849242403,195419835170875,1.7898154,-6.451326,-11.226861
1448849242425,195419855007300,1.3588591,-6.190358,-11.456704
1448849242443,195419875209937,1.3971664,-6.796091,-11.147852
1448849242464,195419895046363,1.5192707,-6.6117377,-11.791892
1448849242484,195419915249000,1.548001,-6.5135756,-11.657817
1448849242504,195419935146461,1.8640356,-5.998822,-11.6051445
1448849242523,195419955165992,1.8879777,-6.3292217,-11.322629
1448849242544,195419975032935,1.9645921,-6.056283,-10.927586
1448849242564,195419995296607,2.0747254,-5.998822,-10.894067
1448849242583,195420015133033,2.6565163,-5.4505496,-10.293122
1448849242603,195420035122047,2.460192,-5.555895,-9.706543
1448849242625,195420055080543,3.00607,-5.464915,-9.706543
1448849242644,195420075222144,3.3221045,-5.012411,-8.226926
1448849242664,195420095150123,3.8320694,-4.5790606,-8.868572
1448849242683,195420115139136,4.073884,-4.873547,-7.08968
1448849242705,195420135036597,4.67004,-3.8129158,-7.096863
1448849242724,195420155269752,4.7969327,-4.049942,-6.3714194
1448849242744,195420175136695,5.2470427,-3.7889738,-6.9125094
1448849242763,195420195125709,5.2805614,-2.7642555,-5.2293854
1448849242785,195420215084205,5.857564,-2.9294555,-3.8599021
1448849242804,195420235256324,6.6955347,-2.792986,-5.358672
1448849242823,195420255123267,6.520758,-1.7012299,-3.0506618
1448849242843,195420275173316,6.939743,-1.1266215,-3.9389107
1448849242865,195420295040259,7.2150764,-1.0140941,-2.9740474
1448849242884,195420315273414,7.3012676,-1.0140941,-2.042703
1448849242903,195420335140357,7.3850646,0.03935469,-0.8168717
1448849242923,195420355129371,8.029105,0.68578917,-0.56308633
1448849242945,195420375057349,8.136844,0.81268185,-0.32127193
1448849242964,195420395229468,8.431331,1.1335049,-0.18719664
1448849242984,195420415126929,8.096143,1.9762639,1.0458173
1448849243003,195420435115943,8.572589,2.869301,2.4033296
1448849243024,195420455043922,8.534282,2.0911856,1.3905823
1448849243044,195420475216041,8.349928,3.0656257,2.5469818
1448849243063,195420495082984,7.966856,3.1613936,2.7672482
1448849243083,195420515041480,8.191911,3.8461354,3.2580595
1448849243105,195420535061011,8.182334,4.056825,4.153491
1448849243123,195420555263648,7.722647,4.4782047,4.282778
1448849243144,195420575039039,7.8830585,4.7056537,4.421642
1448849243164,195420595272193,8.136844,5.014506,5.0992007
1448849243184,195420615047584,7.648427,4.755932,4.8621745
1448849243204,195420635219703,7.5718126,5.158158,5.1925745
1448849243224,195420655147681,7.7274356,4.9259205,5.4415717
1448849243243,195420675106177,7.851934,4.7272015,4.907665
1448849243264,195420695034156,7.7753196,4.6912885,5.04174
1448849243284,195420715236793,7.866299,4.468628,4.821473
1448849243304,195420735134254,8.01474,4.5572133,4.874146
1448849243323,195420755153785,8.519917,4.138228,4.079271
1448849243344,195420775051246,8.445696,3.7120602,2.9037178
1448849243364,195420795192847,8.91496,4.0017586,4.0984244
1448849243384,195420815151343,8.215853,3.721637,3.1407437
1448849243403,195420835170875,8.144027,2.7208605,2.2740426
1448849243425,195420855037818,7.770531,2.0935798,1.7185879
1448849243444,195420875270972,8.057836,2.6825533,1.5845126
1448849243463,195420895168433,7.8232036,1.906832,1.3115736
1448849243483,195420915096412,7.590966,0.96112233,1.1080664
1448849243504,195420935085425,7.590966,0.9970354,0.75372463
1448849243524,195420955257545,7.004387,0.68818337,0.6124667
1448849243544,195420975124488,4.7011647,-1.7395371,-8.040178
1448849243563,195420995144019,9.312397,0.115969144,0.2916437
1448849243584,195421015041480,5.85517,-1.4474446,-3.3978212
1448849243604,195421035274634,5.663634,-1.6677111,-5.203049
1448849243623,195421055172095,6.441749,-1.0547955,-1.7003322
1448849243643,195421075130592,6.3268275,-3.0108583,-3.0817864
1448849243664,195421095058570,5.5894136,-2.7307367,-8.880543
1448849243684,195421115261207,2.72116,-3.8703766,-6.017078
1448849243703,195421135128150,4.6030025,-3.353229,-3.4361284
1448849243723,195421155147681,4.741866,-3.401113,-6.625205
1448849243744,195421175045142,1.1936592,-5.1249385,-11.75598
1448849243764,195421195217261,1.8520646,-5.3021092,-9.780763
1448849243783,195421215145240,4.107403,-3.8057332,-7.7025957
1448849243803,195421235042701,1.5910966,-4.631733,-2.993201
1448849243825,195421255001197,0.60707974,-6.3172507,-11.976246
1448849243843,195421275203834,2.1848588,-6.128109,-10.159047
1448849243865,195421295009742,0.01810615,-6.056283,-13.07279
1448849243883,195421315273414,-0.30271688,-6.089802,-10.386496
1448849243905,195421335048804,0.006135142,-6.8128505,-11.006594
1448849243923,195421355281959,-0.10639234,-6.685958,-11.138275
1448849243945,195421375057349,0.24316111,-6.769755,-11.954698
1448849243964,195421395229468,-0.09920973,-7.3012676,-12.227637
1448849243983,195421415126929,-1.016189,-7.806444,-11.882872
1448849244003,195421435115943,0.17133506,-6.808062,-11.8278055
1448849244025,195421455043922,-0.3338415,-7.2773256,-12.136658
1448849244044,195421475246558,-0.4918588,-7.4521027,-12.431144
1448849244063,195421495144019,-0.07287352,-7.7968674,-11.478251
1448849244083,195421515010963,-0.28595746,-6.724265,-12.230031
1448849244106,195421535061011,0.010923545,-7.5358996,-11.825411
1448849244124,195421555233131,-0.38172552,-6.9876275,-11.667394
1448849244144,195421575130592,-0.37454292,-6.7506013,-11.990611
1448849244164,195421595119605,-0.24286184,-6.9086185,-11.322629
1448849244184,195421615108619,-0.26919806,-6.832004,-10.872519
1448849244204,195421635219703,0.10190321,-6.2813377,-11.516559
1448849244225,195421655910621,-0.07287352,-6.554277,-10.872519
1448849244244,195421675228248,0.9566332,-6.3292217,-11.049689
1448849244264,195421695125709,0.70284784,-6.1448684,-10.273969
1448849244285,195421715267310,0.9494506,-6.3292217,-10.123134
1448849244303,195421735134254,1.404349,-5.7689786,-9.723302
1448849244323,195421755123267,1.5120881,-5.761796,-9.481487
1448849244344,195421775051246,2.2016182,-5.443367,-8.389731
1448849244364,195421795131812,2.4889224,-4.9381905,-7.6666827
1448849244384,195421815151343,3.353229,-4.921431,-7.839065
1448849244403,195421835109840,3.4801219,-4.777779,-7.7744217
1448849244424,195421855037818,4.0667014,-4.061913,-6.0697503
1448849244444,195421875240455,4.643704,-3.9948752,-5.5717564
1448849244463,195421895137916,5.2590137,-3.8200984,-5.581333
1448849244483,195421915096412,5.213524,-3.2718263,-5.0641856
1448849244504,195421935054908,5.666028,-2.8025627,-4.2094555
1448849244524,195421955074439,6.1951466,-2.5990555,-4.580557
1448849244543,195421975063453,6.6835637,-2.0627544,-2.3802855
1448849244565,195421995082984,7.0331173,-0.90396076,-2.519149
1448849244583,195422015071998,7.6053314,-0.6525696,-3.0793922
1448849244605,195422035091529,7.30845,-0.5496189,-1.769764
1448849244623,195422055080543,7.87827,-0.72439563,-1.1400889
1448849244645,195422075161109,7.708282,0.22610243,-1.2813468
1448849244663,195422095150123,8.577377,1.4782699,0.51669866
1448849244685,195422115108619,8.438514,1.2699744,0.16714521
1448849244703,195422135128150,8.74976,1.0305542,0.96441436
1448849244725,195422155117164,7.567024,2.2587798,0.49993923
1448849244743,195422175136695,8.194305,2.7232547,1.7281647
1448849244763,195422195095191,8.950872,3.14224,2.7265468
1448849244785,195422215053687,8.747366,2.4191911,1.7425299
1448849244804,195422235225806,8.476821,3.5301008,2.9492075
1448849244824,195422255123267,8.060229,4.435109,3.1287727
1448849244843,195422275173316,8.725818,4.0472484,3.6483145
1448849244864,195422295040259,9.089736,3.925144,3.8973114
1448849244884,195422315303931,8.318804,4.3704658,4.1606736
1448849244904,195422335140357,7.990798,4.7152305,4.0744824
1448849244923,195422355098853,8.223036,4.6050973,4.1343374
1448849244945,195422375057349,8.455273,4.435109,4.1606736
1448849244964,195422395229468,8.455273,4.602703,4.541352
1448849244983,195422415126929,8.376265,4.7631145,4.649091
1448849245003,195422435176978,8.337957,4.6529813,4.117578
1448849245025,195422455043922,8.2733135,3.9849992,3.3131263
1448849245044,195422475246558,8.27092,3.47264,2.8007672
1448849245064,195422495144019,8.249372,4.0999207,3.9188592
1448849245083,195422515102515,8.306832,3.4870052,3.358616
1448849245105,195422535061011,7.813627,1.9642929,1.9747674
1448849245124,195422555233131,7.8327804,2.1414638,2.7002106
1448849245144,195422575130592,7.3108444,1.7033249,-3.1009402
1448849245163,195422595150123,9.185505,0.5493196,0.7130232
1448849245185,195422615047584,6.2310596,0.81986445,0.10250176
1448849245204,195422635250220,8.6156845,0.4966472,-0.5056255
1448849245223,195422655178199,8.503157,0.5397428,-1.1472715
1448849245243,195422675136695,6.5039988,-0.9446622,-3.3499372
1448849245270,195422694912086,6.7410245,-1.9047371,-3.3978212
1448849245285,195422715175758,6.6596217,-1.41632,-3.0722096
1448849245303,195422735164771,7.3132386,-0.633416,-2.8639143
1448849245325,195422755092750,6.355558,-2.745102,-5.519084
1448849245343,195422775142799,4.9621325,-4.203171,-6.577321
1448849245364,195422795040259,5.9030538,-3.020435,-5.1336174
1448849245383,195422815181861,5.797709,-2.4434326,-2.8567317
1448849245403,195422835140357,4.998046,-4.535965,-9.41445
1448849245424,195422855037818,3.8320694,-4.6173677,-9.524583
1448849245444,195422875240455,3.1090205,-4.444985,-6.407333
1448849245464,195422895137916,3.0348003,-4.423437,-7.5350018
1448849245483,195422915126929,4.8543935,-4.38513,-8.10961
1448849245504,195422935054908,2.7642555,-5.0435357,-9.182213
1448849245524,195422955227027,2.057966,-5.8623524,-9.910049
1448849245544,195422975124488,3.0778959,-5.0435357,-6.8358946
1448849245563,195422995144019,0.72918403,-5.608567,-8.116793
1448849245584,195423015041480,0.6549638,-6.2669725,-10.860548
1448849245604,195423035274634,1.4067432,-5.6588454,-11.236438
1448849245623,195423055141578,0.99733466,-6.2286654,-9.24925
1448849245643,195423075161109,1.0859201,-6.4896336,-12.026524
1448849245664,195423095058570,0.32935238,-5.982063,-10.889278
1448849245684,195423115230689,0.9446622,-6.578219,-10.127922
1448849245704,195423135158668,0.56398416,-6.2813377,-11.63627
1448849245723,195423155147681,-0.07526772,-6.113744,-11.490223
1448849245744,195423175045142,0.60947394,-7.030723,-12.031312
1448849245764,195423195217261,0.2527379,-6.310068,-11.509377
1448849245784,195423215145240,0.2359785,-6.322039,-11.490223
1448849245804,195423235256324,0.61186814,-6.554277,-12.438327
1448849245823,195423255123267,0.008529344,-6.937349,-11.229255
1448849245843,195423275173316,0.16894086,-6.5973725,-11.559655
1448849245864,195423295040259,0.9494506,-6.733842,-11.633875
1448849245884,195423315303931,0.5328595,-6.0610714,-11.631481
1448849245904,195423335140357,0.58553195,-6.441749,-11.775133
1448849245923,195423355098853,0.6166566,-6.5351233,-11.28911
1448849245944,195423375087867,1.1840824,-6.298097,-10.836606
1448849245964,195423395229468,1.1338041,-6.2095118,-10.065673
1448849245983,195423415065894,1.5791256,-6.006005,-11.121516
1448849246003,195423435054908,1.1338041,-5.917419,-10.338612
1448849246025,195423455043922,2.0555718,-5.905448,-9.95554
1448849246043,195423475246558,2.2614732,-5.606173,-9.198972
1448849246064,195423495082984,2.7187657,-5.081843,-8.782381
1448849246084,195423515255103,3.159299,-4.8807297,-8.3969145
1448849246105,195423535061011,3.317316,-4.6245503,-7.563732
1448849246124,195423555263648,3.791368,-4.3204865,-7.9444103
1448849246144,195423575130592,4.4186487,-4.0331826,-6.768857
1448849246163,195423595180640,3.791368,-3.5615246,-5.5885158
1448849246185,195423615047584,5.395483,-3.5136406,-5.605275
1448849246204,195423635219703,5.6851816,-3.0467713,-5.2676926
1448849246224,195423655147681,5.761796,-2.6062381,-4.7098436
1448849246243,195423675106177,5.6851816,-2.2734442,-3.4169748
1448849246264,195423695034156,6.8511577,-1.9526211,-4.1280527
1448849246284,195423715236793,6.652439,-1.5408185,-2.5646389
1448849246303,195423735164771,7.425766,-0.89438397,-2.102558
1448849246323,195423755123267,6.652439,0.027383681,-2.7992706
1448849246344,195423775051246,8.594136,0.53016603,-0.7211036
1448849246364,195423795131812,7.9285483,-0.06599019,-0.48407766
1448849246384,195423815151343,7.792079,1.1191397,-0.16804303
1448849246403,195423835109840,7.9285483,0.4966472,-0.36915597
1448849246425,195423855068336,8.266131,1.7129017,0.8901941
1448849246444,195423875301490,8.644415,2.4598925,2.123208
1448849246463,195423895168433,8.306832,2.2013187,0.53585225
1448849246483,195423915126929,8.644415,2.9626749,2.6116252
1448849246505,195423935054908,8.41936,2.4191911,2.4536078
1448849246524,195423955257545,8.754548,3.4223616,3.2915785
1448849246543,195423975124488,8.689905,3.3984196,3.1814451
1448849246563,195423995144019,8.754548,3.4223616,3.368193
1448849246585,195424015041480,9.118466,3.7240312,3.892523
1448849246604,195424035244117,8.646809,3.5755906,3.820697
1448849246624,195424055141578,8.13445,4.1789293,4.38094
1448849246643,195424075130592,8.646809,3.5755906,4.0146275
1448849246665,195424095058570,8.742578,3.937115,4.0050507
1448849246684,195424115230689,8.067412,4.176535,4.797531
1448849246703,195424135128150,8.325986,4.2411785,4.579659
1448849246723,195424155117164,8.067412,4.176535,4.1726446
1448849246745,195424175014625,8.25416,3.7503674,3.85661
1448849246763,195424195156226,8.223036,3.9442976,2.810344
1448849246785,195424215023170,8.7114525,4.020912,4.2564416
1448849246803,195424235164771,8.598925,3.391237,3.214964
1448849246825,195424255031715,7.981221,1.9834465,1.4432547
1448849246843,195424275234351,8.859893,2.5293245,2.9970915
1448849246865,195424295070777,8.292467,2.6825533,1.9867384
1448849246884,195424315242896,8.170362,1.5117887,1.1846809
1448849246903,195424334926734,7.705888,0.61156887,0.25573066
1448849246924,195424355190406,7.6771574,0.96830493,0.49036244
1448849246943,195424375087867,7.380276,1.229273,0.2629133
1448849246963,195424395198951,7.63885,-0.32935238,-1.5303438
1448849246983,195424415065894,6.9086185,-1.6724995,-3.0267198
1448849247004,195424435207496,6.925378,-0.4849755,-2.5383027
1448849247024,195424455104957,9.077765,-0.17612346,-3.5055602
1448849247044,195424475216041,5.8408046,-3.0108583,-5.4304986
1448849247064,195424495113502,6.6811695,-3.17127,-6.407333
1448849247084,195424515194068,7.816021,-1.5887024,-4.3626842
1448849247104,195424535122047,7.294085,-2.4697688,0.93807817
1448849247124,195424555233131,4.717924,-3.6764464,-7.7935753
1448849247144,195424575252662,5.5367413,-4.026,-10.46311
1448849247164,195424595272193,4.179229,-3.3268929,-3.5821745
1448849247183,195424615139136,5.498434,-2.3979425,-8.217349
1448849247203,195424635158668,4.179229,-3.3268929,-3.5821745
1448849247225,195424655056129,3.4873044,-4.181623,-7.7935753
1448849247244,195424675228248,3.0491655,-4.231901,-10.233267
1448849247263,195424695125709,3.0826843,-5.1632457,-10.6259165
1448849247283,195424715145240,3.0491655,-4.231901,-10.233267
1448849247305,195424735073218,2.84087,-4.2247186,-10.221296
