1448849214158,195391590755592,0.3911,1.4555,9.69
1448849214197,195391630397925,0.3911,1.4555,9.69
1448849214243,195391673671851,0.3911,1.4555,9.69
1448849214287,195391720363746,0.3911,1.4555,9.69
1448849214328,195391761196265,0.3911,1.4555,9.69
1448849214373,195391805263648,0.3911,1.4555,9.69
1448849214422,195391847805152,0.3911,1.4555,9.69
1448849214463,195391890926490,0.3911,1.4555,9.69
1448849214501,195391931362281,0.3911,1.4555,9.69
1448849214535,195391968471656,0.3911,1.4555,9.69
1448849214575,195392008480201,0.21149999,-2.062,9.585
1448849214614,195392047573218,0.21149999,-2.062,9.585
1448849214655,195392088344703,-0.38149998,-2.1942,9.542
1448849214695,195392128444800,-0.3601,-2.4561,9.4871
1448849214738,195392170223365,-0.1004,-3.2431998,9.2541
1448849214776,195392209102759,0.067099996,-4.3381,8.7946
1448849214816,195392249141822,-0.0782,-5.8441997,7.8745
1448849214856,195392288967261,0.050499998,-7.3023996,6.5453997
1448849214895,195392328334937,0.050499998,-7.3023996,5.2551
1448849214935,195392368343482,0.5374,-8.2623,3.7740998
1448849214975,195392408352027,1.4288,-8.937799,3.7740998
1448849215016,195392448665748,2.5022,-9.338699,-0.1883
1448849215056,195392488521705,3.5625,-9.1347,-0.1883
1448849215096,195392528957496,4.5431,-7.904,-2.2596
1448849215136,195392569057593,5.3473,-7.1914997,-2.8485
1448849215176,195392608974586,6.0281,-7.1914997,-2.9025998
1448849215216,195392649105201,6.6888,-6.0102997,-2.5872
1448849215256,195392689022193,7.3041997,-5.4982,-2.1522
1448849215296,195392729030738,7.8299,-5.0973997,-1.559
1448849215336,195392769008765,8.2314,-5.0973997,-1.1291
1448849215376,195392809017310,8.5128,-4.7353997,-0.8671
1448849215416,195392849056373,8.7045,-4.4326997,-0.68659997
1448849215456,195392889095435,8.858,-3.9324,-0.62439996
1448849215496,195392929042945,8.9619,-3.9324,-0.51379997
1448849215536,195392969020972,9.1156,-3.5791,-0.7127
1448849215576,195393008968482,9.194,-3.3363,-0.7037
1448849215616,195393048946509,9.2365,-3.2187998,-0.7037
1448849215654,195393087459693,9.2321,-3.2621999,-0.5428
1448849215696,195393128994117,9.2389,-3.2882,0.6088
1448849215736,195393168880592,9.1998,-3.3406,0.6088
1448849215776,195393209102759,9.117499,-3.465,1.3113999
1448849215816,195393249080787,9.003799,-3.6578,1.3113999
1448849215856,195393289058814,8.8818,-3.8823998,1.4862
1448849215896,195393329036842,8.762899,-4.1014,1.5991
1448849215936,195393369045386,8.6797,-4.2416997,1.6852
1448849215976,195393408962379,8.6315,-4.3339,1.6978999
1448849216016,195393449031959,8.6129,-4.3661,1.7096
1448849216056,195393488948951,8.5891,-4.3623,1.8345
1448849216097,195393529049049,8.533199,-4.434,1.9218999
1448849216136,195393568966041,8.3924,-4.7408,1.8059
1448849216176,195393608913550,8.2305,-4.9542,1.9707999
1448849216216,195393648952613,8.0015,-5.1059,2.4642
1448849216256,195393688930640,7.6638,-5.3155,3.0297
1448849216296,195393729030738,7.3526998,-5.5874,3.2996
1448849216336,195393769039283,7.1310997,-5.7881,3.4371
1448849216376,195393809047828,6.9939,-5.8367,3.6313999
1448849216416,195393848995338,6.9128,-5.7915,3.8525
1448849216459,195393887752662,6.8708997,-5.7053,4.0506
1448849216496,195393928981910,6.877,-5.6302,4.1443
1448849216536,195393968929420,6.9112997,-5.5355997,4.2142
1448849216577,195394009304175,6.9707,-5.5213,4.1344
1448849216617,195394049251685,7.0649,-5.4893,4.0151997
1448849216657,195394089290748,7.1582,-5.4498997,3.9022
1448849216697,195394129329810,7.2608,-5.3986998,3.7819
1448849216737,195394169216285,7.3504,-5.3142,3.728
1448849216777,195394209224830,7.4526997,-5.0933,3.8319
1448849216817,195394249294410,7.4981,-4.7987,4.1131997
1448849216857,195394289302955,7.5730996,-4.1503997,4.6463
1448849216897,195394329250465,7.6404,-3.5163,5.0425997
1448849216937,195394369320045,7.7418,-2.9498,5.2469997
1448849216977,195394409328590,7.9052,-2.6503,5.1626
1448849217017,195394449306617,8.144,-2.5936,4.808
1448849217057,195394489284644,8.2773,-2.6973,4.5144
1448849217097,195394529293189,8.3351,-3.1919,4.0629
1448849217137,195394569301734,8.2239,-3.8109,3.7433999
1448849217177,195394609310279,8.0409,-4.4927998,3.3653
1448849217217,195394649257789,7.785,-5.1405997,3.0228
1448849217256,195394688655982,7.4213996,-5.7226996,2.8883
1448849217296,195394728695045,6.9802,-6.2135,2.9724998
1448849217336,195394768764625,6.5267,-6.5323997,3.3012998
1448849217376,195394808742652,6.1182,-6.7938,3.5467
1448849217416,195394848934302,5.8129,-6.915,3.8158998
1448849217456,195394888851295,5.6088,-6.9349,4.0764
1448849217496,195394928859840,5.4641,-6.9181,4.2953997
1448849217536,195394968898902,5.389,-6.8363,4.5158997
1448849217576,195395008785377,5.3526,-6.5429997,4.9705997
1448849217619,195395050350318,5.3283997,-6.0989,5.5299997
1448849217657,195395089290748,5.2967997,-5.2346997,6.3803
1448849217696,195395129177222,5.2654,-3.8757,7.309
1448849217737,195395169307838,5.24,-2.9227,7.7569
1448849217777,195395209316383,5.2667,-2.8978,7.7479
1448849217817,195395249294410,5.3384,-2.7172,7.7643
1448849217857,195395289333472,5.3654,-2.845,7.6998997
1448849217896,195395329280982,5.3389,-2.7352,7.7576
1448849217937,195395369320045,5.2960997,-2.6267998,7.8241997
1448849217977,195395409328590,5.2355,-2.6448998,7.8588
1448849218014,195395447689185,5.1858997,-2.9673,7.7762
1448849218056,195395489193092,5.1232,-3.6694,7.5137
1448849218096,195395529018531,5.1243,-3.8988,7.3964996
1448849218137,195395569271217,5.2425,-3.7135,7.409
1448849218177,195395609310279,5.4153,-3.2531998,7.5004997
1448849218217,195395649288306,5.4948,-3.2933,7.4248
1448849218256,195395689052711,5.5116997,-3.2735999,7.4210997
1448849218297,195395729305396,5.5207996,-2.9685,7.5414996
1448849218337,195395769283424,5.4806,-2.7814,7.6415997
1448849218377,195395809230933,5.4007998,-2.7110999,7.7232
1448849218417,195395849300513,5.3332996,-2.7085,7.7707996
1448849218456,195395889248023,5.3048,-3.4041,7.5125
1448849218497,195395929287086,5.2639,-4.0794,7.1984
1448849218537,195395969326148,5.1726,-4.6721,6.8981
1448849218577,195396009273658,5.1071997,-4.8511,6.8227997
1448849218617,195396049312720,5.1039,-5.0267,6.697
1448849218657,195396089321265,5.1485,-5.3933,6.3696
1448849218697,195396129299293,5.2717,-5.7643,5.9289
1448849218737,195396169307838,5.3831997,-6.1691,5.3975
1448849218777,195396209316383,5.516,-6.3680997,5.0189
1448849218817,195396248073707,5.7497997,-6.4567,4.6281
1448849218856,195396289180884,6.0562,-6.5344996,4.0978
1448849218896,195396329189429,6.3599997,-6.5487,3.5821
1448849218937,195396369228492,6.6492,-6.4873,3.1417
1448849218977,195396409908424,6.8624997,-6.4726996,2.6794999
1448849219021,195396454250465,6.9581,-6.4972,1.9826
1448849219065,195396498470435,6.8299,-6.8136997,1.7588999
1448849219136,195396543026099,6.7523,-6.8665,1.8505
1448849219152,195396585079322,6.7134,-6.7827,2.2568
1448849219198,195396630153785,6.6538997,-6.8243,2.3069
1448849219236,195396669124732,6.6424,-6.7581997,2.5246
1448849219277,195396709255347,6.5808997,-6.6162996,3.0142
1448849219317,195396749324927,6.5132,-6.4108996,3.5561
1448849219364,195396796169410,6.5185,-6.0235996,4.1706
1448849219410,195396842067847,6.5067997,-5.5011,4.8547997
1448849219449,195396882076392,6.4585,-4.9642997,5.4599
1448849219490,195396922603736,6.4066997,-4.4123,5.9711
1448849219529,195396962001929,6.2577996,-4.0297,6.3849998
1448849219570,195396999355445,5.8912,-3.9959,6.745
1448849219616,195397043728004,5.3171997,-4.2293,7.0715
1448849219657,195397089199195,4.5446,-4.5171,7.4235997
1448849219697,195397129207740,3.8144999,-4.7167997,7.7050996
1448849219737,195397169368873,3.1868,-4.6695,8.012899
1448849219777,195397209377418,3.0939999,-4.6823,8.0419
1448849219817,195397249263892,3.1597998,-4.723,7.9923997
1448849219857,195397289363990,3.0946,-4.8026,7.9704
1448849219897,195397329250465,2.8959,-5.6865997,7.4460998
1448849219937,195397369350562,2.4211,-5.7462,7.5688996
1448849219977,195397409389625,1.7087,-5.3715997,8.0246
1448849220021,195397449062476,1.2033,-5.4839,8.040299
1448849220054,195397487301002,1.1399,-5.6006,7.9688997
1448849220096,195397528621802,0.96089995,-5.7787,7.8648
1448849220137,195397569362769,0.63199997,-5.5056996,8.0904
1448849220176,195397609127174,0.2768,-5.2503,8.2781
1448849220216,195397649135718,0.0155,-5.1921997,8.3192
1448849220257,195397689357886,-0.25869998,-4.9542,8.4591
1448849220297,195397729366431,-0.4861,-4.6573,8.6164
1448849220337,195397769313941,-0.70949996,-4.4479,8.7109995
1448849220377,195397809291968,-0.8524,-4.6587996,8.5871
1448849220416,195397848629127,-0.9472,-4.7014,8.5538
1448849220456,195397888576636,-1.0411,-4.6436996,8.5745
1448849220496,195397928615699,-1.1013,-4.749,8.5089
1448849220536,195397969173560,-1.2521,-4.5207,8.611899
1448849220576,195398009151588,-1.4275,-4.3614,8.6665
1448849220617,195398049282203,-1.6434,-3.9547,8.822
1448849220657,195398089351783,-1.915,-3.5718,8.929999
1448849220697,195398129238258,-2.0956,-2.6592999,9.2036
1448849220736,195398169185767,-2.0802,-1.7737999,9.4178
1448849220777,195398209316383,-1.8980999,-1.0697,9.5615
1448849220817,195398249385963,-1.6804999,-0.84059995,9.6248
1448849220857,195398289394508,-1.5782,-1.0416,9.622499
1448849220897,195398329403052,-1.4538,-1.7562,9.5379
1448849220937,195398369381080,-1.1611,-2.4352,9.4282
1448849220977,195398409389625,-0.76699996,-3.4011,9.1659
1448849221017,195398449337134,-0.5018,-4.6935,8.5959
1448849221057,195398489345679,-0.5367,-5.3875,8.1765995
1448849221097,195398529232154,-0.8824,-5.3715997,8.157
1448849221137,195398569362769,-0.91859996,-5.4914,8.0728
1448849221175,195398608089576,-1.0042,-5.2881,8.1972
1448849221217,195398649288306,-1.0505999,-5.4248,8.1016
1448849221257,195398689266334,-1.1736,-5.2917,8.1723995
1448849221297,195398729396949,-1.2541,-4.9902,8.3482
1448849221337,195398769374976,-1.1297,-4.5941,8.5899
1448849221376,195398808956275,-0.83309996,-4.4481,8.6999
1448849221416,195398848842750,-0.3927,-4.7100997,8.5924
1448849221457,195398889186988,-0.0323,-5.5425,8.09
1448849221497,195398929226050,0.19119999,-6.2235,7.5762997
1448849221537,195398969234595,0.2768,-6.2211,7.5757
1448849221576,195399009060035,0.3254,-5.6358,8.0189
1448849221617,195399049343238,0.29189998,-4.9347,8.469399
1448849221657,195399089382300,0.2853,-4.5994,8.6563
1448849221697,195399129390845,0.2756,-4.5604997,8.6772995
1448849221737,195399169338355,0.1643,-4.143,8.8869
1448849221777,195399209346900,-0.0435,-3.6557,9.0996
1448849221817,195399249385963,-0.2581,-3.4111,9.190499
1448849221857,195399289363990,-0.4816,-3.3611,9.2
1448849221897,195399329311500,-0.7378,-3.4278,9.158199
1448849221937,195399369381080,-0.76949996,-4.0364,8.904099
1448849221976,195399408596168,-0.7984,-4.2928,8.7808
1448849222016,195399448604713,-0.8583,-4.3420997,8.750899
1448849222056,195399488582740,-0.87039995,-4.2723,8.783999
1448849222096,195399529079566,-0.8086,-4.1243997,8.8603
1448849222136,195399569118629,-0.7226,-4.1665,8.848
1448849222177,195399609218726,-0.6162,-4.1728997,8.853
1448849222216,195399649166236,-0.49899998,-3.952,8.9609995
1448849222257,195399689174781,-0.4143,-3.665,9.0865
1448849222297,195399729305396,-0.3398,-3.4868,9.1594
1448849222337,195399769222388,-0.287,-3.3032,9.229
1448849222376,195399809108863,-0.2537,-3.1423,9.285999
1448849222417,195399849208961,-0.3103,-3.0312,9.321199
1448849222457,195399889186988,-0.5678,-2.7951999,9.3825
1448849222496,195399929195533,-0.9403,-2.6583,9.3924
1448849222537,195399969234595,-1.3016,-2.284,9.447599
1448849222577,195400009212623,-1.7637,-1.6940999,9.496699
1448849222617,195400049343238,-2.1969,-1.6687,9.4105
1448849222657,195400089290748,-2.5444,-1.8025,9.2977
1448849222697,195400129207740,-2.8806,-1.6625999,9.2253
1448849222736,195400168117652,-3.1606,-1.558,9.1516
1448849222776,195400208675513,-3.4199,-1.3149999,9.0963
1448849222815,195400248439918,-3.6843,-0.98679996,9.0345
1448849222855,195400288509498,-3.9471,-0.73469996,8.9471
1448849222896,195400328975806,-4.1452,-0.7621,8.8546
1448849222936,195400368923316,-4.2594,-1.0091,8.7754
1448849222976,195400408992896,-4.3108997,-1.2692,8.7163
1448849223016,195400449062476,-4.336,-1.4314,8.678599
1448849223057,195400489284644,-4.3595,-1.458,8.662499
1448849223097,195400529354224,-4.3652997,-1.5689,8.639999
1448849223137,195400569240699,-4.3689,-1.7281,8.6079
1448849223177,195400609249244,-4.4084,-1.7745,8.578199
1448849223217,195400649196754,-4.4516997,-1.7449,8.5619
1448849223256,195400689205299,-4.4907,-1.619,8.566299
1448849223296,195400729152808,-4.5449,-1.4754,8.5637
1448849223337,195400769222388,-4.5916,-1.3021,8.5669
1448849223377,195400809383521,-4.5705,-1.3254,8.5745
1448849223417,195400849361549,-4.5113997,-1.3836,8.5966
1448849223457,195400889217506,-4.4505997,-1.4262999,8.6213
1448849223497,195400929195533,-4.3896,-1.4505,8.6486
1448849223536,195400968624244,-4.3162,-1.5568999,8.667
1448849223576,195401008693824,-4.2493997,-1.6542,8.6819
1448849223616,195401049129615,-4.1671,-1.8241999,8.687799
1448849223656,195401089077125,-4.0917997,-1.9409,8.6982
1448849223697,195401129238258,-4.0367,-2.0054998,8.7093
1448849223736,195401169185767,-3.9517,-2.1118999,8.7231
1448849223777,195401209224830,-3.87,-2.2595,8.7228
1448849223817,195401249202857,-3.8056998,-2.3597,8.7246
1448849223857,195401289241920,-3.753,-2.4496999,8.7225
1448849223897,195401329342017,-3.7017,-2.5314,8.7211
1448849223937,195401369167457,-3.6304998,-2.6053,8.7294
1448849223977,195401409359107,-3.5651999,-2.6806,8.733399
1448849224017,195401449337134,-3.5266,-2.6676998,8.752999
1448849224057,195401489345679,-3.5045,-2.671,8.760799
1448849224097,195401529323707,-3.5024,-2.6381,8.7717
1448849224136,195401568996558,-3.5015,-2.6216,8.776899
1448849224176,195401608974586,-3.5042999,-2.6011,8.781899
1448849224216,195401649074683,-3.4965,-2.602,8.7849
1448849224257,195401689327369,-3.4796,-2.6155,8.7874
1448849224296,195401728664527,-3.4668,-2.6381,8.7858
1448849224336,195401768673072,-3.4478,-2.6523,8.7891
1448849224383,195401815639625,-3.4225,-2.6482,8.800099
1448849224428,195401861568580,-3.3472998,-2.6641,8.8242
1448849224469,195401902156959,-3.2983,-2.7045999,8.8303995
1448849224510,195401939449439,-3.2498999,-2.7259,8.8417
1448849224550,195401979396949,-3.2085998,-2.7482,8.849999
1448849224589,195402022487769,-3.1769,-2.7659,8.8558
1448849224630,195402059414039,-3.1743999,-2.7421,8.8642
1448849224670,195402099361549,-3.1818,-2.7235,8.8672
1448849224710,195402139400611,-3.2134,-2.7089999,8.8603
1448849224750,195402183010230,-3.2793,-2.826,8.799399
1448849224790,195402222622047,-3.3255,-2.8957,8.7593
1448849224830,195402259365211,-3.4231,-2.8920999,8.7228
1448849224870,195402299434791,-3.5428,-2.8118,8.7012
1448849224910,195402339382300,-3.6748,-2.6726,8.6903
1448849224950,195402379390845,-3.7863998,-2.5231,8.686999
1448849224990,195402419368873,-3.9099998,-2.3696,8.6756
1448849225025,195402457790504,-3.9099998,-2.3696,8.683599
1448849225069,195402501491675,-4.184,-1.7736,8.69
1448849225108,195402541103492,-4.301,-1.5383999,8.6777
1448849225148,195402581356177,-4.4048,-1.1366,8.6876
1448849225187,195402620266090,-4.5256,-0.5198,8.684299
1448849225227,195402660183082,-4.6475,0.1918,8.6333
1448849225267,195402700466285,-4.6475,0.8879,8.5175
1448849225308,195402738887916,-4.7781997,1.3536,8.4072
1448849225348,195402779384742,-4.878,1.4782,8.3779
1448849225389,195402819301734,-4.8487997,1.5893999,8.3744
1448849225428,195402859401832,-4.7827997,1.8403,8.361
1448849225468,195402899410377,-4.7139997,2.2203999,8.3077
1448849225508,195402939418922,-4.7139997,2.2203999,8.3077
1448849225548,195402979396949,-4.6106,3.1529999,8.1416
1448849225588,195403019405494,-4.4653997,3.1431,8.2736
1448849225628,195403061550269,-4.2232,3.0249,8.4763
1448849225668,195403099331031,-3.895,3.0291998,8.6013
1448849225708,195403139370093,-3.6067998,3.0074,8.7129
1448849225749,195403181636939,-3.3481,2.9879,8.8027
1448849225789,195403219295631,-3.123,3.0291998,8.8612995
1448849225829,195403262203345,-2.7006,3.1322,8.8917
1448849225879,195403311946998,-2.52,3.2975,8.885
1448849225919,195403351192603,-2.3235,3.4721,8.872
1448849225959,195403391170631,-2.1238,3.6388,8.8552
1448849225999,195403431148658,-1.9514999,3.8253,8.816299
1448849226039,195403471248756,-1.8095,4.0302997,8.7549
1448849226079,195403511196265,-1.703,4.2097,8.6917
1448849226119,195403551174293,-1.6349,4.3743,8.6233
1448849226159,195403591213355,-1.5927,4.5151,8.5583
1448849226199,195403631435523,-1.5812999,4.6245,8.5018
1448849226239,195403671169410,-1.6122999,4.693,8.4584
1448849226279,195403711238990,-1.6816,4.661,8.4626
1448849226319,195403751033912,-1.7857,4.5712,8.4901
1448849226367,195403795375953,-1.8988999,4.4625998,8.5233
1448849226409,195403842342506,-2.0358999,4.3094997,8.5704
1448849226449,195403882351050,-2.214,4.1454997,8.606999
1448849226489,195403922115455,-2.4621,3.9257998,8.6426
1448849226529,195403962062965,-2.7742,3.7082999,8.6441
1448849226570,195404002346168,-3.135,3.5059998,8.605
1448849226609,195404041774879,-3.5549998,3.3116999,8.5184
1448849226649,195404081661353,-4.0095997,3.1267998,8.3853
1448849226690,195404121883521,-4.5024,3.0202,8.1715
1448849226729,195404162014136,-5.0287,2.8106,7.936
1448849226769,195404202236304,-5.5144,2.5254998,7.706
1448849226809,195404242153297,-5.9536,2.1255999,7.4968996
1448849226849,195404282344947,-6.3455997,1.6665,7.2886
1448849226889,195404322109351,-6.6442,1.1867,7.1145
1448849226929,195404362178931,-6.8447,0.7513,6.9824996
1448849226969,195404402279029,-6.9273996,0.37539998,6.9309998
1448849227009,195404442043433,-6.8798,0.0468,6.9881997
1448849227049,195404482113013,-6.7619,-0.1116,7.1015997
1448849227090,195404521907935,-6.6892,-0.16049999,7.1692
1448849227129,195404562160621,-6.6513,-0.0457,7.2058997
1448849227170,195404602321754,-6.6535997,0.21779999,7.2008
1448849227209,195404642299781,-6.6281,0.43539998,7.2142997
1448849227249,195404682277808,-6.5597997,0.7209,7.2539
1448849227290,195404722377906,-6.4142,1.0435,7.3441997
1448849227329,195404762233863,-6.2662,1.3549,7.4207997
1448849227372,195404804805884,-6.1808996,1.6689999,7.4283
1448849227416,195404849178443,-6.0773,1.8687999,7.4660997
1448849227457,195404889339576,-6.0295997,2.0607998,7.4543
1448849227496,195404929226050,-5.9997997,2.2296,7.4298
1448849227537,195404969204078,-6.0151997,2.3205,7.3891997
1448849227577,195405009273658,-6.0369,2.3727999,7.3547997
1448849227617,195405049343238,-6.0541,2.3783,7.3388996
1448849227657,195405089290748,-6.0431,2.3430998,7.3592997
1448849227697,195405129238258,-6.0139,2.3302999,7.3873
1448849227737,195405169216285,-5.9656997,2.3114,7.4322
1448849227777,195405209224830,-5.9349,2.2903,7.4632998
1448849227817,195405249233375,-5.9056997,2.2637,7.4944
1448849227857,195405289241920,-5.8824,2.2275999,7.5235996
1448849227896,195405329189429,-5.8455,2.1678,7.5695
1448849227937,195405369197974,-5.7953997,2.0934,7.6288
1448849227977,195405409359107,-5.7483,2.0097,7.6868
1448849228017,195405449184547,-5.7040997,1.9494,7.7349997
1448849228057,195405489345679,-5.6689997,1.9212999,7.7679
1448849228094,195405527767310,-5.6749997,1.9116,7.766
1448849228137,195405569210181,-5.7131,1.9038,7.7398
1448849228177,195405609188209,-5.7496,1.8944999,7.7149997
1448849228217,195405649257789,-5.7497997,1.8772,7.7191997
1448849228257,195405689357886,-5.694,1.8584,7.7647996
1448849228296,195405729122291,-5.6169996,1.8443999,7.8241
1448849228337,195405769313941,-5.5731997,1.8499,7.8539996
1448849228376,195405809108863,-5.5822997,1.8692,7.8430996
1448849228417,195405849239478,-5.6468,1.921,7.7840996
1448849228457,195405889217506,-5.7121997,1.9550999,7.7276998
1448849228496,195405929195533,-5.7362,1.9818,7.7030997
1448849228537,195405969234595,-5.7053,1.9969,7.7219996
1448849228576,195406009182105,-5.6516,1.9999,7.7608
1448849228616,195406049190650,-5.6398997,2.0207999,7.7637
1448849228657,195406089199195,-5.6787,2.0372999,7.7310996
1448849228697,195406129207740,-5.7356,2.0593,7.6830997
1448849228737,195406169246802,-5.7767,2.0718,7.6489997
1448849228776,195406209194312,-5.7932,2.0644999,7.6384997
1448849228817,195406249233375,-5.7929,2.057,7.6405997
1448849228855,195406287807593,-5.7846,2.0370998,7.6520996
1448849228897,195406329464088,-5.7653,2.0221999,7.6706996
1448849228937,195406369289527,-5.7504997,2.0138,7.684
1448849228977,195406409328590,-5.7346997,2.0079,7.6974998
1448849229016,195406449184547,-5.7244997,2.0005,7.707
1448849229057,195406489223609,-5.7181997,1.9980999,7.7123
1448849229097,195406529201636,-5.7181,1.9981999,7.7123
1448849229136,195406568721900,-5.7263,1.9925,7.7075996
1448849229176,195406609096656,-5.7335997,1.9919,7.7022
1448849229216,195406648983131,-5.7338,1.9925,7.7021
1448849229256,195406689113746,-5.7222,1.9894999,7.7114
1448849229297,195406729335914,-5.719,1.9942,7.7127
1448849229337,195406769313941,-5.7242,1.997,7.7081
1448849229376,195406809169898,-5.7311,2.0128999,7.6987996
1448849229417,195406849208961,-5.7342,2.0283,7.6924
1448849229457,195406889217506,-5.7327,2.0427,7.6896996
1448849229496,195406929195533,-5.7306,2.0530999,7.6885
1448849229537,195406969204078,-5.7176,2.067,7.6945
1448849229577,195407009212623,-5.7082996,2.0767999,7.6987
1448849229615,195407048122535,-5.7118998,2.0437,7.7049
1448849229657,195407089321265,-5.7085,2.0611,7.7028
1448849229697,195407129207740,-5.7142997,1.9803,7.7198
1448849229737,195407169246802,-5.7332997,1.8742,7.732
1448849229777,195407209346900,-5.7496,1.8086,7.7356
1448849229817,195407249202857,-5.7145,1.7341,7.7785997
1448849229857,195407289241920,-5.6205,1.6667999,7.8613
1448849229897,195407329219947,-5.4912,1.609,7.9639997
1448849229937,195407369228492,-5.3455,1.5717,8.0699
1448849229977,195407409237037,-5.2081,1.5222,8.1687
1448849230017,195407449276099,-5.1077,1.4498999,8.2448
1448849230057,195407489345679,-5.0167,1.3569,8.3162
1448849230096,195407529140601,-4.9249997,1.2605,8.3859
1448849230136,195407569088111,-4.815,1.1507,8.465199
1448849230176,195407609218726,-4.6986,1.0185,8.547299
1448849230217,195407649227271,-4.5997,0.8892,8.6152
1448849230256,195407689083228,-4.5088,0.72639996,8.6782
1448849230297,195407729183326,-4.4316,0.5377,8.7315
1448849230337,195407769191871,-4.3318,0.309,8.7925
1448849230375,195407807857642,-4.2173,0.060099997,8.8533
1448849230416,195407848781715,-4.039,-0.2748,8.932
1448849230456,195407888759742,-3.8256998,-0.6712,9.004499
1448849230496,195407929103980,-3.6013,-1.0122,9.065
1448849230537,195407969356666,-3.2185,-1.3504,9.1644
1448849230577,195408009182105,-2.6883,-1.7379999,9.2694
1448849230616,195408049190650,-2.0937,-2.0005999,9.3692
1448849230657,195408089199195,-1.5338999,-2.757,9.2851
1448849230697,195408129238258,-1.1673,-3.6165,9.040299
1448849230737,195408169277320,-0.9461,-4.3066998,8.7593
1448849230777,195408209377418,-0.944,-4.6154,8.601
1448849230820,195408252681861,-1.0408,-5.0023,8.370399
1448849230856,195408289028297,-1.0723,-5.3802,8.1286
1448849230896,195408328975806,-0.9205,-5.981,7.7169
1448849230936,195408368984351,-0.8322,-6.2864,7.4804997
1448849230976,195408408992896,-0.71029997,-6.5541,7.2601
1448849231016,195408448940406,-0.5852,-6.8578,6.9855
1448849231056,195408489132056,-0.45749998,-7.0783,6.7718997
1448849231097,195408529323707,-0.34129998,-7.2258,6.6212997
1448849231137,195408569240699,-0.2267,-7.3798,6.4543
1448849231176,195408608791480,-0.1423,-7.495,6.3223996
1448849231216,195408648708472,-0.086899996,-7.5649,6.2397
1448849231256,195408689144263,0.0058999998,-7.6854997,6.0910997
1448849231296,195408729152808,0.063099995,-7.7292,6.0353
1448849231337,195408769222388,0.1318,-7.707,6.0624
1448849231376,195408809139381,0.1999,-7.6952,6.0755
1448849231416,195408849208961,0.2145,-7.6963997,6.0737
1448849231457,195408889186988,0.1865,-7.6422,6.1426
1448849231497,195408929226050,0.14019999,-7.5294,6.2816
1448849231537,195408969173560,0.0751,-7.4442997,6.3833
1448849231577,195409009304175,-0.0828,-7.2921996,6.5562997
1448849231616,195409049160133,-0.3631,-7.1154,6.7386
1448849231657,195409089290748,-0.81399995,-6.7750998,7.0431
1448849231697,195409129329810,-1.4672999,-6.5066,7.1889997
1448849231736,195409169155250,-2.1513999,-6.0495,7.4124
1448849231777,195409209346900,-2.7096,-5.3935,7.7289
1448849231817,195409249233375,-3.0828,-4.9733,7.8697
1448849231857,195409289211402,-3.2954,-4.5709,8.0259
1448849231896,195409329219947,-3.3306,-4.3824997,8.116
1448849231936,195409368709693,-3.2903,-4.097,8.279799
1448849231976,195409408840308,-3.0921,-4.1398,8.3348
1448849232016,195409449154029,-2.8841,-4.1207,8.4186
1448849232056,195409489101539,-2.4979,-4.0046997,8.596
1448849232097,195409529201636,-2.1406999,-3.8295,8.7705
1448849232137,195409569271217,-1.8237,-3.5686998,8.9502
1448849232177,195409609218726,-1.5685999,-3.3809,9.0707
1448849232217,195409649196754,-1.3835,-3.1576,9.180699
1448849232257,195409689235816,-1.2045,-2.873,9.2986
1448849232296,195409729183326,-0.95909995,-2.4016,9.4594
1448849232336,195409769161353,-0.6254,-1.9173,9.597
1448849232376,195409809139381,-0.3188,-1.546,9.6786995
1448849232417,195409849208961,-0.0923,-1.2023,9.7321
1448849232456,195409889156470,0.0158,-0.96379995,9.759
1448849232496,195409929226050,0.0276,-0.67289996,9.7834
1448849232537,195409969295631,0.0166,-0.5823,9.7892
1448849232577,195410009182105,-0.030499998,-0.4396,9.796599
1448849232617,195410049221168,-0.094799995,-0.4869,9.794
1448849232657,195410089199195,-0.19129999,-0.4836,9.7927
1448849232696,195410128719459,-0.21689999,-0.4888,9.7919
1448849232736,195410168666968,-0.15869999,-0.5517,9.7897
1448849232777,195410209285865,0.014599999,-0.71209997,9.7806
1448849232816,195410249172340,0.2668,-1.1482999,9.7354
1448849232857,195410289302955,0.66749996,-1.8469,9.6079
1448849232897,195410329250465,1.155,-2.0607998,9.5177
1448849232937,195410369228492,1.6895,-2.0139,9.447599
1448849232977,195410409206519,2.1850998,-2.2849,9.2829
1448849233017,195410449184547,2.472,-2.9315,9.0255995
1448849233057,195410489193092,2.4482,-3.4647,8.8414
1448849233097,195410529201636,2.0676,-3.7252,8.8326
1448849233137,195410569210181,1.4718,-3.9196,8.8679
1448849233176,195410609188209,0.6845,-4.1201,8.8727
1448849233217,195410649318824,-0.1797,-4.4867,8.7181
1448849233257,195410689235816,-0.886,-5.1126,8.3213
1448849233297,195410729335914,-1.4011999,-5.6607,7.8841996
1448849233337,195410769313941,-1.5514,-6.0243998,7.5808997
1448849233376,195410809108863,-1.5770999,-6.5002,7.1713
1448849233417,195410849239478,-1.5511,-6.449,7.2230997
1448849233456,195410888729224,-1.6050999,-6.2759,7.3623996
1448849233496,195410928890357,-1.5623,-5.9347,7.6489997
1448849233537,195410969173560,-1.4547,-5.7797,7.7876997
1448849233577,195411009273658,-1.4077,-5.7532,7.8157997
1448849233616,195411049160133,-1.4483,-5.9093,7.691
1448849233657,195411089229713,-1.5078,-6.0733,7.5505
1448849233697,195411129207740,-1.599,-6.1119,7.5003996
1448849233737,195411169216285,-1.6853,-6.1201,7.4747996
1448849233777,195411209224830,-1.7477,-5.9087,7.6288996
1448849233817,195411249202857,-2.3834,-6.5116997,6.9344997
1448849233857,195411289241920,-2.9717999,-7.555,5.5009
1448849233896,195411329189429,-3.0858,-6.8984,6.2497
1448849233937,195411369228492,-2.6269999,-5.5422,7.652
1448849233977,195411409237037,-2.5932,-6.2936997,7.0593996
1448849234017,195411449306617,-3.3349,-8.0591,4.4832
1448849234057,195411489345679,-3.7436998,-8.875899,1.8369
1448849234097,195411529354224,-3.8413,-9.0095,-0.4933
1448849234137,195411569637427,-3.823,-8.7564,-2.2093
1448849234176,195411608974586,-3.9522,-8.3744,-3.2284
1448849234216,195411648555884,-4.1404,-7.9508996,-3.9764
1448849234256,195411688930640,-4.2493997,-7.8335,-4.0924997
1448849234296,195411729274879,-4.2594,-7.6933,-4.3406
1448849234337,195411769191871,-4.0596,-7.5519,-4.7602
1448849234376,195411809108863,-3.9438,-7.4014997,-5.0829997
1448849234416,195411849117408,-3.6978,-7.1653,-5.5817
1448849234456,195411889186988,-3.7045,-7.1816998,-5.5561
1448849234496,195411929195533,-3.7686,-7.1138997,-5.6001
1448849234536,195411969143043,-3.781,-7.0348997,-5.6907997
1448849234576,195412009182105,-3.6818,-7.0204997,-5.7731
1448849234617,195412049221168,-3.6227,-7.0270996,-5.8023
1448849234657,195412089199195,-3.6373,-6.9795,-5.8504996
1448849234697,195412129238258,-3.6209998,-6.9094996,-5.943
1448849234736,195412169155250,-3.6164,-6.8761,-5.9842997
1448849234777,195412209346900,-3.6209998,-6.8507,-6.0105996
1448849234817,195412249263892,-3.6302998,-6.8016,-6.0606
1448849234857,195412289241920,-3.6466,-6.7570996,-6.1004
1448849234897,195412329219947,-3.6311,-6.6668997,-6.2079997
1448849234936,195412368587623,-3.5372,-6.5397,-6.3946
1448849234976,195412408687720,-3.3604,-6.4002,-6.6268
1448849235016,195412448604713,-3.1099,-6.2749996,-6.8647
1448849235056,195412489101539,-2.8504999,-6.0722,-7.1534996
1448849235096,195412529110084,-2.5758,-5.9481997,-7.3591
1448849235137,195412569362769,-2.3223,-5.8715997,-7.5035
1448849235177,195412609279761,-1.943,-5.7402997,-7.71
1448849235217,195412649227271,-1.5273,-5.7591,-7.7892
1448849235257,195412689235816,-0.9636,-5.6776,-7.9378
1448849235296,195412729152808,-0.2588,-5.6109,-8.0388
1448849235337,195412769222388,0.58669996,-5.5778,-8.0446
1448849235376,195412809078345,1.5363,-5.4856997,-7.9824
1448849235417,195412849178443,2.5874999,-5.3564997,-7.7963996
1448849235457,195412889217506,3.6897,-5.1526,-7.4838
1448849235496,195412929165015,4.8192,-4.8533998,-7.0277996
1448849235537,195412969204078,5.8862,-4.4708,-6.4447
1448849235576,195413009151588,6.8637,-3.9947999,-5.7534
1448849235617,195413049190650,7.719,-3.4729998,-4.9521
1448849235657,195413089290748,8.4136,-2.8507,-4.1535997
1448849235696,195413128627906,8.9576,-2.1826,-3.3418
1448849235736,195413168605933,9.358399,-1.4683,-2.536
1448849235776,195413209163795,9.6167,-0.74109995,-1.7710999
1448849235817,195413249202857,9.751699,-0.056399997,-1.0340999
1448849235856,195413289180884,9.7822,0.6283,-0.2861
1448849235897,195413329189429,9.7312,1.1668,0.333
1448849235937,195413369228492,9.6401,1.5955,0.83059996
1448849235977,195413409237037,9.5205,1.9695,1.2839999
1448849236017,195413449184547,9.406,2.2510998,1.6208
1448849236056,195413489162574,9.318,2.4431,1.8364999
1448849236097,195413529262672,9.2741995,2.5029,1.9726
1448849236137,195413569179664,9.2866,2.4275,2.0081
1448849236176,195413609188209,9.3911,2.1843998,1.7899
1448849236217,195413649227271,9.4823,2.0,1.5011
1448849236257,195413689205299,9.6317,1.5343,1.0217
1448849236297,195413729213843,9.7161,1.2134,0.5406
1448849236337,195413769313941,9.7858,0.5992,-0.2139
1448849236376,195413809108863,9.7557,0.038399998,-0.99579996
1448849236415,195413848079810,9.6163,-0.63909996,-1.8131
1448849236456,195413888759742,9.333,-1.3418,-2.6952
1448849236496,195413928676734,8.9116,-2.0291998,-3.5544
1448849236536,195413969112525,8.313499,-2.6836,-4.4557
1448849236576,195414009182105,7.5604997,-3.2956,-5.3054
1448849236616,195414049099097,6.6112,-3.7912,-6.1714997
1448849236657,195414089321265,5.5407,-4.2845,-6.8638
1448849236696,195414129116187,4.3215,-4.674,-7.4598
1448849236736,195414169216285,3.0611,-4.9901,-7.8676
1448849236777,195414209255347,1.7978,-5.2272,-8.1003
1448849236816,195414249111304,0.6745,-5.3736,-8.1756
1448849236857,195414289241920,-0.3384,-5.5183,-8.0997
1448849236896,195414329189429,-1.1529,-5.5537,-7.9999
1448849236937,195414369228492,-1.7375,-5.5744,-7.8789997
1448849236977,195414409237037,-2.0368,-5.5702,-7.8097997
1448849237016,195414449062476,-1.9497,-5.5077,-7.8760996
1448849237056,195414489162574,-1.8025999,-5.5867,-7.8556
1448849237097,195414529201636,-1.3464,-5.5346,-7.983
1448849237136,195414569210181,-0.77129996,-5.4505997,-8.1158
1448849237177,195414609218726,-0.0667,-5.4138,-8.1765995
1448849237216,195414648708472,0.82919997,-5.3494997,-8.177199
1448849237256,195414688686500,1.8727,-5.2591,-8.0626
1448849237296,195414729152808,2.9803,-5.1003,-7.8278
1448849237336,195414769100318,4.1426997,-4.8831,-7.4272
1448849237377,195414809353004,5.2785997,-4.5842,-6.8768
1448849237417,195414849208961,6.3334,-4.1967,-6.2005
1448849237457,195414889217506,7.2799997,-3.6917,-5.4354
1448849237497,195414929317603,8.0704,-3.1134999,-4.62
1448849237537,195414969295631,8.7023,-2.4796999,-3.7802
1448849237577,195415009182105,9.1861,-1.7752999,-2.9382
1448849237616,195415049190650,9.5192995,-1.0537,-2.1071
1448849237656,195415089199195,9.708099,-0.3229,-1.347
1448849237696,195415129207740,9.780399,0.35889998,-0.6186
1448849237737,195415169216285,9.754499,1.007,0.0444
1448849237777,195415209194312,9.655499,1.5767,0.67289996
1448849237817,195415249324927,9.5238,2.0247,1.1682999
1448849237857,195415289241920,9.3734,2.3858,1.6171
1448849237896,195415329189429,9.2471,2.6155,1.9540999
1448849237936,195415369167457,9.1468,2.773,2.1936
1448849237976,195415409176002,9.1156,2.8233,2.2589
1448849238016,195415449123511,9.1557,2.7491999,2.1869
1448849238057,195415489345679,9.2671995,2.5546,1.9393
1448849238097,195415529171119,9.4093,2.2621999,1.5857999
1448849238137,195415569240699,9.5685,1.862,1.0691
1448849238177,195415609249244,9.7046995,1.3468,0.4143
1448849238217,195415649349342,9.7722,0.75619996,-0.31849998
1448849238257,195415689174781,9.7369995,0.070599996,-1.1637
1448849238296,195415729183326,9.5907,-0.5823,-1.9614999
1448849238336,195415769222388,9.3019,-1.2709999,-2.8332999
1448849238377,195415809200416,8.8736,-1.9116,-3.7113
1448849238417,195415849239478,8.296,-2.5008,-4.5924997
1448849238456,195415889186988,7.5825,-3.0605998,-5.4136996
1448849238496,195415929073463,6.7865,-3.5605998,-6.1183
1448849238537,195415969326148,5.8933,-3.9810998,-6.752
1448849238576,195416009151588,4.8894,-4.33,-7.3153996
1448849238617,195416049312720,3.9857,-4.6052,-7.6861
1448849238656,195416089229713,3.0828998,-4.856,-7.9426
1448849238696,195416128719459,2.3421,-4.9333997,-8.1453
1448849238736,195416168666968,1.7055,-5.0965,-8.2029
1448849238776,195416209133277,1.2219,-5.1291,-8.2685995
1448849238817,195416249233375,0.9009,-5.1289,-8.3098
1448849238860,195416292781959,0.8662,-5.0594997,-8.356
1448849238896,195416328975806,1.0143,-5.0316997,-8.356
1448849238936,195416369106422,1.3586999,-5.0004997,-8.3258
1448849238976,195416409145484,1.903,-4.9351,-8.2579
1448849239015,195416447902808,2.6801,-4.8269997,-8.1048
1448849239056,195416488582740,3.5856,-4.6909,-7.83
1448849239097,195416529415259,4.581,-4.4683,-7.4309998
1448849239136,195416569027076,5.5894,-4.1963997,-6.8788
1448849239176,195416609005103,6.5481997,-3.842,-6.2072
1448849239216,195416649135718,7.4048996,-3.3869998,-5.4649
1448849239257,195416689327369,8.1489,-2.8709,-4.6391997
1448849239297,195416729213843,8.731,-2.2865999,-3.8351998
1448849239337,195416769252906,9.1868,-1.6590999,-3.003
1448849239377,195416809230933,9.4894,-1.0069,-2.2598999
1448849239417,195416849239478,9.679999,-0.33499998,-1.5337
1448849239457,195416889370093,9.7701,0.309,-0.7866
1448849239497,195416929287086,9.7619,0.9235,-0.1436
1448849239537,195416969265113,9.7007,1.3922,0.35729998
1448849239577,195417009365211,9.6041,1.8070999,0.8134
1448849239617,195417049373756,9.498899,2.12,1.2012
1448849239657,195417089199195,9.3918,2.3964,1.489
1448849239697,195417129360328,9.3097,2.5774999,1.6897
1448849239737,195417169216285,9.247,2.6836,1.8594999
1448849239777,195417209377418,9.2211,2.7298,1.9202
1448849239817,195417249263892,9.2628,2.6408,1.8420999
1448849239857,195417289272437,9.359,2.4271998,1.6379
1448849239897,195417329219947,9.4932995,2.0990999,1.28
1448849239936,195417369167457,9.635,1.6689,0.74189997
1448849239977,195417409237037,9.7415,1.1266999,0.0444
1448849240017,195417449337134,9.7638,0.5187,-0.7532
1448849240057,195417489376197,9.6686,-0.1678,-1.6306
1448849240097,195417529262672,9.4472,-0.8355,-2.4943
1448849240136,195417569240699,9.0907,-1.4948,-3.3604
1448849240176,195417608791480,8.6195,-2.1251,-4.166
1448849240217,195417649410377,8.040999,-2.6899998,-4.9269
1448849240257,195417689174781,7.3371,-3.1427999,-5.6973
1448849240297,195417729244361,6.5934,-3.5377998,-6.3385997
1448849240337,195417769252906,5.8426,-3.9041,-6.8405
1448849240377,195417809230933,5.0316997,-4.1777,-7.3073997
1448849240417,195417849422584,4.2664,-4.3981,-7.6566
1448849240457,195417889217506,3.6167998,-4.5838,-7.8788
1448849240497,195417929226050,2.8806,-4.746,-8.083799
1448849240537,195417969204078,2.3409,-4.9164,-8.1559
1448849240577,195418009212623,1.862,-5.0169997,-8.217899
1448849240617,195418049251685,1.5439,-5.0204,-8.2815
1448849240657,195418089229713,1.3162,-4.9919,-8.3379
1448849240697,195418129238258,1.3675,-4.9705,-8.3424
1448849240737,195418169368873,1.5234,-4.9494,-8.3279
1448849240777,195418209224830,1.9602,-4.9135,-8.2574
1448849240817,195418249263892,2.4691,-4.8698,-8.1461
1448849240855,195418287807593,3.3088999,-4.7511,-7.9151998
1448849240896,195418328823218,4.1944,-4.5808,-7.5889997
1448849240936,195418368862281,5.2051997,-4.3145,-7.1035
1448849240976,195418409145484,6.1714997,-3.9562,-6.5137997
1448849241016,195418449123511,7.1152,-3.5087,-5.7646
1448849241057,195418489223609,7.9254,-2.9689,-4.9542
1448849241097,195418529384742,8.582,-2.3683,-4.112
1448849241137,195418569240699,9.1033,-1.7172999,-3.2168999
1448849241177,195418609371314,9.462299,-1.0085,-2.3701
1448849241217,195418649349342,9.6739,-0.2859,-1.5814999
1448849241256,195418689235816,9.761,0.41489998,-0.8484
1448849241297,195418729213843,9.747,1.0711,-0.124
1448849241337,195418769344459,9.648399,1.6590999,0.5681
1448849241377,195418809322486,9.4871,2.1763,1.1941
1448849241417,195418849239478,9.3082,2.5656,1.7148999
1448849241456,195418889186988,9.137899,2.8558998,2.1239
1448849241497,195418929256568,8.9969,3.049,2.4343998
1448849241537,195418969204078,8.9249,3.1213999,2.602
1448849241577,195419009212623,8.934199,3.1048,2.5899
1448849241616,195419049129615,9.0334,2.9510999,2.4194
1448849241656,195419088832984,9.1916,2.7182999,2.0718
1448849241697,195419129421363,9.3789,2.3662,1.6137999
1448849241736,195419169124732,9.5859995,1.8562,0.9115
1448849241777,195419209255347,9.7258,1.2506,0.106199995
1448849241817,195419249355445,9.7628,0.5467,-0.7468
1448849241857,195419289272437,9.658899,-0.19999999,-1.6831
1448849241897,195419329219947,9.402599,-0.9213,-2.6290998
1448849241937,195419369259009,9.004399,-1.624,-3.5289
1448849241977,195419409359107,8.436399,-2.2905,-4.4442
1448849242017,195419449245582,7.7352996,-2.9413998,-5.2615
1448849242057,195419489223609,6.8124,-3.454,-6.1506996
1448849242097,195419529262672,5.8975,-3.8565998,-6.8202996
1448849242137,195419569271217,4.9742,-4.0761,-7.4035997
1448849242177,195419609218726,4.0692,-4.3132997,-7.8107
1448849242217,195419649257789,3.2287,-4.4539,-8.1184
1448849242257,195419689235816,2.511,-4.5881,-8.2954
1448849242297,195419729244361,1.9447999,-4.7058997,-8.3812
1448849242335,195419768062720,1.5711,-4.7384,-8.441
1448849242376,195419808895240,1.4187,-4.7244997,-8.475699
1448849242416,195419848873267,1.5158,-4.6808,-8.4831
1448849242457,195419889431129,1.824,-4.6338997,-8.4482
1448849242496,195419929195533,2.3358998,-4.5519,-8.3661995
1448849242537,195419969387183,3.0816998,-4.4813,-8.1603
1448849242577,195420009273658,3.9643998,-4.3652997,-7.8356
1448849242616,195420049221168,4.9277,-4.1941,-7.3687
1448849242657,195420089199195,5.9103,-3.9273,-6.7686996
1448849242697,195420129238258,6.8664,-3.563,-6.0271997
1448849242737,195420169216285,7.7233,-3.0960999,-5.1898
1448849242777,195420209255347,8.4618,-2.5349998,-4.2591
1448849242817,195420249385963,9.0352,-1.9167,-3.2953
1448849242857,195420289363990,9.4374,-1.1807,-2.3895
1448849242897,195420329250465,9.691199,-0.39389998,-1.4466
1448849242937,195420369259009,9.7803,0.3969,-0.59749997
1448849242977,195420409237037,9.7364,1.1508,0.2157
1448849243016,195420449123511,9.5904,1.8267,0.92499995
1448849243057,195420489254127,9.3538,2.4359,1.6554999
1448849243097,195420529323707,9.0801,2.8881,2.3186998
1448849243137,195420569179664,8.8265,3.211,2.8197
1448849243176,195420609157691,8.6424,3.4129999,3.1348999
1448849243217,195420649227271,8.5507,3.5073,3.2791
1448849243257,195420689235816,8.5841,3.475,3.2254999
1448849243297,195420729213843,8.7116995,3.3323998,3.0282
1448849243337,195420769374976,8.9432,3.0633,2.6081
1448849243377,195420809414039,9.182,2.7129,2.1208
1448849243417,195420849392066,9.4597,2.1669,1.4092
1448849243457,195420889492164,9.6683,1.5253999,0.60389996
1448849243497,195420929256568,9.7705,0.7802,-0.3103
1448849243536,195420969173560,9.695399,-0.0655,-1.4700999
1448849243576,195421009212623,9.4546995,-0.83879995,-2.4645
1448849243617,195421049312720,9.0252,-1.6139,-3.4798
1448849243657,195421089229713,8.334,-2.3402998,-4.6082
1448849243697,195421129238258,7.5351,-2.885,-5.574
1448849243737,195421169246802,6.4915,-3.5131,-6.4565
1448849243777,195421209224830,5.3998,-3.8506,-7.2239
1448849243816,195421249080787,4.1856,-4.1986,-7.8115997
1448849243856,195421288784156,2.9996,-4.4205,-8.2239
1448849243897,195421329464088,1.9159,-4.6201997,-8.4353
1448849243937,195421369472633,1.0327,-4.7643,-8.5092
1448849243977,195421409237037,0.30339998,-4.9073,-8.4852
1448849244017,195421449184547,-0.1059,-4.9571,-8.460899
1448849244057,195421489223609,-0.2216,-4.9874997,-8.4409
1448849244097,195421529232154,-0.0594,-4.9582996,-8.4606
1448849244136,195421569027076,0.32299998,-4.9291997,-8.4717
1448849244176,195421609066138,0.9012,-4.9199,-8.4352
1448849244216,195421649105201,1.7176,-4.884,-8.3288
1448849244256,195421689022193,2.6927,-4.8255,-8.1015
1448849244297,195421729305396,3.7610998,-4.7453,-7.7141
1448849244336,195421769130836,4.8722,-4.5673,-7.1814
1448849244377,195421809200416,5.9388,-4.285,-6.5221996
1448849244417,195421849269996,6.9336,-3.8823,-5.7465997
1448849244457,195421889217506,7.8022,-3.3567998,-4.9016
1448849244496,195421929226050,8.525,-2.7249,-4.0085998
1448849244536,195421968990455,9.0714,-1.9978999,-3.1441
1448849244576,195422008602271,9.4485,-1.2487999,-2.3098
1448849244616,195422048610816,9.6823,-0.4872,-1.4782
1448849244656,195422089138160,9.7768,0.2846,-0.7073
1448849244696,195422129207740,9.759299,0.9608,0.011
1448849244736,195422169094215,9.6432,1.6366999,0.7053
1448849244777,195422209255347,9.4805,2.1629999,1.2681
1448849244817,195422249263892,9.2624,2.6662,1.8075999
1448849244857,195422289394508,9.0849,2.9692,2.1942
1448849244897,195422329342017,8.9383,3.1913,2.4679
1448849244937,195422369228492,8.8938,3.2344,2.5702999
1448849244976,195422409206519,8.9175,3.1797,2.5562
1448849245017,195422449367652,9.0562,2.9671,2.3127
1448849245057,195422489193092,9.2344,2.6555998,1.9596
1448849245097,195422529262672,9.4731,2.1387,1.3614
1448849245137,195422569271217,9.6715,1.5331,0.5279
1448849245177,195422609218726,9.7696,0.82,-0.22399999
1448849245217,195422649227271,9.736899,0.0766,-1.1638
1448849245257,195422689266334,9.539499,-0.7621,-2.1413999
1448849245297,195422729305396,9.1931,-1.4574,-3.0871
1448849245336,195422769100318,8.6433,-2.2129,-4.0699
1448849245376,195422809139381,8.0063,-2.7705998,-4.9386997
1448849245417,195422849178443,7.1317,-3.3702,-5.8266997
1448849245457,195422889248023,6.2553997,-3.7612,-6.5491
1448849245497,195422929256568,5.2804,-4.0888,-7.1811
1448849245537,195422969265113,4.3574,-4.3145,-7.653
1448849245576,195423009151588,3.3752,-4.5587,-7.9999
1448849245617,195423049282203,2.5177999,-4.6516,-8.257999
1448849245657,195423089382300,1.7357,-4.7239,-8.4169
1448849245697,195423129238258,1.1724,-4.8086,-8.466
1448849245737,195423169246802,0.8053,-4.8385,-8.4918995
1448849245776,195423209194312,0.6667,-4.8294997,-8.5089
1448849245817,195423249233375,0.7302,-4.7907,-8.5257
1448849245857,195423289394508,1.05,-4.7493997,-8.5154
1448849245897,195423329342017,1.5435,-4.7159,-8.4587
1448849245937,195423369716773,2.2740998,-4.704,-8.2989
1448849245976,195423409145484,3.1497,-4.6604,-8.0331
1448849246017,195423449215064,4.1217,-4.5631,-7.6391997
1448849246056,195423489132056,5.1514997,-4.3617,-7.1138997
1448849246096,195423529201636,6.1589,-4.0551,-6.4646997
1448849246137,195423569362769,7.0906997,-3.6088,-5.733
1448849246177,195423609340797,7.9063997,-3.0778,-4.9179
1448849246217,195423649227271,8.5886,-2.485,-4.0285
1448849246257,195423689327369,9.113299,-1.8432,-3.1174
1448849246297,195423729183326,9.4858,-1.1248,-2.2189
1448849246337,195423769374976,9.7007,-0.39409998,-1.382
1448849246377,195423809261451,9.7842,0.3299,-0.5746
1448849246417,195423849269996,9.756599,0.97389996,0.1643
1448849246457,195423889370093,9.6447,1.5904,0.7858
1448849246497,195423929256568,9.4738,2.1007,1.4142
1448849246537,195423969295631,9.275499,2.5119,1.9550999
1448849246576,195424009212623,9.0931,2.7832,2.3948998
1448849246617,195424049221168,8.9408,2.9607,2.7317
1448849246657,195424089229713,8.886,3.0059,2.8585
1448849246697,195424129238258,8.8979,2.9638,2.8653998
1448849246736,195424169063697,9.005099,2.8035998,2.6857998
1448849246776,195424208889136,9.1623,2.5688999,2.3708
1448849246817,195424249660621,9.3942995,2.1564999,1.8064
1448849246856,195424289119849,9.5935,1.6786,1.1468999
1448849246900,195424332637916,9.743899,1.0548999,0.3353
1448849246936,195424368648658,9.785399,0.39499998,-0.5074
1448849246976,195424408687720,9.6806,-0.3417,-1.5282999
1448849247017,195424449367652,9.4213,-0.9406,-2.5537999
1448849247056,195424489009986,9.0188,-1.5071,-3.5437999
1448849247096,195424529018531,8.5852995,-1.9862,-4.3029
1448849247136,195424569027076,7.8654,-2.51,-5.292
1448849247177,195424609340797,7.0961,-2.9352,-6.0992
1448849247217,195424649288306,6.1716,-3.3941998,-6.8234
1448849247257,195424689266334,5.2030997,-3.7110999,-7.4379997
1448849247297,195424729213843,4.2538,-3.9833,-7.8872
1448849247337,195424769313941,3.349,-4.1614,-8.2242
1448849247376,195424809169898,2.4901,-4.3206,-8.444099
1448849247417,195424849361549,1.7775999,-4.4283,-8.5675
1448849247457,195424889186988,1.1053,-4.6365,-8.5704
1448849247496,195424929134498,0.6498,-4.6036997,-8.6345
1448849247536,195424969173560,0.3899,-4.6549997,-8.6227
1448849247576,195425009121070,0.366,-4.6154,-8.6449995
1448849247616,195425049129615,0.5596,-4.6219997,-8.631
1448849247657,195425089260230,0.95,-4.6029997,-8.6071
1448849247696,195425129177222,1.5228,-4.5822997,-8.535399
1448849247737,195425169368873,2.3135,-4.5018,-8.3996
1448849247776,195425209224830,3.2289999,-4.3731,-8.1621
1448849247817,195425249233375,4.2269,-4.1819997,-7.7983
1448849247857,195425289241920,5.2581,-3.9311,-7.2848
1448849247897,195425329616675,6.2506,-3.6162,-6.6348996
1448849247937,195425369350562,7.1717997,-3.2206,-5.8619
1448849247977,195425409725318,7.962,-2.7649999,-5.0130997
1448849248016,195425449184547,8.6034,-2.2451,-4.1363997
1448849248057,195425489284644,9.090099,-1.6846,-3.271
1448849248097,195425529262672,9.4395,-1.0782,-2.429
1448849248137,195425569332252,9.6564,-0.44529998,-1.6504999
1448849248174,195425607784400,9.7647,0.1671,-0.8894
1448849248216,195425648861060,9.7761,0.75229996,-0.1749
1448849248257,195425689357886,9.7092,1.2972,0.46469998
1448849248297,195425729335914,9.5812,1.7888999,1.0807999
1448849248334,195425767604957,9.4243,2.1814,1.6098
1448849248385,195425808284888,9.2437,2.5263,2.0832
1448849248415,195425848018775,9.1006,2.7319,2.4257
1448849248455,195425888424049,8.9956,2.8985999,2.6164
1448849248495,195425928341041,8.9689,2.9305,2.6713998
1448849248539,195425970607886,9.0191,2.8778,2.5577
1448849248577,195426009273658,9.133699,2.7115,2.3216
1448849248617,195426049312720,9.304,2.4371998,1.9137
1448849248657,195426089321265,9.481,2.0813,1.3952999
1448849248697,195426129360328,9.6469,1.6050999,0.726
1448849248737,195426169246802,9.750299,1.0455999,-0.077599995
1448849248777,195426209316383,9.7515,0.4076,-0.9528
1448849248817,195426249324927,9.5763,-0.2787,-2.0943
1448849248857,195426289333472,9.307899,-0.9528,-2.9366
1448849248897,195426329311500,8.7904,-1.6341,-4.0283
1448849248936,195426368801246,8.1796,-2.2756,-4.9076
1448849248976,195426408870826,7.2907,-2.8841,-5.8903
1448849249016,195426449306617,6.3690996,-3.3939,-6.6397
1448849249056,195426488796363,5.395,-3.866,-7.2191997
1448849249096,195426528926978,4.2408,-4.1822,-7.7907
1448849249137,195426569362769,3.1283998,-4.4,-8.1868
1448849249176,195426609035621,2.1022,-4.5288997,-8.4404
1448849249216,195426648525367,1.1846,-4.6043,-8.5772
1448849249256,195426688686500,0.3847,-4.7423997,-8.5751
1448849249299,195426730465064,-0.16139999,-4.8202,-8.538899
1448849249337,195426769283424,-0.471,-4.8499,-8.5104
1448849249376,195426809139381,-0.57809997,-4.8808,-8.486
1448849249417,195426849331031,-0.47129998,-4.8785996,-8.4939995
1448849249457,195426889248023,-0.15169999,-4.8445,-8.5253
1448849249497,195426929317603,0.3669,-4.831,-8.526299
1448849249537,195426969326148,1.0422,-4.8062,-8.4844
1448849249577,195427009243140,1.9186,-4.7655,-8.353499
1448849249615,195427047878394,2.9022,-4.6637,-8.123899
1448849249657,195427089229713,3.9454,-4.5308,-7.7507
1448849249697,195427129238258,5.0073,-4.3350997,-7.2321
1448849249736,195427169155250,6.0269,-4.0506,-6.5909
1448849249776,195427209224830,6.9518,-3.6732998,-5.8608
1448849249817,195427249660621,7.7490997,-3.2161,-5.0769997
1448849249856,195427289241920,8.4138,-2.6843,-4.2627
1448849249897,195427329250465,8.9429,-2.0829,-3.4429998
1448849249936,195427369136939,9.3487,-1.4534999,-2.58
1448849249977,195427409328590,9.616,-0.78779995,-1.7555
1448849250017,195427449276099,9.7635,-0.0742,-0.9138
1448849250057,195427489315162,9.7822,0.6599,-0.20109999
1448849250097,195427529323707,9.6984,1.35,0.53429997
1448849250137,195427569332252,9.5322,1.9792,1.1784999
1448849250177,195427609279761,9.2953,2.5200999,1.8474
1448849250217,195427649288306,9.0554,2.9278,2.365
1448849250257,195427689663062,8.8259,3.2473998,2.7796
1448849250297,195427729305396,8.6834,3.4192,3.0121999
1448849250337,195427769313941,8.6293,3.4705,3.1076
1448849250376,195427808803687,8.694799,3.3851,3.018
1448849250416,195427848873267,8.826,3.2310998,2.7982
1448849250456,195427888881812,9.0485,2.9068,2.417
1448849250496,195427928768287,9.276299,2.5324,1.9248999
1448849250536,195427968715797,9.5007,2.0198,1.3500999
1448849250579,195428010646949,9.689899,1.378,0.612
1448849250617,195428049282203,9.779699,0.69159997,-0.2207
1448849250657,195428089290748,9.7168,-0.1134,-1.3181
1448849250697,195428129329810,9.5203,-0.82699996,-2.2019
1448849250737,195428169277320,9.127999,-1.5555999,-3.2293
1448849250777,195428209316383,8.5746,-2.2231,-4.2072997
1448849250817,195428249324927,7.8869,-2.7724,-5.1264
1448849250857,195428289302955,7.0133,-3.2609,-6.0291
1448849250897,195428329280982,6.073,-3.6487,-6.7805
1448849250937,195428369259009,5.0429997,-4.0002,-7.3982997
1448849250977,195428409328590,3.9780998,-4.231,-7.9021997
1448849251017,195428449276099,2.967,-4.4735,-8.207
1448849251054,195428487728248,2.0177999,-4.6131,-8.415299
1448849251096,195428529262672,1.2294999,-4.7239,-8.5055
1448849251137,195428569332252,0.69009995,-4.7778997,-8.5362
1448849251177,195428609310279,0.40969998,-4.7932997,-8.5456
1448849251217,195428649288306,0.3881,-4.8203998,-8.5314
1448849251257,195428689327369,0.6428,-4.8388,-8.5055
1448849251297,195428729335914,1.0881,-4.8701,-8.4421
1448849251337,195428769283424,1.7024,-4.8343997,-8.3607
1448849251376,195428809139381,2.5303,-4.7755,-8.183
1448849251417,195428849239478,3.4596999,-4.6748,-7.896
1448849251457,195428889309058,4.4523,-4.5199,-7.4778
1448849251497,195428929287086,5.4535,-4.2051,-6.9818997
1448849251537,195428969326148,6.4164,-3.7981,-6.3697
1448849251577,195429009273658,7.2955,-3.3228,-5.6482
1448849251617,195429049312720,8.0571995,-2.7896,-4.8445997
1448849251657,195429089321265,8.6795,-2.2131,-3.9919999
1448849251697,195429129329810,9.1733,-1.6039,-3.0734
1448849251737,195429169307838,9.5142,-0.91569996,-2.1933
1448849251775,195429208004127,9.7153,-0.2111,-1.3170999
1448849251816,195429249111304,9.7767,0.5047,-0.574
1448849251857,195429289333472,9.7383995,1.1381,0.1915
1448849251897,195429329311500,9.6065,1.7512,0.90239996
1448849251936,195429369228492,9.4144,2.2415,1.5846
1448849251977,195429409328590,9.1961,2.6382,2.1541
1448849252017,195429449245582,8.9921,2.9069998,2.6186
1448849252057,195429489315162,8.844999,3.0867,2.899
1448849252097,195429529323707,8.7753,3.1509,3.0386
1448849252137,195429569332252,8.8082,3.1132,2.9815
1448849252177,195429609310279,8.9194,2.9694,2.7917
1448849252217,195429649318824,9.1214,2.6922,2.3915
1448849252257,195429689327369,9.3333,2.3246999,1.9116
1448849252297,195429729305396,9.557799,1.8407999,1.1948
1448849252337,195429769283424,9.714399,1.2739999,0.4165
1448849252376,195429809108863,9.775499,0.6322,-0.45769998
1448849252417,195429849758277,9.698,-0.0761,-1.4532
1448849252457,195429889309058,9.4668,-0.93729997,-2.3811
1448849252494,195429927822242,9.076799,-1.6863999,-3.3069
1448849252537,195429969265113,8.5314,-2.4694,-4.1576
1448849252576,195430009182105,7.7935,-3.0783,-5.0945
1448849252617,195430049312720,6.8584,-3.6732998,-5.9697
1448849252657,195430089321265,5.8332996,-4.0734,-6.7490997
1448849252697,195430129329810,4.7584,-4.2886,-7.4254
1448849252737,195430169307838,3.7935998,-4.5759,-7.7999997
1448849252777,195430209285865,2.8165998,-4.8229,-8.0608
1448849252817,195430249294410,1.9583999,-4.9958,-8.2083
1448849252857,195430289272437,1.1314,-5.1382,-8.2758
1448849252896,195430329158912,0.5452,-5.1875997,-8.3043995
1448849252937,195430369320045,0.1915,-5.2307,-8.293
1448849252977,195430409328590,0.0632,-5.1924,-8.319099
1448849253017,195430449306617,0.2069,-5.1598,-8.3369
1448849253057,195430489315162,0.5973,-5.1791997,-8.306
1448849253097,195430529323707,1.1524999,-5.1447997,-8.2689
1448849253137,195430569271217,1.8356999,-5.1179,-8.1613
1448849253177,195430609249244,2.6755,-5.0965,-7.9396996
1448849253215,195430647792945,3.5818,-5.0302997,-7.6182
1448849253257,195430689266334,4.5281,-4.8457,-7.224
1448849253296,195430729213843,5.4667997,-4.569,-6.7386
1448849253337,195430769313941,6.3771,-4.1928997,-6.1580997
1448849253377,195430809566627,7.2149997,-3.7373998,-5.4902997
1448849253417,195430849758277,7.9571,-3.1878,-4.7634997
1448849253456,195430888973365,8.5788,-2.5839,-3.987
1448849253496,195430929012427,9.0838995,-1.9010999,-3.1682
1448849253537,195430969356666,9.4264,-1.2053,-2.4203
1448849253577,195431009243140,9.6538,-0.4779,-1.6567
1448849253617,195431049282203,9.7589,0.22929999,-0.9386
1448849253657,195431089290748,9.757199,0.9481,-0.2539
1448849253697,195431129329810,9.6679,1.5935999,0.4019
1448849253737,195431169277320,9.4918995,2.2137,1.0817
1448849253777,195431209285865,9.2856,2.6819,1.6594
1448849253817,195431249324927,9.0681,3.0463,2.1578999
1448849253857,195431289302955,8.9178,3.2143,2.5119
1448849253897,195431329311500,8.8196,3.3562999,2.6678
1448849253935,195431368007789,8.826,3.3288999,2.6806998
1448849253977,195431409237037,8.9242,3.211,2.4928
1448849254017,195431449215064,9.088799,2.9641,2.1850998
1448849254057,195431489223609,9.2984,2.6181998,1.6886
1448849254097,195431529293189,9.4977,2.1619,1.1344
1448849254137,195431569332252,9.6689,1.5899999,0.3901
1448849254177,195431609218726,9.7493,0.89879996,-0.5572
1448849254216,195431649105201,9.7019,0.16139999,-1.4196999
1448849254256,195431689052711,9.481999,-0.603,-2.4280999
1448849254297,195431729244361,9.0626,-1.3768,-3.4843998
1448849254337,195431769313941,8.509399,-2.0447,-4.4246
1448849254376,195431809139381,8.509399,-2.0447,-5.3595
1448849254417,195431849331031,6.8543,-3.2324,-6.2243
1448849254457,195431889309058,5.8732,-3.6790998,-6.9382
1448849254497,195431929317603,4.8195,-3.9677,-7.5628996
1448849254537,195431969204078,3.7322,-4.1854997,-8.0451
1448849254577,195432009273658,2.7524998,-4.2978,-8.374
1448849254617,195432049282203,1.8391,-4.4802,-8.5273
1448849254657,195432088039527,1.0375,-4.6321,-8.5812
1448849254696,195432129146705,0.4204,-4.711,-8.5906
1448849254737,195432169246802,0.0176,-4.7584,-8.5748
1448849254776,195432209194312,-0.17279999,-4.7922,-8.554299
1448849254817,195432249294410,-0.152,-4.7893,-8.556399
1448849254857,195432289302955,0.0668,-4.7767997,-8.5643
1448849254897,195432329311500,0.4698,-4.7528996,-8.5651
1448849254940,195432372738013,1.0454999,-4.7159,-8.5345
1448849254976,195432409084449,1.7242,-4.6668,-8.4509
1448849255016,195432448970924,2.5570998,-4.5945997,-8.2778
1448849255056,195432489040504,3.4612,-4.5037,-7.9941998
1448849255096,195432529079566,4.3908997,-4.3493,-7.6141
1448849255136,195432569027076,5.2952,-4.1464,-7.1370997
1448849255176,195432609096656,6.1598997,-3.8339999,-6.5973
1448849255217,195432649318824,6.9349,-3.4692998,-6.0032997
1448849255257,195432689327369,7.6383996,-3.0702,-5.329
1448849255297,195432729305396,8.2611,-2.5969,-4.6022
1448849255337,195432769313941,8.7674,-2.0809999,-3.8690999
1448849255375,195432808315406,9.172,-1.5173999,-3.1208
1448849255418,195432850399146,9.4593,-0.8883,-2.4292998
1448849255459,195432889736304,9.6567,-0.2516,-1.6894
1448849255499,195432931942115,9.7506,0.3779,-0.97529995
1448849255538,195432971126685,9.752999,0.98499995,-0.2744
1448849255579,195433011348853,9.6719,1.5701,0.3935
1448849255619,195433051326881,9.5344,2.0688,0.9916
1448849255659,195433091335425,9.3617,2.4802,1.5404999
1448849255699,195433131527076,9.206699,2.7433,1.969
1448849255739,195433171321998,9.0734,2.9319,2.2905
1448849255779,195433211452613,9.0116,2.9987,2.4424999
1448849255819,195433251308570,9.0075,3.0159,2.4363
1448849255858,195433291164527,9.096,2.8908,2.2526
1448849255898,195433331112037,9.228,2.7108998,1.9137
1448849255939,195433371303687,9.408299,2.3789,1.4118999
1448849255978,195433411190162,9.5567,2.0177,0.87549996
1448849256019,195433451320777,9.6799,1.5466,0.2762
1448849256059,195433491298804,9.7473,0.97779995,-0.44919997
1448849256096,195433529811988,9.7224,0.35029998,-1.2328
1448849256139,195433571346412,9.587999,-0.3208,-2.0337
1448849256178,195433611141334,9.3147,-0.9686,-2.9097
1448849256218,195433651180396,9.3147,-0.9686,-3.6931999
1448849256259,195433691249976,8.3966,-2.1645,-4.5807
1448849256299,195433731319556,7.6927,-2.6650999,-5.4670997
1448849256339,195433771297584,6.8984,-3.1025,-6.2412996
1448849256379,195433811458717,6.022,-3.4322,-6.9372997
1448849256418,195433851192603,5.0593,-3.7394,-7.5227
1448849256459,195433891323218,4.0499,-3.9942,-7.9884996
1448849256499,195433931362281,3.0828,-4.1549,-8.3309
1448849256539,195433971431861,2.2663999,-4.2229,-8.5557995
1448849256579,195434011318336,1.4832,-4.3897,-8.643
1448849256619,195434051296363,0.868,-4.4726,-8.684
1448849256659,195434091976295,0.4218,-4.5036,-8.7012
1448849256699,195434131374488,0.19129999,-4.4669,-8.7282
1448849256738,195434171138892,0.1982,-4.4407,-8.7413
1448849256779,195434211483131,0.4116,-4.4795,-8.7141
1448849256818,195434251461158,0.817,-4.509,-8.6703
1448849256858,195434290950904,1.3959,-4.5102,-8.5954
1448849256897,195434329738746,1.3959,-4.4628997,-8.4557
1448849256939,195434369289527,2.1801999,-4.4628997,-8.2121
1448849256978,195434411190162,4.0264,-4.2437997,-7.8707
1448849257019,195434451748023,4.988,-3.9715,-7.4509997
1448849257059,195434491420875,5.9442997,-3.6290998,-6.9038997
1448849257099,195434531276832,6.8261,-3.2523,-6.2446
1448849257139,195434571315894,7.6085997,-2.8323998,-5.5004997
1448849257179,195434611324439,8.276999,-2.33,-4.7149997
1448849257219,195434651516090,8.805699,-1.8167,-3.9152
1448849257258,195434691219459,9.2227,-1.2724999,-3.0807
1448849257299,195434731472144,9.504499,-0.72749996,-2.3032
1448849257339,195434771328101,9.6855,-0.1859,-1.5239999
1448849257379,195434811428199,9.7638,0.3381,-0.84999996
1448849257419,195434851467261,9.7689,0.84779996,-0.13759999
1448849257459,195434891353736,9.7153,1.2616999,0.4335
1448849257496,195434929561744,9.7153,1.2616999,0.4335
1448849257539,195434971584449,9.6291,1.6032,0.9356
1448849257579,195435011287818,9.4852,1.9985,1.485
1448849257619,195435051204810,9.452,2.0664,1.599
1448849257659,195435091213355,9.4796,2.0117,1.5024999
1448849257699,195435131496558,9.527699,1.8880999,1.3518
1448849257738,195435171138892,9.527699,1.6165999,0.9353
1448849257778,195435211147437,9.627,1.3004999,0.55
1448849257819,195435251308570,9.7737,0.792,-0.1228
1448849257859,195435291530738,9.7634,0.3076,-0.86609995
1448849257899,195435331325660,9.7634,-0.23369999,-1.6489999
1448849257939,195435371242652,9.6641,-0.83089995,-2.5393
1448849257979,195435411342750,9.4355,-1.449,-3.3865
1448849258018,195435451168189,9.0885,-2.1471,-4.2854
1448849258059,195435491329322,8.5553,-2.1471,-4.2854
1448849258099,195435531337867,7.8594,-3.4083998,-6.0190997
1448849258139,195435571346412,6.9515,-3.7336998,-6.7922997
1448849258179,195435611232886,6.0078998,-4.0194,-7.4598
1448849258218,195435651424537,4.9361997,-4.1955,-7.9465
1448849258256,195435689174781,3.9269998,-4.1955,-7.9465
1448849258298,195435731166968,2.8832998,-4.5018997,-8.5013
1448849258339,195435771480689,1.9057,-4.6215,-8.5826
1448849258379,195435811367164,1.0728999,-4.7627997,-8.5655
1448849258419,195435851375709,0.3464,-4.8717,-8.5079
1448849258458,195435890773902,-0.22919999,-4.8717,-8.5079
1448849258498,195435930965552,-0.5728,-4.9544997,-8.4437
1448849258538,195435971126685,-0.6931,-5.0165997,-8.3847
1448849258579,195436011440406,-0.625,-5.0474,-8.3867
1448849258619,195436051113258,-0.3669,-5.0695,-8.3984995
1448849258659,195436091365943,0.069699995,-5.0625997,-8.3852
1448849258699,195436131343970,0.6512,-5.0432,-8.3075
1448849258739,195436171260963,1.4211,-5.0137,-8.151199
1448849258779,195436211361060,2.2803,-4.9526997,-7.8831997
1448849258819,195436251308570,3.2196999,-4.8641,-7.4999
1448849258858,195436291164527,4.2063,-4.7146997,-7.4999
1448849258896,195436329708228,5.1958,-4.4709997,-7.013
1448849258939,195436371517310,6.1334,-4.1103,-5.8405
1448849258978,195436410854468,6.9894,-3.6343,-5.8405
1448849259021,195436453579078,8.408999,-2.5247998,-4.3684998
1448849259069,195436501674781,8.9152,-1.9131,-3.6092
1448849259111,195436542598853,9.2975,-1.2939,-2.8371
1448849259149,195436581539283,9.5681,-0.67359996,-2.0414999
1448849259190,195436618923316,9.7143,-0.066199996,-1.3398
1448849259229,195436661708961,9.7723,0.50589997,-0.64199996
1448849259269,195436702236304,9.7518,1.0316,-0.0718
1448849259310,195436742488990,9.6786995,1.499,0.49499997
1448849259351,195436779201636,9.5941,1.8194,0.89959997
1448849259389,195436821926246,9.5102,2.0661,1.2063
1448849259429,195436862331519,9.466,2.1742,1.3544999
1448849259470,195436899349342,9.4719,2.1606998,1.3346
1448849259509,195436942318092,9.5205,2.0307,1.1843
1448849259550,195436979335914,9.606999,1.7868999,0.82519996
1448849259599,195437025356422,9.6951,1.4221,0.3856
1448849259636,195437069149146,9.7575,0.96779996,-0.1521
1448849259676,195437109127174,9.7548,0.37219998,-0.9341
1448849259717,195437149227271,9.6579,-0.268,-1.6802
1448849259757,195437189235816,9.4128,-0.9666,-2.5755
1448849259797,195437229335914,9.036099,-1.6802,-3.4197998
1448849259837,195437269191871,8.5068,-2.363,-4.2681
1448849259877,195437309322486,7.8173,-2.9744,-5.1197
1448849259917,195437349208961,7.013,-3.4952998,-5.8966
1448849259957,195437389217506,6.067,-3.8827,-6.6545997
1448849259996,195437429195533,5.0436,-4.2353,-7.2658997
1448849260037,195437469326148,3.9178998,-4.5102,-7.7767997
1448849260076,195437509212623,2.8307998,-4.7218,-8.1154995
1448849260116,195437549221168,1.8162999,-4.871,-8.3155
1448849260157,195437589229713,0.9166,-5.0085,-8.3813
1448849260197,195437629329810,0.1114,-5.0938997,-8.3792
1448849260237,195437669216285,-0.47489998,-5.1587,-8.3267
1448849260276,195437709194312,-0.85649997,-5.2242,-8.255
1448849260316,195437748623023,-1.0393,-5.2992,-8.1859
1448849260356,195437789089332,-1.0589,-5.3514,-8.1494
1448849260396,195437828670631,-0.9313,-5.3345,-8.176
1448849260436,195437869106422,-0.6551,-5.3278,-8.2071
1448849260477,195437909237037,-0.2349,-5.2678,-8.2683
1448849260517,195437949184547,0.3031,-5.1833997,-8.3194
1448849260557,195437989345679,0.931,-5.0573,-8.3503
1448849260597,195438029201636,1.637,-4.916,-8.326099
1448849260637,195438069240699,2.4689999,-4.7774,-8.2007
1448849260677,195438109218726,3.3432,-4.6149,-7.981
1448849260717,195438149196754,4.2289,-4.4199,-7.6647997
1448849260757,195438189235816,5.1113997,-4.2338,-7.2191997
1448849260796,195438229152808,5.9687,-3.9715,-6.6910996
1448849260837,195438269344459,6.7658,-3.6613,-6.0818
1448849260877,195438309353004,7.4849997,-3.2932,-5.4128
1448849260917,195438349208961,8.1058,-2.845,-4.7295
1448849260956,195438389186988,8.625199,-2.3725998,-4.0179
1448849260996,195438429134498,9.046,-1.8556,-3.3007
1448849261036,195438469204078,9.3598995,-1.3277,-2.6071
1448849261077,195438509273658,9.5893,-0.79679996,-1.8916999
1448849261116,195438549190650,9.7212,-0.3046,-1.2547
1448849261157,195438589199195,9.7824,0.2189,-0.6513
1448849261197,195438629238258,9.7836,0.6634,-0.0998
1448849261237,195438669216285,9.7417,1.0533999,0.3987
1448849261277,195438709224830,9.679299,1.3563,0.80009997
1448849261317,195438749233375,9.617499,1.5861,1.0751
1448849261361,195438793178687,9.5774,1.7117,1.23
1448849261409,195438842464576,9.5769,1.7166,1.2257999
1448849261450,195438879360328,9.6088,1.6215999,1.0989
1448849261490,195438919429908,9.6793995,1.3772,0.7606
1448849261529,195438962612281,9.735499,1.1011,0.4182
1448849261570,195438999355445,9.783,0.66099995,-0.15269999
1448849261609,195439042568336,9.777599,0.1934,-0.72819996
1448849261650,195439079372535,9.6893,-0.3622,-1.4682
1448849261691,195439119167457,9.5028,-0.95479995,-2.2254
1448849261736,195439168728004,9.189799,-1.5723,-3.0405998
1448849261778,195439208706031,8.7737,-2.1496,-3.8172
1448849261818,195439250911842,8.1905,-2.7772,-4.6229997
1448849261858,195439290920386,7.4983997,-3.2326999,-5.4305997
1448849261898,195439330837379,6.64,-3.7135,-6.1879
1448849261938,195439370754371,5.7549996,-4.0614,-6.8230996
1448849261978,195439410854468,4.8573,-4.3961997,-7.2973
1448849262018,195439451046119,3.9009998,-4.6288,-7.7152996
1448849262058,195439490810523,3.021,-4.8059998,-7.9965997
1448849262098,195439530941138,2.2026,-4.9753,-8.1588
1448849262138,195439570858131,1.4679999,-5.0481,-8.278399
1448849262178,195439610805640,0.8426,-5.1656,-8.2933
1448849262218,195439650936256,0.348,-5.2132,-8.299
1448849262258,195439690914283,-0.074,-5.319,-8.2385
1448849262298,195439730953345,-0.4351,-5.407,-8.1699
1448849262338,195439770900855,-0.77669996,-5.5108,-8.0745
1448849262378,195439811245093,-1.0902,-5.5662,-8.0
1448849262416,195439849147925,-1.382,-5.5867,-7.9405
1448849262459,195439889400611,-1.6678,-5.6124,-7.8669996
1448849262499,195439931270728,-1.8736999,-5.679,-7.7723
1448849262538,195439971126685,-1.9604,-5.6868997,-7.7451997
1448849262579,195440011440406,-1.8678999,-5.74,-7.7286997
1448849262619,195440051448951,-1.795,-5.7974997,-7.7030997
1448849262658,195440091152320,-1.8048999,-5.8346,-7.6727996
1448849262698,195440131130347,-1.9649999,-5.916,-7.5703998
1448849262739,195440171260963,-2.1498,-6.0235996,-7.4340997
1448849262779,195440211422095,-2.3334,-6.1352,-7.286
1448849262818,195440251186500,-2.5358999,-6.252,-7.1172
1448849262859,195440291347633,-2.7103,-6.5095997,-6.8153
1448849262899,195440331356177,-2.7768998,-6.578,-6.7223997
1448849262939,195440371303687,-2.839,-6.5978,-6.6769
1448849262982,195440414638648,-2.9557,-6.5629,-6.6605
1448849263029,195440461635718,-3.0237,-6.9460998,-6.2272997
1448849263072,195440504482398,-3.1768,-6.9508996,-6.1453
1448849263116,195440548915992,-3.3964,-6.9638996,-6.0116
1448849263156,195440588985572,-3.5916998,-6.9279,-5.9392
1448849263196,195440628994117,-3.7468998,-6.8721,-5.9082
1448849263237,195440669307838,-3.9248,-6.8357,-5.8343
1448849263276,195440709163795,-4.0996,-6.8136997,-5.7391996
1448849263317,195440749202857,-4.2446,-6.7599998,-5.6973
1448849263363,195440795620093,-4.3321,-6.7151,-5.6844
1448849263410,195440839351783,-4.3652997,-6.7314,-5.6394997
1448849263446,195440878963599,-4.3220997,-6.837,-5.5448
1448849263486,195440918972144,-4.1475997,-6.9635,-5.5207
1448849263530,195440959011207,-3.9401999,-7.291,-5.2427998
1448849263570,195440999385963,-3.6327,-7.6214,-4.9888997
1448849263610,195441039425025,-3.1583998,-7.9133997,-4.8552
1448849263650,195441079403052,-2.4018,-8.207,-4.8008
1448849263689,195441122615943,-1.4634,-8.5152,-4.6389
1448849263738,195441164180884,-0.39949998,-8.4976,-4.8789
1448849263780,195441209255347,0.7245,-8.3645,-5.0676
1448849263818,195441251155982,1.887,-8.3042,-4.863
1448849263859,195441291500220,3.1269,-8.1928,-4.3898997
1448849263899,195441331203590,4.4375,-7.8676996,-3.8179998
1448849263939,195441371334205,5.7215,-7.2746,-3.2426
1448849263979,195441411434302,6.8898997,-6.5294,-2.4628
1448849264018,195441451137672,7.8715,-5.6492,-1.5149
1448849264059,195441491268287,8.5933,-4.7009997,-0.4727
1448849264099,195441531459937,9.0749,-3.7010999,0.34199998
1448849264139,195441571315894,9.3310995,-2.8827,0.8894
1448849264179,195441611354957,9.4653,-2.1461,1.4037
1448849264218,195441650386939,9.5209,-1.4576,1.8422999
1448849264258,195441691066871,9.5163,-0.8515,2.2093
1448849264298,195441730831275,9.445499,-0.2877,2.6206
1448849264339,195441771236549,9.3269,0.304,3.014
1448849264379,195441811367164,9.1434,0.76409996,3.4612
1448849264419,195441851619849,8.9477,1.1707,3.8388
1448849264458,195441891262183,8.768,1.4963,4.1293
1448849264496,195441929134498,8.531099,1.5835999,4.5692997
1448849264537,195441969295631,8.3379,2.0063,4.756
1448849264579,195442009365211,8.326099,1.9635999,4.7945
1448849264619,195442051235328,8.092199,2.3192,5.0302997
1448849264659,195442091365943,7.9227,2.7314,5.0929
1448849264699,195442131343970,7.6984,3.097,5.226
1448849264739,195442171383033,7.5281,3.4011998,5.2846
1448849264779,195442211513648,7.4859996,3.6415,5.1830997
1448849264818,195442251186500,7.6507998,3.2658,5.193
1448849264859,195442291317115,7.4958997,3.1495,5.4827
1448849264899,195442331386695,7.3006,3.5958998,5.4714
1448849264939,195442371395240,7.1928997,3.3167,5.7816
1448849264979,195442411251197,7.2351,3.4768,5.6331
1448849265019,195442451381812,7.3647,3.3121998,5.5639
1448849265059,195442491329322,7.3466997,3.0788999,5.7195
1448849265099,195442531429420,7.2077,3.4517999,5.6833
1448849265137,195442569851050,6.9445,3.3544,6.0571
1448849265179,195442611293922,7.0077996,3.4436998,5.9328
1448849265219,195442651027808,7.1973996,3.0193,5.937
1448849265259,195442689296851,7.3132,2.6915998,5.9530997
1448849265299,195442731258521,7.1558,3.0493,5.9718
1448849265339,195442771328101,7.365,3.0858998,5.6923
1448849265379,195442811367164,7.1349998,2.6213,6.1956997
1448849265419,195442851528297,7.3532996,2.4489,6.0081997
1448849265459,195442891475806,7.4764,2.3062,5.9119997
1448849265499,195442931301246,7.6436996,1.8319999,5.8636
1448849265538,195442971187720,7.5601997,2.0853,5.8873
1448849265579,195443011257300,7.6681,2.0908,5.7440996
1448849265619,195443051265845,7.4161,1.5604,6.2235
1448849265658,195443091152320,7.5703998,1.5227,6.0446
1448849265699,195443131282935,7.7451997,1.5540999,5.8107
1448849265739,195443171291480,7.9817996,1.0839,5.5931
1448849265779,195443211300025,7.9214997,1.3398,5.6233
1448849265819,195443251339088,7.8908,1.4455999,5.6401997
1448849265858,195443291469703,7.7563996,1.1962,5.8799996
1448849265896,195443329158912,7.7518997,1.1106,5.9027
1448849265939,195443369259009,7.8722,1.1991,5.7233996
1448849265978,195443411190162,7.967,0.98319995,5.6326
1448849266019,195443451259742,8.0248995,0.9576,5.5543
1448849266059,195443491451392,7.9449997,1.0784999,5.6464
1448849266099,195443531520972,7.9649997,1.2674999,5.5783997
1448849266139,195443571529517,7.7598996,1.2491,5.8644
1448849266179,195443611324439,7.9005,1.2164999,5.6805
1448849266218,195443651149879,8.0285,1.2056,5.5007997
1448849266259,195443691311011,8.101,0.987,5.4375
1448849266299,195443731228004,8.0147,1.0088,5.56
1448849266339,195443771267066,7.9988,1.193,5.5464
1448849266379,195443811245093,7.8191,1.1773,5.8002
1448849266419,195443851375709,7.9143,1.2304,5.6583
1448849266459,195443891445289,8.0852995,1.1417,5.4305997
1448849266499,195443931209693,8.183,0.9766,5.3152
1448849266538,195443971340308,8.1251,1.063,5.3869
1448849266576,195444009182105,8.0662,1.3518,5.4107
1448849266618,195444050686011,7.9558997,1.2246,5.601
1448849266659,195444091243873,7.9644,1.1640999,5.6018
1448849266699,195444131343970,8.066299,1.1968,5.4470997
1448849266739,195444171474586,8.0941,1.0591999,5.4342
1448849266779,195444211300025,8.1398,0.8725,5.3989
1448849266819,195444251308570,8.2001,0.8337,5.3131
1448849266859,195444291347633,8.1354,0.6634,5.4351
1448849266899,195444331295142,8.0294,-0.14019999,5.6281
1448849266939,195444371364722,7.896,-1.1649,5.6977
1448849266979,195444411373267,7.5790997,-2.0063999,5.8905997
1448849267018,195444451168189,6.9862,-2.009,6.5821
1448849267059,195444491329322,6.1833997,-0.35169998,7.6032
1448849267099,195444531368384,5.0882,2.271,8.0696
1448849267139,195444571346412,3.9728,3.4831,8.2614
1448849267179,195444611324439,3.2861,3.5338,8.5369
1448849267218,195444651363502,2.5749,3.7949,8.668
1448849267256,195444689113746,1.9828999,3.8818,8.7844
1448849267298,195444731166968,1.4158,3.9724998,8.8534
1448849267339,195444771267066,0.891,4.1726,8.829599
1448849267379,195444811458717,0.5337,4.2724,8.810599
1448849267419,195444851314674,0.3389,4.3782,8.7684
1448849267459,195444891231666,0.3163,4.4052997,8.7555
1448849267499,195444931392799,0.4046,4.4028997,8.7532
1448849267539,195444971340308,0.5855,4.3661,8.7614
1448849267579,195445011257300,0.7664,4.3540998,8.7533
1448849267619,195445051479468,0.91029996,4.3406,8.7463
1448849267659,195445091304908,0.98789996,4.3599,8.7282
1448849267698,195445131130347,0.98859996,4.506,8.6536
1448849267739,195445171352515,0.9988,4.5829,8.6119995
1448849267779,195445211391578,0.99189997,4.5154,8.648399
1448849267818,195445251155982,1.0389999,4.1342998,8.8316
1448849267859,195445291195045,1.1815,3.5158,9.078
1448849267898,195445331356177,1.2947999,2.9973,9.247
1448849267936,195445369136939,1.3769,2.4036999,9.4071
1448849267978,195445410854468,1.4636999,1.9181999,9.505099
1448849268019,195445451198707,1.5632,1.6747999,9.5352
1448849268059,195445491359840,1.6487,1.7335,9.5102
1448849268099,195445531490455,1.6793,1.9847,9.4556
1448849268139,195445571437965,1.6783999,2.2635,9.3928995
1448849268179,195445611293922,1.6970999,2.4868999,9.3328
1448849268219,195445651271949,1.7035999,2.6102,9.297999
1448849268259,195445691341529,1.6759,2.6855,9.2815
1448849268298,195445731136451,1.6294999,2.7619998,9.2673
1448849268339,195445771419654,1.5741,2.7997,9.2655
1448849268379,195445811428199,1.5179,2.8316998,9.2652
1448849268419,195445851528297,1.4827,2.7989,9.2809
1448849268458,195445890895972,1.4676,2.6053998,9.339399
1448849268498,195445930996070,1.4994999,2.1633,9.4466
1448849268538,195445971035133,1.5408,1.0423,9.6284
1448849268578,195446011348853,1.6504999,-1.1478,9.5983
1448849268616,195446049129615,1.7258999,-3.6766999,8.925799
1448849268656,195446088710914,1.7421999,-5.6756997,7.805
1448849268698,195446128872047,1.823,-7.1175,6.4951
1448849268738,195446170803199,2.0081,-8.1972,4.9941
1448849268778,195446210933814,2.1167,-8.6248,4.1597
1448849268818,195446250850806,2.1032999,-8.769899,3.8516
1448849268858,195446290920386,1.8721,-8.9946995,3.4294999
1448849268898,195446330989967,1.6352999,-9.214499,2.9308
1448849268938,195446370754371,1.4103,-9.3819,2.4821
1448849268978,195446410823951,1.2225,-9.4201,2.4369
1448849269018,195446450801978,1.1272,-9.4137,2.5068
1448849269058,195446490871558,1.0225999,-9.4374,2.4617999
1448849269098,195446531185279,1.0049,-9.485,2.2788
1448849269138,195446570827613,0.9744,-9.500899,2.2258
1448849269178,195446610805640,0.9659,-9.564899,1.9361
1448849269227,195446650997291,0.9219,-9.5873995,1.8445
1448849269258,195446690914283,0.9068,-9.611199,1.7241
1448849269297,195446730465064,0.87729996,-9.6498995,1.5094999
1448849269339,195446771267066,0.88089997,-9.6707,1.3685
1448849269379,195446811367164,0.91349995,-9.6935,1.1721
1448849269419,195446851436744,0.9575,-9.7182,0.9005
1448849269459,195446891323218,1.0116,-9.719399,0.8251
1448849269499,195446931301246,1.0425,-9.7274,0.6793
1448849269539,195446971340308,1.0335,-9.7328,0.61259997
1448849269579,195447011287818,1.0425999,-9.734,0.5753
1448849269619,195447051479468,1.0734999,-9.7333,0.5297
1448849269659,195447091274390,1.1317999,-9.7336,0.385
1448849269699,195447131282935,1.1833999,-9.7304,0.2959
1448849269739,195447171474586,1.2429999,-9.7209,0.3592
1448849269779,195447211300025,1.2865,-9.7130995,0.41529998
1448849269819,195447251400123,1.3102,-9.7092,0.4312
1448849269859,195447291225562,1.3202,-9.7087,0.4109
1448849269899,195447331295142,1.3005999,-9.7130995,0.3673
1448849269938,195447371425758,1.3073,-9.7146,0.29799998
1448849269976,195447409176002,1.3126,-9.7146,0.27179998
1448849270017,195447449245582,1.3220999,-9.7129,0.287
1448849270059,195447489315162,1.3235999,-9.7146,0.21319999
1448849270099,195447531276832,1.3126,-9.7164,0.19569999
1448849270139,195447571529517,1.2782999,-9.7225,0.1008
1448849270179,195447611293922,1.2378,-9.7276,0.108399995
1448849270219,195447651302467,1.2059,-9.731299,0.1322
1448849270259,195447691280494,1.1831,-9.7336,0.1695
1448849270299,195447731289039,1.1574,-9.7325,0.3308
1448849270339,195447771450172,1.1194999,-9.7378,0.3033
1448849270379,195447811245093,1.0771999,-9.7399,0.3814
1448849270418,195447851131568,1.0423,-9.7404995,0.4547
1448849270459,195447891475806,1.0122,-9.7432995,0.4628
1448849270499,195447931484351,0.97929996,-9.743199,0.5327
1448849270539,195447971523414,0.9475,-9.7455,0.546
1448849270579,195448011287818,0.91139996,-9.7452,0.6081
1448849270618,195448051235328,0.8876,-9.7444,0.65669996
1448849270656,195448089168677,0.85719997,-9.7406,0.7457
1448849270697,195448130489478,0.83629996,-9.735499,0.8315
1448849270738,195448170864234,0.8134,-9.7289,0.92579997
1448849270778,195448211055884,0.7873,-9.727099,0.96599996
1448849270818,195448250942359,0.79319996,-9.7301,0.9299
1448849270858,195448290920386,0.82,-9.733,0.8761
1448849270898,195448330776343,0.8276,-9.7328,0.87109995
1448849270938,195448371120582,0.8268,-9.7303,0.89879996
1448849270978,195448410854468,0.80039996,-9.731,0.9144
1448849271021,195448454067359,0.7772,-9.7328,0.9159
1448849271069,195448501857886,0.74329996,-9.7351,0.9199
1448849271109,195448541652808,0.7495,-9.731,0.95669997
1448849271149,195448581722388,0.75949997,-9.7312,0.9479
1448849271189,195448621853004,0.7784,-9.7273,0.972
1448849271229,195448661800513,0.7891,-9.7362995,0.8675
1448849271276,195448708553443,0.8499,-9.7362995,0.7525
1448849271316,195448749141822,0.8842,-9.7286,0.8616
1448849271359,195448791408668,0.87439996,-9.7216,0.946
1448849271397,195448829219947,0.8655,-9.7295,0.87079996
1448849271437,195448869289527,0.8846,-9.7294,0.85319996
1448849271477,195448909420142,0.9072,-9.73,0.82129997
1448849271517,195448949611793,0.98109996,-9.7176,0.881
1448849271556,195448989162574,1.0435,-9.710199,0.8904
1448849271597,195449029323707,1.0735999,-9.7023,0.93979996
1448849271637,195449069271217,1.1051999,-9.6924,1.003
1448849271677,195449109340797,1.1177,-9.688499,1.0263
1448849271717,195449149196754,1.1287,-9.684299,1.0531
1448849271756,195449189235816,1.1586,-9.67,1.1481
1448849271797,195449229183326,1.2026,-9.6775,1.0354
1448849271837,195449269252906,1.2232,-9.683,0.9554
1448849271877,195449309597144,1.2241,-9.6846,0.93799996
1448849271917,195449349697242,1.2048,-9.6911,0.8957
1448849271955,195449387966285,1.1782,-9.6924,0.9163
1448849271997,195449429592261,1.1583999,-9.6936,0.92789996
1448849272036,195449469143043,1.1552,-9.6932,0.9371
1448849272077,195449509182105,1.1484,-9.6923,0.9554
1448849272117,195449549678931,1.1543,-9.6896,0.9748
1448849272157,195449589290748,1.1669999,-9.6867,0.9874
1448849272197,195449629238258,1.1661,-9.6875,0.9813
1448849272237,195449669185767,1.1592,-9.6876,0.98819995
1448849272277,195449709194312,1.1499,-9.6882,0.9928
1448849272317,195449749294410,1.1446999,-9.6872,1.0085
1448849272361,195449793300758,1.1408,-9.6876,1.0095999
1448849272410,195449839290748,1.1347,-9.6882,1.01
1448849272450,195449879421363,1.1293,-9.688499,1.0133
1448849272490,195449919368873,1.1230999,-9.6894,1.0115
1448849272530,195449959346900,1.1233,-9.6894,1.0112
1448849272570,195449999416480,1.1215999,-9.6914,0.99499995
1448849272610,195450039425025,1.1128,-9.6929,0.9903
1448849272656,195450085262427,1.1067,-9.6944,0.98289996
1448849272698,195450130977759,1.102,-9.6953,0.9787
1448849272738,195450171138892,1.0986,-9.6963,0.972
1448849272778,195450211147437,1.1071,-9.6966,0.959
1448849272819,195450251308570,1.1218,-9.6953,0.9561
1448849272859,195450291378150,1.178,-9.690599,0.93469995
1448849272899,195450331264625,1.2485,-9.6833,0.9195
1448849272938,195450371151099,1.3686999,-9.6626,0.965
1448849272979,195450411312232,1.5114,-9.6404,0.97389996
1448849273019,195450451259742,1.7247,-9.6029,0.9898
1448849273059,195450491268287,1.9253,-9.559,1.044
1448849273099,195450531459937,2.0453,-9.529799,1.0823
1448849273139,195450571346412,2.126,-9.5088,1.1098
1448849273179,195450611293922,2.0973,-9.537,0.90379995
1448849273219,195450651485572,2.0353,-9.572,0.63699996
1448849273259,195450691372047,1.9072,-9.6112995,0.3935
1448849273296,195450729824195,1.8158,-9.6284,0.40739998
1448849273339,195450771328101,1.814,-9.628699,0.40919998
1448849273377,195450809780250,1.8788999,-9.6146,0.4466
1448849273419,195450849361549,1.9499999,-9.597099,0.5128
1448849273458,195450890865455,1.9731,-9.5925,0.5108
1448849273498,195450931057105,1.9555999,-9.599199,0.4493
1448849273539,195450971340308,1.8772999,-9.6143,0.45889997
1448849273579,195451011348853,1.7196,-9.6395,0.5427
1448849273618,195451051204810,1.5171,-9.6615,0.7254
1448849273659,195451091518531,1.3889999,-9.6621,0.94159997
1448849273698,195451131160865,1.4131,-9.639299,1.1208999
1448849273739,195451171321998,1.5071,-9.6149,1.2047
1448849273779,195451211269508,1.5652,-9.598499,1.2608
1448849273818,195451251186500,1.5818,-9.5884,1.3154
1448849273859,195451291317115,1.5758,-9.5952,1.2723
1448849273898,195451331112037,1.5658,-9.6137,1.1384
1448849273938,195451371181617,1.5504999,-9.6303,1.0121
1448849273977,195451409938941,1.5403,-9.6363,0.96889997
1448849274019,195451451290259,1.5534999,-9.635,0.9612
1448849274059,195451491054664,1.5804,-9.630799,0.96
1448849274098,195451529262672,1.6121,-9.6276,0.9374
1448849274139,195451571285377,1.6286,-9.6278,0.90749997
1448849274179,195451611263404,1.6358,-9.629399,0.8759
1448849274219,195451651241431,1.6398,-9.6333,0.8243
1448849274258,195451690822730,1.6445999,-9.634399,0.8028
1448849274298,195451730892310,1.6681,-9.6324,0.7769
1448849274339,195451771358619,1.6984999,-9.6293,0.7499
1448849274379,195451811336646,1.7300999,-9.6261,0.7169
1448849274419,195451851375709,1.7587999,-9.623899,0.67689997
1448849274459,195451891323218,1.8017,-9.6188,0.6349
1448849274499,195451931301246,1.851,-9.6124,0.588
1448849274539,195451971248756,1.9046999,-9.6037,0.5579
1448849274579,195452011318336,1.9576999,-9.5952,0.5208
1448849274619,195452051387916,2.0068998,-9.5869,0.4825
1448849274658,195452091365943,2.0453,-9.5805,0.4472
1448849274696,195452129177222,2.0712,-9.5766,0.4095
1448849274737,195452169185767,2.0997999,-9.5724,0.35979998
1448849274779,195452209194312,2.1329,-9.566299,0.3266
1448849274819,195452251308570,2.1942,-9.5534,0.2953
1448849274859,195452291317115,2.2863998,-9.533199,0.24309999
1448849274899,195452331203590,2.422,-9.5013,0.168
1448849274939,195452371334205,2.5971,-9.4563,0.0493
1448849274978,195452411190162,2.7728999,-9.4063,-0.0567
1448849275019,195452451534400,2.929,-9.3587,-0.0722
1448849275059,195452491298804,3.0602,-9.3168,-0.0535
1448849275099,195452531429420,3.1687999,-9.280499,-0.0453
1448849275139,195452571346412,3.2493,-9.2526,-0.0202
1448849275178,195452611141334,3.2793,-9.242,-0.0221
1448849275218,195452651149879,3.2299,-9.259399,0.0267
1448849275258,195452691158424,3.0923998,-9.3061,0.0665
1448849275296,195452729641090,2.9162,-9.3623,0.115899995
1448849275339,195452771297584,2.753,-9.4108,0.16679999
1448849275377,195452809963355,2.6083999,-9.4524,0.1354
1448849275419,195452849300513,2.4928,-9.4844,-0.033
1448849275459,195452891262183,2.4264998,-9.501599,-0.0401
1448849275499,195452931514869,2.438,-9.4973,0.1634
1448849275539,195452971370826,2.4984,-9.4795,0.2579
1448849275579,195453011348853,2.557,-9.4636,0.2672
1448849275619,195453051204810,2.6013,-9.4529,0.2148
1448849275666,195453090572486,2.6032999,-9.4541,0.1153
1448849275699,195453132595191,2.5958998,-9.456699,0.036
1448849275738,195453171108375,2.5667,-9.4647,-0.0264
1448849275777,195453210292945,2.5142999,-9.4786,-0.074499995
1448849275817,195453250576148,2.4431,-9.4966,-0.1286
1448849275859,195453291378150,2.3846,-9.5099,-0.2145
1448849275899,195453331325660,2.3548,-9.517099,-0.2296
1448849275939,195453371456275,2.3529,-9.5192995,-0.1295
1448849275978,195453411342750,2.3488,-9.5209,-0.073
1448849276016,195453449154029,2.3313,-9.525,-0.1059
1448849276057,195453489284644,2.3198,-9.528299,-0.0098
1448849276099,195453529232154,2.3483999,-9.5202,0.1515
1448849276139,195453571346412,2.3885,-9.506,0.3205
1448849276179,195453611293922,2.4141,-9.492499,0.48459998
1448849276219,195453651424537,2.4596999,-9.470699,0.6527
1448849276259,195453691402564,2.5616,-9.434199,0.77779996
1448849276299,195453731380592,2.6499,-9.4005995,0.8804
1448849276339,195453771328101,2.725,-9.3619995,1.0465
1448849276379,195453811367164,2.7031999,-9.3637,1.0881
1448849276419,195453851314674,2.6467,-9.379499,1.0907999
1448849276459,195453891353736,2.5730999,-9.3998995,1.0914
1448849276498,195453931179175,2.5031,-9.4178,1.099
1448849276539,195453971523414,2.48,-9.4189,1.1421
1448849276579,195454011287818,2.4559999,-9.4292,1.1087999
1448849276616,195454049556861,2.4464,-9.4362,1.0688
1448849276659,195454091335425,2.4268,-9.444799,1.0374
1448849276699,195454131343970,2.3961,-9.4557,1.0093
1448849276738,195454171138892,2.3624,-9.471,0.94339997
1448849276778,195454211116920,2.3219,-9.4817,0.9349
1448849276819,195454251430640,2.2993999,-9.5,0.79499996
1448849276859,195454291378150,2.2821999,-9.5085,0.74039996
1448849276898,195454331112037,2.2985,-9.5069,0.7118
1448849276939,195454371303687,2.3116,-9.503699,0.71059996
1448849276979,195454411342750,2.3374,-9.497399,0.7109
1448849277019,195454451229224,2.3738,-9.4927,0.65239996
1448849277059,195454491298804,2.3808,-9.4939995,0.60429996
1448849277099,195454531551490,2.3792,-9.496099,0.578
1448849277139,195454571407447,2.3731,-9.498899,0.5556
1448849277179,195454611324439,2.3653998,-9.501599,0.5413
1448849277219,195454651302467,2.3731,-9.4997,0.54219997
1448849277259,195454691372047,2.368,-9.5015,0.53209996
1448849277298,195454731289039,2.3645,-9.5027,0.52849996
1448849277336,195454769222388,2.3564,-9.5069,0.487
1448849277376,195454808773170,2.3388,-9.5124,0.4626
1448849277418,195454848934302,2.3158998,-9.5182,0.45889997
1448849277458,195454890865455,2.286,-9.5229,0.51019996
1448849277498,195454930660377,2.2782,-9.519899,0.5919
1448849277538,195454970882545,2.2742999,-9.5156,0.6714
1448849277578,195455010860572,2.2800999,-9.5063,0.7748
1448849277618,195455050747047,2.2842999,-9.5046,0.7844
1448849277658,195455090847144,2.2869,-9.5006,0.8236
1448849277698,195455130764136,2.2361,-9.5093,0.862
1448849277738,195455170864234,2.2475,-9.4949,0.98289996
1448849277778,195455210933814,2.2574,-9.496699,0.9422
1448849277818,195455250972877,2.335,-9.4795,0.9256
1448849277858,195455290950904,2.4271,-9.465099,0.83129996
1448849277898,195455330776343,2.5012999,-9.4538,0.73539996
1448849277936,195455369625220,2.5277998,-9.4442,0.7671
1448849277978,195455410823951,2.5319998,-9.442699,0.77239996
1448849278018,195455450832496,2.5233,-9.4451,0.7697
1448849278058,195455490902076,2.5146,-9.4382,0.8764
1448849278098,195455530910621,2.5074,-9.4321995,0.95699996
1448849278138,195455570797095,2.4649,-9.445499,0.93619996
1448849278178,195455610927711,2.4234998,-9.452,0.979
1448849278218,195455650875220,2.4085,-9.4581995,0.95489997
1448849278258,195455690792213,2.4115,-9.4551,0.9783
1448849278298,195455730861793,2.3918,-9.4597,0.9816
1448849278338,195455770992408,2.3906999,-9.4585,0.9952
1448849278378,195455810970435,2.3818998,-9.4573,1.0266
1448849278418,195455850826392,2.3852,-9.4523,1.0658
1448849278458,195455890957008,2.3792999,-9.4491,1.1062
1448849278498,195455930843482,2.3753,-9.4467,1.1351
1448849278538,195455971004615,2.3751,-9.4416,1.176
1448849278581,195456011135230,2.3776999,-9.436999,1.2081
1448849278618,195456050716529,2.3823,-9.432799,1.2314999
1448849278658,195456090908179,2.3817,-9.4318,1.2412
1448849278698,195456130855689,2.3518,-9.4379,1.2511
1448849278738,195456170864234,2.3037999,-9.4472,1.2702
1448849278778,195456210842261,2.2697,-9.4542,1.2794
1448849278818,195456250881324,2.2454,-9.465099,1.2408999
1448849278858,195456291286597,2.2213,-9.4705,1.2430999
1448849278898,195456330776343,2.2196999,-9.4692,1.2557
1448849278938,195456371029029,2.2206,-9.469,1.2556
1448849278978,195456411007056,2.2154999,-9.4807,1.1743
1448849279017,195456450374732,2.2091,-9.491799,1.0942
1448849279057,195456490535865,2.1959,-9.507299,0.97929996
1448849279097,195456530574927,2.1871,-9.5239,0.82589996
1448849279138,195456571132789,2.177,-9.538899,0.66429996
1448849279178,195456610866675,2.1619,-9.5489,0.56049997
1448849279218,195456650997291,2.1501,-9.5531,0.5349
1448849279258,195456691036353,2.1347,-9.5561,0.5427
1448849279297,195456729641090,2.1217,-9.5587,0.5487
1448849279339,195456769374976,2.1109,-9.5601,0.56409997
1448849279379,195456811580787,2.1118,-9.5588,0.5826
1448849279419,195456851223121,2.1297,-9.5546,0.5855
1448849279459,195456891567359,2.1299,-9.5542,0.59279996
1448849279499,195456931331763,2.1155,-9.5597,0.553
1448849279539,195456971523414,2.1055,-9.5636,0.5244
1448849279579,195457011348853,2.1073,-9.564,0.5096
1448849279619,195457051479468,2.1190999,-9.5598,0.53709996
1448849279658,195457091152320,2.142,-9.5533,0.5627
1448849279698,195457131191383,2.1547,-9.5491,0.5846
1448849279738,195457171169410,2.1648,-9.545199,0.61079997
1448849279778,195457211116920,2.1685998,-9.5447,0.6031
1448849279819,195457251247535,2.1585999,-9.5467,0.6087
1448849279858,195457291195045,2.1389,-9.547999,0.65639997
1448849279898,195457331295142,2.1229,-9.5494995,0.6854
1448849279936,195457369136939,2.1317,-9.5449,0.7223
1448849279978,195457411190162,2.158,-9.5422,0.6787
1448849280021,195457450466285,2.1857,-9.5377,0.65209997
1448849280057,195457489772925,2.2094998,-9.532,0.654
1448849280096,195457529140601,2.2316,-9.5259,0.6696
1448849280138,195457570736060,2.2421,-9.5251,0.64519995
1448849280178,195457610805640,2.2649,-9.5191,0.6525
1448849280218,195457650936256,2.2804,-9.5191,0.5973
1448849280258,195457690914283,2.3133,-9.5154,0.5256
1448849280298,195457730953345,2.3625998,-9.5112,0.3549
1448849280338,195457770900855,2.4185,-9.5018,0.18949999
1448849280378,195457810909400,2.4747999,-9.4889,0.0713
1448849280418,195457851040015,2.5226998,-9.4765,0.0404
1448849280458,195457890804420,2.5683,-9.4642,0.0426
1448849280498,195457930874000,2.592,-9.4578,0.023
1448849280538,195457971462379,2.5995998,-9.4557,0.0321
1448849280576,195458009151588,2.5884,-9.458799,0.0429
1448849280620,195458049251685,2.5774999,-9.4616995,0.0493
1448849280658,195458091213355,2.5649998,-9.465,0.077199996
1448849280699,195458131435523,2.5746,-9.4621,0.1019
1448849280738,195458171077857,2.5788,-9.460899,0.0989
1448849280778,195458211086402,2.5692,-9.4629,0.1529
1448849280818,195458250667701,2.5397,-9.467199,0.3019
1448849280859,195458291439185,2.5061,-9.462,0.5994
1448849280899,195458331478248,2.4617999,-9.4211,1.1623
1448849280938,195458371181617,2.3813,-9.3462,1.7745
1448849280979,195458411434302,2.2700999,-9.200399,2.5235999
1448849281019,195458451381812,2.2198,-9.158999,2.7122998
1448849281059,195458491268287,2.1633,-9.1563,2.7666
1448849281099,195458531276832,2.1715999,-9.1865,2.6575
1448849281138,195458571163306,2.1371,-9.2021,2.6318
1448849281178,195458611385474,2.1095,-9.2522,2.4733
1448849281216,195458649166236,2.0709,-9.2986,2.3274
1448849281257,195458689418922,2.0479999,-9.3522,2.1244
1448849281299,195458729396949,2.0576,-9.3905,1.9379
1448849281339,195458771236549,2.1097,-9.3909,1.8786999
1448849281379,195458811275611,2.1746,-9.3875,1.821
1448849281418,195458851192603,2.2533,-9.3640995,1.8449999
1448849281458,195458891079078,2.3641999,-9.3117,1.9674
1448849281499,195458931514869,2.6023998,-9.217899,2.1043
1448849281539,195458971401343,2.8263,-9.1747,2.0019999
1448849281579,195459011379371,3.0981998,-9.0506,2.1576
1448849281619,195459051509986,3.365,-8.9862995,2.0231
1448849281659,195459091274390,3.6055,-8.9145,1.9239999
1448849281699,195459131313453,3.8249998,-8.8417,1.8339
1448849281739,195459171260963,4.0102,-8.7605,1.8278999
1448849281779,195459211330543,4.1594,-8.6994,1.7856
1448849281818,195459251369605,4.2763,-8.685699,1.5629
1448849281856,195459289180884,4.3480997,-8.6456995,1.586
1448849281897,195459329433570,4.3815,-8.630899,1.5748999
1448849281939,195459369259009,4.4002,-8.6343,1.502
1448849281979,195459411312232,4.4653,-8.616099,1.4121
1448849282019,195459451320777,4.5736,-8.5817995,1.2667999
1448849282059,195459491176734,4.6776,-8.545199,1.127
1448849282099,195459531276832,4.7848997,-8.5067,0.95369995
1448849282138,195459571193824,4.9598,-8.4230995,0.789
1448849282179,195459611324439,5.1322,-8.3391,0.538
1448849282218,195459651180396,5.2363997,-8.2915,0.0053
1448849282259,195459691280494,5.2883997,-8.2523,-0.31689999
1448849282298,195459731166968,5.285,-8.243,-0.5376
1448849282339,195459771267066,5.2075996,-8.2741995,-0.76669997
1448849282379,195459811306129,5.0504,-8.371699,-0.7597
1448849282419,195459851345191,4.9098997,-8.4573,-0.732
1448849282458,195459891292701,4.8331,-8.5166,-0.52919996
1448849282496,195459929226050,4.7939,-8.5528,-0.19659999
1448849282539,195459971706519,4.8922,-8.4901,0.3938
1448849282579,195460011226783,5.086,-8.3017,1.1758
1448849282619,195460051326881,5.2762,-7.9662,2.2071
1448849282658,195460091152320,5.4498997,-7.3521,3.5231998
1448849282699,195460131343970,5.6117997,-6.4073997,4.8599
1448849282739,195460171260963,5.6877,-5.5132,5.7812
1448849282779,195460211422095,5.7077,-5.0441,6.1763997
1448849282819,195460251522193,5.6151,-4.8638997,6.4016
1448849282859,195460291378150,5.5077996,-4.8356,6.5151997
1448849282899,195460331295142,5.48,-4.5580997,6.7351
1448849282939,195460371273170,5.5249,-4.4849997,6.7474
1448849282979,195460411312232,5.5403,-4.2935,6.8584
1448849283019,195460451320777,5.5463,-4.1935,6.9153
1448849283059,195460491298804,5.5603,-4.146,6.9326997
1448849283098,195460531368384,5.5943,-4.1077,6.9282
1448849283136,195460569179664,5.6478996,-4.0628,6.9111
1448849283177,195460609371314,5.7037997,-3.9952998,6.9044
1448849283219,195460649257789,5.7599998,-3.8248,6.9542
1448849283258,195460691158424,5.7869,-3.5942,7.0541997
1448849283298,195460731166968,5.7785,-3.3309,7.1889997
1448849283339,195460771358619,5.7429,-2.9968998,7.3623996
1448849283379,195460811306129,5.697,-2.6511,7.5288
1448849283419,195460851497779,5.6591997,-2.4025,7.64
1448849283458,195460891170631,5.6517997,-2.04,7.7500997
1448849283499,195460931301246,5.6812,-1.7968999,7.7886
1448849283539,195460971431861,5.6534,-1.6337999,7.8445997
1448849283578,195461011165748,5.5621,-1.6063,7.9151998
1448849283619,195461051235328,5.528,-1.6228,7.9357
1448849283659,195461091335425,5.4860997,-1.6199,7.9652
1448849283698,195461131130347,5.4632,-1.7974,7.9428997
1448849283738,195461171321998,5.4112997,-2.2475,7.8634
1448849283776,195461209163795,5.2943,-2.7993999,7.7654
1448849283818,195461251064429,5.1801,-2.8724,7.8155
1448849283859,195461291378150,5.0125,-3.085,7.8437996
1448849283898,195461331142554,4.7107997,-3.336,7.9276
1448849283939,195461371364722,4.1913,-3.7547,8.0314
1448849283979,195461411373267,3.3888,-4.2897997,8.141399
1448849284018,195461451168189,2.3838,-4.9432,8.1272
1448849284059,195461491329322,1.1881,-5.5151,8.021299
1448849284098,195461531154761,-0.1206,-5.4716997,8.137199
1448849284139,195461571315894,-1.318,-5.4235997,8.0633
1448849284179,195461611354957,-2.4457998,-5.0664,8.0323
1448849284219,195461651485572,-3.3411,-4.6463,7.9635
1448849284258,195461690731177,-4.11,-4.1012,7.9028997
1448849284298,195461730983863,-4.6953998,-3.6655998,7.7900996
1448849284338,195461770870338,-5.0543,-3.4654,7.6559997
1448849284378,195461811367164,-5.2632,-3.2705998,7.6008
1448849284416,195461849178443,-5.3423,-3.1550999,7.5944
1448849284457,195461889736304,-5.3805,-3.0175,7.6232
1448849284499,195461929348121,-5.3654,-2.9071,7.6766996
1448849284537,195461968776832,-5.3136997,-2.8286998,7.7416
1448849284579,195462009334693,-5.2049,-2.767,7.8371997
1448849284619,195462049282203,-5.065,-2.7326,7.9402
1448849284659,195462089321265,-4.8437,-2.7479,8.072
1448849284698,195462129390845,-4.5754,-2.8356,8.1971
1448849284738,195462169399390,-4.2721,-2.9957,8.3032
1448849284779,195462209285865,-3.9935,-3.1181998,8.396299
1448849284819,195462249324927,-3.7814,-3.1578999,8.479199
1448849284859,195462289333472,-3.5238998,-3.3816,8.5039
1448849284898,195462329372535,-3.3007,-3.6085,8.5001
1448849284938,195462369381080,-3.1503,-3.6836,8.525
1448849284978,195462409420142,-2.9531999,-3.7512,8.566
1448849285014,195462447506080,-2.7426999,-3.8460999,8.5938
1448849285058,195462490932593,-2.5074,-3.8305,8.672299
1448849285097,195462529995093,-2.2272,-3.6557,8.8229
1448849285138,195462570430884,-1.9641999,-3.6053,8.9058
1448849285178,195462609371314,-1.632,-3.8711998,8.861
1448849285218,195462649410377,-1.3269,-4.2497,8.7376995
1448849285259,195462689296851,-0.92899996,-4.6633997,8.5766
1448849285298,195462729366431,-0.5765,-4.9108,8.4688
1448849285338,195462769313941,-0.2302,-4.9434,8.4663
1448849285378,195462809414039,-0.0517,-4.8935,8.498199
1448849285418,195462849331031,0.0116,-4.699,8.6074
1448849285459,195462889309058,-0.25599998,-4.4413,8.7394
1448849285498,195462929409156,-0.32299998,-4.6868997,8.608
1448849285539,195462969295631,-0.6688,-4.3353,8.7708
1448849285578,195463009395728,-0.87579995,-4.2019,8.8173
1448849285619,195463049282203,-0.9835,-3.8370998,8.9709
1448849285658,195463091121802,-1.0672,-3.501,9.097899
1448849285698,195463131130347,-1.1295999,-3.0582,9.248799
1448849285739,195463170833717,-1.0618,-2.7405999,9.3557
1448849285777,195463210048804,-0.74619997,-3.4108,9.163899
1448849285816,195463249019752,-0.3241,-4.1624,8.8735
1448849285858,195463289333472,0.0016,-4.8554,8.5202
1448849285899,195463329280982,0.2075,-5.5747,8.0653
1448849285939,195463369228492,0.2268,-5.989,7.7619996
1448849285979,195463409267554,0.1915,-6.0814,7.6909
1448849286018,195463449367652,0.0689,-6.0941,7.6828
1448849286058,195463489376197,-0.0734,-6.0941,7.6828
1448849286099,195463529781470,-0.4025,-5.7988997,7.8981
1448849286138,195463571560035,-0.74009997,-5.2648,8.2403
1448849286178,195463609310279,-1.1438,-4.4048,8.6867
1448849286219,195463649257789,-1.3714,-3.6302998,9.006
1448849286259,195463689266334,-1.1654999,-4.0719,8.8447
1448849286298,195463731350074,-0.8402,-4.7866,8.517799
1448849286338,195463770900855,-0.73359996,-4.8027,8.518499
1448849286378,195463810939918,-0.7734,-4.8648,8.4796
1448849286419,195463851833472,-0.9151,-4.9217997,8.4325
1448849286458,195463890468726,-1.0407,-5.1765,8.2637
1448849286499,195463929317603,-1.1739,-5.6358,7.9391
1448849286539,195463969265113,-1.3973,-5.9971,7.6322
1448849286579,195464009304175,-1.5762,-6.2855997,7.3602996
1448849286619,195464049282203,-1.5728999,-6.974,6.7127
1448849286659,195464089290748,-1.3555,-7.7874,5.8041
1448849286699,195464129360328,-1.1554999,-8.1619,5.3121
1448849286738,195464169399390,-1.0131,-8.3179,5.0947
1448849286778,195464209407935,-0.93789995,-8.3873,4.9944
1448849286818,195464249385963,-0.9507,-8.355599,5.0448
1448849286858,195464289425025,-1.0307,-8.2923,5.1328
1448849286898,195464329342017,-1.2070999,-8.0531,5.4644
1448849286939,195464372158179,-1.3612,-7.7911,5.798
1448849286989,195464421932349,-1.3468,-7.9027996,5.6482
1448849287029,195464461238990,-1.2889,-8.1832,5.2482
1448849287069,195464501552711,-1.1381,-8.5501995,4.6654997
1448849287108,195464541072974,-1.0856999,-8.933499,3.8967
1448849287148,195464580837379,-1.0856,-9.3484,2.7567
1448849287188,195464621029029,-1.1089,-9.598599,1.6755999
1448849287228,195464660946021,-1.1623,-9.7099,0.7324
1448849287268,195464700832496,-1.1718999,-9.7339,0.22459999
1448849287309,195464741542945,-1.1378,-9.74,-0.0942
1448849287349,195464781246314,-1.1394,-9.7262,-0.5216
1448849287389,195464821285377,-1.2315999,-9.6974,-0.7845
