1448734230158,80406276795651,18.84,-24.779999,-32.94
1448734230186,80406316834714,18.84,-24.779999,-32.94
1448734230229,80406358338620,18.84,-24.779999,-32.94
1448734230260,80406396973874,18.84,-24.779999,-32.94
1448734230301,80406436982419,18.84,-24.779999,-32.94
1448734230340,80406476838376,18.84,-24.779999,-32.94
1448734230381,80406516846921,18.84,-24.779999,-32.94
1448734230427,80406558167721,18.84,-24.779999,-32.94
1448734230460,80406596772458,18.84,-24.779999,-32.94
1448734230501,80406636903073,18.84,-24.779999,-32.94
1448734230541,80406676911618,18.84,-24.779999,-32.94
1448734230581,80406716981198,18.84,-25.199999,-32.7
1448734230621,80406756898190,13.5,-24.48,-33.48
1448734230661,80406796876218,8.76,-21.84,-35.1
1448734230701,80406836854245,4.08,-18.3,-36.899998
1448734230741,80406876954343,0.24,-14.04,-38.76
1448734230781,80406916962887,3.24,-9.9,-39.719997
1448734230821,80406956849362,7.9199996,-5.94,-39.54
1448734230861,80406996888425,14.4,-3.4199998,-37.98
1448734230901,80407036866452,21.359999,-1.86,-35.82
1448734230941,80407076966550,27.84,-2.04,-32.34
1448734230981,80407116944577,32.399998,-3.72,-28.8
1448734231021,80407156953122,35.34,-4.92,-26.34
1448734231061,80407196961667,37.2,-6.12,-24.24
1448734231101,80407236878659,38.28,-6.6,-23.1
1448734231141,80407276887204,39.0,-6.8999996,-22.26
1448734231181,80407316956784,39.54,-7.14,-21.24
1448734231221,80407356965329,39.899998,-7.3199997,-20.46
1448734231261,80407396973874,39.899998,-7.3199997,-19.92
1448734231301,80407436890866,39.78,-7.2599998,-19.8
1448734231341,80407476899411,39.3,-7.08,-20.22
1448734231381,80407516938473,37.86,-6.7799997,-21.18
1448734231421,80407556947018,36.239998,-6.3599997,-22.32
1448734231461,80407596955563,34.14,-5.8199997,-23.699999
1448734231501,80407636964108,31.38,-5.16,-25.26
1448734231541,80407676972653,28.74,-4.38,-26.699999
1448734231581,80407716981198,26.279999,-3.84,-28.38
1448734231621,80407756989743,23.76,-3.4199998,-30.06
1448734231661,80407796937253,21.96,-3.1799998,-31.32
1448734231701,80407836945798,20.279999,-3.12,-32.579998
1448734231741,80407876984860,18.66,-2.82,-33.18
1448734231781,80407916962887,17.58,-2.52,-33.54
1448734231821,80407956940915,16.859999,-2.28,-33.84
1448734231861,80407996979977,16.859999,-1.9799999,-33.719997
1448734231901,80408036988522,16.98,-1.62,-33.719997
1448734231941,80408076966550,17.039999,-0.9,-33.719997
1448734231981,80408116944577,17.1,-0.24,-33.54
1448734232021,80408156983639,17.279999,0.24,-33.12
1448734232061,80408196900632,17.88,0.53999996,-32.34
1448734232101,80408236939694,19.68,-0.12,-30.779999
1448734232141,80408276887204,21.9,-0.78,-28.98
1448734232181,80408316987302,24.42,-1.62,-27.06
1448734232220,80408356751706,26.76,-2.82,-24.9
1448734232260,80408396943356,28.199999,-4.2,-23.1
1448734232300,80408436921384,29.46,-5.52,-21.06
1448734232341,80408476929929,30.119999,-6.6,-19.32
1448734232381,80408516968991,30.599998,-7.2599998,-17.82
1448734232421,80408556885983,30.84,-7.2,-16.68
1448734232461,80408596955563,30.779999,-7.14,-16.14
1448734232501,80408636964108,30.9,-7.2,-15.719999
1448734232541,80408676972653,30.96,-7.2599998,-15.719999
1448734232581,80408716889645,30.779999,-7.44,-16.26
1448734232621,80408757020261,30.179998,-7.68,-17.46
1448734232661,80408796937253,29.22,-7.7999997,-18.84
1448734232701,80408836945798,27.539999,-8.04,-21.18
1448734232741,80408876954343,25.32,-7.7999997,-23.699999
1448734232781,80408916932370,22.619999,-7.3799996,-26.34
1448734232821,80408956940915,19.74,-7.02,-29.279999
1448734232861,80408996949460,17.34,-6.42,-31.619999
1448734232901,80409036958005,15.599999,-6.12,-33.36
1448734232941,80409076905514,14.82,-5.58,-34.26
1448734232981,80409116914059,14.46,-4.7999997,-34.739998
1448734233021,80409156892087,14.5199995,-3.6,-34.8
1448734233061,80409196931149,14.759999,-2.28,-34.739998
1448734233101,80409236939694,15.059999,-1.0799999,-34.559998
1448734233141,80409276978757,16.44,-0.42,-33.719997
1448734233181,80409317048337,18.84,-0.59999996,-31.8
1448734233221,80409356873776,21.48,-1.1999999,-29.099998
1448734233262,80409396851804,24.3,-2.04,-26.039999
1448734233301,80409436921384,26.939999,-2.76,-23.1
1448734233341,80409476868893,28.619999,-3.24,-20.76
1448734233381,80409517030026,30.24,-3.72,-19.02
1448734233421,80409556977536,31.38,-4.7999997,-17.64
1448734233462,80409596925046,31.74,-5.7599998,-16.92
1448734233501,80409636903073,31.92,-6.3599997,-16.5
1448734233541,80409676850583,31.859999,-6.7799997,-16.38
1448734233581,80409716950680,31.859999,-6.48,-16.619999
1448734233621,80409756867673,31.679998,-6.12,-17.039999
1448734233661,80409796998288,31.26,-5.7599998,-17.88
1448734233701,80409836884762,29.939999,-5.16,-19.26
1448734233741,80409876893307,27.359999,-3.72,-21.96
1448734233781,80409916901852,24.66,-2.1,-24.539999
1448734233821,80409956910397,21.779999,-0.59999996,-27.3
1448734233861,80409996888425,18.96,0.65999997,-29.64
1448734233901,80410036927487,17.16,1.38,-31.08
1448734233941,80410076905514,15.66,1.86,-32.28
1448734233981,80410116944577,14.639999,2.28,-32.94
1448734234021,80410156953122,14.46,2.52,-33.36
1448734234061,80410196900632,14.639999,2.3999999,-33.239998
1448734234101,80410236756589,15.719999,2.1,-32.52
1448734234140,80410276826169,17.16,1.4399999,-31.14
1448734234180,80410316834714,18.96,0.78,-29.34
1448734234221,80410356843259,21.779999,-0.12,-26.46
1448734234261,80410396851804,24.18,-1.02,-23.699999
1448734234301,80410436890866,26.22,-2.1599998,-21.18
1448734234341,80410476899411,28.439999,-3.1799998,-18.9
1448734234381,80410516877438,29.519999,-4.14,-17.64
1448734234421,80410556885983,30.119999,-4.8599997,-16.859999
1448734234461,80410596894528,30.599998,-4.98,-16.199999
1448734234501,80410636872555,30.599998,-5.04,-15.66
1448734234541,80410676881100,30.599998,-4.8599997,-15.179999
1448734234581,80410716889645,30.599998,-4.7999997,-14.759999
1448734234621,80410756928708,30.599998,-4.56,-14.7
1448734234661,80410796906735,30.48,-4.14,-14.639999
1448734234701,80410836915280,30.3,-3.3,-14.7
1448734234741,80410876923825,30.06,-2.3999999,-14.82
1448734234781,80410916932370,29.519999,-1.62,-15.0
1448734234821,80410956879880,28.74,-0.9,-15.299999
1448734234861,80410996918942,27.3,-0.35999998,-15.96
1448734234901,80411036896970,25.32,0.17999999,-17.16
1448734234941,80411076936032,23.16,0.53999996,-18.779999
1448734234981,80411116914059,20.64,0.96,-20.82
1448734235021,80411156922604,18.18,1.0799999,-22.5
1448734235061,80411196931149,15.9,1.02,-23.699999
1448734235105,80411237031247,13.38,1.0799999,-24.48
1448734235144,80411276978757,10.44,1.0799999,-24.779999
1448734235184,80411316865231,8.04,1.0799999,-25.08
1448734235225,80411357148434,6.12,1.0799999,-25.38
1448734235264,80411396912839,4.74,1.0799999,-25.56
1448734235304,80411436951901,4.62,1.3199999,-25.619999
1448734235344,80411476929929,5.04,3.1799998,-24.72
1448734235384,80411516907956,6.6,6.06,-22.859999
1448734235424,80411556916501,9.96,9.54,-20.1
1448734235464,80411596925046,16.32,14.639999,-16.32
1448734235504,80411636903073,24.42,19.68,-11.16
1448734235544,80411676911618,32.7,24.18,-6.7799997
1448734235585,80411716950680,39.36,28.08,-3.36
1448734235624,80411756928708,42.899998,30.0,-1.1999999
1448734235664,80411796906735,44.16,30.3,-1.1999999
1448734235704,80411836915280,44.28,30.0,-1.38
1448734235744,80411876923825,44.64,29.76,-1.56
1448734235784,80411916932370,45.12,29.519999,-1.62
1448734235825,80411956910397,45.84,28.92,-1.62
1448734235864,80411996888425,46.739998,27.96,-1.56
1448734235904,80412036927487,47.94,26.4,-1.5
1448734235944,80412076905514,49.86,24.18,-1.5
1448734235992,80412116914059,52.14,21.6,-1.56
1448734236026,80412156861569,54.239998,19.199999,-1.8
1448734236065,80412196870114,56.219997,17.16,-2.04
1448734236105,80412237122800,57.42,15.54,-2.1599998
1448734236144,80412276917721,58.14,14.46,-2.22
1448734236184,80412316926266,58.859997,13.44,-2.22
1448734236224,80412356904294,59.579998,12.24,-2.22
1448734236264,80412396912839,60.42,11.28,-2.22
1448734236304,80412436951901,61.14,10.5,-2.22
1448734236344,80412476960446,61.68,9.96,-2.22
1448734236384,80412516907956,62.039997,9.84,-2.22
1448734236424,80412556916501,62.039997,9.78,-2.22
1448734236464,80412596925046,62.219997,9.78,-2.22
1448734236504,80412636903073,62.399998,9.78,-2.22
1448734236544,80412676881100,62.579998,9.719999,-2.28
1448734236584,80412716920163,62.699997,9.66,-2.34
1448734236624,80412756928708,62.76,9.599999,-2.3999999
1448734236664,80412796906735,62.76,9.599999,-2.3999999
1448734236704,80412836915280,62.76,9.599999,-2.3999999
1448734236741,80412877045895,62.76,9.54,-2.52
1448734236784,80412916901852,62.82,9.48,-2.7
1448734236824,80412956940915,62.879997,9.42,-2.8799999
1448734236864,80412996918942,62.94,9.12,-3.06
1448734236904,80413036896970,62.94,8.7,-3.06
1448734236940,80413076813962,62.94,8.28,-3.06
1448734236984,80413116944577,63.059998,7.7999997,-3.06
1448734237024,80413156892087,63.12,7.5,-3.06
1448734237064,80413196900632,63.239998,7.44,-3.06
1448734237104,80413236878659,63.3,7.3799996,-3.06
1448734237144,80413276887204,63.3,7.3799996,-3.06
1448734237184,80413316926266,63.3,7.5,-3.0
1448734237224,80413356904294,63.3,7.5,-2.9399998
1448734237264,80413396912839,63.3,7.5,-2.8799999
1448734237304,80413436921384,63.3,7.5,-2.82
1448734237344,80413476929929,63.3,7.68,-2.76
1448734237384,80413516907956,63.3,7.98,-2.7
1448734237424,80413556916501,63.3,8.4,-2.7
1448734237464,80413596925046,63.3,8.76,-2.6399999
1448734237504,80413636933591,63.3,8.94,-2.58
1448734237544,80413676911618,63.3,9.059999,-2.58
1448734237584,80413716920163,63.3,9.059999,-2.6399999
1448734237624,80413756928708,63.359997,9.059999,-2.7
1448734237664,80413796906735,63.42,9.059999,-2.7
1448734237704,80413836915280,63.48,9.059999,-2.7
1448734237744,80413876893307,63.48,9.059999,-2.7
1448734237784,80413916962887,63.539997,9.059999,-2.7
1448734237820,80413956818845,63.66,9.059999,-2.7
1448734237861,80413996796872,63.66,9.059999,-2.7
1448734237904,80414036866452,63.719997,9.059999,-2.7
1448734237945,80414076844479,63.719997,9.059999,-2.76
1448734237984,80414116944577,63.66,9.24,-2.82
1448734238024,80414156922604,63.539997,9.54,-2.8799999
1448734238064,80414196900632,63.359997,10.2,-2.8799999
1448734238104,80414236909177,63.059998,11.46,-2.8799999
1448734238144,80414276917721,62.28,12.48,-2.8799999
1448734238184,80414316956784,61.32,13.38,-2.8799999
1448734238224,80414356904294,60.059998,14.219999,-2.8799999
1448734238264,80414396912839,58.739998,14.639999,-2.8799999
1448734238304,80414436921384,57.6,15.179999,-2.8799999
1448734238344,80414476899411,56.34,15.54,-2.8799999
1448734238384,80414516907956,54.78,15.719999,-2.8799999
1448734238424,80414556916501,52.02,15.9,-2.76
1448734238464,80414596925046,45.899998,16.44,-3.06
1448734238504,80414636933591,37.92,16.68,-4.62
1448734238544,80414676911618,30.0,16.56,-6.96
1448734238584,80414716920163,22.56,15.9,-10.32
1448734238625,80414756928708,18.539999,14.58,-13.5
1448734238664,80414796937253,16.02,13.559999,-15.66
1448734238704,80414836915280,13.98,12.78,-17.46
1448734238744,80414876923825,12.599999,12.12,-18.779999
1448734238792,80414916901852,11.58,11.46,-20.279999
1448734238827,80414956849362,11.219999,10.44,-21.42
1448734238865,80414996857907,11.099999,9.48,-22.32
1448734238905,80415037141110,11.099999,8.5199995,-22.74
1448734238945,80415076874997,10.98,7.74,-22.859999
1448734238984,80415116914059,11.04,7.3199997,-23.039999
1448734239024,80415156922604,11.219999,7.02,-23.16
1448734239064,80415196931149,11.58,6.96,-23.34
1448734239104,80415236909177,12.179999,7.02,-23.64
1448734239144,80415276917721,12.84,7.14,-23.82
1448734239184,80415316926266,13.799999,7.14,-24.06
1448734239224,80415356904294,14.5199995,7.3199997,-24.18
1448734239264,80415396912839,15.059999,7.62,-24.119999
1448734239304,80415436921384,15.42,8.28,-24.06
1448734239344,80415476929929,15.42,9.059999,-24.0
1448734239384,80415516907956,15.48,9.78,-24.0
1448734239424,80415556916501,15.719999,10.559999,-23.82
1448734239464,80415596925046,16.619999,10.62,-23.16
1448734239504,80415636933591,18.96,9.66,-21.3
1448734239544,80415676881100,21.96,7.7999997,-18.66
1448734239584,80415716920163,25.08,4.7999997,-14.82
1448734239624,80415756928708,28.14,-1.26,-9.54
1448734239664,80415796906735,29.939999,-6.8399997,-5.16
1448734239704,80415836915280,30.779999,-11.7,-1.62
1448734239744,80415876862790,31.439999,-16.199999,0.84
1448734239785,80415916871335,31.439999,-17.58,1.3199999
1448734239825,80415957124020,31.32,-18.48,1.5
1448734239864,80415996949460,31.5,-19.32,1.86
1448734239904,80416036927487,31.679998,-19.5,2.1
1448734239944,80416076936032,31.859999,-19.439999,2.8799999
1448734239984,80416116914059,31.98,-19.38,3.78
1448734240024,80416156922604,32.04,-19.26,4.62
1448734240064,80416196931149,32.219997,-18.359999,5.52
1448734240105,80416236909177,32.88,-15.96,5.7
1448734240144,80416276887204,33.36,-13.08,5.46
1448734240184,80416316926266,33.84,-9.84,5.04
1448734240224,80416356904294,34.32,-7.08,4.2599998
1448734240264,80416396912839,34.2,-5.2799997,3.0
1448734240304,80416436921384,34.38,-4.02,1.3199999
1448734240344,80416476929929,34.38,-3.24,-0.9
1448734240384,80416516907956,34.44,-2.8799999,-3.78
1448734240424,80416556916501,34.44,-3.0,-6.72
1448734240464,80416596955563,34.38,-3.12,-9.3
1448734240504,80416636872555,34.32,-3.1799998,-12.0
1448734240544,80416676881100,34.14,-3.12,-14.46
1448734240584,80416716889645,33.66,-3.12,-16.32
1448734240624,80416756898190,32.64,-3.06,-18.119999
1448734240660,80416796815182,31.199999,-2.04,-19.619999
1448734240704,80416836915280,29.519999,-0.53999996,-20.52
1448734240744,80416876954343,27.539999,1.38,-21.42
1448734240784,80416916932370,25.619999,4.14,-22.26
1448734240824,80416956910397,23.64,6.2999997,-22.859999
1448734240864,80416996918942,21.359999,8.04,-23.58
1448734240904,80417036927487,19.14,9.66,-24.42
1448734240944,80417076905514,16.74,10.5,-25.26
1448734240984,80417116883542,14.5199995,11.34,-26.099998
1448734241024,80417156953122,12.66,12.24,-27.3
1448734241064,80417196931149,11.04,12.9,-28.019999
1448734241104,80417236909177,10.2,13.32,-28.38
1448734241144,80417276917721,9.36,13.559999,-28.68
1448734241184,80417316926266,8.94,13.5,-28.38
1448734241224,80417356934811,8.88,13.62,-28.26
1448734241264,80417396912839,8.94,13.74,-28.26
1448734241304,80417436921384,9.66,13.799999,-27.96
1448734241344,80417476929929,11.16,13.74,-27.24
1448734241384,80417516907956,13.98,13.08,-25.98
1448734241424,80417556916501,17.16,12.24,-24.539999
1448734241464,80417596925046,20.82,11.28,-23.16
1448734241504,80417636933591,24.3,10.2,-22.02
1448734241544,80417676911618,26.82,9.179999,-20.699999
1448734241589,80417716828610,28.859999,7.7999997,-18.72
1448734241626,80417756867673,30.0,6.18,-16.68
1448734241665,80417796845700,30.599998,4.44,-14.58
1448734241705,80417836915280,30.779999,3.0,-13.259999
1448734241744,80417876893307,31.26,2.1,-12.719999
1448734241784,80417916932370,31.679998,1.5,-12.42
1448734241824,80417956910397,32.04,1.38,-12.42
1448734241864,80417996918942,32.219997,1.4399999,-12.42
1448734241904,80418036927487,32.28,1.5,-12.36
1448734241944,80418076905514,32.34,1.56,-12.3
1448734241984,80418116914059,32.399998,1.74,-12.24
1448734242024,80418156922604,31.74,2.8799999,-12.42
1448734242064,80418196931149,30.3,5.2799997,-12.84
1448734242104,80418236909177,27.48,8.46,-13.86
1448734242144,80418276917721,23.22,11.759999,-15.78
1448734242184,80418316926266,18.06,13.74,-18.539999
1448734242224,80418356904294,12.66,13.98,-21.6
1448734242264,80418396912839,7.2,12.54,-24.539999
1448734242304,80418436951901,2.46,9.179999,-26.64
1448734242344,80418476929929,-1.74,4.74,-27.18
1448734242384,80418516907956,-5.8199997,-0.96,-26.34
1448734242424,80418556916501,-9.179999,-7.3799996,-24.24
1448734242464,80418596925046,-12.179999,-13.5,-21.18
1448734242510,80418636903073,-14.219999,-18.96,-17.94
1448734242550,80418686829831,-16.14,-23.4,-14.639999
1448734242590,80418726838376,-17.46,-26.76,-11.04
1448734242631,80418766999509,-18.9,-29.939999,-7.5
1448734242671,80418807008054,-20.52,-33.239998,-3.78
1448734242711,80418846925046,-21.24,-36.36,-0.35999998
1448734242751,80418886872555,-21.779999,-39.36,2.6399999
1448734242791,80418926911618,-21.9,-41.28,5.46
1448734242831,80418966889645,-21.779999,-42.3,7.68
1448734242871,80419006989743,-21.779999,-42.84,9.66
1448734242911,80419046876218,-21.779999,-42.84,11.4
1448734242951,80419086884762,-21.779999,-42.899998,12.54
1448734242991,80419126893307,-21.779999,-42.84,13.2
1448734243031,80419166901852,-21.779999,-42.719997,13.5
1448734243071,80419206879880,-21.779999,-42.3,13.44
1448734243111,80419246949460,-21.779999,-41.879997,13.32
1448734243151,80419286927487,-21.779999,-41.28,13.38
1448734243191,80419326844479,-21.779999,-40.739998,13.44
1448734243231,80419366914059,-21.779999,-40.44,13.62
1448734243271,80419406922604,-21.779999,-39.84,13.799999
1448734243311,80419446900632,-21.779999,-39.239998,14.099999
1448734243351,80419486909177,-21.779999,-38.7,14.4
1448734243391,80419526887204,-21.84,-38.1,14.82
1448734243431,80419566895749,-21.96,-37.86,15.36
1448734243471,80419606873776,-22.08,-37.32,15.66
1448734243511,80419646851804,-22.14,-36.84,15.9
1448734243551,80419686921384,-22.32,-36.36,15.9
1448734243591,80419726929929,-22.439999,-35.94,15.78
1448734243631,80419766907956,-22.619999,-35.88,15.719999
1448734243671,80419806947018,-22.8,-35.82,15.54
1448734243711,80419846894528,-23.039999,-35.82,15.36
1448734243751,80419886903073,-23.34,-35.82,14.88
1448734243791,80419926881100,-23.58,-35.76,14.28
1448734243831,80419966889645,-23.82,-35.64,13.08
1448734243871,80420006898190,-23.88,-35.579998,11.82
1448734243911,80420046906735,-23.939999,-35.46,10.86
1448734243951,80420086915280,-24.0,-35.34,10.139999
1448734243991,80420126923825,-24.06,-35.28,9.9
1448734244031,80420166901852,-24.06,-35.16,9.9
1448734244071,80420206910397,-24.0,-35.219997,9.84
1448734244111,80420246888425,-23.939999,-35.219997,9.84
1448734244151,80420286927487,-23.88,-35.219997,9.84
1448734244191,80420326874997,-23.76,-35.219997,9.78
1448734244231,80420366883542,-23.82,-35.16,9.66
1448734244271,80420406892087,-23.88,-35.16,9.54
1448734244311,80420446931149,-23.939999,-35.219997,9.36
1448734244351,80420486878659,-24.06,-35.28,9.179999
1448734244391,80420526917721,-24.06,-35.46,9.0
1448734244431,80420566895749,-24.06,-35.76,8.82
1448734244487,80420608247067,-24.06,-36.3,8.7
1448734244510,80420647004391,-24.06,-37.14,8.58
1448734244550,80420686982419,-23.939999,-38.04,8.5199995
1448734244591,80420726990964,-23.699999,-38.52,8.5199995
1448734244631,80420766999509,-23.279999,-38.76,8.5199995
1448734244671,80420806885983,-22.8,-38.579998,8.7
1448734244711,80420847016598,-22.439999,-38.28,9.0
1448734244751,80420886994626,-22.199999,-38.1,9.36
1448734244791,80420926911618,-22.199999,-37.92,10.2
1448734244831,80420966920163,-22.26,-37.62,11.16
1448734244871,80421006959225,-22.26,-37.26,12.54
1448734244911,80421046906735,-22.199999,-37.02,13.98
1448734244951,80421086915280,-22.199999,-36.96,15.599999
1448734244991,80421126923825,-22.08,-37.14,16.98
1448734245031,80421166901852,-21.6,-37.98,18.48
1448734245071,80421207001950,-20.88,-38.76,19.92
1448734245111,80421246918942,-19.98,-39.54,20.82
1448734245151,80421286896970,-19.08,-40.44,21.539999
1448734245191,80421326966550,-18.539999,-41.1,21.84
1448734245231,80421366944577,-18.18,-41.7,21.84
1448734245271,80421406922604,-18.119999,-42.239998,21.84
1448734245311,80421447236325,-18.119999,-42.6,21.84
1448734245351,80421486970212,-18.06,-42.54,21.779999
1448734245391,80421526948239,-18.18,-42.54,21.66
1448734245431,80421566926266,-18.18,-42.48,21.3
1448734245471,80421606904294,-18.18,-42.42,20.699999
1448734245511,80421646943356,-18.3,-42.0,19.74
1448734245551,80421686921384,-18.48,-41.16,18.66
1448734245591,80421726960446,-18.72,-39.6,17.64
1448734245631,80421766907956,-19.199999,-37.38,16.619999
1448734245671,80421807038571,-19.8,-35.1,15.839999
1448734245711,80421846925046,-20.82,-32.64,15.299999
1448734245751,80421886933591,-21.9,-30.84,14.7
1448734245791,80421926942136,-23.039999,-29.4,14.34
1448734245831,80421966950680,-24.48,-28.439999,13.98
1448734245871,80422006898190,-25.38,-28.019999,13.679999
1448734245911,80422046876218,-26.099998,-27.72,13.679999
1448734245951,80422086915280,-26.519999,-27.66,13.679999
1448734245991,80422126954343,-26.46,-27.66,13.74
1448734246031,80422166901852,-26.4,-27.66,13.74
1448734246071,80422206940915,-26.4,-27.66,13.74
1448734246111,80422246918942,-26.4,-27.66,13.74
1448734246151,80422286927487,-26.4,-27.66,13.74
1448734246191,80422326874997,-26.34,-27.66,13.74
1448734246231,80422366822507,-26.279999,-27.66,13.74
1448734246271,80422406922604,-26.22,-27.66,13.74
1448734246311,80422447022702,-26.22,-27.599998,13.74
1448734246351,80422486909177,-26.22,-27.48,13.74
1448734246391,80422526917721,-26.099998,-27.359999,13.74
1448734246431,80422566926266,-26.039999,-27.18,13.74
1448734246471,80422606965329,-25.92,-26.64,13.74
1448734246511,80422646912839,-25.859999,-26.039999,13.74
1448734246551,80422686921384,-25.859999,-25.439999,13.74
1448734246591,80422726929929,-25.859999,-25.019999,13.74
1448734246631,80422766907956,-25.859999,-24.9,13.74
1448734246671,80422806947018,-25.859999,-25.08,13.74
1448734246711,80422846925046,-25.859999,-25.199999,13.799999
1448734246751,80422886872555,-25.56,-26.519999,14.04
1448734246791,80422926911618,-25.019999,-28.14,14.58
1448734246831,80422966920163,-24.119999,-30.24,15.12
1448734246871,80423006898190,-22.859999,-32.94,15.839999
1448734246911,80423046937253,-21.42,-35.46,16.68
1448734246951,80423086915280,-19.98,-37.8,17.64
1448734246991,80423126923825,-18.96,-40.02,18.96
1448734247031,80423166932370,-18.24,-41.64,20.039999
1448734247071,80423206879880,-18.0,-42.48,20.88
1448734247111,80423246918942,-17.94,-43.079998,21.24
1448734247151,80423287232663,-17.94,-43.26,21.06
1448734247191,80423326936032,-17.94,-43.32,20.82
1448734247230,80423366853024,-18.119999,-42.96,19.8
1448734247271,80423406922604,-18.48,-42.059998,18.48
1448734247311,80423446931149,-18.9,-40.92,16.68
1448734247351,80423486909177,-19.439999,-39.42,13.98
1448734247391,80423527039792,-20.1,-37.8,11.34
1448734247431,80423566926266,-20.64,-36.42,8.04
1448734247471,80423606934811,-21.06,-35.219997,4.44
1448734247511,80423646912839,-21.42,-33.84,0.9
1448734247551,80423686921384,-21.539999,-32.7,-2.58
1448734247591,80423726899411,-21.6,-31.92,-5.46
1448734247631,80423766907956,-21.6,-31.26,-7.62
1448734247671,80423806916501,-21.6,-31.14,-9.24
1448734247711,80423846894528,-21.48,-31.199999,-10.38
1448734247751,80423886903073,-21.42,-31.26,-11.16
1448734247791,80423926911618,-21.3,-31.32,-11.7
1448734247837,80423966920163,-21.24,-31.56,-11.88
1448734247871,80424007020261,-21.24,-32.34,-10.8
1448734247911,80424046998288,-21.18,-33.3,-9.54
1448734247951,80424087006833,-21.119999,-34.62,-7.62
1448734247991,80424126923825,-20.939999,-36.78,-5.16
1448734248031,80424166932370,-20.64,-38.82,-2.6399999
1448734248071,80424206818845,-20.34,-41.1,0.42
1448734248111,80424246949460,-19.68,-43.32,3.6599998
1448734248151,80424286896970,-18.96,-44.579998,7.3799996
1448734248191,80424326936032,-18.24,-45.42,10.32
1448734248231,80424366914059,-17.34,-45.84,12.599999
1448734248271,80424406983639,-16.859999,-45.84,14.5199995
1448734248311,80424446961667,-16.5,-45.84,15.54
1448734248351,80424486909177,-16.32,-45.78,16.8
1448734248391,80424526917721,-16.32,-45.719997,17.88
1448734248431,80424566956784,-16.32,-45.6,18.42
1448734248471,80424606904294,-16.5,-45.0,18.779999
1448734248511,80424646882321,-16.74,-43.98,18.66
1448734248551,80424686921384,-17.279999,-42.78,18.539999
1448734248591,80424726929929,-18.06,-41.219997,18.359999
1448734248631,80424766907956,-19.26,-39.6,18.0
1448734248671,80424806885983,-20.82,-38.1,17.46
1448734248711,80424846925046,-22.02,-36.42,16.859999
1448734248751,80424886903073,-23.039999,-35.1,15.839999
1448734248791,80424926881100,-23.519999,-34.44,15.179999
1448734248831,80424966889645,-23.46,-34.14,14.759999
1448734248871,80425006898190,-23.4,-34.2,14.46
1448734248911,80425046937253,-23.34,-34.32,14.58
1448734248951,80425086915280,-23.16,-34.5,14.7
1448734248991,80425127229001,-22.68,-34.8,14.82
1448734249031,80425166993405,-21.96,-35.399998,15.24
1448734249070,80425206849362,-21.0,-36.719997,15.9
1448734249111,80425246918942,-20.22,-38.16,16.74
1448734249151,80425286927487,-19.619999,-39.42,17.4
1448734249191,80425326936032,-19.199999,-40.32,17.699999
1448734249231,80425366944577,-19.08,-40.5,17.699999
1448734249271,80425406953122,-18.9,-40.44,17.52
1448734249311,80425446900632,-18.9,-40.379997,17.22
1448734249351,80425486909177,-19.199999,-40.2,16.199999
1448734249391,80425526948239,-19.8,-39.84,14.28
1448734249431,80425566926266,-20.52,-39.36,11.46
1448734249471,80425606934811,-21.359999,-38.399998,7.68
1448734249511,80425646912839,-22.199999,-37.44,3.6599998
1448734249551,80425686921384,-22.68,-36.36,-0.17999999
1448734249591,80425726960446,-23.1,-35.52,-3.78
1448734249631,80425766907956,-23.34,-34.86,-6.8399997
1448734249671,80425806916501,-23.34,-34.14,-9.24
1448734249711,80425846986081,-23.279999,-33.66,-10.74
1448734249751,80425886933591,-23.16,-32.88,-11.639999
1448734249791,80425927033688,-23.16,-32.399998,-11.94
1448734249831,80425966889645,-23.16,-32.04,-11.94
1448734249871,80426006928708,-23.16,-31.8,-11.94
1448734249911,80426047120358,-23.16,-32.16,-11.82
1448734249950,80426086854245,-22.859999,-33.239998,-10.38
1448734249990,80426126862790,-22.56,-34.44,-8.76
1448734250031,80426166932370,-22.26,-35.88,-6.8999996
1448734250071,80426206910397,-21.96,-37.68,-4.38
1448734250111,80426246918942,-21.9,-39.36,-2.52
1448734250151,80426287110593,-21.84,-41.28,-0.29999998
1448734250191,80426326997067,-21.779999,-43.14,2.46
1448734250231,80426366975095,-21.6,-44.579998,5.22
1448734250273,80426407044675,-21.3,-45.36,7.98
1448734250311,80426446992184,-20.82,-45.78,10.559999
1448734250351,80426486909177,-20.279999,-45.899998,12.84
1448734250391,80426527070309,-19.859999,-45.899998,14.46
1448734250431,80426566865231,-19.56,-45.899998,15.48
1448734250473,80426606965329,-19.38,-45.899998,16.08
1448734250511,80426646912839,-19.32,-45.78,16.199999
1448734250551,80426686982419,-19.439999,-45.239998,16.14
1448734250591,80426726929929,-19.619999,-44.34,16.14
1448734250631,80426766938473,-20.1,-42.3,15.9
1448734250671,80426806885983,-20.699999,-39.48,15.36
1448734250711,80426846955563,-21.24,-36.54,14.639999
1448734250751,80426886903073,-22.02,-33.719997,13.799999
1448734250791,80426926942136,-22.68,-31.74,13.08
1448734250831,80426967194821,-23.34,-30.72,12.42
1448734250871,80427006989743,-23.82,-30.42,12.12
1448734250910,80427046906735,-24.06,-30.42,11.94
1448734250951,80427087037350,-24.119999,-30.72,11.94
1448734250991,80427126954343,-24.06,-31.019999,12.12
1448734251031,80427167084958,-24.0,-31.32,12.3
1448734251071,80427206940915,-23.46,-32.579998,12.78
1448734251111,80427246888425,-22.74,-34.559998,13.62
1448734251151,80427286927487,-21.84,-36.899998,14.46
1448734251191,80427326936032,-20.76,-39.059998,15.179999
1448734251231,80427366944577,-20.279999,-40.2,15.48
1448734251271,80427406953122,-19.98,-40.62,15.42
1448734251311,80427446900632,-19.859999,-40.62,15.299999
1448734251351,80427486909177,-19.98,-40.62,15.179999
1448734251391,80427526887204,-19.98,-40.44,14.639999
1448734251431,80427566987302,-20.34,-39.66,13.259999
1448734251471,80427607026364,-20.699999,-38.76,11.46
1448734251511,80427646912839,-21.3,-37.8,8.5199995
1448734251551,80427686951901,-21.779999,-36.78,4.7999997
1448734251591,80427726899411,-21.9,-36.0,1.1999999
1448734251631,80427766877438,-22.02,-35.399998,-2.7
1448734251671,80427806916501,-21.9,-34.739998,-5.7
1448734251711,80427847016598,-21.779999,-34.26,-7.8599997
1448734251751,80427887177731,-21.779999,-34.14,-9.48
1448734251790,80427926850583,-21.779999,-33.899998,-10.5
1448734251831,80427966950680,-21.779999,-33.84,-11.16
1448734251871,80428006959225,-21.779999,-33.78,-11.46
1448734251911,80428046906735,-21.779999,-33.719997,-11.46
1448734251951,80428086915280,-21.779999,-33.78,-11.219999
1448734251991,80428127045895,-21.72,-33.899998,-10.8
1448734252031,80428166962887,-21.539999,-34.44,-9.96
1448734252071,80428206910397,-21.3,-35.16,-8.82
1448734252111,80428246888425,-20.88,-36.36,-6.7799997
1448734252151,80428286927487,-20.4,-38.52,-3.8999999
1448734252191,80428326905514,-19.68,-40.98,-0.65999997
1448734252231,80428366914059,-18.84,-43.62,2.52
1448734252271,80428406922604,-18.18,-45.78,5.46
1448734252311,80428446961667,-17.64,-46.86,7.56
1448734252351,80428486939694,-17.52,-47.219997,9.36
1448734252391,80428526917721,-17.58,-47.16,11.04
1448734252431,80428566926266,-17.64,-47.039997,12.12
1448734252471,80428606904294,-17.64,-46.98,13.08
1448734252511,80428646912839,-17.94,-46.739998,13.92
1448734252555,80428687196042,-18.539999,-45.66,14.5199995
1448734252591,80428726990964,-19.619999,-43.92,15.179999
1448734252631,80428766999509,-20.76,-41.7,15.48
1448734252671,80428807069089,-21.779999,-38.64,15.54
1448734252710,80428846986081,-22.8,-35.88,15.54
1448734252751,80428887269284,-24.0,-33.48,15.36
1448734252791,80428927003171,-25.14,-31.439999,15.24
1448734252833,80428968598630,-26.16,-30.24,15.059999
1448734252871,80429006898190,-26.82,-29.46,14.639999
1448734252911,80429046998288,-26.939999,-29.22,13.679999
1448734252951,80429086945798,-26.939999,-29.22,12.54
1448734252991,80429126923825,-26.939999,-29.46,11.82
1448734253031,80429166962887,-26.88,-29.82,11.219999
1448734253071,80429206940915,-26.76,-30.06,11.219999
1448734253111,80429246888425,-26.34,-30.539999,11.5199995
1448734253151,80429286958005,-25.68,-31.679998,11.82
1448734253191,80429326905514,-24.779999,-33.36,12.179999
1448734253231,80429366914059,-23.58,-35.52,12.719999
1448734253271,80429406892087,-22.32,-37.739998,13.62
1448734253311,80429446931149,-21.42,-39.36,14.099999
1448734253351,80429486878659,-20.699999,-40.5,14.5199995
1448734253391,80429527039792,-20.4,-41.16,14.7
1448734253431,80429567048337,-20.52,-41.46,14.5199995
1448734253471,80429606873776,-20.64,-41.399998,14.16
1448734253511,80429646912839,-20.88,-41.1,13.5
1448734253551,80429686921384,-21.539999,-40.2,12.12
1448734253591,80429727082516,-22.32,-39.18,10.26
1448734253631,80429766968991,-23.4,-37.32,7.02
1448734253671,80429807282712,-24.359999,-35.28,2.46
1448734253711,80429846955563,-25.019999,-33.48,-1.8
1448734253751,80429886903073,-25.5,-32.1,-6.18
1448734253791,80429926911618,-25.439999,-31.679998,-9.54
1448734253831,80429967011716,-25.439999,-31.679998,-11.639999
1448734253871,80430006928708,-25.32,-31.859999,-13.139999
1448734253911,80430046998288,-25.32,-31.859999,-13.92
1448734253951,80430086945798,-25.32,-31.859999,-14.099999
1448734253991,80430126923825,-25.32,-31.92,-14.04
1448734254031,80430166932370,-25.199999,-32.16,-14.099999
1448734254071,80430206940915,-25.019999,-32.7,-13.799999
1448734254111,80430246949460,-24.779999,-33.6,-13.32
1448734254151,80430286958005,-24.359999,-35.04,-12.42
1448734254191,80430326905514,-23.76,-36.96,-11.099999
1448734254231,80430366883542,-23.039999,-39.3,-9.3
1448734254271,80430406922604,-22.14,-41.399998,-6.66
1448734254311,80430446900632,-21.18,-43.739998,-3.6599998
1448734254351,80430486939694,-19.98,-45.239998,-0.35999998
1448734254391,80430526948239,-19.08,-46.079998,2.82
1448734254431,80430566956784,-18.42,-46.8,5.58
1448734254471,80430606904294,-18.119999,-46.8,8.04
1448734254510,80430646851804,-18.24,-46.8,10.08
1448734254550,80430686860348,-18.42,-46.8,11.82
1448734254591,80430727143552,-18.6,-46.62,12.96
1448734254631,80430766907956,-19.02,-46.14,13.62
1448734254671,80430807038571,-20.16,-45.059998,13.86
1448734254711,80430846955563,-21.539999,-42.96,13.559999
1448734254751,80430886903073,-23.039999,-39.96,13.139999
1448734254791,80430926911618,-24.359999,-36.66,12.719999
1448734254831,80430966889645,-24.96,-33.66,12.42
1448734254871,80431006959225,-25.38,-31.019999,12.059999
1448734254911,80431046937253,-25.859999,-29.4,11.7
1448734254951,80431086884762,-26.22,-28.38,11.16
1448734254991,80431126954343,-26.58,-27.66,10.679999
1448734255031,80431166932370,-26.88,-27.72,10.26
1448734255071,80431207032468,-26.88,-27.779999,10.0199995
1448734255111,80431247010495,-26.82,-27.84,9.9
1448734255151,80431287019040,-26.76,-28.14,9.84
1448734255191,80431326997067,-26.58,-28.859999,10.08
1448734255231,80431367036130,-26.039999,-30.359999,10.679999
1448734255271,80431406892087,-25.14,-32.76,11.639999
1448734255311,80431446992184,-23.939999,-35.34,12.599999
1448734255351,80431486909177,-22.38,-37.8,13.74
1448734255391,80431526978757,-21.18,-39.6,14.34
1448734255431,80431566956784,-20.46,-40.62,14.58
1448734255471,80431606904294,-20.039999,-41.219997,14.7
1448734255511,80431646943356,-20.1,-41.28,14.34
1448734255551,80431687043454,-20.1,-41.16,14.099999
1448734255591,80431726899411,-20.52,-40.32,12.42
1448734255631,80431766968991,-20.939999,-39.42,10.62
1448734255671,80431806916501,-21.42,-38.579998,8.58
1448734255711,80431846925046,-21.96,-37.5,5.4
1448734255751,80431886933591,-22.38,-36.84,2.34
1448734255791,80431926911618,-22.859999,-36.18,-1.3199999
1448734255831,80431966920163,-22.98,-35.52,-5.2799997
1448734255871,80432006928708,-23.1,-35.16,-8.58
1448734255911,80432046906735,-22.92,-34.8,-10.62
1448734255951,80432087006833,-22.619999,-34.32,-12.3
1448734255991,80432126893307,-22.619999,-33.84,-13.259999
1448734256031,80432166993405,-22.619999,-33.3,-13.679999
1448734256071,80432206879880,-22.619999,-32.88,-13.98
1448734256111,80432246918942,-22.619999,-32.76,-13.86
1448734256151,80432286927487,-22.56,-32.7,-13.74
1448734256191,80432326966550,-22.5,-32.82,-13.44
1448734256231,80432366914059,-22.26,-33.719997,-11.5199995
1448734256271,80432406922604,-21.779999,-34.98,-9.0
1448734256310,80432446809079,-21.359999,-36.48,-5.64
1448734256350,80432486848141,-20.76,-38.28,-1.86
1448734256390,80432526856686,-20.4,-39.78,1.14
1448734256431,80432566956784,-20.1,-41.1,3.6599998
1448734256471,80432606965329,-19.8,-42.18,5.8799996
1448734256511,80432646882321,-19.619999,-42.899998,7.9199996
1448734256551,80432686921384,-19.439999,-43.02,9.599999
1448734256591,80432726960446,-19.439999,-43.079998,11.16
1448734256631,80432766907956,-19.439999,-43.079998,12.54
1448734256671,80432806916501,-19.439999,-43.14,13.62
1448734256711,80432846925046,-19.439999,-43.14,14.4
1448734256751,80432886903073,-19.5,-42.84,14.94
1448734256791,80432926911618,-19.68,-42.059998,15.24
1448734256831,80432966981198,-19.98,-40.98,15.24
1448734256871,80433006928708,-20.52,-39.42,15.179999
1448734256911,80433046937253,-21.18,-37.32,15.0
1448734256951,80433086884762,-22.199999,-34.92,14.639999
1448734256991,80433126954343,-23.4,-32.46,13.92
1448734257031,80433166932370,-24.6,-30.42,13.0199995
1448734257071,80433206879880,-25.56,-29.34,12.0
1448734257111,80433246888425,-25.92,-28.98,10.98
1448734257151,80433286896970,-26.039999,-29.039999,10.38
1448734257191,80433326905514,-25.859999,-29.22,9.96
1448734257231,80433366822507,-25.68,-29.279999,9.78
1448734257271,80433406892087,-25.68,-29.519999,9.719999
1448734257311,80433447053220,-25.32,-30.24,9.84
1448734257351,80433486909177,-24.6,-32.219997,10.44
1448734257391,80433526887204,-23.88,-34.8,11.28
1448734257431,80433566926266,-23.039999,-37.559998,12.059999
1448734257471,80433606934811,-22.56,-39.84,12.78
1448734257511,80433646912839,-22.32,-40.92,13.0199995
1448734257551,80433686921384,-22.08,-41.28,13.0199995
1448734257591,80433726929929,-21.9,-41.28,13.0199995
1448734257631,80433766907956,-21.779999,-41.219997,12.96
1448734257671,80433806916501,-21.72,-41.219997,12.78
1448734257711,80433846925046,-22.08,-40.62,11.28
1448734257751,80433886903073,-22.68,-39.54,7.7999997
1448734257791,80433926911618,-23.46,-38.1,3.6599998
1448734257831,80433966920163,-24.24,-36.239998,-1.0799999
1448734257871,80434007020261,-24.6,-34.559998,-5.04
1448734257911,80434046967770,-24.779999,-33.42,-7.62
1448734257951,80434087037350,-24.779999,-32.579998,-9.719999
1448734257991,80434126923825,-24.84,-32.16,-11.5199995
1448734258031,80434166932370,-24.9,-32.1,-13.139999
1448734258071,80434206940915,-24.96,-31.98,-14.58
1448734258110,80434246796872,-24.96,-31.98,-15.78
1448734258150,80434286866452,-24.779999,-31.98,-16.5
1448734258191,80434326966550,-24.66,-31.98,-16.8
1448734258231,80434367219235,-24.48,-31.98,-16.56
1448734258271,80434407014157,-24.18,-32.04,-16.199999
1448734258311,80434446931149,-23.939999,-32.399998,-15.9
1448734258351,80434486939694,-23.58,-32.94,-15.54
1448734258391,80434526917721,-23.16,-33.66,-15.12
1448734258431,80434566926266,-22.74,-34.92,-13.679999
1448734258471,80434606873776,-22.439999,-36.239998,-12.0
1448734258511,80434646912839,-22.26,-37.86,-9.24
1448734258551,80434686921384,-22.26,-39.54,-5.94
1448734258591,80434727021481,-22.32,-40.92,-3.06
1448734258631,80434766938473,-22.38,-42.36,0.35999998
1448734258671,80434806947018,-22.32,-43.559998,2.9399998
1448734258711,80434846955563,-22.199999,-44.399998,5.1
1448734258751,80434886933591,-22.08,-44.879997,7.14
1448734258791,80434926911618,-21.779999,-44.879997,8.639999
1448734258831,80434966920163,-21.48,-44.82,9.9
1448734258871,80435006898190,-21.359999,-44.7,10.8
1448734258911,80435046876218,-21.359999,-44.52,11.099999
1448734258951,80435086976315,-21.539999,-43.92,11.04
1448734258991,80435126923825,-22.14,-41.64,10.8
1448734259031,80435167207028,-22.859999,-38.94,10.44
1448734259070,80435206849362,-23.519999,-35.76,10.139999
1448734259111,80435246979977,-24.24,-32.46,9.84
1448734259151,80435286927487,-24.9,-30.3,9.719999
1448734259191,80435326905514,-25.68,-28.619999,9.599999
1448734259231,80435366944577,-26.4,-27.599998,9.42
1448734259271,80435406953122,-27.0,-27.119999,9.179999
1448734259311,80435446900632,-27.3,-27.18,8.82
1448734259351,80435486909177,-27.3,-27.24,8.58
1448734259391,80435526917721,-27.3,-27.3,8.34
1448734259431,80435566926266,-27.24,-27.599998,8.16
1448734259471,80435606965329,-27.119999,-28.14,8.099999
1448734259511,80435646943356,-26.34,-29.4,8.28
1448734259551,80435686921384,-25.14,-30.96,8.7
1448734259591,80435726990964,-23.699999,-33.42,9.179999
1448734259631,80435766907956,-22.02,-35.82,9.78
1448734259671,80435806947018,-21.0,-37.8,10.2
1448734259711,80435846925046,-20.52,-39.48,10.74
1448734259751,80435886933591,-20.4,-40.2,10.92
1448734259791,80435926881100,-20.58,-40.559998,10.98
1448734259831,80435966920163,-20.699999,-40.62,10.8
1448734259871,80436006928708,-20.699999,-40.68,10.5
1448734259910,80436046784665,-20.88,-40.44,10.2
1448734259951,80436086976315,-21.3,-39.719997,9.059999
1448734259990,80436126862790,-22.199999,-38.579998,7.44
1448734260031,80436166993405,-23.4,-36.899998,4.5
1448734260071,80436206940915,-24.6,-34.559998,0.71999997
1448734260111,80436246918942,-25.619999,-32.579998,-3.12
1448734260151,80436286988522,-26.039999,-30.96,-7.2599998
1448734260191,80436326874997,-26.039999,-29.88,-10.62
1448734260231,80436366914059,-25.859999,-29.58,-13.32
1448734260271,80436406892087,-25.619999,-29.58,-15.299999
1448734260311,80436446900632,-24.96,-29.82,-16.74
1448734260351,80436486878659,-24.359999,-30.0,-17.76
1448734260391,80436526887204,-23.64,-30.24,-18.24
1448734260431,80436566895749,-22.8,-30.42,-18.6
1448734260471,80436606904294,-22.5,-30.599998,-18.539999
1448734260511,80436646882321,-22.26,-30.84,-18.24
1448734260551,80436686890866,-22.199999,-31.439999,-17.34
1448734260595,80436727174069,-22.199999,-32.219997,-15.839999
1448734260631,80436766877438,-22.199999,-33.239998,-13.559999
1448734260671,80436806916501,-22.199999,-34.44,-10.5
1448734260711,80436846894528,-22.199999,-35.64,-6.96
1448734260751,80436886903073,-22.199999,-37.559998,-3.0
1448734260791,80436926972653,-22.08,-39.66,0.71999997
1448734260831,80436967164304,-21.9,-41.64,3.84
1448734260872,80437006898190,-21.6,-43.379997,6.2999997
1448734260911,80437046937253,-21.24,-44.28,8.04
1448734260951,80437086884762,-20.64,-44.579998,9.48
1448734260991,80437126893307,-19.98,-44.76,11.219999
1448734261031,80437167023923,-18.96,-44.879997,12.9
1448734261071,80437206879880,-17.94,-45.059998,14.759999
1448734261111,80437246888425,-17.22,-45.239998,16.14
1448734261151,80437286896970,-16.619999,-45.36,16.92
1448734261191,80437326874997,-16.56,-45.3,17.22
1448734261231,80437366975095,-16.74,-45.059998,17.1
1448734261271,80437406983639,-17.1,-44.52,16.8
1448734261311,80437446900632,-18.3,-42.719997,15.96
1448734261351,80437486878659,-19.68,-40.92,14.88
1448734261391,80437526887204,-21.6,-38.76,13.62
1448734261431,80437566895749,-23.519999,-36.36,12.12
1448734261471,80437606965329,-24.84,-34.5,10.74
1448734261511,80437646882321,-26.099998,-32.64,9.599999
1448734261551,80437686921384,-26.519999,-30.96,8.88
1448734261591,80437726899411,-26.699999,-29.82,8.46
1448734261631,80437766999509,-26.58,-29.699999,8.5199995
1448734261671,80437806885983,-26.4,-29.699999,8.5199995
1448734261710,80437846833493,-26.4,-29.939999,8.5199995
1448734261754,80437886903073,-26.4,-30.24,8.7
1448734261793,80437926942136,-26.34,-30.48,9.059999
1448734261833,80437966950680,-25.8,-30.9,9.54
1448734261871,80438006959225,-24.779999,-31.74,10.08
1448734261911,80438046937253,-23.279999,-33.059998,11.099999
1448734261951,80438086945798,-21.84,-34.62,12.059999
1448734261991,80438126954343,-20.64,-36.3,13.08
1448734262031,80438166932370,-19.859999,-37.739998,13.92
1448734262071,80438206940915,-19.619999,-38.64,14.099999
1448734262111,80438246949460,-19.439999,-39.12,14.16
1448734262151,80438286958005,-19.619999,-39.3,14.04
1448734262191,80438326936032,-19.92,-38.94,13.5
1448734262231,80438366944577,-20.16,-38.52,12.719999
1448734262271,80438406983639,-20.52,-37.5,10.74
1448734262311,80438446931149,-21.42,-36.36,7.2599998
1448734262351,80438486939694,-22.38,-35.579998,3.54
1448734262391,80438526917721,-23.279999,-34.92,-1.1999999
1448734262431,80438566956784,-23.88,-34.62,-6.24
1448734262471,80438606934811,-23.76,-34.62,-10.26
1448734262511,80438646912839,-23.58,-34.44,-13.86
1448734262551,80438686921384,-23.279999,-34.26,-16.5
1448734262591,80438726929929,-23.22,-34.26,-17.64
1448734262633,80438766846921,-23.16,-34.26,-18.359999
1448734262673,80438806855466,-22.98,-34.26,-18.6
1448734262714,80438847169186,-22.859999,-34.2,-18.6
1448734262754,80438886903073,-22.74,-34.14,-18.539999
1448734262793,80438926942136,-22.619999,-34.079998,-18.48
1448734262833,80438966920163,-22.619999,-34.079998,-18.3
1448734262871,80439007050778,-22.56,-34.079998,-17.76
1448734262911,80439046937253,-22.5,-34.14,-16.619999
1448734262951,80439086976315,-22.439999,-34.38,-14.7
1448734262991,80439126954343,-22.02,-35.16,-12.78
1448734263031,80439166962887,-21.6,-36.66,-10.8
1448734263071,80439206971432,-21.06,-38.879997,-9.12
1448734263111,80439246949460,-20.22,-41.399998,-7.62
1448734263151,80439286958005,-19.68,-43.8,-5.64
1448734263191,80439326936032,-19.08,-45.66,-3.48
1448734263231,80439366944577,-18.539999,-46.739998,-1.0799999
1448734263271,80439406922604,-18.42,-47.219997,1.5
1448734263311,80439446961667,-18.3,-47.219997,3.84
1448734263351,80439486939694,-18.359999,-46.98,6.18
1448734263391,80439526917721,-18.359999,-46.8,8.22
1448734263431,80439566926266,-18.42,-46.68,9.719999
1448734263471,80439606934811,-18.48,-46.26,10.86
1448734263510,80439646821286,-18.84,-45.18,11.34
1448734263553,80439686951901,-19.38,-43.44,11.5199995
1448734263593,80439726929929,-20.039999,-40.739998,11.4
1448734263631,80439766907956,-21.119999,-38.219997,11.28
1448734263671,80439806947018,-22.02,-35.94,11.219999
1448734263711,80439846925046,-22.92,-34.02,11.219999
1448734263751,80439886933591,-24.06,-32.7,11.16
1448734263791,80439926911618,-25.08,-31.14,10.92
1448734263831,80439966920163,-25.98,-29.34,10.38
1448734263871,80440006959225,-26.76,-27.779999,9.599999
1448734263911,80440046906735,-27.18,-26.519999,8.639999
1448734263951,80440086915280,-27.3,-25.74,7.7999997
1448734263991,80440126984860,-27.359999,-25.56,7.2599998
1448734264031,80440166962887,-27.359999,-25.619999,7.02
1448734264071,80440206940915,-27.3,-25.74,7.14
1448734264111,80440246918942,-27.3,-25.859999,7.2599998
1448734264151,80440286958005,-27.3,-26.039999,7.2599998
1448734264191,80440326966550,-27.3,-26.279999,7.3199997
1448734264231,80440366944577,-27.119999,-27.0,7.5
1448734264271,80440406953122,-26.76,-28.26,7.8599997
1448734264311,80440446931149,-26.34,-30.3,8.4
1448734264351,80440486909177,-25.56,-33.12,9.24
1448734264397,80440531556393,-24.3,-35.7,10.26
1448734264433,80440566865231,-23.1,-38.1,11.34
1448734264480,80440606843259,-21.96,-39.66,12.48
1448734264511,80440647095944,-21.06,-40.14,13.0199995
1448734264550,80440686829831,-20.88,-40.44,13.259999
1448734264590,80440726838376,-20.76,-40.32,13.2
1448734264632,80440766846921,-20.88,-40.14,12.599999
1448734264671,80440806916501,-21.18,-40.02,11.94
1448734264711,80440846925046,-21.48,-39.84,10.98
1448734264751,80440886903073,-21.9,-39.059998,9.12
1448734264791,80440926911618,-22.38,-37.8,6.24
1448734264831,80440966920163,-23.22,-36.54,2.76
1448734264871,80441006928708,-23.699999,-34.92,-1.14
1448734264911,80441046906735,-23.939999,-33.54,-5.1
1448734264951,80441086915280,-24.119999,-32.64,-8.4
1448734264991,80441126923825,-24.0,-31.74,-11.4
1448734265031,80441166993405,-24.06,-31.26,-14.04
1448734265072,80441206818845,-24.18,-31.08,-15.9
1448734265112,80441246827389,-24.24,-31.019999,-17.039999
1448734265150,80441286835934,-24.24,-31.08,-17.76
1448734265190,80441326813962,-24.18,-31.14,-18.119999
1448734265231,80441366883542,-24.119999,-31.14,-18.18
1448734265271,80441406861569,-24.0,-31.14,-18.3
1448734265313,80441446870114,-23.88,-31.199999,-18.3
1448734265353,80441486848141,-23.76,-31.38,-18.3
1448734265392,80441526856686,-23.46,-31.74,-18.18
1448734265438,80441568208005,-23.16,-32.28,-17.88
1448734265472,80441606995846,-22.74,-32.94,-17.16
1448734265511,80441646943356,-22.199999,-34.14,-15.9
1448734265551,80441686951901,-21.779999,-36.059998,-14.04
1448734265591,80441726960446,-21.3,-38.399998,-11.759999
1448734265631,80441766938473,-20.939999,-40.98,-9.42
1448734265671,80441807008054,-20.76,-43.14,-7.02
1448734265711,80441846955563,-20.64,-44.46,-4.8599997
1448734265751,80441886933591,-20.699999,-45.3,-2.7
1448734265791,80441926942136,-20.699999,-45.6,-0.53999996
1448734265831,80441966950680,-20.76,-45.719997,1.68
1448734265871,80442006959225,-20.88,-45.78,3.8999999
1448734265911,80442046937253,-20.88,-45.78,5.8799996
1448734265951,80442087006833,-20.88,-45.78,7.7999997
1448734265991,80442127015378,-20.88,-45.78,9.12
1448734266031,80442167023923,-21.0,-45.36,9.96
1448734266071,80442207001950,-21.24,-44.52,10.38
1448734266111,80442246979977,-21.66,-43.02,10.2
1448734266151,80442286988522,-22.38,-40.44,9.78
1448734266190,80442326783444,-22.92,-37.62,9.3
1448734266238,80442366944577,-23.64,-34.38,8.88
1448734266281,80442417023923,-24.24,-31.8,8.28
1448734266321,80442456971432,-25.019999,-30.3,7.5
1448734266361,80442496979977,-25.859999,-29.34,6.54
1448734266401,80442537019040,-26.699999,-29.039999,5.7599998
1448734266441,80442576966550,-27.18,-28.439999,5.16
1448734266481,80442617005612,-27.3,-27.96,5.04
1448734266521,80442657044675,-27.359999,-27.48,5.1
1448734266561,80442696992184,-27.18,-27.119999,4.98
1448734266601,80442736970212,-27.119999,-27.119999,4.98
1448734266641,80442777009274,-27.06,-27.119999,4.98
1448734266681,80442816987302,-26.939999,-27.3,5.1
1448734266721,80442856995846,-26.64,-28.199999,5.46
1448734266761,80442896973874,-26.34,-29.699999,6.0
1448734266801,80442937043454,-25.859999,-31.92,6.72
1448734266841,80442977051999,-25.019999,-34.62,7.62
1448734266881,80443016999509,-23.88,-36.84,8.4
1448734266921,80443057008054,-22.32,-38.52,9.12
1448734266961,80443097016598,-20.939999,-39.48,9.66
1448734267001,80443137025143,-20.1,-39.84,10.0199995
1448734267041,80443177033688,-19.74,-39.899998,10.139999
1448734267080,80443216859128,-19.859999,-39.96,10.08
1448734267122,80443257050778,-19.98,-40.02,10.0199995
1448734267161,80443296906735,-20.1,-39.78,9.42
1448734267205,80443337373044,-20.4,-39.42,8.639999
1448734267241,80443376984860,-20.939999,-38.94,7.14
1448734267281,80443417023923,-21.539999,-38.1,3.6
1448734267321,80443457001950,-22.38,-37.32,0.24
1448734267361,80443496979977,-22.859999,-36.059998,-3.54
1448734267401,80443537019040,-23.16,-34.5,-7.08
1448734267441,80443576997067,-23.46,-32.94,-9.36
1448734267481,80443616975095,-23.519999,-31.439999,-11.88
1448734267521,80443657014157,-23.699999,-30.539999,-14.28
1448734267561,80443696992184,-23.82,-30.119999,-16.619999
1448734267601,80443737000729,-23.88,-29.939999,-18.119999
1448734267641,80443777039792,-23.88,-29.939999,-19.02
1448734267681,80443816987302,-23.88,-29.82,-19.439999
1448734267721,80443856965329,-23.88,-29.58,-19.38
1448734267761,80443896973874,-23.88,-29.4,-19.38
1448734267801,80443937012936,-23.88,-29.279999,-19.38
1448734267841,80443976990964,-23.939999,-29.279999,-19.14
1448734267881,80444016999509,-23.88,-29.46,-18.48
1448734267921,80444057008054,-23.88,-29.699999,-17.46
1448734267961,80444096955563,-23.82,-29.939999,-16.5
1448734268004,80444137025143,-23.699999,-30.359999,-15.24
1448734268044,80444177003171,-23.699999,-30.96,-13.98
1448734268083,80444217011716,-23.699999,-32.28,-12.179999
1448734268122,80444257111813,-23.519999,-34.5,-9.719999
1448734268161,80444296998288,-23.22,-37.079998,-7.2
1448734268204,80444337098386,-22.8,-39.66,-4.2599998
1448734268241,80444376984860,-22.199999,-41.46,-1.5
1448734268281,80444417023923,-21.72,-42.3,0.78
1448734268321,80444457001950,-21.42,-42.6,2.9399998
1448734268361,80444497010495,-21.3,-42.6,4.62
1448734268401,80444536988522,-21.359999,-42.6,5.8199997
1448734268441,80444576997067,-21.42,-42.6,7.08
1448734268481,80444617005612,-21.42,-42.54,7.8599997
1448734268521,80444656983639,-21.42,-42.239998,8.4
1448734268561,80444697022702,-21.48,-41.64,8.7
1448734268601,80444737000729,-21.6,-40.68,8.639999
1448734268641,80444776795651,-21.779999,-39.48,8.58
1448734268681,80444817017819,-22.08,-37.98,8.5199995
1448734268721,80444856965329,-22.68,-36.36,8.4
1448734268761,80444896973874,-23.519999,-34.62,8.099999
1448734268801,80444937012936,-24.42,-32.82,7.5
1448734268841,80444977021481,-25.32,-31.26,6.48
1448734268881,80445017152096,-25.859999,-29.88,5.58
1448734268923,80445056977536,-26.4,-28.619999,4.8599997
1448734268964,80445097260739,-27.0,-27.48,4.44
1448734269003,80445136994626,-27.42,-26.4,4.44
1448734269041,80445176972653,-27.84,-25.26,4.5
1448734269081,80445217011716,-27.9,-24.48,4.5
1448734269122,80445257142331,-27.84,-24.18,4.5
1448734269161,80445297028805,-27.84,-24.18,4.5
1448734269205,80445337006833,-27.84,-24.359999,4.5
1448734269241,80445376984860,-27.84,-24.539999,4.56
1448734269281,80445416901852,-27.84,-24.539999,4.68
1448734269321,80445456971432,-27.72,-24.539999,4.8599997
1448734269361,80445497010495,-27.66,-24.66,5.04
1448734269401,80445537019040,-27.42,-24.96,5.1
1448734269441,80445576966550,-27.3,-25.26,5.16
1448734269481,80445617005612,-27.18,-25.56,5.16
1448734269521,80445657014157,-27.0,-25.74,5.16
1448734269561,80445696992184,-26.939999,-26.039999,5.16
1448734269601,80445736970212,-26.76,-26.46,5.16
1448734269641,80445777009274,-26.58,-26.88,5.16
1448734269681,80445817048337,-26.34,-27.3,5.16
1448734269721,80445856965329,-26.099998,-27.48,5.22
1448734269761,80445896912839,-25.8,-27.48,5.2799997
1448734269804,80445937012936,-25.5,-27.48,5.3399997
1448734269843,80445976990964,-25.26,-27.539999,5.3399997
1448734269881,80446017030026,-24.96,-27.66,5.3399997
1448734269921,80446056977536,-24.72,-27.84,5.3399997
1448734269961,80446097016598,-24.539999,-28.019999,5.3399997
1448734270001,80446136994626,-24.359999,-28.199999,5.3399997
1448734270041,80446176972653,-24.24,-28.32,5.3399997
1448734270081,80446216981198,-24.119999,-28.619999,5.3399997
1448734270122,80446256989743,-24.06,-28.92,5.3399997
1448734270161,80446296998288,-24.06,-29.22,5.3399997
1448734270205,80446337098386,-24.06,-29.46,5.3399997
1448734270241,80446376984860,-24.06,-29.58,5.3399997
1448734270281,80446416993405,-24.0,-29.699999,5.3399997
1448734270321,80446456971432,-23.939999,-29.88,5.3399997
1448734270361,80446497010495,-23.88,-30.119999,5.3399997
1448734270401,80446536988522,-23.88,-30.66,5.3399997
1448734270441,80446576966550,-23.82,-31.619999,5.2799997
1448734270481,80446617005612,-23.76,-33.0,5.1
1448734270521,80446657014157,-23.699999,-34.26,4.98
1448734270561,80446697022702,-23.64,-35.16,4.7999997
1448734270601,80446737000729,-23.58,-35.579998,4.38
1448734270641,80446777100827,-23.519999,-35.579998,4.08
1448734270681,80446816987302,-23.519999,-35.46,3.6599998
1448734270721,80446856904294,-23.519999,-35.46,3.24
1448734270761,80446896943356,-23.519999,-35.34,3.12
1448734270801,80446937012936,-23.22,-34.92,3.06
1448734270843,80446977296139,-22.68,-33.899998,3.12
1448734270881,80447016968991,-21.779999,-32.579998,3.36
1448734270921,80447057008054,-20.1,-31.26,3.48
1448734270961,80447097016598,-18.359999,-30.0,3.6
1448734271001,80447136964108,-16.619999,-29.279999,3.6
1448734271041,80447176972653,-15.12,-28.32,2.82
1448734271081,80447216981198,-14.099999,-27.48,1.14
1448734271122,80447257142331,-12.84,-24.9,-3.72
1448734271161,80447296998288,-10.5,-18.779999,-10.92
1448734271205,80447337128903,-7.56,-11.34,-16.619999
1448734271241,80447377015378,-4.56,-3.78,-21.359999
1448734271281,80447417023923,-1.62,1.8,-22.98
1448734271321,80447456971432,0.71999997,3.78,-22.14
1448734271361,80447497010495,2.8799999,3.84,-22.14
1448734271401,80447536988522,5.2799997,3.84,-22.14
1448734271441,80447576997067,7.5,3.84,-22.14
1448734271481,80447616975095,9.12,3.78,-22.14
1448734271520,80447656831052,10.32,3.6599998,-22.14
1448734271563,80447696992184,11.219999,3.4199998,-22.14
1448734271603,80447736909177,12.12,3.06,-22.14
1448734271643,80447776917721,12.9,2.7,-22.14
1448734271683,80447816987302,13.44,2.46,-22.14
1448734271721,80447856873776,13.62,2.22,-22.14
1448734271761,80447896882321,13.62,1.92,-22.14
1448734271801,80447936890866,13.32,1.62,-22.14
1448734271841,80447976899411,13.259999,1.38,-22.199999
1448734271881,80448016907956,13.259999,1.14,-22.26
1448734271921,80448056885983,13.259999,1.1999999,-22.32
1448734271961,80448096894528,13.259999,1.26,-22.32
1448734272001,80448136903073,13.259999,1.26,-22.32
1448734272041,80448176911618,13.259999,1.3199999,-22.32
1448734272081,80448216889645,13.44,1.5,-22.32
1448734272122,80448257020261,13.62,1.8,-22.32
1448734272161,80448296876218,14.099999,2.1,-22.32
1448734272204,80448337006833,14.88,2.3999999,-22.32
1448734272241,80448376893307,15.78,2.7,-22.26
1448734272281,80448416901852,16.74,2.82,-22.14
1448734272321,80448456971432,17.94,2.9399998,-22.08
1448734272361,80448496888425,18.84,3.0,-21.9
1448734272401,80448536896970,19.38,2.9399998,-21.779999
1448734272443,80448576844479,19.859999,2.8799999,-21.72
1448734272483,80448616914059,19.859999,2.82,-21.66
1448734272524,80448657227780,19.859999,2.82,-21.66
1448734272563,80448696900632,19.859999,2.82,-21.66
1448734272601,80448736878659,19.859999,2.82,-21.6
1448734272641,80448776887204,19.859999,2.82,-21.539999
1448734272681,80448816987302,19.859999,2.9399998,-21.48
1448734272721,80448856873776,19.859999,3.06,-21.48
1448734272761,80448896882321,19.859999,3.54,-21.48
1448734272801,80448936982419,19.859999,3.9599998,-21.48
1448734272841,80448976899411,19.859999,4.44,-21.48
1448734272881,80449016907956,19.859999,4.68,-21.48
1448734272921,80449056885983,19.859999,4.74,-21.48
1448734272961,80449096894528,19.859999,4.92,-21.48
1448734273001,80449136872555,20.039999,5.04,-21.48
1448734273041,80449176972653,20.279999,5.22,-21.48
1448734273081,80449216889645,20.58,5.4,-21.48
1448734273122,80449257020261,21.66,5.4,-21.359999
1448734273161,80449296876218,22.74,5.4,-21.3
1448734273205,80449337006833,23.76,5.4,-21.18
1448734273241,80449377015378,24.72,5.52,-21.0
1448734273281,80449416901852,24.9,5.64,-20.88
1448734273323,80449456849362,24.9,6.0,-20.699999
1448734273363,80449496918942,24.9,6.48,-20.46
1448734273404,80449537232663,24.9,7.2,-20.22
1448734273443,80449576905514,24.9,8.4,-20.039999
1448734273483,80449616914059,24.9,9.42,-19.859999
1448734273521,80449656892087,24.9,10.559999,-19.8
1448734273561,80449696900632,24.9,11.4,-19.8
1448734273601,80449736878659,24.9,11.88,-19.8
1448734273641,80449776887204,24.779999,12.48,-19.8
1448734273681,80449816895749,24.539999,13.32,-19.8
1448734273721,80449856965329,24.24,14.16,-19.859999
1448734273761,80449896882321,24.06,14.88,-19.859999
1448734273801,80449936890866,23.939999,15.299999,-19.8
1448734273841,80449976899411,23.939999,15.299999,-19.8
1448734273881,80450016877438,24.06,15.299999,-19.619999
1448734273921,80450056885983,24.119999,15.299999,-19.5
1448734273961,80450096894528,24.18,15.299999,-19.38
1448734274001,80450136872555,24.3,15.299999,-19.14
1448734274041,80450176881100,24.42,15.299999,-18.96
1448734274081,80450216950680,24.539999,15.299999,-18.66
1448734274122,80450257020261,24.6,15.299999,-18.3
1448734274161,80450296876218,24.539999,15.42,-17.88
1448734274201,80450336945798,24.48,15.54,-17.46
1448734274243,80450376923825,24.42,15.839999,-16.98
1448734274284,80450417145993,24.24,16.32,-16.56
1448734274323,80450456879880,23.88,17.039999,-16.199999
1448734274363,80450496888425,22.74,18.42,-15.66
1448734274401,80450536896970,20.939999,19.8,-15.059999
1448734274441,80450576874997,19.14,21.66,-14.4
1448734274481,80450616883542,17.16,23.22,-13.679999
1448734274521,80450656892087,15.48,24.72,-12.96
1448734274561,80450696900632,14.16,25.98,-12.179999
1448734274601,80450736970212,12.719999,26.82,-11.5199995
1448734274641,80450776887204,11.58,27.66,-10.559999
1448734274681,80450816895749,10.679999,27.96,-9.66
1448734274721,80450856904294,9.84,28.32,-8.88
1448734274761,80450896882321,9.179999,28.5,-8.34
1448734274801,80450936890866,8.5199995,28.56,-8.16
1448734274841,80450976899411,8.22,28.56,-8.04
1448734274881,80451016877438,8.099999,28.56,-7.98
1448734274921,80451057008054,7.9199996,28.56,-7.74
1448734274961,80451096894528,7.9199996,28.56,-7.3799996
1448734275001,80451136903073,7.9199996,28.5,-6.8999996
1448734275041,80451176881100,7.9199996,28.439999,-6.2999997
1448734275083,80451216859128,7.98,28.38,-5.3399997
1448734275122,80451257020261,8.04,28.38,-4.02
1448734275161,80451297120358,8.099999,28.38,-2.6399999
1448734275204,80451337006833,8.099999,28.38,-1.3199999
1448734275242,80451377320554,8.099999,28.32,-0.06
1448734275281,80451416871335,8.099999,28.26,1.02
1448734275323,80451456910397,8.099999,28.199999,1.92
1448734275361,80451497010495,8.099999,28.14,2.76
1448734275401,80451537019040,8.099999,28.08,3.24
1448734275441,80451577027585,8.099999,27.96,3.54
1448734275481,80451616822507,8.099999,27.66,3.6599998
1448734275523,80451656922604,8.16,27.3,3.84
1448734275561,80451696900632,8.28,26.82,3.8999999
1448734275601,80451736878659,8.58,26.46,3.9599998
1448734275641,80451776917721,8.88,26.099998,4.08
1448734275681,80451816987302,9.179999,25.8,4.2
1448734275721,80451856873776,9.36,25.68,4.3199997
1448734275761,80451896882321,9.48,25.56,4.3199997
1448734275801,80451936890866,9.54,25.56,4.3199997
1448734275841,80451976899411,9.66,25.619999,4.3199997
1448734275881,80452016877438,9.719999,25.619999,4.3199997
1448734275921,80452056885983,9.719999,25.619999,4.3199997
1448734275963,80452096864011,9.719999,25.619999,4.3199997
1448734276003,80452136903073,9.719999,25.619999,4.3199997
1448734276044,80452177003171,9.719999,25.619999,4.3199997
1448734276083,80452216920163,9.719999,25.619999,4.3199997
1448734276122,80452257081296,9.599999,25.619999,4.38
1448734276161,80452296937253,9.42,25.619999,4.5
1448734276204,80452337067868,9.0,25.619999,4.68
1448734276241,80452376923825,8.4,25.619999,4.7999997
1448734276281,80452416932370,7.3799996,25.8,4.92
1448734276321,80452456940915,6.18,26.039999,5.04
1448734276361,80452496949460,4.8599997,26.34,5.04
1448734276401,80452536927487,3.6599998,26.76,5.04
1448734276441,80452576936032,2.7,26.88,5.04
1448734276481,80452616914059,1.68,26.939999,5.04
1448734276521,80452656922604,0.96,26.939999,5.1
1448734276561,80452696931149,0.42,26.82,5.16
1448734276601,80452736909177,-0.17999999,26.82,5.16
1448734276641,80452776917721,-0.35999998,26.82,5.16
1448734276681,80452816865231,-0.48,26.82,5.22
1448734276721,80452856904294,-0.65999997,26.76,5.4
1448734276764,80452896912839,-0.65999997,26.46,5.7
1448734276812,80452936921384,-0.59999996,26.279999,6.18
1448734276844,80452976868893,-0.48,26.099998,6.8399997
1448734276885,80453016846921,-0.35999998,25.92,7.56
1448734276926,80453057282712,-0.06,25.92,8.16
1448734276964,80453096925046,0.42,25.8,8.5199995
1448734277004,80453136903073,1.14,25.74,8.7
1448734277044,80453176911618,2.1,25.74,8.7
1448734277084,80453216920163,3.0,25.74,8.639999
1448734277122,80453257020261,4.02,25.74,8.4
1448734277164,80453296906735,4.7999997,25.74,8.099999
1448734277208,80453337006833,5.2799997,25.92,7.74
1448734277244,80453376923825,5.7,26.039999,7.3799996
1448734277284,80453416932370,5.7599998,26.34,7.08
1448734277324,80453456910397,5.8199997,26.64,7.02
1448734277364,80453496949460,5.8799996,26.88,6.96
1448734277404,80453536958005,5.94,27.0,6.96
1448734277444,80453576905514,5.94,27.0,7.02
1448734277484,80453616944577,5.94,26.88,7.02
1448734277524,80453656953122,5.7599998,26.82,7.08
1448734277564,80453696931149,5.58,26.82,7.2
1448734277604,80453736909177,5.1,26.699999,7.3799996
1448734277644,80453776917721,4.14,26.519999,7.62
1448734277687,80453816804196,3.1799998,26.34,8.04
1448734277724,80453856843259,2.1,26.16,8.4
1448734277765,80453896851804,0.9,26.099998,8.76
1448734277805,80453936890866,0.12,26.099998,9.0
1448734277844,80453976929929,-0.84,26.039999,9.0
1448734277887,80454018342282,-1.86,25.98,9.0
1448734277921,80454056916501,-2.82,25.92,9.0
1448734277964,80454096894528,-3.78,25.92,9.0
1448734278004,80454136903073,-4.68,25.92,8.94
1448734278044,80454176911618,-5.2799997,25.92,8.82
1448734278085,80454216920163,-5.64,25.92,8.58
1448734278123,80454257111813,-5.8199997,25.98,8.099999
1448734278164,80454296876218,-5.8799996,26.039999,7.5
1448734278202,80454337006833,-5.94,26.099998,6.8999996
1448734278244,80454376923825,-6.18,26.099998,6.48
1448734278284,80454416932370,-6.6,26.16,6.2999997
1448734278324,80454456910397,-7.14,26.22,6.24
1448734278364,80454496918942,-7.68,26.279999,6.24
1448734278404,80454536958005,-8.28,26.279999,6.18
1448734278444,80454576905514,-9.12,26.279999,6.06
1448734278484,80454616914059,-9.78,26.279999,5.94
1448734278524,80454656922604,-10.5,26.279999,5.7599998
1448734278570,80454696931149,-11.16,26.279999,5.46
1448734278610,80454746827389,-11.4,26.279999,4.98
1448734278650,80454786835934,-11.759999,26.279999,4.44
1448734278691,80454826997067,-12.12,26.22,3.36
1448734278731,80454866914059,-12.66,26.16,2.28
1448734278771,80454906922604,-13.259999,26.099998,1.56
1448734278811,80454946931149,-14.16,25.8,0.84
1448734278851,80454986878659,-14.88,25.5,0.59999996
1448734278891,80455026917721,-15.42,25.019999,0.48
1448734278931,80455066895749,-15.78,24.42,0.06
1448734278971,80455106904294,-15.719999,24.119999,-0.53999996
1448734279011,80455147004391,-15.78,23.88,-1.38
1448734279051,80455186890866,-15.78,23.88,-2.22
1448734279091,80455226899411,-15.839999,23.939999,-3.12
1448734279131,80455266999509,-15.839999,24.0,-3.84
1448734279171,80455306885983,-15.839999,24.0,-4.2599998
1448734279211,80455346925046,-15.9,24.0,-4.92
1448734279251,80455386903073,-16.02,24.0,-5.3399997
1448734279291,80455426881100,-16.02,24.0,-5.64
1448734279331,80455466920163,-16.02,24.0,-5.8799996
1448734279371,80455506898190,-16.02,24.0,-5.8199997
1448734279411,80455546876218,-16.02,24.0,-5.8199997
1448734279451,80455586793210,-16.02,24.06,-6.0
1448734279490,80455626832272,-15.96,24.3,-6.06
1448734279530,80455666840817,-15.839999,24.539999,-6.06
1448734279571,80455706910397,-15.719999,24.72,-6.12
1448734279611,80455746888425,-15.66,24.9,-6.18
1448734279651,80455786927487,-15.54,24.9,-6.24
1448734279691,80455826905514,-15.48,24.96,-6.2999997
1448734279731,80455866914059,-15.36,25.019999,-6.42
1448734279771,80455906892087,-15.179999,25.08,-6.54
1448734279811,80455946900632,-14.94,25.08,-6.72
1448734279851,80455986909177,-14.759999,25.08,-6.96
1448734279891,80456026917721,-14.46,25.08,-7.2
1448734279931,80456066895749,-14.16,25.08,-7.74
1448734279971,80456106904294,-13.5,25.08,-8.16
1448734280011,80456146882321,-12.96,25.199999,-8.46
1448734280051,80456186921384,-12.42,25.32,-8.7
1448734280091,80456226960446,-11.94,25.439999,-8.639999
1448734280131,80456266938473,-11.94,25.56,-8.58
1448734280171,80456306947018,-11.759999,25.859999,-8.58
1448734280211,80456346894528,-11.7,26.099998,-8.58
1448734280251,80456386872555,-11.58,26.34,-8.58
1448734280291,80456426881100,-11.58,26.64,-8.58
1448734280331,80456466859128,-11.58,26.64,-8.639999
1448734280371,80456506867673,-11.58,26.64,-8.82
1448734280411,80456546937253,-11.58,26.64,-9.059999
1448734280451,80456586945798,-11.46,26.64,-9.42
1448734280491,80456626923825,-11.34,26.64,-10.139999
1448734280531,80456666932370,-11.219999,26.64,-10.86
1448734280571,80456706879880,-10.98,26.699999,-11.5199995
1448734280611,80456746918942,-10.86,26.76,-12.0
1448734280651,80456786896970,-10.74,26.82,-12.059999
1448734280691,80456826905514,-10.679999,26.939999,-12.0
1448734280731,80456866883542,-10.679999,27.0,-11.94
1448734280771,80456906953122,-10.679999,27.18,-11.94
1448734280811,80456946900632,-10.679999,27.3,-11.94
1448734280851,80456986909177,-10.679999,27.359999,-11.94
1448734280891,80457026887204,-10.679999,27.42,-11.94
1448734280931,80457066926266,-10.679999,27.48,-11.88
1448734280971,80457106934811,-10.679999,27.48,-11.88
1448734281011,80457146912839,-10.679999,27.48,-11.82
1448734281051,80457186890866,-10.679999,27.48,-11.759999
1448734281091,80457226960446,-10.679999,27.48,-11.759999
1448734281131,80457266999509,-10.679999,27.48,-11.759999
1448734281171,80457306763913,-10.679999,27.48,-11.759999
1448734281210,80457346833493,-10.679999,27.48,-11.759999
1448734281250,80457386811520,-10.679999,27.48,-11.759999
1448734281291,80457426881100,-10.62,27.48,-11.759999
1448734281331,80457466920163,-10.559999,27.539999,-11.759999
1448734281371,80457506898190,-10.5,27.66,-11.759999
1448734281412,80457547028805,-10.5,27.72,-11.759999
1448734281451,80457586945798,-10.5,27.779999,-11.759999
1448734281491,80457626893307,-10.5,27.779999,-11.759999
1448734281531,80457666901852,-10.5,27.72,-11.759999
1448734281571,80457706879880,-10.5,27.66,-11.759999
1448734281611,80457746918942,-10.5,27.66,-11.759999
1448734281651,80457786896970,-10.5,27.66,-11.759999
1448734281691,80457826874997,-10.5,27.66,-11.759999
1448734281731,80457866883542,-10.5,27.66,-11.759999
1448734281771,80457906892087,-10.5,27.66,-11.759999
1448734281811,80457946931149,-10.5,27.66,-11.759999
1448734281851,80457986878659,-10.5,27.66,-11.759999
1448734281891,80458026917721,-10.5,27.66,-11.759999
1448734281931,80458066895749,-10.5,27.66,-11.759999
1448734281971,80458106904294,-10.5,27.66,-11.759999
1448734282011,80458146882321,-10.5,27.66,-11.82
1448734282051,80458186982419,-10.5,27.66,-11.88
1448734282091,80458226960446,-10.5,27.66,-11.94
1448734282131,80458266999509,-10.5,27.66,-11.94
1448734282171,80458306947018,-10.5,27.66,-11.94
1448734282211,80458346925046,-10.5,27.66,-12.0
1448734282251,80458386872555,-10.5,27.66,-12.059999
1448734282291,80458426881100,-10.5,27.66,-12.179999
1448734282331,80458466889645,-10.5,27.599998,-12.36
1448734282371,80458506928708,-10.5,27.599998,-12.719999
1448734282411,80458546876218,-10.5,27.599998,-13.259999
1448734282451,80458586884762,-10.5,27.539999,-13.86
1448734282491,80458627015378,-10.5,27.539999,-14.4
1448734282531,80458666901852,-10.5,27.48,-14.639999
1448734282571,80458706879880,-10.5,27.48,-14.759999
1448734282611,80458746918942,-10.5,27.48,-14.759999
1448734282651,80458786958005,-10.5,27.48,-14.759999
1448734282691,80458826905514,-10.5,27.48,-14.759999
1448734282731,80458866914059,-10.5,27.48,-14.759999
1448734282771,80458906922604,-10.5,27.48,-14.759999
1448734282811,80458946961667,-10.5,27.48,-14.759999
1448734282851,80458986878659,-10.5,27.48,-14.759999
1448734282892,80459028138425,-10.5,27.48,-14.759999
1448734282931,80459066895749,-10.5,27.48,-14.759999
1448734282971,80459106873776,-10.5,27.48,-14.759999
1448734283011,80459146882321,-10.8,27.48,-14.759999
1448734283051,80459186982419,-11.099999,27.48,-14.759999
1448734283091,80459226929929,-11.34,27.48,-14.759999
1448734283131,80459266999509,-11.46,27.48,-14.759999
1448734283171,80459306916501,-11.4,27.48,-14.759999
1448734283211,80459346894528,-11.219999,27.48,-14.759999
1448734283251,80459386872555,-11.219999,27.48,-14.759999
1448734283291,80459426881100,-11.219999,27.48,-14.759999
1448734283331,80459466889645,-11.219999,27.48,-14.759999
1448734283371,80459506928708,-11.219999,27.48,-14.759999
1448734283411,80459546876218,-11.219999,27.48,-14.759999
1448734283451,80459586884762,-11.219999,27.48,-14.759999
1448734283491,80459626893307,-11.28,27.48,-14.759999
1448734283531,80459666901852,-11.34,27.48,-14.759999
1448734283571,80459706879880,-11.4,27.48,-14.759999
1448734283611,80459746888425,-11.4,27.48,-14.759999
1448734283651,80459786927487,-11.4,27.48,-14.759999
1448734283691,80459826905514,-11.4,27.48,-14.759999
1448734283731,80459866975095,-11.4,27.48,-14.759999
1448734283771,80459906922604,-11.219999,27.48,-14.759999
1448734283811,80459946931149,-11.099999,27.48,-14.759999
1448734283851,80459986939694,-10.98,27.48,-14.759999
1448734283891,80460026887204,-10.86,27.48,-14.759999
1448734283931,80460066895749,-10.86,27.48,-14.759999
1448734283971,80460106873776,-10.86,27.48,-14.759999
1448734284011,80460146882321,-10.8,27.48,-14.759999
1448734284051,80460186890866,-10.679999,27.48,-14.759999
1448734284091,80460226899411,-10.5,27.359999,-14.759999
1448734284131,80460266999509,-10.38,27.3,-14.759999
1448734284171,80460306916501,-10.32,27.24,-14.759999
1448734284211,80460346955563,-10.32,27.18,-14.88
1448734284251,80460387330319,-10.32,27.18,-14.94
1448734284291,80460426942136,-10.32,27.18,-15.12
1448734284331,80460466889645,-10.32,27.18,-15.42
1448734284371,80460506928708,-10.32,27.18,-15.599999
1448734284411,80460546937253,-10.32,27.18,-15.839999
1448734284451,80460587342526,-10.32,27.18,-15.96
1448734284502,80460628144528,-10.32,27.18,-15.96
1448734284530,80460666871335,-10.38,27.18,-15.96
1448734284570,80460706879880,-10.5,27.18,-15.96
1448734284614,80460746735837,-10.5,27.18,-15.839999
1448734284650,80460786744382,-10.44,27.18,-15.66
1448734284690,80460826874997,-10.44,27.18,-15.48
1448734284731,80460867280270,-10.38,27.18,-15.299999
1448734284770,80460906831052,-10.44,27.18,-15.179999
1448734284810,80460946870114,-10.5,27.18,-15.12
1448734284850,80460986878659,-10.5,27.359999,-15.12
1448734284890,80461026734616,-10.5,27.599998,-15.12
1448734284931,80461066773679,-10.5,27.9,-15.12
1448734284971,80461106721188,-10.5,28.08,-15.12
1448734285010,80461146760251,-10.5,28.199999,-15.12
1448734285051,80461186799313,-10.5,28.199999,-15.12
1448734285091,80461226746823,-10.38,28.199999,-15.12
1448734285132,80461266877438,-10.32,28.199999,-15.12
1448734285176,80461307069089,-10.26,28.199999,-15.12
1448734285216,80461346986081,-10.2,28.199999,-15.12
1448734285251,80461386964108,-10.26,28.199999,-15.12
1448734285291,80461426972653,-10.32,28.199999,-15.12
1448734285331,80461466889645,-10.32,28.199999,-15.12
1448734285371,80461506928708,-10.32,28.199999,-15.12
1448734285411,80461546906735,-10.26,28.199999,-15.12
1448734285451,80461586976315,-10.139999,28.08,-15.12
1448734285491,80461626862790,-10.08,27.9,-15.12
1448734285536,80461666871335,-9.96,27.84,-15.12
1448734285575,80461706940915,-9.96,27.66,-15.12
1448734285611,80461747041012,-9.96,27.599998,-15.12
1448734285651,80461786927487,-9.96,27.48,-15.12
1448734285691,80461826966550,-9.96,27.24,-15.12
1448734285731,80461866975095,-9.96,26.939999,-15.12
1448734285771,80461906983639,-9.96,26.64,-15.12
1448734285811,80461946931149,-10.0199995,26.46,-15.12
1448734285851,80461986970212,-10.139999,25.98,-15.12
1448734285891,80462026887204,-10.32,25.74,-15.12
1448734285931,80462066987302,-10.44,25.56,-15.12
1448734285982,80462109315182,-10.679999,25.439999,-15.059999
1448734286025,80462156922604,-11.4,25.56,-15.0
1448734286061,80462197236325,-12.059999,25.619999,-14.94
1448734286101,80462236909177,-12.66,25.619999,-14.94
1448734286141,80462276978757,-13.2,25.619999,-14.94
1448734286181,80462317017819,-13.2,25.619999,-14.94
1448734286221,80462356995846,-13.2,25.619999,-14.94
1448734286261,80462397034909,-13.2,25.56,-14.94
1448734286301,80462437043454,-13.139999,25.439999,-14.94
1448734286341,80462477113034,-12.96,25.199999,-14.94
1448734286383,80462516907956,-12.66,24.96,-14.94
1448734286424,80462557282712,-12.42,24.84,-14.94
1448734286463,80462596986081,-12.179999,24.72,-14.94
1448734286501,80462636964108,-12.12,24.84,-14.94
1448734286541,80462676972653,-12.12,24.9,-14.94
1448734286581,80462717011716,-12.12,24.9,-14.94
1448734286621,80462757020261,-12.12,24.9,-14.94
1448734286661,80462796967770,-12.12,24.9,-14.94
1448734286701,80462836976315,-12.12,24.9,-14.94
1448734286741,80462876984860,-12.12,24.9,-14.94
1448734286781,80462917023923,-12.12,24.9,-14.94
1448734286821,80462957001950,-12.12,24.9,-15.0
1448734286861,80462997010495,-12.12,24.9,-15.12
1448734286901,80463037019040,-12.12,24.9,-15.36
1448734286941,80463076997067,-12.12,24.9,-15.66
1448734286981,80463117005612,-12.12,24.9,-15.839999
1448734287021,80463156983639,-12.12,24.9,-15.96
1448734287061,80463196992184,-12.12,24.9,-16.02
1448734287101,80463237000729,-12.12,24.9,-15.96
1448734287141,80463277070309,-12.12,25.019999,-15.96
1448734287181,80463317017819,-12.12,25.08,-15.96
1448734287221,80463356934811,-12.12,25.199999,-15.96
1448734287260,80463396851804,-12.12,25.32,-15.96
1448734287301,80463436768796,-12.12,25.38,-15.96
1448734287345,80463477174069,-12.12,25.439999,-15.96
1448734287381,80463516907956,-12.12,25.5,-15.9
1448734287421,80463556947018,-12.12,25.5,-15.78
1448734287461,80463596986081,-12.12,25.439999,-15.66
1448734287501,80463636903073,-12.179999,25.439999,-15.599999
1448734287541,80463676911618,-12.24,25.439999,-15.599999
1448734287581,80463716920163,-12.3,25.439999,-15.719999
1448734287621,80463756928708,-12.3,25.439999,-15.78
1448734287661,80463796906735,-12.3,25.439999,-15.78
1448734287701,80463836884762,-12.3,25.439999,-15.9
1448734287741,80463876984860,-12.3,25.38,-15.96
1448734287781,80463916932370,-12.24,25.32,-16.08
1448734287821,80463956910397,-12.179999,25.08,-16.14
1448734287861,80463996918942,-12.12,24.84,-16.14
1448734287903,80464037720944,-12.12,24.6,-16.14
1448734287941,80464076966550,-12.12,24.359999,-16.14
1448734287981,80464116975095,-12.12,24.359999,-16.14
1448734288021,80464156892087,-12.12,24.359999,-16.14
1448734288061,80464196839596,-12.12,24.359999,-16.14
1448734288106,80464236878659,-12.12,24.359999,-16.14
1448734288145,80464277009274,-12.12,24.359999,-16.08
1448734288181,80464316956784,-12.12,24.359999,-15.96
1448734288221,80464356934811,-12.12,24.359999,-15.9
1448734288261,80464397004391,-12.12,24.359999,-15.78
1448734288301,80464436951901,-12.12,24.359999,-15.54
1448734288341,80464476929929,-12.12,24.359999,-15.299999
1448734288381,80464516938473,-12.12,24.359999,-14.7
1448734288421,80464556916501,-12.059999,24.359999,-13.98
1448734288461,80464596986081,-12.0,24.359999,-13.559999
1448734288501,80464636994626,-11.88,24.359999,-13.139999
1448734288541,80464677003171,-11.58,24.359999,-13.0199995
1448734288581,80464717011716,-11.34,24.48,-13.139999
1448734288621,80464756959225,-10.92,24.6,-12.96
1448734288661,80464796937253,-10.62,24.9,-12.719999
1448734288701,80464836915280,-10.2,25.38,-12.54
1448734288741,80464877015378,-9.719999,25.859999,-12.36
1448734288781,80464916932370,-9.179999,26.519999,-12.3
1448734288821,80464956849362,-8.5199995,27.0,-12.36
1448734288861,80464996949460,-8.16,27.3,-12.42
1448734288901,80465036835934,-7.74,27.42,-12.42
1448734288946,80465076874997,-7.44,27.42,-12.42
1448734288982,80465117005612,-7.14,27.359999,-12.42
1448734289021,80465156922604,-6.72,27.359999,-12.48
1448734289061,80465196870114,-6.3599997,27.359999,-12.54
1448734289101,80465236939694,-5.94,27.359999,-12.78
1448734289141,80465276978757,-5.58,27.359999,-13.259999
1448734289181,80465317017819,-5.2799997,27.359999,-13.92
1448734289221,80465356904294,-5.1,27.359999,-15.0
1448734289261,80465396943356,-4.7999997,27.359999,-15.96
1448734289301,80465436921384,-4.56,27.359999,-16.92
1448734289341,80465477021481,-4.2,27.359999,-17.52
1448734289381,80465516907956,-3.78,27.359999,-17.76
1448734289421,80465557008054,-3.54,27.359999,-18.0
1448734289461,80465597016598,-3.06,27.359999,-18.06
1448734289501,80465636994626,-2.76,27.359999,-18.359999
1448734289541,80465677003171,-2.28,27.359999,-18.6
1448734289581,80465716950680,-1.92,27.359999,-18.72
1448734289621,80465756928708,-1.74,27.42,-18.84
1448734289661,80465796906735,-1.56,27.42,-18.96
1448734289701,80465836915280,-1.56,27.48,-18.96
1448734289741,80465876832272,-1.56,27.539999,-18.96
1448734289786,80465916840817,-1.4399999,27.66,-18.96
1448734289827,80465957062985,-1.38,27.84,-18.96
1448734289865,80465997071530,-1.26,28.019999,-18.9
1448734289901,80466036927487,-1.0799999,28.26,-18.84
1448734289941,80466076905514,-0.9,28.439999,-18.72
1448734289981,80466116975095,-0.71999997,28.56,-18.6
1448734290021,80466156922604,-0.53999996,28.74,-18.24
1448734290061,80466196931149,-0.48,28.74,-17.699999
1448734290101,80466236909177,-0.42,28.74,-17.16
1448734290141,80466276917721,-0.29999998,28.74,-16.14
1448734290181,80466317048337,-0.12,28.74,-15.48
1448734290221,80466356873776,0.12,28.74,-15.059999
1448734290261,80466396943356,0.53999996,28.74,-14.7
1448734290301,80466436921384,1.14,28.74,-14.7
1448734290341,80466476960446,1.9799999,28.74,-14.7
1448734290381,80466516938473,2.82,28.74,-14.639999
1448734290421,80466556916501,3.8999999,28.74,-14.58
1448734290461,80466596925046,4.8599997,28.68,-14.58
1448734290501,80466636964108,5.58,28.619999,-14.58
1448734290541,80466676972653,6.66,28.56,-14.58
1448734290581,80466716828610,7.2599998,28.56,-14.58
1448734290626,80466756898190,7.74,28.56,-14.58
1448734290662,80466796937253,8.04,28.56,-14.58
1448734290701,80466836915280,7.8599997,28.56,-14.58
1448734290741,80466876923825,7.74,28.56,-14.639999
1448734290781,80466917023923,7.68,28.619999,-14.7
1448734290821,80466956910397,7.56,28.859999,-14.759999
1448734290861,80466997010495,7.56,29.039999,-14.759999
1448734290901,80467036958005,7.56,29.22,-14.759999
1448734290941,80467076997067,7.3799996,29.4,-14.759999
1448734290981,80467116853024,7.2,29.4,-14.759999
1448734291021,80467156922604,6.8399997,29.4,-14.759999
1448734291061,80467197022702,6.48,29.4,-14.639999
1448734291101,80467236909177,6.12,29.4,-14.46
1448734291141,80467276978757,5.58,29.46,-14.16
1448734291181,80467316956784,5.1,29.519999,-13.679999
1448734291221,80467356934811,4.68,29.58,-13.0199995
1448734291261,80467396912839,4.3199997,29.58,-12.42
1448734291301,80467436921384,3.78,29.58,-11.46
1448734291341,80467477021481,3.48,29.58,-10.32
1448734291381,80467516907956,3.24,29.58,-9.42
1448734291421,80467556824948,3.12,29.64,-8.16
1448734291466,80467596864011,3.24,29.76,-7.2
1448734291505,80467637055661,3.4199998,29.88,-6.24
1448734291545,80467677033688,3.4199998,29.939999,-5.04
1448734291581,80467716920163,3.4199998,30.06,-3.78
1448734291621,80467757020261,3.3,30.06,-1.68
1448734291661,80467796998288,3.06,29.939999,0.65999997
1448734291701,80467836915280,2.28,29.58,3.0
1448734291741,80467876923825,1.02,29.099998,5.3399997
1448734291781,80467916932370,-0.71999997,28.5,6.6
1448734291821,80467957001950,-2.7,27.539999,7.3799996
1448734291861,80467996857907,-4.38,26.22,7.7999997
1448734291901,80468037019040,-5.8799996,24.72,7.8599997
1448734291941,80468076905514,-6.6,23.279999,7.98
1448734291981,80468116853024,-7.02,22.199999,8.04
1448734292021,80468156922604,-7.14,21.779999,8.099999
1448734292061,80468196992184,-7.08,21.66,8.16
1448734292101,80468237000729,-7.2,21.72,8.16
1448734292141,80468276978757,-7.44,21.779999,8.16
1448734292181,80468316926266,-7.62,21.779999,8.16
1448734292221,80468356965329,-7.74,21.779999,8.16
1448734292261,80468396912839,-7.7999997,21.779999,8.16
1448734292306,80468436860348,-7.7999997,21.779999,8.22
1448734292346,80468477082516,-7.7999997,21.9,8.28
1448734292386,80468517030026,-7.7999997,21.96,8.34
1448734292421,80468556947018,-7.68,22.08,8.34
1448734292461,80468596925046,-7.3199997,22.199999,8.34
1448734292501,80468636903073,-6.8399997,22.32,8.5199995
1448734292541,80468676972653,-6.18,22.439999,8.76
1448734292581,80468716950680,-5.4,22.5,8.94
1448734292621,80468756928708,-4.56,22.619999,9.059999
1448734292661,80468796967770,-3.48,22.74,9.059999
1448734292701,80468836915280,-2.28,22.98,9.0
1448734292741,80468876893307,-1.14,23.4,9.0
1448734292781,80468916962887,0.12,23.88,8.88
1448734292821,80468956971432,1.26,24.6,8.82
1448734292861,80468996918942,2.22,25.26,8.22
1448734292901,80469036927487,3.24,25.619999,7.3799996
1448734292941,80469076905514,3.9599998,25.859999,6.24
1448734292981,80469117036130,4.3199997,25.859999,5.2799997
1448734293021,80469156983639,4.74,25.92,4.74
1448734293061,80469196992184,4.92,26.099998,4.5
1448734293101,80469236817624,5.04,26.34,4.68
1448734293145,80469276856686,5.04,26.519999,4.68
1448734293186,80469317109372,5.04,26.699999,4.68
1448734293221,80469356873776,5.04,26.699999,4.74
1448734293261,80469396973874,5.04,26.76,5.22
1448734293301,80469436982419,4.92,26.699999,6.12
1448734293341,80469476899411,4.8599997,26.64,6.96
1448734293381,80469516907956,4.68,26.64,7.98
1448734293421,80469556916501,4.44,26.58,8.5199995
1448734293461,80469596925046,4.14,26.64,8.76
1448734293501,80469636903073,3.6,26.58,8.94
1448734293541,80469676881100,3.12,26.46,8.94
1448734293581,80469716920163,2.76,26.279999,9.0
1448734293621,80469756928708,2.34,26.099998,9.0
1448734293661,80469796906735,1.74,25.8,9.0
1448734293701,80469836976315,1.14,25.5,9.0
1448734293741,80469876984860,0.42,24.9,9.0
1448734293781,80469916932370,-0.35999998,24.3,9.0
1448734293821,80469956910397,-0.65999997,23.939999,9.0
1448734293861,80469996918942,-0.84,23.699999,9.0
1448734293901,80470036927487,-0.9,23.699999,9.0
1448734293941,80470076813962,-0.71999997,23.699999,9.12
1448734293986,80470116822507,-0.71999997,23.699999,9.24
1448734294025,80470157075192,-0.78,23.699999,9.42
1448734294065,80470197053220,-0.84,23.699999,9.54
1448734294101,80470236939694,-0.84,23.76,9.719999
1448734294141,80470277009274,-0.84,23.82,9.84
1448734294181,80470316987302,-0.84,23.88,9.9
1448734294221,80470356995846,-0.78,23.939999,10.0199995
1448734294261,80470396973874,-0.59999996,24.06,10.08
1448734294301,80470436982419,-0.17999999,24.119999,10.139999
1448734294341,80470476929929,0.35999998,24.18,10.2
1448734294381,80470516968991,0.84,24.18,10.139999
1448734294421,80470556916501,1.3199999,24.18,10.0199995
1448734294461,80470596986081,1.62,24.18,9.96
1448734294501,80470636964108,1.8,24.24,9.719999
1448734294541,80470676911618,2.1,24.3,9.48
1448734294581,80470716920163,2.3999999,24.359999,9.179999
1448734294621,80470756928708,2.76,24.359999,8.88
1448734294661,80470796937253,3.24,24.359999,8.7
1448734294701,80470836976315,3.72,24.359999,8.639999
1448734294741,80470876923825,4.3199997,24.359999,8.7
1448734294781,80470916840817,5.04,24.3,8.7
1448734294826,80470956818845,5.7599998,24.24,8.82
1448734294863,80470997163083,6.3599997,24.18,9.0
1448734294901,80471036927487,6.8399997,24.18,9.66
1448734294941,80471076905514,7.2,24.06,10.2
1448734294981,80471116975095,7.56,23.88,10.8
1448734295021,80471156922604,7.7999997,23.699999,11.28
1448734295061,80471196931149,7.9199996,23.519999,11.4
1448734295101,80471236970212,7.9199996,23.519999,11.58
1448734295141,80471276887204,7.7999997,23.519999,11.639999
1448734295181,80471317017819,7.74,23.519999,11.7
1448734295221,80471356934811,7.62,23.519999,11.7
1448734295261,80471396912839,7.2,23.519999,11.7
1448734295301,80471436921384,6.2999997,23.519999,11.58
1448734295341,80471476960446,5.2799997,23.58,11.5199995
1448734295381,80471516968991,4.3199997,23.64,11.4
1448734295421,80471556916501,3.72,23.699999,11.34
1448734295461,80471596925046,3.6,23.699999,11.34
1448734295501,80471636903073,3.6,23.699999,11.34
1448734295541,80471676911618,3.6,23.699999,11.34
1448734295581,80471716920163,3.6,23.76,11.34
1448734295621,80471756837155,3.6,23.82,11.34
1448734295666,80471796906735,3.6,23.88,11.34
1448734295705,80471836945798,3.6,23.88,11.34
1448734295745,80471877076413,3.6,23.88,11.34
1448734295785,80471916962887,3.6,23.88,11.34
1448734295821,80471956910397,3.6,23.88,11.34
1448734295861,80471996918942,3.6,23.88,11.34
1448734295901,80472037019040,3.78,23.88,11.34
1448734295941,80472076905514,3.9599998,23.88,11.34
1448734295981,80472116944577,4.14,23.88,11.5199995
1448734296021,80472156922604,4.3199997,23.88,11.7
1448734296061,80472196961667,4.44,23.88,11.88
1448734296101,80472237000729,4.5,23.88,12.059999
1448734296141,80472276978757,4.68,23.88,12.12
1448734296181,80472316865231,4.8599997,23.82,12.12
1448734296221,80472356904294,5.04,23.76,12.179999
1448734296261,80472396912839,5.16,23.64,12.179999
1448734296301,80472436951901,5.2799997,23.519999,12.179999
1448734296341,80472476929929,5.3399997,23.34,12.179999
1448734296381,80472516907956,5.4,23.22,12.179999
1448734296421,80472556947018,5.4,23.16,12.179999
1448734296461,80472596925046,5.4,23.039999,12.179999
1448734296506,80472636842038,5.4,22.98,12.179999
1448734296545,80472677094723,5.4,22.98,12.12
1448734296585,80472717042233,5.4,22.98,12.12
1448734296621,80472756928708,5.4,22.98,12.0
1448734296661,80472796906735,5.4,22.98,11.88
1448734296701,80472836915280,5.4,22.98,11.7
1448734296741,80472877015378,5.4,22.98,11.4
1448734296781,80472916962887,5.4,23.039999,11.28
1448734296821,80472956940915,5.4,23.1,10.98
1448734296861,80472997010495,5.4,23.34,10.62
1448734296901,80473036958005,5.4,23.58,10.26
1448734296941,80473076936032,5.4,23.76,9.78
1448734296981,80473116914059,5.4,24.06,9.48
1448734297021,80473157014157,5.52,24.3,9.0
1448734297061,80473196931149,5.64,24.66,8.34
1448734297101,80473236909177,6.0,25.08,7.44
1448734297141,80473276978757,6.66,25.26,6.06
1448734297181,80473316926266,7.56,25.439999,4.68
1448734297221,80473356904294,8.46,25.439999,3.6
1448734297261,80473397004391,9.059999,25.619999,2.82
1448734297301,80473436829831,9.42,25.859999,2.52
1448734297346,80473476899411,9.36,26.16,2.34
1448734297385,80473516999509,9.36,26.699999,1.92
1448734297425,80473557038571,9.36,26.939999,1.26
1448734297461,80473596955563,9.3,27.24,0.48
1448734297501,80473636933591,9.0,27.539999,-0.12
1448734297541,80473676911618,8.58,27.72,-0.42
1448734297581,80473717011716,7.9199996,27.84,-0.48
1448734297621,80473757020261,7.2,27.96,-0.42
1448734297661,80473796998288,6.18,27.96,-0.29999998
1448734297701,80473836945798,4.74,27.779999,0.59999996
1448734297741,80473876923825,2.8799999,27.359999,2.1599998
1448734297781,80473916962887,0.78,26.76,4.2599998
1448734297821,80473957001950,-1.3199999,26.099998,6.3599997
1448734297861,80473997010495,-2.76,25.56,7.5
1448734297901,80474036927487,-3.3,25.56,7.5
1448734297941,80474076905514,-2.1,26.279999,3.6
1448734297981,80474116914059,0.24,27.9,-1.38
1448734298021,80474157075192,2.6399999,29.46,-6.24
1448734298061,80474196931149,4.7999997,30.72,-10.5
1448734298101,80474236970212,6.12,31.439999,-11.46
1448734298141,80474276826169,7.44,31.32,-11.219999
1448734298187,80474316834714,9.48,30.84,-10.679999
1448734298225,80474357056882,12.3,30.0,-10.139999
1448734298265,80474397065427,15.54,28.74,-9.66
1448734298301,80474436951901,18.72,26.76,-9.42
1448734298341,80474476929929,21.72,24.0,-9.3
1448734298381,80474516907956,23.88,21.119999,-9.179999
1448734298421,80474557008054,25.439999,18.3,-9.12
1448734298461,80474596986081,26.519999,15.66,-8.94
1448734298501,80474636994626,27.0,13.559999,-8.76
1448734298541,80474676942136,27.72,11.099999,-8.58
1448734298581,80474717011716,28.439999,8.22,-8.16
1448734298621,80474756928708,29.22,5.46,-7.62
1448734298661,80474796998288,30.06,2.46,-6.96
1448734298701,80474837006833,30.9,-0.48,-6.06
1448734298741,80474876923825,32.04,-3.3,-5.22
1448734298781,80474917023923,32.88,-6.12,-4.38
1448734298821,80474956910397,33.36,-9.12,-3.4199998
1448734298861,80474996918942,33.66,-11.639999,-2.34
1448734298901,80475037019040,33.48,-13.86,-1.1999999
1448734298941,80475076997067,33.3,-16.08,0.24
1448734298981,80475116914059,33.3,-17.34,1.38
1448734299026,80475156831052,33.3,-18.3,2.1
1448734299065,80475197114255,33.3,-18.84,2.46
1448734299105,80475237031247,33.239998,-18.84,2.28
1448734299141,80475276948239,33.12,-18.359999,1.4399999
1448734299181,80475317048337,33.059998,-17.699999,0.24
1448734299221,80475356873776,33.0,-16.74,-1.4399999
1448734299261,80475396943356,32.94,-15.48,-3.6
1448734299301,80475436921384,32.94,-14.219999,-5.46
1448734299341,80475476990964,32.94,-12.96,-7.02
1448734299381,80475516907956,32.88,-12.0,-8.34
1448734299421,80475556916501,32.76,-11.4,-9.24
1448734299461,80475596955563,32.7,-11.28,-9.719999
1448734299501,80475636872555,32.579998,-11.46,-10.26
1448734299541,80475676942136,32.52,-11.639999,-10.679999
1448734299581,80475716981198,32.46,-11.82,-11.04
1448734299621,80475756898190,32.399998,-12.0,-11.5199995
1448734299661,80475796906735,32.34,-12.179999,-12.12
1448734299701,80475836976315,32.04,-12.48,-12.9
1448734299741,80475876923825,31.679998,-12.78,-13.86
1448734299781,80475916932370,31.08,-12.9,-15.0
1448734299821,80475956818845,30.06,-13.0199995,-16.44
1448734299866,80475996827389,29.46,-13.0199995,-17.82
1448734299906,80476037080075,28.8,-13.0199995,-18.96
1448734299946,80476077058102,28.38,-13.0199995,-19.74
1448734299981,80476116883542,28.32,-13.0199995,-19.98
1448734300021,80476156922604,28.14,-12.9,-19.859999
1448734300061,80476196900632,28.08,-12.78,-19.8
1448734300101,80476236909177,28.08,-12.66,-19.8
1448734300141,80476276917721,28.08,-12.599999,-19.619999
1448734300181,80476316987302,28.08,-12.599999,-19.439999
1448734300221,80476356965329,28.08,-12.66,-19.26
1448734300261,80476396973874,28.08,-12.66,-19.14
1448734300301,80476436982419,28.08,-12.719999,-19.14
1448734300341,80476476929929,28.08,-12.719999,-19.14
1448734300381,80476516907956,28.08,-12.719999,-19.26
1448734300421,80476556885983,27.9,-12.599999,-19.5
1448734300461,80476596925046,27.48,-12.42,-20.52
1448734300501,80476636933591,26.82,-10.139999,-22.439999
1448734300541,80476676972653,25.92,-7.5,-24.24
1448734300581,80476716981198,25.019999,-4.56,-25.859999
1448734300621,80476756989743,24.359999,-1.56,-26.76
1448734300661,80476796845700,23.939999,-0.24,-26.699999
1448734300706,80476836854245,23.76,0.65999997,-26.699999
1448734300745,80476876954343,23.64,1.26,-26.699999
1448734300785,80476917084958,23.46,1.56,-26.64
1448734300825,80476957001950,23.46,1.56,-26.22
1448734300867,80476997224118,23.46,1.4399999,-25.56
1448734300901,80477036896970,23.46,1.38,-24.72
1448734300941,80477077027585,23.699999,1.14,-23.82
1448734300981,80477117005612,23.939999,0.84,-22.74
1448734301021,80477156922604,24.24,0.29999998,-21.84
1448734301061,80477196992184,24.6,-0.42,-21.24
1448734301101,80477236970212,24.72,-1.14,-20.76
1448734301141,80477276978757,24.84,-1.8,-20.82
1448734301181,80477316987302,24.779999,-2.46,-20.939999
1448734301221,80477356965329,24.6,-3.06,-21.0
1448734301261,80477396973874,24.539999,-3.3,-21.06
1448734301301,80477436982419,24.359999,-3.36,-21.119999
1448734301341,80477476960446,24.18,-3.12,-21.119999
1448734301381,80477516968991,23.82,-2.82,-21.119999
1448734301421,80477557038571,23.279999,-2.28,-21.18
1448734301461,80477596802975,22.56,-1.8,-21.24
1448734301500,80477636811520,21.66,-0.96,-21.3
1448734301540,80477676820065,20.76,0.35999998,-21.6
1448734301581,80477716920163,19.8,1.56,-21.96
1448734301621,80477756928708,18.779999,2.58,-22.439999
1448734301661,80477796906735,18.119999,3.3,-23.039999
1448734301701,80477836884762,17.82,3.48,-23.58
1448734301741,80477876984860,17.76,3.48,-23.88
1448734301781,80477916932370,18.06,3.48,-24.119999
1448734301821,80477956879880,18.119999,3.4199998,-24.18
1448734301861,80477996918942,18.24,3.24,-24.119999
1448734301901,80478036896970,18.48,3.06,-24.06
1448734301941,80478076905514,19.08,2.9399998,-23.88
1448734301981,80478116914059,19.92,2.82,-23.699999
1448734302021,80478156922604,20.699999,2.82,-22.92
1448734302061,80478196900632,21.18,2.82,-22.02
1448734302101,80478236878659,21.359999,2.8799999,-21.24
1448734302141,80478276887204,21.24,2.9399998,-20.34
1448734302181,80478316895749,21.06,3.0,-20.039999
1448734302221,80478356965329,21.06,3.06,-19.68
1448734302261,80478396760251,21.06,3.1799998,-19.38
1448734302307,80478436738278,21.119999,3.24,-19.32
1448734302346,80478477021481,21.119999,3.36,-19.14
1448734302387,80478516968991,21.119999,3.48,-19.14
1448734302425,80478557069089,21.119999,3.6,-19.14
1448734302461,80478596925046,21.119999,3.6599998,-19.14
1448734302501,80478636964108,21.119999,3.78,-19.14
1448734302542,80478676911618,21.119999,3.84,-19.14
1448734302581,80478716920163,21.119999,4.02,-19.14
1448734302621,80478756928708,21.119999,4.2599998,-19.08
1448734302661,80478796967770,21.119999,4.68,-19.02
1448734302701,80478836915280,21.119999,5.64,-18.96
1448734302741,80478876984860,20.82,6.66,-18.96
1448734302781,80478916932370,20.4,7.62,-18.96
1448734302821,80478956879880,19.92,8.28,-18.96
1448734302861,80478996918942,19.56,8.34,-18.96
1448734302901,80479036896970,19.38,8.22,-18.96
1448734302942,80479077698971,19.439999,8.099999,-18.96
1448734302981,80479116944577,19.5,7.9199996,-18.96
1448734303021,80479156953122,19.56,7.5,-18.96
1448734303061,80479196961667,19.68,6.7799997,-19.02
1448734303101,80479236909177,19.8,5.8799996,-19.02
1448734303142,80479276795651,19.98,4.8599997,-19.02
1448734303181,80479317017819,20.34,3.6,-19.02
1448734303226,80479357026364,20.76,2.7,-18.96
1448734303265,80479397095944,21.24,1.56,-18.96
1448734303302,80479436951901,21.84,0.84,-18.9
1448734303341,80479476990964,22.199999,0.65999997,-18.84
1448734303381,80479516938473,22.439999,0.53999996,-18.84
1448734303421,80479557008054,22.56,0.71999997,-18.779999
1448734303461,80479597016598,22.56,0.9,-18.779999
1448734303501,80479636903073,22.5,1.02,-18.779999
1448734303541,80479676911618,22.439999,1.3199999,-18.779999
1448734303581,80479716950680,22.38,2.1,-18.779999
1448734303621,80479757020261,22.38,2.82,-18.779999
1448734303661,80479796967770,22.199999,3.36,-18.779999
1448734303701,80479836945798,22.08,3.78,-18.779999
1448734303741,80479876923825,21.96,3.6599998,-18.779999
1448734303781,80479916932370,21.84,3.6599998,-18.779999
1448734303821,80479956910397,21.84,3.6,-18.779999
1448734303861,80479996949460,21.84,3.54,-18.779999
1448734303901,80480036927487,21.84,3.48,-18.779999
1448734303942,80480077058102,21.84,3.24,-18.779999
1448734303981,80480116853024,21.84,3.0,-18.779999
1448734304021,80480156922604,21.84,2.76,-18.779999
1448734304067,80480196900632,21.779999,2.6399999,-18.779999
1448734304105,80480237061764,21.66,2.58,-18.779999
1448734304141,80480276978757,21.6,2.6399999,-18.779999
1448734304181,80480316926266,21.48,2.6399999,-18.779999
1448734304221,80480356904294,21.48,2.6399999,-18.779999
1448734304261,80480396912839,21.48,2.7,-18.66
1448734304301,80480436921384,21.48,2.76,-18.6
1448734304341,80480476990964,21.48,2.8799999,-18.6
1448734304381,80480516877438,21.48,3.06,-18.6
1448734304421,80480556916501,21.48,3.1799998,-18.66
1448734304461,80480596894528,21.48,3.3,-18.66
1448734304528,80480636994626,21.48,3.36,-18.66
1448734304541,80480676911618,21.48,3.36,-18.66
1448734304581,80480716981198,21.48,3.3,-18.66
1448734304621,80480756959225,21.48,3.3,-18.66
1448734304661,80480797028805,21.48,3.24,-18.66
1448734304701,80480836976315,21.48,3.24,-18.72
1448734304741,80480876893307,21.48,3.1799998,-18.72
1448734304781,80480917084958,21.48,3.12,-18.779999
1448734304821,80480956818845,21.48,3.12,-18.779999
1448734304866,80480996827389,21.48,3.12,-18.779999
1448734304906,80481037019040,21.48,3.12,-18.779999
1448734304945,80481077058102,21.48,3.12,-18.779999
1448734304981,80481116914059,21.48,3.12,-18.9
1448734305021,80481156892087,21.48,3.12,-19.02
1448734305061,80481196931149,21.48,3.12,-19.14
1448734305101,80481236909177,21.48,3.12,-19.32
1448734305141,80481276917721,21.48,3.12,-19.38
1448734305181,80481316956784,21.48,3.12,-19.439999
1448734305221,80481356904294,21.48,3.12,-19.439999
1448734305261,80481397034909,21.48,3.12,-19.5
1448734305301,80481436921384,21.48,3.12,-19.5
1448734305341,80481476990964,21.48,3.12,-19.5
1448734305381,80481516907956,21.48,3.1799998,-19.5
1448734305421,80481556916501,21.48,3.24,-19.5
1448734305461,80481596986081,21.48,3.3,-19.439999
1448734305501,80481636903073,21.48,3.3,-19.439999
1448734305541,80481676881100,21.48,3.3,-19.439999
1448734305581,80481716920163,21.48,3.3,-19.439999
1448734305620,80481756837155,21.48,3.3,-19.38
1448734305661,80481796876218,21.48,3.3,-19.32
1448734305707,80481836915280,21.48,3.3,-19.26
1448734305745,80481877015378,21.48,3.3,-19.14
1448734305781,80481916932370,21.48,3.3,-19.14
1448734305821,80481956910397,21.6,3.3,-19.14
1448734305861,80481996949460,21.6,3.3,-19.08
1448734305901,80482036988522,21.6,3.3,-19.02
1448734305941,80482076874997,21.6,3.4199998,-18.96
1448734305981,80482116883542,21.48,3.48,-18.96
1448734306021,80482156922604,21.48,3.6,-18.96
1448734306061,80482196900632,21.48,3.6599998,-18.96
1448734306101,80482236909177,21.48,3.6599998,-18.96
1448734306141,80482276978757,21.359999,3.6599998,-18.96
1448734306181,80482316926266,21.18,3.72,-18.96
1448734306221,80482356904294,21.06,3.78,-18.96
1448734306261,80482396943356,20.939999,3.84,-18.96
1448734306301,80482436921384,20.88,3.84,-18.96
1448734306341,80482476960446,20.88,3.84,-18.96
1448734306381,80482516968991,20.82,3.84,-18.96
1448734306421,80482556916501,20.76,3.84,-18.96
1448734306461,80482596864011,20.76,3.84,-18.96
1448734306506,80482636872555,20.76,3.84,-18.96
1448734306547,80482677003171,20.76,3.84,-18.96
1448734306581,80482716981198,20.76,3.84,-18.96
1448734306621,80482756928708,20.76,3.84,-18.96
1448734306661,80482796906735,20.76,3.84,-18.9
1448734306701,80482836945798,20.939999,3.84,-18.84
1448734306741,80482876954343,21.06,3.84,-18.779999
1448734306781,80482916901852,21.18,3.84,-18.779999
1448734306821,80482956971432,21.3,3.8999999,-18.72
1448734306861,80482996949460,21.3,3.9599998,-18.72
1448734306901,80483036988522,21.3,4.02,-18.72
1448734306941,80483076936032,21.359999,4.08,-18.66
1448734306981,80483116914059,21.42,4.14,-18.66
1448734307021,80483156922604,21.48,4.2,-18.66
1448734307061,80483196931149,21.48,4.2,-18.6
1448734307101,80483236878659,21.48,4.2,-18.48
1448734307141,80483276948239,21.48,4.2,-18.42
1448734307181,80483316926266,21.48,4.2,-18.3
1448734307221,80483356904294,21.48,4.2,-18.3
1448734307261,80483396821286,21.48,4.2,-18.3
1448734307301,80483436921384,21.48,4.2,-18.3
1448734307347,80483476929929,21.48,4.2,-18.3
1448734307385,80483517060544,21.48,4.2,-18.3
1448734307421,80483556916501,21.48,4.2,-18.3
1448734307461,80483596925046,21.42,4.2,-18.3
1448734307501,80483636933591,21.359999,4.2599998,-18.3
1448734307541,80483676911618,21.3,4.3199997,-18.3
1448734307581,80483716950680,21.3,4.38,-18.119999
1448734307621,80483756989743,21.3,4.38,-17.88
1448734307661,80483796906735,21.3,4.38,-17.58
1448734307701,80483836945798,21.3,4.38,-17.34
1448734307741,80483876923825,21.3,4.38,-17.279999
1448734307781,80483916932370,21.3,4.38,-17.279999
1448734307821,80483956971432,21.24,4.38,-17.279999
1448734307861,80483996918942,21.18,4.38,-17.279999
1448734307901,80484036896970,21.119999,4.38,-17.279999
1448734307941,80484076874997,21.119999,4.38,-17.279999
1448734307981,80484116914059,21.119999,4.38,-17.279999
1448734308021,80484156953122,21.119999,4.38,-17.58
1448734308061,80484196931149,21.0,4.38,-18.24
1448734308101,80484236848141,20.34,4.68,-19.38
1448734308146,80484276917721,19.26,7.14,-22.439999
1448734308185,80484317109372,16.56,11.34,-22.92
1448734308221,80484356904294,12.3,11.34,-22.92
1448734308261,80484397004391,7.44,16.68,-21.06
1448734308301,80484436921384,2.46,22.02,-17.16
1448734308341,80484476929929,-1.56,26.099998,-12.78
