1448849214153,195391585201392,-6.72,0.17999999,-19.619999
1448849214196,195391626155982,-6.72,0.17999999,-19.619999
1448849214242,195391665584693,-6.72,0.17999999,-19.619999
1448849214283,195391705074439,-6.72,0.17999999,-19.619999
1448849214312,195391745113502,-6.72,0.17999999,-19.619999
1448849214358,195391785213599,-6.72,0.17999999,-19.619999
1448849214395,195391825008521,-6.72,0.17999999,-19.619999
1448849214438,195391865139136,-6.72,0.17999999,-19.619999
1448849214484,195391905147681,-6.72,0.17999999,-19.619999
1448849214512,195391945064674,-6.72,0.17999999,-19.619999
1448849214552,195391985012183,-6.72,0.17999999,-19.619999
1448849214604,195392025264869,-4.44,3.6,-19.68
1448849214643,195392075161109,-1.68,7.9199996,-20.279999
1448849214685,195392115200172,1.02,12.3,-20.88
1448849214725,195392155544410,3.72,16.619999,-21.42
1448849214763,195392195217261,4.14,17.4,-21.96
1448849214803,195392235286842,4.14,17.52,-21.96
1448849214843,195392275295386,4.02,18.24,-21.72
1448849214883,195392315395484,3.8999999,19.439999,-21.24
1448849214926,195392355220924,3.48,23.4,-19.32
1448849214965,195392395198951,2.9399998,27.359999,-16.859999
1448849215003,195392435238013,1.86,31.199999,-13.139999
1448849215043,195392475246558,0.53999996,34.8,-7.5
1448849215083,195392515285621,-1.5,34.68,-0.96
1448849215123,195392555324683,-3.78,34.2,5.16
1448849215163,195392595302711,-5.8199997,33.18,10.08
1448849215203,195392635189185,-7.98,31.26,13.08
1448849215243,195392675289283,-9.24,29.4,13.679999
1448849215283,195392715297828,-10.74,27.48,14.28
1448849215323,195392755245338,-11.94,25.08,14.46
1448849215366,195392795131812,-13.0199995,22.74,14.4
1448849215403,195392835292945,-14.34,20.82,14.28
1448849215443,195392875209937,-15.179999,18.72,14.219999
1448849215483,195392915310035,-15.9,16.56,14.04
1448849215523,195392955257545,-16.38,14.7,13.92
1448849215563,195392995205054,-16.44,13.0199995,13.86
1448849215603,195393035305152,-16.56,11.58,13.679999
1448849215643,195393075283179,-16.56,10.44,13.44
1448849215683,195393115322242,-16.56,9.54,13.259999
1448849215727,195393155300269,-16.56,9.059999,13.0199995
1448849215763,195393195247779,-16.56,8.88,13.0199995
1448849215803,195393235317359,-16.5,8.94,13.0199995
1448849215843,195393275295386,-16.44,9.24,12.96
1448849215883,195393315273414,-16.5,9.84,12.96
1448849215923,195393355312476,-16.38,11.4,12.96
1448849215963,195393395321021,-16.38,13.5,12.84
1448849216003,195393435268531,-16.26,16.02,12.66
1448849216043,195393475277076,-16.02,18.539999,12.48
1448849216083,195393515285621,-15.839999,20.58,12.24
1448849216123,195393555324683,-15.599999,22.68,11.94
1448849216163,195393595302711,-15.12,24.42,11.639999
1448849216203,195393635280738,-14.759999,25.92,11.34
1448849216243,195393675319800,-14.4,27.3,10.8
1448849216283,195393715297828,-14.16,28.56,10.08
1448849216323,195393755275855,-14.099999,30.24,9.24
1448849216366,195393795131812,-14.04,31.859999,8.099999
1448849216403,195393835292945,-13.98,33.48,7.08
1448849216443,195393875332008,-13.799999,35.16,6.06
1448849216483,195393915279517,-13.62,36.0,4.62
1448849216527,195393955288062,-13.44,36.719997,3.4199998
1448849216563,195393995296607,-13.2,37.14,2.34
1448849216603,195394035305152,-12.84,37.14,1.5
1448849216643,195394075283179,-12.179999,37.32,1.26
1448849216683,195394115139136,-11.58,37.38,1.02
1448849216723,195394155300269,-10.98,37.32,0.84
1448849216763,195394195308814,-10.679999,37.26,0.71999997
1448849216803,195394235317359,-10.679999,37.26,0.65999997
1448849216843,195394275295386,-10.679999,37.2,0.59999996
1448849216883,195394315303931,-10.74,37.02,0.48
1448849216923,195394355312476,-10.86,36.54,0.17999999
1448849216963,195394395321021,-11.04,35.219997,-0.12
1448849217003,195394435299049,-11.46,34.079998,-0.48
1448849217043,195394475307593,-12.12,33.0,-0.78
1448849217083,195394515316138,-12.66,32.28,-1.02
1448849217123,195394555294166,-13.08,32.399998,-1.14
1448849217163,195394595333228,-13.0199995,32.82,-1.0799999
1448849217203,195394635280738,-12.66,33.36,-0.96
1448849217243,195394675411353,-12.3,34.14,-0.84
1448849217287,195394715236793,-11.46,35.76,-0.78
1448849217325,195394755214820,-10.32,37.559998,-0.71999997
1448849217365,195394795009742,-8.5199995,39.84,-0.84
1448849217406,195394835231910,-5.94,42.66,-0.96
1448849217446,195394875240455,-2.8799999,44.94,-1.38
1448849217483,195394915249000,-0.12,46.86,-1.86
1448849217523,195394955257545,1.86,48.12,-2.46
1448849217563,195394995205054,2.9399998,48.6,-3.3
1448849217605,195395035610328,3.24,48.719997,-4.3199997
1448849217643,195395075222144,3.3,48.48,-6.06
1448849217683,195395115322242,3.4199998,47.7,-8.88
1448849217723,195395155330787,3.8999999,46.02,-12.36
1448849217763,195395195278297,4.14,43.559998,-16.02
1448849217803,195395235256324,4.3199997,40.98,-19.439999
1448849217843,195395275264869,4.5,38.64,-22.02
1448849217883,195395315334449,4.3199997,37.2,-23.699999
1448849217923,195395355281959,4.38,36.66,-24.96
1448849217963,195395395290504,4.44,36.18,-25.619999
1448849218007,195395435329566,4.5,36.0,-25.92
1448849218043,195395475246558,4.74,35.76,-25.98
1448849218087,195395515285621,4.92,35.64,-25.92
1448849218123,195395555294166,5.22,35.579998,-25.859999
1448849218163,195395595302711,5.46,35.579998,-25.8
1448849218203,195395635250220,5.52,35.46,-25.56
1448849218247,195395675289283,5.64,35.28,-25.32
1448849218283,195395715328345,5.7599998,35.1,-25.14
1448849218323,195395755275855,5.8199997,34.98,-25.019999
1448849218366,195395795131812,5.94,34.98,-25.019999
1448849218403,195395835323463,5.94,34.86,-24.96
1448849218443,195395875301490,5.94,34.8,-24.9
1448849218483,195395915279517,5.94,34.68,-24.84
1448849218523,195395955318580,5.94,34.68,-24.779999
1448849218563,195395995235572,5.94,34.92,-24.42
1448849218603,195396035305152,5.94,35.34,-23.4
1448849218643,195396075313697,5.94,36.0,-22.199999
1448849218683,195396115291724,5.94,36.84,-20.76
1448849218723,195396155269752,5.94,37.98,-19.14
1448849218763,195396195278297,5.94,39.42,-17.699999
1448849218803,195396235317359,5.94,40.92,-16.26
1448849218847,195396275325904,5.94,42.42,-14.7
1448849218886,195396315303931,5.94,43.44,-12.96
1448849218923,195396355312476,5.94,44.04,-11.099999
1448849218971,195396395321021,5.94,44.399998,-9.12
1448849219013,195396445095191,5.94,44.46,-7.02
1448849219053,195396485225806,5.94,44.579998,-5.2799997
1448849219103,195396536281715,6.0,44.579998,-2.52
1448849219148,195396575161109,6.12,44.579998,-1.92
1448849219185,195396615596900,6.18,44.579998,-1.56
1448849219223,195396655330787,6.2999997,44.579998,-1.56
1448849219263,195396695308814,6.54,44.579998,-1.86
1448849219303,195396735317359,6.8999996,44.46,-2.76
1448849219343,195396775295386,7.3799996,44.34,-4.2599998
1448849219388,195396815334449,8.22,44.04,-6.72
1448849219423,195396855068336,9.0,43.559998,-9.66
1448849219467,195396895259986,9.599999,43.14,-12.78
1448849219507,195396935054908,10.08,42.42,-15.24
1448849219547,195396975246558,10.26,41.7,-16.8
1448849219583,195397015133033,10.32,40.559998,-17.699999
1448849219629,195397055233131,10.38,39.12,-17.82
1448849219667,195397095058570,10.44,37.5,-17.88
1448849219706,195397135067115,10.44,35.94,-17.88
1448849219746,195397175106177,10.559999,34.14,-17.88
1448849219786,195397215053687,10.74,32.64,-17.82
1448849219826,195397255062232,11.28,31.619999,-17.82
1448849219866,195397295101295,12.42,30.9,-17.64
1448849219906,195397335109840,13.98,30.84,-16.98
1448849219946,195397375087867,15.599999,30.96,-16.02
1448849219986,195397415065894,17.279999,31.019999,-14.88
1448849220023,195397455013404,18.66,31.019999,-13.98
1448849220062,195397494930396,19.859999,31.019999,-13.5
1448849220109,195397534999976,21.0,31.019999,-13.259999
1448849220147,195397575039039,22.14,30.96,-13.259999
1448849220186,195397615078101,23.1,30.72,-12.96
1448849220226,195397655117164,23.699999,30.179998,-12.719999
1448849220266,195397695064674,24.539999,29.22,-12.48
1448849220306,195397735073218,24.9,28.019999,-12.0
1448849220347,195397775112281,25.26,26.64,-11.5199995
1448849220393,195397815090308,25.8,25.38,-11.04
1448849220429,195397855007300,26.22,24.6,-10.559999
1448849220467,195397895015845,26.76,24.06,-10.38
1448849220507,195397935299049,27.119999,23.88,-10.26
1448849220546,195397975063453,27.42,24.0,-10.26
1448849220586,195398015102515,27.539999,24.0,-10.26
1448849220626,195398055080543,27.599998,24.0,-10.26
1448849220667,195398095089088,27.66,23.939999,-10.26
1448849220706,195398135067115,27.66,23.82,-10.26
1448849220746,195398175075660,27.72,23.58,-10.26
1448849220786,195398215114722,27.72,23.279999,-10.26
1448849220826,195398255062232,27.72,22.98,-10.26
1448849220866,195398295070777,27.72,22.56,-10.26
1448849220906,195398335079322,27.599998,22.199999,-10.26
1448849220946,195398375087867,27.42,21.9,-10.32
1448849220986,195398415065894,27.18,21.66,-10.44
1448849221026,195398455074439,26.82,21.6,-10.8
1448849221066,195398495082984,26.34,21.779999,-11.04
1448849221106,195398535091529,25.859999,21.84,-11.28
1448849221146,195398575069556,25.439999,21.96,-11.4
1448849221189,195398615169654,25.199999,22.38,-11.34
1448849221228,195398655086646,25.199999,22.98,-11.28
1448849221266,195398695064674,25.199999,23.64,-11.28
1448849221306,195398735073218,25.26,24.42,-11.099999
1448849221346,195398775081763,25.439999,24.9,-11.04
1448849221386,195398815059791,25.619999,25.14,-11.04
1448849221426,195398855037818,25.74,25.38,-11.099999
1448849221467,195398895076881,25.8,25.619999,-11.219999
1448849221506,195398935085425,25.74,26.039999,-11.28
1448849221546,195398975063453,25.68,26.519999,-11.28
1448849221586,195399015071998,25.619999,27.0,-11.28
1448849221626,195399055050025,25.439999,27.3,-11.28
1448849221666,195399095089088,24.72,27.539999,-11.28
1448849221706,195399135067115,23.82,27.66,-11.28
1448849221746,195399175106177,22.98,27.66,-11.28
1448849221786,195399215084205,22.199999,27.66,-11.4
1448849221826,195399255062232,21.96,27.599998,-11.5199995
1448849221866,195399295070777,21.9,27.48,-11.94
1448849221906,195399335079322,21.779999,27.48,-12.3
1448849221952,195399375087867,21.72,27.48,-12.48
1448849221992,195399424984107,21.66,27.48,-12.599999
1448849222033,195399465084205,21.66,27.48,-12.42
1448849222073,195399505031715,21.66,27.48,-12.3
1448849222113,195399545070777,21.66,27.72,-12.24
1448849222153,195399585079322,21.66,27.96,-12.24
1448849222193,195399625087867,21.48,28.199999,-12.24
1448849222233,195399665035377,21.24,28.38,-12.24
1448849222273,195399705043922,20.64,28.439999,-12.24
1448849222313,195399745082984,20.279999,28.5,-12.24
1448849222361,195399785183082,19.92,28.56,-12.3
1448849222393,195399825069556,19.74,28.619999,-12.42
1448849222433,195399865047584,19.859999,28.68,-12.599999
1448849222473,195399905086646,19.859999,28.74,-12.78
1448849222513,195399945034156,19.92,28.74,-12.9
1448849222553,195399985042701,20.4,28.68,-12.96
1448849222593,195400025051246,21.66,28.56,-12.96
1448849222633,195400065059791,23.279999,28.5,-12.96
1448849222673,195400105068336,25.08,28.32,-12.96
1448849222713,195400145076881,26.64,27.779999,-12.78
1448849222752,195400184993873,27.66,27.119999,-12.179999
1448849222796,195400225185523,28.26,26.279999,-11.34
1448849222832,195400265102515,28.8,25.199999,-10.44
1448849222872,195400305111060,29.4,23.939999,-9.24
1448849222913,195400345180640,29.939999,22.56,-8.28
1448849222953,195400385128150,30.42,21.06,-7.56
1448849222993,195400425106177,30.96,19.98,-6.96
1448849223033,195400465145240,31.14,19.5,-6.72
1448849223073,195400505062232,31.439999,19.38,-6.66
1448849223113,195400545040259,31.74,19.5,-6.6
1448849223153,195400585048804,31.92,19.5,-6.54
1448849223193,195400625087867,32.04,19.5,-6.42
1448849223233,195400665035377,32.04,19.5,-6.42
1448849223273,195400705074439,32.04,19.5,-6.42
1448849223313,195400745052467,32.04,19.5,-6.42
1448849223357,195400785152564,32.04,19.5,-6.42
1448849223393,195400825039039,32.04,19.5,-6.42
1448849223433,195400865169654,31.92,19.5,-6.42
1448849223473,195400905086646,31.859999,19.5,-6.42
1448849223512,195400944942603,31.74,19.5,-6.42
1448849223552,195400984981666,31.679998,19.5,-6.42
1448849223592,195401024990211,31.679998,19.5,-6.3599997
1448849223633,195401065059791,31.679998,19.5,-6.2999997
1448849223673,195401105037818,31.679998,19.619999,-6.24
1448849223713,195401145046363,31.679998,19.74,-6.18
1448849223753,195401185146461,31.679998,19.98,-6.12
1448849223793,195401225032935,31.679998,20.46,-6.06
1448849223833,195401265071998,31.679998,21.42,-6.06
1448849223873,195401305050025,31.679998,22.56,-6.06
1448849223913,195401345058570,31.679998,23.88,-6.06
1448849223953,195401385158668,31.5,24.9,-6.06
1448849223993,195401425045142,31.26,25.38,-6.12
1448849224033,195401465053687,30.779999,25.619999,-6.24
1448849224073,195401505031715,30.359999,25.619999,-6.42
1448849224114,195401545925269,30.06,25.619999,-6.6
1448849224153,195401585109840,29.88,25.619999,-6.7799997
1448849224193,195401625148902,29.88,25.619999,-7.02
1448849224233,195401665096412,29.88,25.619999,-7.14
1448849224272,195401704952369,29.88,25.619999,-7.3199997
1448849224312,195401744991431,29.88,25.619999,-7.3799996
1448849224353,195401785091529,29.88,25.619999,-7.3799996
1448849224393,195401825008521,29.88,25.68,-7.3799996
1448849224433,195401865017066,29.88,25.74,-7.3799996
1448849224473,195401904903541,29.88,25.8,-7.3799996
1448849224512,195401944881568,29.88,25.859999,-7.3799996
1448849224552,195401984890113,29.88,25.92,-7.3799996
1448849224593,195402024898658,29.88,25.92,-7.3199997
1448849224632,195402064907203,29.88,25.98,-7.2
1448849224673,195402104915748,29.88,26.039999,-7.08
1448849224712,195402144893775,29.82,26.34,-7.02
1448849224752,195402184902320,29.699999,26.64,-6.96
1448849224793,195402224971900,29.519999,26.88,-6.8999996
1448849224832,195402264888892,29.46,27.18,-6.8999996
1448849224872,195402304927955,29.46,27.18,-6.8999996
1448849224913,195402344905982,29.519999,27.119999,-6.8999996
1448849224952,195402384884009,29.519999,27.0,-6.8999996
1448849224993,195402424892554,29.58,26.76,-6.8999996
1448849225038,195402465023170,29.699999,26.34,-6.8999996
1448849225075,195402505001197,29.88,25.859999,-6.8999996
1448849225115,195402545009742,30.119999,25.14,-6.8999996
1448849225155,195402585018287,30.3,24.119999,-6.8999996
1448849225195,195402625026832,30.42,22.859999,-6.8999996
1448849225234,195402665004859,30.48,21.539999,-6.8399997
1448849225273,195402705013404,30.539999,19.859999,-6.72
1448849225313,195402745021949,30.599998,18.119999,-6.66
1448849225356,195402785183082,30.599998,16.08,-6.6
1448849225393,195402825069556,30.66,14.34,-6.54
1448849225433,195402865078101,30.779999,12.84,-6.54
1448849225473,195402905086646,31.019999,11.34,-6.48
1448849225513,195402945095191,31.74,10.2,-6.42
1448849225555,195402985042701,32.399998,8.76,-6.2999997
1448849225593,195403025051246,32.94,7.3199997,-6.18
1448849225633,195403065059791,33.36,6.18,-6.12
1448849225673,195403105068336,33.3,5.1,-6.06
1448849225713,195403145046363,33.3,4.38,-5.8199997
1448849225753,195403185054908,33.3,4.02,-5.64
1448849225793,195403225032935,33.3,3.84,-5.4
1448849225836,195403265133033,33.12,3.78,-5.22
1448849225874,195403305294166,32.94,3.6599998,-5.22
1448849225913,195403345119605,32.64,3.48,-5.22
1448849225953,195403385097633,32.28,3.1799998,-5.3399997
1448849225993,195403425106177,31.679998,2.76,-5.52
1448849226033,195403465175758,31.019999,2.1599998,-5.94
1448849226073,195403505123267,30.179998,1.14,-6.2999997
1448849226113,195403545101295,29.4,1.14,-6.6
1448849226153,195403585109840,28.8,-1.14,-6.72
1448849226193,195403625148902,28.26,-2.46,-6.72
1448849226233,195403665096412,28.019999,-3.36,-6.72
1448849226273,195403705135474,27.779999,-4.08,-6.72
1448849226313,195403745174537,27.9,-4.68,-6.66
1448849226357,195403785274634,28.08,-4.7999997,-6.6
1448849226393,195403825039039,28.32,-4.7999997,-6.42
1448849226433,195403865139136,28.56,-4.74,-5.94
1448849226473,195403905117164,28.619999,-4.68,-5.7
1448849226513,195403945125709,28.619999,-4.5,-5.52
1448849226553,195403985134254,28.68,-4.08,-5.4
1448849226593,195404025142799,28.92,-3.12,-5.58
1448849226633,195404065120826,29.34,-2.04,-5.58
1448849226673,195404105068336,29.88,-0.42,-5.52
1448849226713,195404145046363,30.66,1.02,-5.4
1448849226753,195404185115943,31.32,2.28,-5.2799997
1448849226793,195404225093970,32.16,3.84,-4.98
1448849226833,195404265102515,32.94,4.8599997,-4.38
1448849226873,195404305141578,33.66,6.12,-3.3
1448849226913,195404345150123,34.38,7.56,-2.04
1448849226953,195404385128150,34.5,8.82,-0.78
1448849226993,195404425136695,34.68,10.139999,0.17999999
1448849227033,195404465145240,34.739998,11.58,0.53999996
1448849227073,195404505092750,34.68,13.0199995,0.71999997
1448849227113,195404545131812,34.739998,14.34,0.53999996
1448849227153,195404585140357,34.739998,15.42,0.35999998
1448849227193,195404625148902,34.739998,16.02,0.17999999
1448849227233,195404665126929,34.739998,16.02,-0.06
1448849227273,195404705135474,34.739998,15.9,-0.12
1448849227313,195404745144019,34.739998,15.78,-0.17999999
1448849227357,195404785305152,34.739998,15.599999,-0.17999999
1448849227393,195404825069556,34.739998,15.059999,-0.17999999
1448849227433,195404865078101,34.739998,13.74,-0.17999999
1448849227473,195404905056129,34.739998,12.24,-0.17999999
1448849227513,195404945034156,34.739998,10.679999,-0.17999999
1448849227553,195404985073218,34.739998,9.24,-0.17999999
1448849227593,195405025051246,34.739998,8.34,-0.17999999
1448849227633,195405065029273,34.739998,7.74,-0.12
1448849227673,195405105037818,34.739998,7.3199997,-0.06
1448849227713,195405145046363,34.739998,7.14,-0.06
1448849227753,195405185054908,34.739998,7.2,-0.06
1448849227793,195405225032935,34.739998,7.14,-0.06
1448849227833,195405265041480,34.739998,7.08,-0.06
1448849227873,195405305050025,34.739998,7.08,-0.12
1448849227913,195405345119605,34.739998,7.08,-0.17999999
1448849227953,195405385036597,34.739998,7.14,-0.17999999
1448849227993,195405425045142,34.739998,7.14,-0.24
1448849228033,195405465053687,34.739998,7.14,-0.29999998
1448849228073,195405505031715,34.739998,7.2,-0.35999998
1448849228113,195405545070777,34.739998,7.3199997,-0.48
1448849228153,195405585048804,34.68,7.62,-0.53999996
1448849228193,195405625087867,34.559998,7.98,-0.53999996
1448849228233,195405665035377,34.5,8.4,-0.65999997
1448849228273,195405705074439,34.44,8.58,-0.96
1448849228313,195405745113502,34.38,8.639999,-1.26
1448849228357,195405785183082,34.38,8.639999,-1.56
1448849228393,195405825039039,34.32,8.58,-1.68
1448849228433,195405865047584,34.26,8.639999,-1.68
1448849228473,195405905086646,34.2,8.7,-1.68
1448849228513,195405945034156,34.079998,8.7,-1.68
1448849228553,195405985042701,34.02,8.7,-1.68
1448849228593,195406025051246,33.899998,8.7,-1.68
1448849228633,195406065090308,33.84,8.7,-1.68
1448849228673,195406105068336,33.84,8.7,-1.68
1448849228713,195406145046363,33.84,8.7,-1.68
1448849228753,195406185054908,33.84,8.7,-1.68
1448849228793,195406225063453,33.84,8.7,-1.68
1448849228833,195406265071998,33.84,8.7,-1.68
1448849228873,195406305050025,33.84,8.7,-1.68
1448849228913,195406345211158,33.84,8.7,-1.68
1448849228953,195406385097633,33.84,8.7,-1.68
1448849228993,195406425075660,33.84,8.7,-1.68
1448849229033,195406465084205,33.84,8.7,-1.68
1448849229073,195406505031715,33.84,8.7,-1.62
1448849229113,195406545070777,33.84,8.7,-1.62
1448849229153,195406585140357,33.84,8.7,-1.56
1448849229193,195406625148902,33.899998,8.76,-1.56
1448849229233,195406665126929,33.96,8.76,-1.56
1448849229273,195406705043922,34.02,8.76,-1.56
1448849229313,195406745082984,34.2,8.7,-1.56
1448849229357,195406785152564,34.32,8.7,-1.56
1448849229393,195406825039039,34.38,8.7,-1.56
1448849229433,195406865047584,34.44,8.7,-1.56
1448849229473,195406905086646,34.44,8.58,-1.56
1448849229513,195406945003638,34.38,8.5199995,-1.56
1448849229553,195406985042701,34.38,8.4,-1.56
1448849229593,195407025081763,34.38,8.28,-1.56
1448849229633,195407065090308,34.38,8.28,-1.56
1448849229673,195407105098853,34.38,8.22,-1.56
1448849229713,195407145046363,34.38,8.22,-1.56
1448849229753,195407185085425,34.38,8.22,-1.62
1448849229793,195407225063453,34.38,8.22,-1.62
1448849229833,195407265102515,34.38,8.22,-1.68
1448849229873,195407305080543,34.38,8.34,-1.74
1448849229913,195407345089088,34.38,8.76,-2.1599998
1448849229953,195407385067115,34.38,9.42,-2.6399999
1448849229993,195407425075660,34.38,10.5,-3.12
1448849230033,195407465084205,34.38,11.5199995,-3.8999999
1448849230073,195407505031715,34.38,12.24,-4.2599998
1448849230113,195407545070777,34.2,12.66,-4.62
1448849230153,195407585048804,34.02,12.719999,-4.8599997
1448849230193,195407625057349,33.84,12.719999,-4.8599997
1448849230233,195407665035377,33.3,12.719999,-4.98
1448849230273,195407705074439,32.76,12.719999,-5.04
1448849230313,195407745052467,32.34,12.719999,-5.16
1448849230357,195407785152564,31.859999,12.78,-5.2799997
1448849230392,195407824978004,31.679998,12.9,-5.3399997
1448849230432,195407864986549,31.5,13.2,-5.4
1448849230472,195407904995093,31.199999,13.86,-5.7599998
1448849230513,195407945064674,30.779999,15.24,-6.2999997
1448849230553,195407985042701,30.3,16.98,-7.02
1448849230593,195408025051246,29.64,19.199999,-8.099999
1448849230633,195408065090308,28.56,21.6,-9.12
1448849230673,195408105068336,27.119999,24.0,-9.96
1448849230713,195408145076881,25.38,26.939999,-10.38
1448849230753,195408185085425,23.88,29.939999,-10.32
1448849230793,195408225063453,22.8,32.46,-9.66
1448849230833,195408265163550,22.26,34.38,-8.82
1448849230873,195408305141578,22.14,35.52,-7.62
1448849230913,195408345119605,21.9,36.12,-6.06
1448849230953,195408385158668,21.539999,36.6,-4.62
1448849230993,195408425045142,21.24,37.02,-2.58
1448849231033,195408465114722,20.939999,37.079998,-0.48
1448849231073,195408505123267,20.64,37.079998,1.26
1448849231113,195408545162330,20.4,37.079998,2.76
1448849231153,195408585048804,20.1,37.079998,3.72
1448849231193,195408625026832,19.74,37.079998,4.3199997
1448849231233,195408665004859,19.5,37.079998,4.92
1448849231273,195408705165992,19.38,37.079998,5.3399997
1448849231313,195408745082984,19.38,37.079998,5.8799996
1448849231357,195408785274634,19.38,37.079998,6.18
1448849231393,195408825069556,19.38,37.079998,6.42
1448849231433,195408865078101,19.38,37.079998,6.6
1448849231473,195408905056129,19.38,36.96,6.66
1448849231513,195408945034156,19.439999,36.899998,6.66
1448849231553,195408985073218,19.439999,36.719997,6.66
1448849231593,195409025051246,19.56,36.48,6.6
1448849231633,195409065059791,19.68,36.239998,6.3599997
1448849231673,195409105068336,20.1,36.0,5.94
1448849231713,195409145046363,21.06,35.52,5.1
1448849231753,195409185085425,22.32,34.98,4.08
1448849231793,195409225032935,22.32,34.32,3.06
1448849231833,195409265071998,25.439999,33.48,1.86
1448849231873,195409305080543,26.699999,32.46,0.96
1448849231913,195409345028052,27.779999,31.5,0.12
1448849231953,195409385036597,27.779999,30.66,-0.71999997
1448849231993,195409425014625,29.099998,30.0,-1.38
1448849232033,195409465053687,29.34,29.76,-1.86
1448849232073,195409505062232,29.34,29.64,-2.28
1448849232113,195409545131812,29.16,29.519999,-2.7
1448849232153,195409585079322,29.16,29.4,-3.12
1448849232193,195409625057349,29.16,29.22,-3.72
1448849232233,195409665035377,29.16,29.039999,-4.44
1448849232273,195409705074439,29.16,28.859999,-5.1
1448849232313,195409745052467,29.16,28.32,-5.8799996
1448849232357,195409785244117,29.039999,27.66,-6.72
1448849232393,195409825039039,28.92,26.4,-7.98
1448849232433,195409865047584,28.74,24.96,-9.42
1448849232473,195409905056129,28.74,24.96,-10.92
1448849232513,195409945064674,27.539999,22.02,-12.48
1448849232553,195409985042701,27.0,21.06,-13.44
1448849232593,195410025051246,26.519999,20.34,-14.219999
1448849232633,195410065059791,26.58,19.56,-14.7
1448849232673,195410105037818,26.64,19.199999,-14.82
1448849232713,195410145015845,26.699999,18.9,-14.94
1448849232753,195410185115943,26.699999,18.66,-14.94
1448849232793,195410225063453,26.699999,18.72,-14.94
1448849232833,195410265041480,26.699999,18.779999,-15.0
1448849232873,195410305050025,26.699999,18.96,-15.059999
1448849232913,195410345119605,26.699999,19.199999,-15.12
1448849232953,195410385036597,26.519999,19.98,-15.24
1448849232993,195410425045142,25.98,21.42,-15.48
1448849233033,195410465114722,25.26,23.1,-15.719999
1448849233073,195410505031715,25.26,23.1,-15.719999
1448849233113,195410545070777,22.56,26.519999,-16.199999
1448849233153,195410585048804,21.6,27.24,-16.26
1448849233193,195410625057349,20.76,27.66,-16.26
1448849233233,195410665035377,20.4,27.539999,-15.96
1448849233273,195410705074439,20.46,27.42,-15.059999
1448849233313,195410745052467,20.4,27.3,-13.62
1448849233357,195410785152564,20.4,27.24,-12.059999
1448849233393,195410825039039,20.22,27.18,-10.38
1448849233433,195410865017066,20.22,27.18,-9.059999
1448849233473,195410905056129,20.279999,27.18,-7.62
1448849233513,195410945003638,20.34,27.24,-6.3599997
1448849233553,195410985073218,20.4,27.359999,-5.4
1448849233593,195411025051246,20.4,27.48,-4.7999997
1448849233633,195411065059791,20.4,27.539999,-4.68
1448849233673,195411105037818,20.4,27.66,-4.56
1448849233713,195411145076881,20.4,27.66,-4.3199997
1448849233753,195411185054908,20.4,27.66,-4.14
1448849233793,195411225032935,20.4,27.66,-3.84
1448849233833,195411265041480,20.4,27.66,-3.3
1448849233873,195411305050025,20.46,27.539999,-2.58
1448849233913,195411345058570,20.939999,27.3,-1.92
1448849233953,195411385036597,22.02,27.3,-1.92
1448849233993,195411425075660,23.64,24.9,-1.86
1448849234033,195411465175758,25.26,23.46,-2.22
1448849234073,195411505031715,26.82,23.46,-2.34
1448849234113,195411545040259,27.9,21.9,-1.9799999
1448849234154,195411585018287,28.38,20.699999,-1.1999999
1448849234193,195411625118384,28.8,19.439999,-1.1999999
1448849234232,195411665004859,28.859999,18.18,1.0799999
1448849234273,195411705104957,28.92,16.8,2.34
1448849234313,195411745052467,29.039999,15.66,3.9599998
1448849234357,195411785305152,29.279999,13.799999,5.46
1448849234393,195411825039039,29.279999,13.799999,7.08
1448849234433,195411865078101,29.34,13.08,8.639999
1448849234473,195411905056129,29.34,12.599999,9.54
1448849234513,195411945034156,29.4,12.24,9.54
1448849234553,195411985073218,29.46,12.179999,10.08
1448849234593,195412025020728,29.519999,12.179999,10.44
1448849234633,195412065059791,29.519999,12.179999,10.74
1448849234673,195412105098853,29.519999,12.179999,10.98
1448849234713,195412145046363,29.519999,12.179999,11.28
1448849234753,195412185054908,29.519999,12.179999,11.639999
1448849234793,195412225032935,29.64,12.179999,11.88
1448849234833,195412265071998,29.76,12.059999,12.179999
1448849234873,195412305050025,29.88,12.0,12.42
1448849234913,195412344936500,30.06,12.0,12.54
1448849234952,195412384975562,30.179998,12.179999,12.66
1448849234992,195412424984107,30.24,12.48,12.599999
1448849235033,195412465206275,30.24,12.84,12.54
1448849235073,195412505092750,30.24,13.2,12.54
1448849235113,195412545131812,30.24,13.559999,12.54
1448849235153,195412585048804,30.24,13.799999,12.54
1448849235193,195412625087867,30.24,13.92,12.66
1448849235233,195412665035377,30.179998,13.98,12.84
1448849235273,195412705074439,30.06,13.98,13.0199995
1448849235313,195412745082984,29.699999,14.16,13.86
1448849235356,195412785152564,29.099998,14.46,16.38
1448849235393,195412825069556,28.32,14.759999,16.38
1448849235433,195412865047584,27.18,15.12,18.119999
1448849235473,195412905056129,25.32,15.719999,19.32
1448849235513,195412945003638,22.8,16.98,20.34
1448849235553,195412985042701,19.619999,18.72,21.3
1448849235593,195413025051246,16.199999,20.4,22.02
1448849235633,195413065059791,12.719999,21.779999,22.5
1448849235672,195413104946265,9.12,22.32,22.68
1448849235712,195413144985328,5.8199997,22.32,22.56
1448849235752,195413184993873,2.46,22.32,22.26
1448849235793,195413225032935,-0.65999997,22.14,21.96
1448849235833,195413265041480,-3.06,21.84,21.6
1448849235873,195413305050025,-5.46,21.3,20.82
1448849235913,195413345058570,-7.9199996,20.34,19.38
1448849235953,195413385067115,-9.599999,18.72,17.699999
1448849235993,195413425075660,-11.16,16.74,15.66
1448849236033,195413465053687,-12.059999,14.82,13.799999
1448849236073,195413505031715,-12.24,13.139999,12.36
1448849236113,195413545070777,-12.36,12.179999,10.98
1448849236153,195413585048804,-12.48,11.759999,10.139999
1448849236193,195413625057349,-12.66,11.5199995,9.719999
1448849236233,195413665065894,-12.719999,11.34,9.48
1448849236273,195413705043922,-12.84,11.34,9.54
1448849236313,195413745144019,-12.84,11.34,9.54
1448849236357,195413785152564,-12.78,11.58,10.26
1448849236393,195413825069556,-12.78,11.58,10.26
1448849236432,195413864986549,-12.42,12.24,11.58
1448849236473,195413905086646,-11.58,13.32,13.559999
1448849236512,195413945064674,-10.08,14.7,15.66
1448849236553,195413985042701,-7.5,16.74,17.82
1448849236593,195414025173316,-4.3199997,18.539999,19.38
1448849236633,195414065059791,-0.71999997,20.279999,20.4
1448849236673,195414105068336,3.0,21.72,21.48
1448849236713,195414145046363,6.2999997,22.32,22.14
1448849236753,195414185085425,9.599999,22.619999,22.56
1448849236793,195414225063453,13.0199995,22.5,22.8
1448849236833,195414265071998,16.14,22.32,22.68
1448849236873,195414305050025,19.14,22.08,22.5
1448849236913,195414345089088,21.96,21.48,22.02
1448849236953,195414385036597,24.119999,20.64,21.539999
1448849236993,195414425075660,26.099998,19.439999,20.58
1448849237033,195414465053687,27.599998,17.88,19.5
1448849237073,195414505031715,28.5,16.38,18.539999
1448849237113,195414545040259,29.34,15.059999,17.46
1448849237153,195414585079322,29.58,14.099999,16.859999
1448849237193,195414625026832,29.76,13.62,16.56
1448849237233,195414665096412,29.76,13.74,16.56
1448849237273,195414705013404,29.46,13.98,16.68
1448849237313,195414745113502,29.039999,14.4,17.1
1448849237357,195414785152564,27.96,15.24,17.82
1448849237393,195414825069556,25.619999,16.5,18.9
1448849237433,195414865078101,22.14,17.699999,20.4
1448849237473,195414905056129,18.0,19.26,21.66
1448849237513,195414945064674,13.559999,20.46,22.38
1448849237553,195414985073218,9.059999,21.3,22.38
1448849237593,195415025051246,4.92,22.14,21.84
1448849237633,195415065059791,1.14,22.38,21.3
1448849237673,195415105037818,-1.92,22.439999,20.76
1448849237713,195415145046363,-4.38,22.14,20.16
1448849237753,195415185085425,-6.2999997,21.72,19.02
1448849237793,195415225032935,-8.22,21.24,17.22
1448849237833,195415265041480,-9.78,20.34,15.059999
1448849237873,195415305050025,-10.98,18.6,13.08
1448849237912,195415344936500,-11.88,16.26,11.58
1448849237953,195415385067115,-12.42,14.04,10.559999
1448849237993,195415425075660,-12.84,12.12,9.78
1448849238033,195415465053687,-12.96,11.16,9.36
1448849238073,195415505031715,-13.0199995,10.8,9.12
1448849238113,195415545040259,-13.0199995,10.62,9.059999
1448849238153,195415585048804,-13.0199995,10.62,9.3
1448849238193,195415625087867,-13.0199995,10.8,9.36
1448849238233,195415665035377,-12.96,10.98,9.599999
1448849238273,195415705043922,-12.78,11.16,10.08
1448849238313,195415745052467,-12.3,11.82,11.28
1448849238357,195415785183082,-11.58,13.32,12.84
1448849238393,195415825039039,-10.139999,15.54,15.059999
1448849238433,195415865078101,-8.04,18.06,17.279999
1448849238473,195415905056129,-5.7599998,20.22,19.199999
1448849238513,195415945064674,-2.34,21.48,20.76
1448849238553,195415985042701,1.3199999,22.08,21.539999
1448849238593,195416025081763,5.04,22.26,22.08
1448849238633,195416065090308,9.24,22.199999,22.38
1448849238672,195416104946265,12.78,22.199999,22.8
1448849238713,195416145076881,15.839999,22.08,22.92
1448849238752,195416184993873,18.18,21.96,23.039999
1448849238793,195416225063453,19.859999,21.96,22.98
1448849238833,195416265041480,21.119999,21.779999,22.68
1448849238873,195416305141578,22.56,21.3,22.56
1448849238913,195416345150123,23.64,20.699999,22.5
1448849238953,195416385128150,24.539999,20.039999,22.439999
1448849239009,195416425045142,25.08,19.5,22.32
1448849239032,195416465114722,24.96,19.199999,22.199999
1448849239073,195416505153785,24.66,19.199999,22.14
1448849239113,195416545040259,23.82,19.439999,22.14
1448849239153,195416585079322,22.619999,19.68,22.14
1448849239193,195416625148902,20.1,20.34,22.26
1448849239233,195416665157447,16.859999,20.939999,22.26
1448849239273,195416705104957,13.259999,21.42,22.199999
1448849239313,195416745144019,9.179999,21.9,22.14
1448849239356,195416785213599,5.58,22.02,21.96
1448849239393,195416824978004,2.1,22.02,21.66
1448849239433,195416865108619,-0.96,22.02,21.359999
1448849239473,195416905208717,-3.6599998,21.96,20.88
1448849239513,195416945034156,-5.8799996,21.72,20.16
1448849239553,195416985073218,-7.56,21.119999,18.9
1448849239593,195417025203834,-9.0,20.1,17.22
1448849239633,195417065120826,-9.96,18.66,15.54
1448849239673,195417105068336,-10.38,16.8,13.799999
1448849239713,195417145046363,-10.559999,14.88,12.36
1448849239753,195417185146461,-10.62,13.32,11.4
1448849239793,195417225063453,-10.679999,11.94,10.679999
1448849239833,195417265041480,-10.8,10.92,10.32
1448849239873,195417305080543,-10.92,10.38,10.26
1448849239913,195417345058570,-11.04,10.0199995,10.32
1448849239953,195417385067115,-11.099999,9.9,10.44
1448849239993,195417425106177,-11.099999,10.0199995,10.559999
1448849240033,195417465053687,-11.099999,10.08,10.679999
1448849240073,195417505092750,-11.04,10.32,10.92
1448849240112,195417544979224,-10.5,11.5199995,11.7
1448849240153,195417585048804,-9.599999,13.559999,12.9
1448849240193,195417625026832,-8.58,16.02,14.759999
1448849240233,195417665096412,-6.48,18.84,16.8
1448849240273,195417705074439,-4.08,20.939999,18.66
1448849240313,195417745052467,-0.96,22.14,20.34
1448849240356,195417785183082,2.58,22.859999,21.42
1448849240393,195417825069556,6.0,22.98,22.14
1448849240433,195417865078101,9.24,22.8,22.56
1448849240473,195417905056129,12.059999,22.74,22.74
1448849240513,195417945095191,14.759999,22.56,22.8
1448849240553,195417985042701,16.74,22.199999,22.92
1448849240593,195418025081763,18.6,21.539999,22.92
1448849240633,195418065090308,20.34,20.88,22.859999
1448849240673,195418105129371,21.779999,20.16,22.8
1448849240713,195418145046363,22.92,19.38,22.68
1448849240753,195418185054908,23.58,18.6,22.5
1448849240793,195418225063453,23.64,17.88,22.26
1448849240833,195418265041480,23.58,17.34,22.02
1448849240873,195418305263648,23.58,17.039999,21.84
1448849240913,195418345119605,23.46,17.039999,21.779999
1448849240953,195418385402808,22.92,17.22,21.779999
1448849240993,195418425075660,21.0,18.119999,21.9
1448849241033,195418465114722,18.72,19.14,22.14
1448849241073,195418505123267,15.24,20.279999,22.38
1448849241113,195418545070777,11.46,21.24,22.56
1448849241153,195418585048804,7.9199996,21.48,22.56
1448849241193,195418625087867,3.8999999,21.6,22.14
1448849241233,195418665096412,0.48,21.6,21.66
1448849241273,195418705074439,-2.76,21.539999,21.119999
1448849241313,195418745082984,-5.22,21.359999,20.52
1448849241356,195418785183082,-7.68,20.76,19.859999
1448849241393,195418825039039,-9.84,19.8,18.24
1448849241433,195418865047584,-11.46,18.359999,16.619999
1448849241473,195418905117164,-12.66,16.32,14.7
1448849241513,195418945034156,-13.0199995,14.34,12.9
1448849241553,195418985073218,-13.0199995,12.24,11.88
1448849241593,195419024959693,-13.0199995,10.62,10.74
1448849241633,195419065059791,-13.08,9.719999,10.08
1448849241673,195419105037818,-13.139999,9.24,9.599999
1448849241713,195419145107398,-13.139999,9.24,9.36
1448849241753,195419185085425,-13.2,9.24,9.36
1448849241793,195419225093970,-13.2,9.24,9.36
1448849241833,195419265071998,-13.0199995,9.66,9.84
1448849241873,195419305050025,-12.599999,10.44,10.559999
1448849241913,195419345058570,-11.759999,11.58,12.0
1448849241953,195419385067115,-10.139999,13.139999,13.86
1448849241993,195419425106177,-8.22,15.54,15.719999
1448849242033,195419465114722,-5.58,17.76,17.699999
1448849242073,195419505031715,-2.58,19.74,19.439999
1448849242113,195419545101295,0.35999998,21.6,20.88
1448849242153,195419585048804,3.54,22.14,21.96
1448849242193,195419625118384,6.66,22.38,22.8
1448849242233,195419665065894,9.78,22.38,23.34
1448849242273,195419705074439,13.08,22.08,23.76
1448849242313,195419745052467,15.9,21.96,23.88
1448849242356,195419785610328,18.3,21.779999,23.64
1448849242393,195419825039039,19.859999,21.539999,23.34
1448849242433,195419865017066,21.06,21.18,22.98
1448849242473,195419905086646,21.96,20.64,22.92
1448849242513,195419945064674,22.38,20.1,22.859999
1448849242553,195419985195289,22.68,19.68,22.8
1448849242593,195420025051246,22.5,19.5,22.619999
1448849242633,195420065120826,22.08,19.5,22.5
1448849242673,195420105068336,21.48,19.56,22.5
1448849242713,195420145046363,19.92,19.8,22.5
1448849242753,195420185085425,16.74,20.039999,22.859999
1448849242793,195420225093970,12.9,20.58,22.74
1448849242833,195420265071998,8.46,21.119999,22.56
1448849242873,195420305050025,3.8999999,21.539999,21.96
1448849242913,195420345150123,0.06,21.84,21.119999
1448849242953,195420385036597,-3.06,21.779999,20.4
1448849242993,195420425106177,-5.94,21.66,19.32
1448849243033,195420465206275,-8.099999,20.939999,18.24
1448849243073,195420504970679,-9.48,19.92,16.44
1448849243113,195420545101295,-10.679999,18.48,14.4
1448849243153,195420585048804,-11.46,16.8,12.719999
1448849243193,195420625087867,-11.759999,14.82,11.46
1448849243233,195420665065894,-12.0,13.0199995,10.32
1448849243273,195420705135474,-12.24,11.34,9.66
1448849243313,195420745144019,-12.42,10.0199995,8.94
1448849243357,195420785183082,-12.84,9.599999,8.22
1448849243393,195420825069556,-13.2,9.3,8.04
1448849243433,195420865078101,-13.5,9.42,7.8599997
1448849243473,195420905056129,-13.74,9.42,7.8599997
1448849243513,195420945034156,-13.559999,9.78,8.5199995
1448849243553,195420985073218,-13.32,10.44,9.54
1448849243593,195421025112281,-12.84,12.0,10.74
1448849243633,195421065090308,-12.12,14.28,12.24
1448849243673,195421105098853,-10.62,16.44,14.219999
1448849243713,195421145076881,-8.5199995,18.9,16.26
1448849243753,195421185085425,-5.22,20.64,18.48
1448849243792,195421224941383,-1.02,21.84,20.46
1448849243833,195421265041480,3.1799998,22.68,21.6
1448849243873,195421305111060,7.56,22.74,22.199999
1448849243913,195421345119605,11.58,22.38,22.56
1448849243953,195421385067115,15.299999,21.84,22.74
1448849243993,195421425045142,18.359999,21.119999,22.619999
1448849244033,195421465053687,21.119999,20.52,22.439999
1448849244073,195421505062232,22.74,19.859999,22.26
1448849244113,195421544979224,23.64,18.72,22.08
1448849244153,195421585506568,24.3,17.52,21.9
1448849244193,195421625148902,24.6,16.38,21.66
1448849244234,195421665157447,24.9,15.719999,21.42
1448849244273,195421705074439,25.08,15.599999,21.18
1448849244313,195421745082984,25.08,15.839999,21.119999
1448849244357,195421785183082,23.88,16.5,21.119999
1448849244393,195421825100074,22.199999,17.279999,21.42
1448849244433,195421865078101,19.859999,18.24,21.779999
1448849244473,195421905056129,16.32,19.5,21.96
1448849244513,195421945095191,12.48,20.279999,21.779999
1448849244552,195421985012183,8.22,20.88,21.119999
1448849244592,195422025020728,3.6,21.06,20.34
1448849244633,195422065334449,-0.35999998,20.82,19.619999
1448849244673,195422105098853,-3.3,20.699999,19.26
1448849244713,195422145107398,-5.7599998,20.46,18.84
1448849244753,195422185115943,-7.68,20.22,17.64
1448849244793,195422225032935,-9.3,19.8,16.08
1448849244833,195422265041480,-10.679999,19.199999,14.34
1448849244873,195422305233131,-11.88,18.24,12.42
1448849244913,195422345089088,-12.719999,16.98,10.92
1448849244953,195422385036597,-13.38,15.299999,10.0199995
1448849244993,195422425075660,-13.92,13.679999,9.3
1448849245033,195422465114722,-14.04,12.42,9.0
1448849245073,195422505062232,-14.099999,11.639999,9.0
1448849245113,195422545070777,-14.04,11.5199995,9.0
1448849245153,195422585079322,-13.98,11.5199995,9.0
1448849245193,195422625118384,-14.04,11.5199995,9.12
1448849245233,195422665065894,-13.799999,11.759999,9.66
1448849245272,195422704982886,-13.44,12.42,10.5
1448849245313,195422745113502,-12.599999,13.92,11.7
1448849245354,195422785183082,-10.98,16.26,13.62
1448849245393,195422825069556,-8.76,18.539999,15.78
1448849245433,195422865108619,-6.12,20.52,18.119999
1448849245473,195422905086646,-2.6399999,21.9,20.22
1448849245513,195422945034156,0.9,22.5,21.84
1448849245553,195422985073218,4.74,22.8,22.98
1448849245593,195423025081763,8.82,22.98,23.58
1448849245633,195423065090308,12.36,22.8,23.939999
1448849245673,195423105037818,15.66,22.38,23.939999
1448849245713,195423145107398,18.359999,21.96,23.76
1448849245753,195423185115943,20.279999,21.539999,23.58
1448849245793,195423225124488,21.84,20.939999,23.4
1448849245833,195423265041480,22.8,19.92,23.16
1448849245873,195423305080543,23.279999,18.72,22.8
1448849245913,195423345089088,23.699999,17.34,22.38
1448849245953,195423385189185,23.699999,16.5,22.08
1448849245992,195423425014625,23.64,16.38,21.9
1448849246033,195423465206275,23.46,16.44,21.84
1448849246073,195423505123267,22.92,16.92,21.9
1448849246113,195423545040259,21.539999,17.279999,22.02
1448849246153,195423585079322,19.199999,17.82,22.26
1448849246193,195423625087867,15.9,18.6,22.38
1448849246233,195423665035377,12.3,19.32,22.439999
1448849246273,195423705104957,8.28,19.92,22.26
1448849246313,195423745082984,4.38,20.22,21.66
1448849246356,195423785183082,1.0799999,20.279999,21.06
1448849246393,195423825100074,-2.22,20.16,20.34
1448849246433,195423865078101,-4.92,19.859999,19.439999
1448849246473,195423905086646,-7.02,19.619999,18.24
1448849246513,195423945064674,-9.059999,18.9,16.56
1448849246553,195423985073218,-10.86,17.88,14.82
1448849246593,195424025081763,-12.059999,16.14,13.259999
1448849246633,195424065090308,-13.08,14.099999,12.179999
1448849246673,195424105068336,-13.5,12.36,11.58
1448849246713,195424144985328,-13.559999,11.04,10.92
1448849246753,195424185146461,-13.62,10.62,10.38
1448849246793,195424225002418,-13.559999,10.559999,9.9
1448849246833,195424265102515,-13.62,10.62,9.48
1448849246873,195424305080543,-13.62,10.74,9.48
1448849246913,195424345394263,-13.559999,10.8,9.54
1448849246953,195424385128150,-13.38,11.04,9.84
1448849246993,195424425014625,-13.0199995,11.46,10.32
1448849247033,195424465175758,-12.12,12.179999,11.099999
1448849247073,195424505123267,-10.5,13.2,12.24
1448849247113,195424545162330,-8.28,14.82,14.219999
1448849247153,195424585201392,-5.2799997,16.199999,16.56
1448849247193,195424625148902,-1.9799999,17.58,19.02
1448849247233,195424665035377,1.1999999,18.72,21.18
1448849247273,195424705074439,4.44,19.56,22.5
1448849247313,195424745052467,7.5,20.279999,23.34
1448849247357,195424785213599,10.44,20.699999,23.76
1448849247393,195424825069556,13.259999,20.88,24.0
1448849247433,195424865139136,15.78,20.76,24.06
1448849247473,195424905086646,18.18,20.699999,23.939999
1448849247513,195424945095191,20.1,20.52,23.82
1448849247553,195424985103736,21.539999,20.22,23.76
1448849247593,195425025081763,22.92,19.32,23.64
1448849247633,195425065090308,23.88,18.3,23.34
1448849247673,195425105098853,24.539999,17.34,22.98
1448849247713,195425145107398,25.08,16.56,22.32
1448849247753,195425185054908,25.08,16.38,21.72
1448849247793,195425225063453,24.96,16.44,21.42
1448849247833,195425265071998,24.72,16.619999,21.18
1448849247873,195425305050025,23.88,16.859999,21.539999
1448849247913,195425345089088,22.02,17.34,21.9
1448849247953,195425385067115,19.14,18.119999,22.199999
1448849247993,195425425045142,15.42,18.9,22.5
1448849248033,195425465145240,11.58,19.56,22.5
1448849248073,195425505031715,7.7999997,20.039999,22.439999
1448849248113,195425545192847,4.14,20.22,22.26
1448849248153,195425585079322,0.9,20.22,21.9
1448849248193,195425625240455,-2.04,20.34,21.539999
1448849248233,195425665096412,-4.92,20.1,21.06
1448849248273,195425705471168,-6.96,19.56,20.22
1448849248322,195425754970679,-8.58,18.779999,18.6
1448849248362,195425794979224,-9.96,17.52,16.68
1448849248403,195425835628638,-10.86,15.9,14.639999
1448849248443,195425875087867,-11.82,14.16,12.719999
1448849248483,195425915218482,-12.54,12.36,11.5199995
1448849248525,195425955410133,-13.0199995,11.04,10.44
1448849248563,195425995235572,-13.08,10.139999,9.78
1448849248603,195426035305152,-13.0199995,9.66,9.48
1448849248643,195426075313697,-13.0199995,9.599999,9.36
1448849248683,195426115139136,-13.0199995,9.54,9.54
1448849248723,195426155239234,-13.0199995,9.54,9.54
1448849248763,195426195278297,-13.0199995,9.599999,9.66
1448849248803,195426235286842,-12.9,9.9,10.2
1448849248843,195426275295386,-12.719999,10.38,11.28
1448849248883,195426315303931,-12.3,11.219999,13.0199995
1448849248923,195426355281959,-11.04,12.599999,15.299999
1448849248966,195426395229468,-9.36,14.46,17.52
1448849249006,195426435268531,-6.7799997,16.68,19.439999
1448849249046,195426475246558,-3.48,18.84,21.0
1448849249083,195426515224586,0.06,20.88,21.9
1448849249123,195426555233131,4.2,21.96,22.74
1448849249166,195426595241675,8.16,22.439999,23.1
1448849249203,195426635250220,11.88,22.619999,23.22
1448849249243,195426675258765,14.88,22.32,23.22
1448849249285,195426715450416,17.58,22.26,23.039999
1448849249323,195426755306373,19.98,21.96,22.8
1448849249366,195426795040259,22.26,21.42,22.5
1448849249403,195426835292945,24.359999,20.16,21.779999
1448849249443,195426875332008,25.92,18.72,21.119999
1448849249483,195426915310035,27.0,17.4,20.34
1448849249523,195426955288062,27.539999,16.14,19.619999
1448849249563,195426995235572,27.72,15.66,19.38
1448849249603,195427035335670,27.66,15.599999,19.26
1448849249643,195427075252662,27.599998,15.599999,19.38
1448849249686,195427115291724,26.88,15.9,19.92
1448849249723,195427155269752,25.26,16.44,20.58
1448849249763,195427195278297,22.68,16.98,21.24
1448849249803,195427235286842,18.9,18.06,21.9
1448849249843,195427275295386,15.0,19.02,22.26
1448849249883,195427315334449,11.219999,20.16,22.26
1448849249923,195427355281959,7.56,20.939999,22.199999
1448849249963,195427395290504,4.44,21.119999,21.9
1448849250003,195427435329566,1.4399999,21.24,21.6
1448849250043,195427475277076,-1.38,21.0,21.42
1448849250083,195427515316138,-3.72,20.82,20.939999
1448849250123,195427555324683,-5.7599998,20.1,19.56
1448849250163,195427595272193,-7.7999997,19.14,17.58
1448849250203,195427635280738,-9.059999,17.52,15.179999
1448849250243,195427675319800,-9.96,15.24,12.84
1448849250283,195427715206275,-10.62,13.38,11.28
1448849250323,195427755275855,-10.98,11.34,9.96
1448849250363,195427795253883,-11.5199995,9.96,8.88
1448849250406,195427835231910,-11.88,9.179999,8.16
1448849250446,195427875240455,-12.12,8.7,7.56
1448849250486,195427915218482,-12.12,8.76,7.3799996
1448849250523,195427955257545,-12.12,8.82,7.44
1448849250565,195427995540748,-12.179999,9.0,7.5
1448849250603,195428035305152,-12.24,9.059999,7.56
1448849250643,195428075283179,-12.179999,9.54,7.9199996
1448849250683,195428115291724,-12.059999,10.26,8.5199995
1448849250723,195428155300269,-11.639999,11.94,9.54
1448849250763,195428195247779,-10.98,14.34,11.04
1448849250803,195428235286842,-9.96,16.68,12.599999
1448849250843,195428275295386,-7.62,19.199999,14.82
1448849250884,195428315609107,-4.44,20.699999,16.98
1448849250923,195428355281959,-0.59999996,21.48,19.08
1448849250963,195428395321021,3.72,21.72,21.18
1448849251003,195428435299049,7.2,21.539999,22.439999
1448849251043,195428475277076,10.32,21.359999,23.16
1448849251083,195428515316138,13.139999,21.18,23.58
1448849251126,195428555324683,15.78,21.06,23.519999
1448849251163,195428595302711,18.48,20.58,23.4
1448849251203,195428635311256,20.82,19.74,23.22
1448849251243,195428675289283,22.68,18.84,22.98
1448849251283,195428715328345,23.82,17.58,22.38
1448849251323,195428755275855,24.539999,16.8,21.539999
1448849251366,195428795040259,24.779999,16.32,20.88
1448849251403,195428835292945,24.84,16.02,20.4
1448849251443,195428875301490,24.9,16.02,20.22
1448849251483,195428915249000,24.6,16.14,20.279999
1448849251523,195428955318580,23.1,16.8,20.699999
1448849251563,195428995235572,20.64,17.94,21.0
1448849251603,195429035335670,17.699999,19.08,21.42
1448849251643,195429075283179,13.799999,20.1,21.72
1448849251683,195429115291724,10.32,20.58,21.72
1448849251723,195429155330787,6.66,20.46,21.539999
1448849251763,195429195278297,2.6399999,20.279999,21.3
1448849251803,195429235317359,-0.71999997,20.1,21.18
1448849251843,195429275295386,-3.84,19.859999,20.88
1448849251883,195429315334449,-5.94,19.74,20.58
1448849251923,195429355281959,-7.5,19.199999,19.92
1448849251963,195429395290504,-8.7,18.18,18.779999
1448849252003,195429435329566,-9.78,16.619999,17.039999
1448849252043,195429475307593,-10.679999,14.759999,14.88
1448849252083,195429515285621,-11.219999,13.2,12.719999
1448849252123,195429555294166,-11.639999,11.88,11.04
1448849252163,195429595272193,-11.58,10.98,9.96
1448849252203,195429635311256,-11.759999,10.32,9.42
1448849252243,195429675319800,-12.0,9.9,9.179999
1448849252283,195429715328345,-12.42,9.84,9.0
1448849252323,195429755245338,-12.84,9.84,8.88
1448849252366,195429795040259,-12.9,9.96,8.88
1448849252403,195429835323463,-12.9,10.139999,9.12
1448849252443,195429875301490,-12.599999,10.559999,9.66
1448849252483,195429915310035,-11.88,11.4,10.74
1448849252523,195429955227027,-11.04,13.08,12.599999
1448849252567,195429996029029,-10.0199995,15.48,14.94
1448849252603,195430035335670,-8.4,18.18,17.279999
1448849252643,195430075313697,-5.3399997,20.46,19.32
1448849252683,195430115169654,-1.14,21.779999,21.06
1448849252723,195430155330787,3.4199998,22.38,22.14
1448849252763,195430195278297,7.8599997,22.26,22.859999
1448849252803,195430235286842,11.28,22.14,23.279999
1448849252843,195430275295386,14.219999,22.08,23.16
1448849252883,195430315303931,17.16,22.02,23.1
1448849252923,195430355281959,19.8,21.9,22.98
1448849252963,195430395290504,21.96,21.539999,22.8
1448849253003,195430435299049,23.4,20.939999,22.38
1448849253043,195430475307593,24.359999,19.92,21.84
1448849253083,195430515255103,25.08,18.539999,20.939999
1448849253123,195430555263648,25.38,17.34,20.22
1448849253163,195430595302711,25.619999,16.56,19.859999
1448849253203,195430635250220,25.619999,16.38,19.56
1448849253243,195430675289283,25.5,16.56,19.68
1448849253286,195430715328345,24.9,16.98,19.859999
1448849253323,195430755245338,23.699999,17.64,20.16
1448849253366,195430795040259,21.539999,18.84,20.699999
1448849253403,195430835292945,18.24,20.16,21.24
1448849253443,195430875240455,14.7,21.18,21.9
1448849253483,195430915249000,10.8,21.96,22.199999
1448849253523,195430955318580,7.02,22.14,22.199999
1448849253563,195430995205054,3.54,22.02,22.08
1448849253603,195431035305152,0.29999998,22.02,21.779999
1448849253643,195431075283179,-2.52,21.84,21.42
1448849253683,195431115261207,-5.1,21.48,20.76
1448849253723,195431155330787,-7.2599998,20.46,19.8
1448849253763,195431195278297,-9.24,19.02,18.119999
1448849253803,195431235317359,-10.679999,16.8,16.08
1448849253843,195431275295386,-11.5199995,14.34,14.34
1448849253883,195431315303931,-12.0,12.599999,12.54
1448849253923,195431355281959,-12.24,10.98,11.219999
1448849253963,195431395259986,-12.599999,10.0199995,10.26
1448849254003,195431435299049,-12.84,9.36,9.179999
1448849254043,195431475307593,-13.0199995,8.88,8.7
1448849254083,195431515316138,-13.2,8.76,8.5199995
1448849254123,195431555294166,-13.2,8.82,8.5199995
1448849254163,195431595333228,-13.139999,8.94,8.7
1448849254203,195431635158668,-13.0199995,9.24,9.0
1448849254243,195431675319800,-12.84,9.599999,9.42
1448849254283,195431715328345,-12.24,10.5,10.5
1448849254323,195431755275855,-11.4,12.24,12.42
1448849254366,195431795040259,-10.139999,14.34,15.0
1448849254403,195431835262427,-7.68,16.8,17.699999
1448849254443,195431875332008,-4.5,19.08,19.859999
1448849254483,195431915279517,-0.48,20.699999,21.18
1448849254523,195431955288062,3.8999999,21.72,21.9
1448849254563,195431995296607,7.5,22.199999,22.26
1448849254603,195432035335670,10.92,22.14,22.439999
1448849254643,195432075313697,14.04,21.72,22.619999
1448849254687,195432115322242,16.92,21.42,22.619999
1448849254726,195432155300269,19.5,20.939999,22.619999
1448849254767,195432195278297,21.539999,20.34,22.56
1448849254803,195432235317359,22.92,19.32,22.439999
1448849254843,195432275295386,24.119999,18.0,22.02
1448849254883,195432315303931,25.019999,16.74,21.66
1448849254923,195432355312476,25.439999,15.719999,21.06
1448849254963,195432395229468,25.8,15.24,20.52
1448849255003,195432435329566,25.68,15.24,20.1
1448849255043,195432475307593,25.56,15.24,19.92
1448849255083,195432515285621,25.439999,15.299999,19.98
1448849255123,195432555294166,24.72,15.599999,20.279999
1448849255163,195432595302711,23.64,16.02,20.699999
1448849255203,195432635311256,21.539999,16.74,21.06
1448849255243,195432675289283,18.24,18.119999,21.48
1448849255283,195432715328345,14.7,19.32,21.9
1448849255323,195432755275855,11.04,20.34,22.26
1448849255373,195432795040259,7.56,21.42,22.5
1448849255420,195432845058570,4.44,21.66,22.32
1448849255458,195432885158668,-1.0799999,21.779999,22.08
1448849255493,195432925106177,-1.0799999,21.779999,22.08
1448849255533,195432965114722,-3.6,21.539999,21.9
1448849255573,195433005092750,-5.7,21.119999,21.42
1448849255613,195433045040259,-7.5,20.58,20.22
1448849255653,195433085079322,-8.94,19.68,18.96
1448849255693,195433125148902,-10.32,17.76,17.279999
1448849255733,195433165096412,-11.5199995,15.54,15.599999
1448849255773,195433205074439,-12.599999,13.5,14.34
1448849255813,195433245144019,-13.32,11.4,12.96
1448849255853,195433285152564,-13.679999,10.2,11.759999
1448849255893,195433325039039,-13.799999,9.48,10.92
1448849255933,195433365078101,-13.799999,8.76,10.38
1448849255973,195433405147681,-13.799999,8.639999,10.139999
1448849256013,195433445064674,-13.86,8.639999,10.08
1448849256053,195433485073218,-13.86,8.7,10.139999
1448849256093,195433524929175,-13.62,9.36,10.62
1448849256133,195433565059791,-13.139999,10.26,11.4
1448849256173,195433605037818,-12.48,11.58,12.48
1448849256213,195433645076881,-11.4,13.44,14.219999
1448849256253,195433685085425,-10.26,15.42,16.02
1448849256293,195433725124488,-9.0,17.279999,17.699999
1448849256333,195433765071998,-6.7799997,18.96,19.5
1448849256373,195433805172095,-3.8999999,20.1,21.06
1448849256413,195433845150123,-0.29999998,20.64,22.26
1448849256453,195433885067115,3.84,21.119999,23.58
1448849256493,195433925045142,7.5,21.3,24.48
1448849256533,195433965145240,10.86,21.42,24.9
1448849256573,195434005092750,13.799999,21.42,25.08
1448849256613,195434045070777,16.26,21.359999,24.96
1448849256653,195434085140357,18.539999,21.24,24.9
1448849256693,195434125118384,20.34,21.0,24.66
1448849256733,195434165126929,21.9,20.4,24.24
1448849256773,195434205074439,23.1,19.74,23.279999
1448849256813,195434244991431,24.119999,18.539999,22.08
1448849256853,195434285091529,24.72,17.16,21.18
1448849256899,195434325039039,24.9,15.719999,20.4
1448849256938,195434365169654,24.66,15.66,20.52
1448849256973,195434405086646,24.66,15.66,20.52
1448849257013,195434445064674,24.42,16.02,20.64
1448849257053,195434485134254,23.76,16.32,21.0
1448849257093,195434525051246,21.539999,17.039999,21.18
1448849257133,195434565090308,18.48,18.06,21.6
1448849257173,195434605129371,14.88,18.96,21.96
1448849257213,195434645076881,10.86,19.859999,22.02
1448849257253,195434685085425,7.56,20.279999,22.26
1448849257293,195434725063453,4.44,20.34,22.26
1448849257333,195434765133033,1.5,20.34,22.26
1448849257373,195434805019508,-0.84,20.16,22.199999
1448849257413,195434845089088,-3.0,20.039999,22.08
1448849257453,195434885128150,-4.8599997,19.8,21.539999
1448849257492,195434924923072,-6.72,19.199999,20.82
1448849257533,195434965114722,-8.7,18.18,19.8
1448849257573,195435005062232,-10.0199995,16.859999,18.0
1448849257613,195435045070777,-11.04,15.42,16.199999
1448849257653,195435085140357,-11.759999,14.16,14.58
1448849257693,195435125087867,-11.94,13.38,13.08
1448849257733,195435165065894,-12.48,12.96,12.54
1448849257773,195435205135474,-12.9,12.84,12.3
1448849257813,195435245082984,-13.2,12.84,12.24
1448849257853,195435285091529,-13.44,12.9,12.36
1448849257893,195435325039039,-13.38,12.9,12.42
1448849257933,195435365047584,-13.259999,12.9,12.54
1448849257973,195435405086646,-12.599999,13.259999,13.259999
1448849258013,195435445125709,-11.759999,13.98,14.219999
1448849258053,195435485073218,-10.32,14.94,15.54
1448849258093,195435525051246,-7.5,16.68,17.4
1448849258133,195435565090308,-4.3199997,18.3,19.199999
1448849258173,195435605037818,-0.53999996,19.68,20.64
1448849258213,195435645046363,3.4199998,20.64,22.02
1448849258258,195435684993873,7.2,20.88,23.22
1448849258296,195435725277076,10.98,20.88,23.22
1448849258333,195435765071998,14.219999,20.88,23.88
1448849258373,195435805111060,16.98,20.76,24.18
1448849258413,195435845150123,19.26,20.64,24.3
1448849258453,195435885128150,20.82,20.279999,24.359999
1448849258493,195435925136695,22.38,19.8,23.76
1448849258533,195435965145240,23.88,19.14,23.34
1448849258573,195436005031715,24.72,18.359999,22.98
1448849258613,195436045040259,25.439999,17.34,22.439999
1448849258653,195436085140357,25.92,16.199999,21.779999
1448849258693,195436125087867,26.16,15.54,21.119999
1448849258733,195436165065894,26.34,15.059999,20.46
1448849258773,195436205135474,26.34,15.059999,20.16
1448849258813,195436245082984,26.099998,15.42,20.22
1448849258853,195436285122047,25.439999,15.66,20.34
1448849258893,195436324916968,23.82,16.5,20.699999
1448849258933,195436365078101,21.359999,17.4,21.0
1448849258973,195436404964576,18.0,18.48,21.359999
1448849259016,195436444942603,14.16,19.68,21.72
1448849259052,195436485134254,10.8,20.1,21.96
1448849259094,195436525478492,7.3199997,20.64,22.08
1448849259133,195436565212379,4.08,20.88,22.08
1448849259173,195436605159888,1.26,21.06,22.08
1448849259213,195436645137916,-1.56,21.18,21.96
1448849259253,195436685176978,-4.14,20.76,21.24
1448849259293,195436725185523,-6.48,20.16,20.4
1448849259333,195436765133033,-8.4,19.199999,19.199999
1448849259373,195436805141578,-9.96,17.88,17.52
1448849259413,195436845119605,-11.099999,16.44,16.08
1448849259453,195436885128150,-11.759999,14.94,14.5199995
1448849259493,195436925136695,-12.24,13.679999,13.259999
1448849259533,195436965145240,-12.54,12.96,12.36
1448849259573,195437005153785,-12.48,12.66,11.759999
1448849259613,195437045131812,-12.48,12.54,11.46
1448849259653,195437085079322,-12.48,12.66,11.4
1448849259693,195437125057349,-12.48,12.66,11.34
1448849259733,195437165035377,-12.42,12.719999,11.46
1448849259773,195437205043922,-12.12,12.96,11.759999
1448849259813,195437245052467,-11.28,13.679999,12.42
1448849259853,195437285091529,-9.719999,14.759999,13.5
1448849259893,195437325069556,-7.74,16.619999,15.179999
1448849259933,195437365078101,-4.2599998,18.539999,17.22
1448849259973,195437405086646,-0.17999999,20.16,19.199999
1448849260013,195437445034156,3.9599998,21.48,20.699999
1448849260053,195437485073218,8.46,21.72,21.72
1448849260093,195437525051246,12.12,21.66,22.14
1448849260133,195437565090308,15.48,21.3,22.26
1448849260173,195437605068336,18.539999,20.939999,22.32
1448849260213,195437645046363,21.0,20.699999,22.26
1448849260253,195437685085425,23.22,20.46,22.26
1448849260292,195437724941383,24.9,19.74,21.96
1448849260332,195437764980445,26.039999,18.779999,21.42
1448849260372,195437804988990,26.939999,17.52,20.699999
1448849260413,195437845058570,27.24,16.26,19.56
1448849260453,195437885036597,27.3,15.599999,18.72
1448849260493,195437925045142,27.42,15.12,17.88
1448849260533,195437965084205,27.539999,15.0,17.34
1448849260573,195438005031715,27.599998,15.0,17.16
1448849260613,195438045040259,27.599998,15.0,17.16
1448849260653,195438085048804,27.48,15.0,17.34
1448849260693,195438125057349,27.06,15.179999,17.699999
1448849260733,195438165035377,26.279999,15.42,18.18
1448849260773,195438205074439,24.6,16.02,18.72
1448849260813,195438245052467,22.14,16.859999,19.92
1448849260853,195438285061011,19.08,17.88,21.0
1448849260893,195438325069556,15.54,18.96,21.84
1448849260933,195438365047584,11.94,19.92,22.56
1448849260973,195438404934058,8.46,20.58,22.56
1448849261013,195438445034156,5.2799997,20.88,22.5
1448849261053,195438485103736,2.46,21.0,22.439999
1448849261093,195438525173316,-0.17999999,20.88,22.199999
1448849261133,195438565029273,-2.52,20.88,21.779999
1448849261173,195438605037818,-4.62,20.76,20.64
1448849261213,195438645076881,-6.42,20.58,18.96
1448849261253,195438685085425,-7.68,19.98,17.22
1448849261293,195438725032935,-8.639999,19.08,15.599999
1448849261333,195438765041480,-9.54,18.0,14.34
1448849261373,195438805050025,-10.38,16.5,13.38
1448849261413,195438844905982,-11.04,15.299999,12.599999
1448849261452,195438884884009,-11.46,14.219999,11.94
1448849261492,195438924892554,-11.58,13.44,11.7
1448849261533,195438964901099,-11.46,13.2,11.639999
1448849261572,195439004909644,-11.4,13.08,11.7
1448849261613,195439044918189,-11.4,13.2,11.82
1448849261652,195439084896217,-11.28,13.259999,11.94
1448849261694,195439125057349,-10.679999,13.5,12.42
1448849261737,195439165157447,-9.78,13.98,13.62
1448849261777,195439205165992,-7.98,15.059999,15.299999
1448849261813,195439245174537,-5.58,16.8,17.1
1448849261853,195439285122047,-3.0,18.66,19.02
1448849261893,195439325069556,-0.17999999,20.46,20.52
1448849261933,195439365108619,2.46,21.66,21.66
1448849261973,195439405086646,5.2799997,22.14,22.68
1448849262013,195439445156226,8.099999,22.26,23.22
1448849262053,195439485073218,11.099999,22.199999,23.46
1448849262093,195439525173316,14.04,22.199999,23.519999
1448849262133,195439565090308,16.98,22.08,23.46
1448849262173,195439605068336,19.32,21.84,23.34
1448849262213,195439645168433,21.18,21.18,23.16
1448849262253,195439685085425,22.74,20.34,22.98
1448849262293,195439725063453,23.58,19.56,22.68
1448849262333,195439765102515,24.359999,18.84,21.96
1448849262373,195439804988990,25.019999,18.42,21.3
1448849262418,195439844997535,25.38,18.06,20.279999
1448849262458,195439885280738,25.8,17.46,18.9
1448849262493,195439925075660,26.099998,16.92,17.76
1448849262533,195439965084205,26.34,16.5,16.56
1448849262573,195440005031715,26.64,16.26,15.599999
1448849262613,195440045131812,26.88,16.02,15.36
1448849262653,195440085109840,27.06,15.719999,15.24
1448849262693,195440125148902,27.359999,15.36,15.24
1448849262733,195440165065894,27.42,14.94,15.24
1448849262773,195440205135474,27.539999,14.759999,15.0
1448849262813,195440245144019,27.599998,14.639999,14.759999
1448849262853,195440285091529,27.66,14.58,14.639999
1448849262893,195440325130592,27.779999,14.5199995,14.5199995
1448849262933,195440365078101,28.199999,14.46,14.4
1448849262977,195440405361304,28.619999,14.46,14.16
1448849263013,195440445125709,29.039999,14.46,13.98
1448849263053,195440485073218,29.4,14.46,13.74
1448849263093,195440525081763,29.46,14.58,13.559999
1448849263133,195440565151343,29.519999,14.759999,13.44
1448849263173,195440605129371,29.519999,14.94,13.259999
1448849263213,195440645137916,29.519999,15.059999,12.84
1448849263253,195440685054908,29.519999,15.179999,12.36
1448849263293,195440725032935,29.519999,15.179999,11.7
1448849263333,195440765071998,29.58,15.179999,10.98
1448849263373,195440805111060,29.76,15.179999,10.5
1448849263413,195440844936500,30.06,15.059999,10.139999
1448849263453,195440885067115,30.42,15.0,9.9
1448849263493,195440925075660,30.72,14.7,9.84
1448849263533,195440965023170,30.96,14.46,9.719999
1448849263572,195441004879127,30.96,14.28,9.54
1448849263612,195441044887672,31.08,14.16,9.36
1448849263652,195441084896217,31.14,14.219999,9.3
1448849263693,195441124935279,31.199999,14.28,9.179999
1448849263739,195441169277320,31.32,14.4,9.179999
1448849263778,195441205165992,31.14,15.12,9.3
1448849263813,195441245052467,30.24,17.1,9.78
1448849263853,195441285091529,28.92,20.039999,10.38
1448849263893,195441325130592,27.119999,23.82,11.04
1448849263933,195441365078101,25.08,27.599998,11.88
1448849263973,195441405117164,22.08,30.72,11.82
1448849264013,195441445125709,18.42,32.82,11.639999
1448849264053,195441485042701,13.98,33.96,11.04
1448849264093,195441525051246,8.639999,34.44,9.48
1448849264133,195441565090308,4.2599998,34.32,8.28
1448849264173,195441605129371,0.48,34.14,7.14
1448849264213,195441644893775,-2.9399998,33.78,6.0
1448849264253,195441685207496,-5.2799997,33.0,5.04
1448849264293,195441725032935,-7.3799996,31.859999,3.72
1448849264333,195441765133033,-9.059999,30.24,2.28
1448849264373,195441805172095,-10.26,28.08,0.59999996
1448849264413,195441845150123,-11.58,25.98,-0.96
1448849264453,195441884975562,-12.599999,24.119999,-2.46
1448849264498,195441924984107,-13.38,22.619999,-4.08
1448849264538,195441965267310,-14.28,21.779999,-5.4
1448849264577,195442005184302,-14.759999,21.42,-6.3599997
1448849264613,195442045070777,-15.179999,21.18,-7.08
1448849264653,195442085140357,-15.599999,21.06,-7.62
1448849264693,195442125118384,-15.54,20.82,-8.16
1448849264733,195442165126929,-15.48,20.46,-9.0
1448849264773,195442205074439,-15.48,19.98,-9.66
1448849264813,195442245113502,-15.48,19.68,-10.2
1448849264853,195442285091529,-15.48,19.26,-10.679999
1448849264893,195442325069556,-15.48,18.84,-11.16
1448849264933,195442365139136,-15.48,18.539999,-11.88
1448849264973,195442405056129,-15.48,18.18,-12.719999
1448849265013,195442445125709,-15.42,17.76,-13.259999
1448849265053,195442485073218,-15.36,17.58,-13.559999
1448849265093,195442525142799,-15.299999,17.4,-13.86
1448849265134,195442564998756,-15.299999,17.34,-13.98
1448849265173,195442605098853,-15.299999,17.4,-14.46
1448849265220,195442645137916,-15.24,17.4,-14.88
1448849265257,195442685238013,-15.12,17.4,-15.12
1448849265293,195442725124488,-14.94,17.52,-15.24
1448849265333,195442765071998,-14.7,17.58,-15.12
1448849265373,195442805080543,-14.4,17.699999,-14.94
1448849265413,195442845089088,-14.099999,18.0,-14.88
1448849265453,195442885036597,-13.92,18.539999,-14.759999
1448849265493,195442925075660,-13.679999,19.32,-14.759999
1448849265533,195442965145240,-13.62,20.16,-14.759999
1448849265573,195443005031715,-13.559999,20.939999,-14.639999
1448849265613,195443045070777,-13.38,21.42,-14.58
1448849265653,195443085109840,-13.259999,21.779999,-14.5199995
1448849265693,195443125087867,-13.08,22.08,-14.4
1448849265733,195443165065894,-12.96,22.38,-14.28
1448849265773,195443205074439,-12.84,22.68,-14.099999
1448849265813,195443245113502,-12.719999,23.1,-13.86
1448849265853,195443285091529,-12.54,23.519999,-13.62
1448849265898,195443324978004,-12.3,24.0,-13.32
1448849265938,195443365291724,-12.0,24.359999,-13.139999
1448849265973,195443405147681,-11.759999,24.72,-12.9
1448849266013,195443445064674,-11.58,24.84,-12.78
1448849266053,195443485073218,-11.4,24.9,-12.599999
1448849266093,195443525081763,-11.28,24.96,-12.54
1448849266133,195443565090308,-11.16,25.019999,-12.42
1448849266173,195443605129371,-11.04,25.08,-12.36
1448849266213,195443645076881,-11.04,25.199999,-12.3
1448849266253,195443685115943,-11.04,25.26,-12.24
1448849266293,195443725093970,-11.04,25.26,-12.24
1448849266333,195443765071998,-11.04,25.26,-12.24
1448849266373,195443805172095,-11.04,25.26,-12.24
1448849266413,195443845058570,-11.04,25.26,-12.24
1448849266453,195443885097633,-11.04,25.26,-12.24
1448849266493,195443925136695,-11.04,25.26,-12.24
1448849266533,195443964992652,-11.04,25.26,-12.24
1448849266578,195444005001197,-11.04,25.26,-12.24
1448849266614,195444045162330,-11.04,25.26,-12.24
1448849266653,195444085201392,-11.04,25.199999,-12.24
1448849266693,195444125118384,-10.98,24.96,-12.24
1448849266733,195444165065894,-10.8,24.6,-12.24
1448849266773,195444205013404,-10.62,24.119999,-12.24
1448849266813,195444245082984,-10.44,23.76,-12.24
1448849266853,195444285122047,-10.32,23.58,-12.24
1448849266893,195444325039039,-10.139999,23.58,-12.24
1448849266933,195444365078101,-9.96,23.64,-12.3
1448849266973,195444405086646,-9.24,24.0,-12.48
1448849267013,195444445125709,-8.04,24.539999,-12.9
1448849267053,195444485134254,-5.4,24.6,-14.219999
1448849267093,195444525142799,-1.8,23.58,-16.02
1448849267133,195444565090308,2.3999999,20.039999,-17.699999
1448849267173,195444605068336,6.8399997,15.9,-19.14
1448849267213,195444645015845,10.0199995,12.179999,-19.619999
1448849267258,195444684993873,12.719999,9.48,-19.619999
1448849267296,195444725216041,14.5199995,8.46,-19.38
1448849267333,195444765071998,16.199999,7.56,-19.14
1448849267373,195444805050025,17.76,6.48,-18.539999
1448849267413,195444845089088,19.26,5.4,-17.34
1448849267453,195444885036597,20.64,4.68,-16.32
1448849267493,195444925106177,21.48,4.2599998,-15.0
1448849267533,195444965084205,22.14,4.02,-13.98
1448849267573,195445005031715,22.199999,3.84,-13.5
1448849267613,195445045070777,22.32,3.78,-13.2
1448849267653,195445085079322,22.32,3.6,-13.08
1448849267693,195445125118384,22.199999,3.54,-13.139999
1448849267733,195445165126929,22.26,3.48,-13.139999
1448849267773,195445205104957,22.199999,3.4199998,-13.08
1448849267813,195445245144019,22.199999,3.48,-13.2
1448849267853,195445285152564,22.199999,3.48,-13.44
1448849267893,195445325008521,22.199999,3.48,-13.799999
1448849267938,195445364986549,21.96,3.48,-14.219999
1448849267974,195445405178199,21.539999,3.72,-14.46
1448849268013,195445445125709,21.0,4.08,-14.58
1448849268053,195445485073218,20.4,4.74,-14.759999
1448849268093,195445525081763,19.92,5.8799996,-15.0
1448849268133,195445565059791,19.56,6.8399997,-15.299999
1448849268173,195445605037818,19.26,7.7999997,-15.599999
1448849268213,195445645137916,19.14,8.4,-15.719999
1448849268253,195445685085425,18.96,8.5199995,-15.78
1448849268293,195445725124488,18.84,8.58,-15.78
1448849268333,195445765102515,18.84,8.58,-15.78
1448849268373,195445805050025,18.84,8.7,-15.78
1448849268413,195445845089088,18.84,8.7,-15.78
1448849268453,195445885097633,18.84,8.7,-15.78
1448849268493,195445925197730,18.84,8.7,-15.78
1448849268533,195445965084205,18.84,8.7,-15.78
1448849268573,195446004970679,18.84,8.88,-15.839999
1448849268618,195446044979224,18.72,11.88,-15.96
1448849268657,195446085170875,18.6,16.32,-15.48
1448849268698,195446125240455,18.48,20.939999,-14.82
1448849268733,195446165004859,18.18,25.859999,-13.44
1448849268773,195446205074439,18.0,28.56,-11.16
1448849268813,195446245082984,17.82,30.42,-9.0
1448849268853,195446285122047,17.64,32.34,-6.8999996
1448849268893,195446325069556,17.58,33.719997,-4.98
1448849268933,195446365078101,17.64,34.5,-3.06
1448849268973,195446405086646,17.76,34.86,-1.02
1448849269013,195446445064674,17.82,34.86,0.9
1448849269053,195446485073218,17.94,34.98,2.46
1448849269093,195446525173316,17.94,34.98,3.36
1448849269133,195446565029273,17.94,34.92,3.78
1448849269173,195446605068336,17.94,34.62,4.14
1448849269214,195446645809302,17.94,34.2,4.44
1448849269252,195446684993873,17.94,33.78,4.44
1448849269292,195446725093970,17.94,33.42,4.56
1448849269333,195446765041480,17.94,33.239998,4.68
1448849269373,195446805111060,17.94,33.12,4.7999997
1448849269413,195446845058570,18.0,33.059998,5.04
1448849269453,195446885067115,18.119999,32.94,5.2799997
1448849269493,195446925075660,18.24,32.88,5.7
1448849269533,195446965053687,18.3,32.82,6.06
1448849269573,195447005031715,18.359999,32.76,6.3599997
1448849269613,195447045070777,18.48,32.64,6.66
1448849269653,195447085079322,18.48,32.579998,6.72
1448849269693,195447125087867,18.6,32.46,6.8399997
1448849269733,195447165065894,18.6,32.399998,7.02
1448849269773,195447205074439,18.539999,32.399998,7.14
1448849269813,195447245082984,18.48,32.399998,7.2
1448849269853,195447285091529,18.48,32.46,7.2599998
1448849269893,195447325069556,18.48,32.52,7.2599998
1448849269933,195447365078101,18.48,32.579998,7.2599998
1448849269978,195447404995093,18.48,32.579998,7.3199997
1448849270018,195447445247779,18.48,32.579998,7.3199997
1448849270057,195447485164771,18.42,32.579998,7.3199997
1448849270093,195447525081763,18.359999,32.579998,7.3199997
1448849270133,195447565090308,18.3,32.579998,7.3199997
1448849270173,195447605068336,18.3,32.579998,7.3199997
1448849270213,195447645076881,18.359999,32.579998,7.3199997
1448849270253,195447685054908,18.42,32.579998,7.56
1448849270293,195447725063453,18.48,32.579998,7.74
1448849270333,195447765071998,18.48,32.579998,7.98
1448849270373,195447805141578,18.48,32.579998,8.099999
1448849270413,195447845089088,18.48,32.579998,8.099999
1448849270453,195447885067115,18.48,32.579998,8.04
1448849270493,195447925136695,18.48,32.579998,8.04
1448849270533,195447965084205,18.48,32.579998,8.04
1448849270573,195448005062232,18.48,32.579998,8.04
1448849270613,195448044979224,18.48,32.579998,8.04
1448849270658,195448085018287,18.48,32.64,8.04
1448849270694,195448125179420,18.539999,32.7,8.04
1448849270733,195448165096412,18.72,32.76,7.98
1448849270773,195448205165992,18.779999,32.88,7.8599997
1448849270813,195448245082984,18.84,32.88,7.68
1448849270853,195448285152564,18.9,32.88,7.5
1448849270893,195448325008521,18.84,32.88,7.3199997
1448849270933,195448365078101,18.84,32.88,7.2
1448849270973,195448405086646,18.84,32.88,7.08
1448849271017,195448445308814,18.84,32.88,6.96
1448849271053,195448485164771,18.84,32.88,6.8999996
1448849271093,195448525142799,18.84,32.88,6.8399997
1448849271133,195448565120826,18.84,32.88,6.7799997
1448849271173,195448605129371,18.84,32.88,6.66
1448849271213,195448645198951,18.84,32.88,6.54
1448849271253,195448685146461,18.84,32.88,6.42
1448849271293,195448725093970,18.84,32.88,6.2999997
1448849271333,195448765041480,18.84,32.88,6.24
1448849271373,195448805111060,18.84,32.94,6.18
1448849271413,195448845058570,18.84,33.12,6.18
1448849271453,195448885067115,18.84,33.239998,6.18
1448849271493,195448925045142,18.84,33.36,6.18
1448849271533,195448965053687,18.84,33.48,6.18
1448849271573,195449005031715,18.84,33.48,6.18
1448849271613,195449045040259,18.84,33.54,6.18
1448849271653,195449085079322,18.84,33.6,6.18
1448849271693,195449125087867,18.84,33.6,6.18
1448849271733,195449165065894,18.84,33.6,6.18
1448849271773,195449205074439,18.84,33.6,6.18
1448849271813,195449245052467,18.84,33.6,6.18
1448849271853,195449285061011,18.779999,33.6,6.18
1448849271893,195449325039039,18.66,33.6,6.18
1448849271933,195449365047584,18.539999,33.6,6.18
1448849271973,195449405086646,18.359999,33.6,6.18
1448849272013,195449445156226,18.24,33.6,6.2999997
1448849272053,195449485073218,18.119999,33.6,6.2999997
1448849272093,195449525051246,18.0,33.6,6.42
1448849272133,195449565059791,17.94,33.6,6.42
1448849272173,195449605037818,17.88,33.6,6.54
1448849272213,195449645046363,17.76,33.6,6.72
1448849272253,195449685085425,17.82,33.6,6.8399997
1448849272293,195449725093970,17.88,33.54,7.02
1448849272333,195449765041480,17.94,33.48,7.02
1448849272373,195449805080543,18.0,33.42,7.02
1448849272413,195449844936500,18.119999,33.3,7.02
1448849272452,195449884914527,18.3,33.239998,7.02
1448849272493,195449924923072,18.539999,33.239998,7.02
1448849272532,195449964931617,18.72,33.18,6.96
1448849272572,195450004879127,18.84,33.12,6.8999996
1448849272612,195450044887672,18.84,33.059998,6.8399997
1448849272654,195450084926734,18.84,33.059998,6.8399997
1448849272693,195450125148902,18.84,33.059998,6.8399997
1448849272733,195450165096412,18.84,33.059998,6.8399997
1448849272773,195450205104957,18.84,33.059998,6.8399997
1448849272813,195450245082984,18.72,33.059998,6.8399997
1448849272853,195450285091529,18.66,33.059998,6.8399997
1448849272893,195450325069556,18.66,33.059998,6.8399997
1448849272933,195450365108619,18.6,33.059998,6.8399997
1448849272973,195450405086646,18.48,33.059998,6.8399997
1448849273013,195450445064674,18.3,33.059998,6.8399997
1448849273053,195450485042701,18.06,33.059998,6.8399997
1448849273093,195450525051246,17.76,33.059998,6.8399997
1448849273133,195450565151343,17.52,33.059998,6.7799997
1448849273173,195450605068336,17.34,33.12,6.72
1448849273213,195450645076881,17.16,33.18,6.6
1448849273253,195450685054908,16.98,33.239998,6.48
1448849273294,195450724971900,16.8,33.239998,6.42
1448849273333,195450765071998,16.619999,33.239998,6.3599997
1448849273379,195450805050025,16.5,33.239998,6.3599997
1448849273417,195450845180640,16.5,33.239998,6.42
1448849273453,195450885067115,16.5,33.239998,6.42
1448849273493,195450925136695,16.5,33.239998,6.48
1448849273533,195450965084205,16.5,33.239998,6.54
1448849273573,195451005062232,16.5,33.239998,6.66
1448849273613,195451045040259,16.5,33.239998,6.8399997
1448849273653,195451085079322,16.5,33.36,6.96
1448849273693,195451125148902,16.5,33.719997,7.02
1448849273733,195451165065894,16.5,34.02,7.02
1448849273773,195451205043922,16.5,34.26,7.02
1448849273813,195451245144019,16.5,34.5,6.96
1448849273853,195451285091529,16.5,34.5,6.7799997
1448849273893,195451325069556,16.56,34.5,6.3599997
1448849273933,195451365047584,16.68,34.5,6.12
1448849273974,195451404995093,16.74,34.44,5.8799996
1448849274013,195451445064674,16.859999,34.38,5.8199997
1448849274060,195451485195289,16.92,34.32,6.0
1448849274097,195451525234351,16.98,34.2,6.0
1448849274133,195451565059791,17.039999,34.14,6.0
1448849274173,195451605068336,17.039999,34.14,6.0
1448849274213,195451645076881,17.039999,34.14,6.0
1448849274253,195451685146461,17.039999,34.14,6.12
1448849274293,195451725185523,17.039999,34.14,6.3599997
1448849274333,195451765194068,17.039999,34.14,6.54
1448849274373,195451805050025,17.039999,34.14,6.66
1448849274413,195451845089088,17.039999,34.14,6.72
1448849274453,195451885128150,17.039999,34.14,6.66
1448849274493,195451925045142,17.039999,34.14,6.66
1448849274533,195451965145240,17.039999,34.14,6.66
1448849274573,195452005062232,17.039999,34.14,6.66
1448849274613,195452045131812,17.039999,34.14,6.66
1448849274653,195452085018287,17.039999,34.14,6.66
1448849274698,195452124996314,17.039999,34.14,6.66
1448849274738,195452165249000,17.039999,34.2,6.66
1448849274777,195452205196509,17.039999,34.26,6.66
1448849274813,195452245082984,17.039999,34.32,6.66
1448849274853,195452285091529,17.039999,34.44,6.66
1448849274893,195452325069556,17.039999,34.559998,6.66
1448849274933,195452365078101,17.039999,34.68,6.66
1448849274973,195452405117164,17.039999,34.8,6.72
1448849275013,195452445064674,16.98,34.92,6.7799997
1448849275053,195452485134254,16.74,34.98,6.8399997
1448849275093,195452525081763,16.38,34.98,6.96
1448849275133,195452565120826,7.02,21.119999,5.04
1448849275173,195452605098853,6.3599997,21.119999,5.3399997
1448849275213,195452645046363,5.7599998,21.06,5.58
1448849275253,195452685054908,5.3399997,21.0,5.8199997
1448849275292,195452724971900,5.16,20.939999,5.8199997
1448849275333,195452765071998,5.2799997,20.699999,5.8199997
1448849275379,195452805172095,5.4,20.64,5.8799996
1448849275417,195452845241675,5.52,20.58,5.8799996
1448849275453,195452885036597,5.52,20.52,5.8799996
1448849275493,195452925106177,5.58,20.64,5.8799996
1448849275533,195452965084205,5.7599998,20.64,5.8799996
1448849275573,195453005062232,5.94,20.64,5.8799996
1448849275613,195453045162330,6.12,20.64,5.8799996
1448849275665,195453084957252,6.24,20.64,5.8799996
1448849275693,195453125820289,6.24,20.64,5.8199997
1448849275732,195453165065894,6.24,20.64,5.7599998
1448849275772,195453204982886,6.24,20.64,5.7
1448849275813,195453245144019,6.24,20.64,5.7
1448849275853,195453285152564,6.24,20.699999,5.7
1448849275893,195453325069556,6.24,20.699999,5.7
1448849275933,195453365078101,6.24,20.76,5.7
1448849275973,195453404995093,6.24,20.76,5.7
1448849276018,195453445003638,6.18,20.76,5.64
1448849276058,195453485286842,6.12,20.76,5.64
1448849276097,195453525203834,6.06,20.76,5.64
1448849276133,195453565151343,6.06,20.76,5.64
1448849276173,195453605068336,6.12,20.76,5.7
1448849276213,195453645046363,6.18,20.76,5.64
1448849276253,195453685146461,6.24,20.699999,5.58
1448849276293,195453725093970,6.3599997,20.699999,5.52
1448849276333,195453765102515,6.42,20.64,5.46
1448849276373,195453805080543,6.48,20.64,5.22
1448849276413,195453845089088,6.6,20.64,4.92
1448849276453,195453885067115,6.66,20.64,4.44
1448849276493,195453925075660,6.7799997,20.64,3.78
1448849276533,195453965053687,6.8399997,20.46,3.3
1448849276573,195454005031715,6.8399997,20.279999,2.8799999
1448849276612,195454044948707,6.8399997,20.16,2.7
1448849276653,195454085048804,6.7799997,20.039999,2.58
1448849276693,195454125118384,6.7799997,20.1,2.52
1448849276733,195454165126929,6.7799997,20.1,2.34
1448849276773,195454205104957,6.7799997,20.1,2.22
1448849276813,195454245113502,6.7799997,20.1,2.1599998
1448849276853,195454285091529,6.7799997,20.1,2.1599998
1448849276893,195454325069556,6.7799997,20.1,2.28
1448849276933,195454365078101,6.7799997,20.1,2.3999999
1448849276973,195454405086646,6.7799997,20.1,2.6399999
1448849277013,195454445034156,6.8399997,20.1,2.8799999
1448849277053,195454485042701,6.8999996,20.1,3.12
1448849277093,195454525081763,6.96,20.1,3.48
1448849277133,195454565151343,6.96,20.1,3.84
1448849277173,195454605037818,6.96,20.1,4.08
1448849277213,195454645076881,6.96,20.1,4.38
1448849277253,195454685146461,6.96,20.1,4.5
1448849277293,195454724971900,7.02,20.1,4.5
1448849277338,195454765071998,7.02,20.1,4.5
1448849277377,195454805233131,6.96,20.1,4.5
1448849277417,195454845211158,6.96,20.1,4.5
1448849277453,195454885067115,6.7799997,20.1,4.5
1448849277493,195454925014625,6.72,20.1,4.5
1448849277533,195454965084205,6.66,20.16,4.5
1448849277573,195455005092750,6.6,20.279999,4.44
1448849277613,195455045009742,6.6,20.34,4.38
1448849277653,195455085079322,6.6,20.46,4.3199997
1448849277693,195455125026832,6.6,20.58,4.3199997
1448849277733,195455165065894,6.6,20.58,4.3199997
1448849277773,195455205104957,6.6,20.699999,4.3199997
1448849277813,195455245174537,6.6,20.699999,4.3199997
1448849277853,195455285122047,6.6,20.699999,4.3199997
1448849277893,195455325069556,6.6,20.76,4.3199997
1448849277933,195455364925513,6.6,20.82,4.3199997
1448849277973,195455405025611,6.6,20.88,4.3199997
1448849278013,195455445095191,6.6,20.939999,4.3199997
1448849278053,195455485164771,6.6,20.939999,4.2599998
1448849278093,195455525081763,6.6,20.939999,4.2599998
1448849278133,195455565090308,6.6,20.939999,4.2
1448849278173,195455605098853,6.66,20.939999,4.2
1448849278213,195455645107398,6.72,20.939999,4.2
1448849278253,195455685085425,6.7799997,20.939999,4.2
1448849278293,195455725063453,6.7799997,20.939999,4.2
1448849278333,195455765163550,6.7799997,20.939999,4.2
1448849278373,195455805141578,6.7799997,20.939999,4.2
1448849278413,195455845089088,6.7799997,20.939999,4.2
1448849278453,195455885158668,6.7799997,20.939999,4.2
1448849278493,195455925167213,6.7799997,20.939999,4.2
1448849278533,195455965175758,6.7799997,20.939999,4.2
1448849278573,195456005062232,6.7799997,20.939999,4.2
1448849278613,195456045009742,6.7799997,20.939999,4.2
1448849278653,195456085109840,6.7799997,20.939999,4.2
1448849278693,195456125087867,6.7799997,20.939999,4.2
1448849278733,195456165065894,6.8399997,20.939999,4.2
1448849278773,195456205074439,6.8399997,20.939999,4.2
1448849278813,195456245082984,6.8999996,20.939999,4.2
1448849278853,195456285183082,6.96,20.939999,4.2
1448849278893,195456325008521,6.96,20.939999,4.2
1448849278933,195456365078101,6.96,20.939999,4.2
1448849278973,195456405147681,6.96,20.939999,4.2
1448849279014,195456445125709,7.02,20.939999,4.2
1448849279053,195456485134254,7.08,20.939999,4.2
1448849279093,195456525081763,7.14,20.939999,4.2
1448849279133,195456565181861,7.14,20.939999,4.2
1448849279173,195456605098853,7.14,20.939999,4.2
1448849279213,195456645168433,7.14,20.939999,4.2
1448849279253,195456685115943,7.14,20.939999,4.2
1448849279298,195456725093970,7.14,20.939999,4.2
1448849279337,195456765255103,7.14,20.939999,4.2
1448849279373,195456805111060,7.14,20.939999,4.2
1448849279413,195456845089088,7.14,20.939999,4.2599998
1448849279453,195456885067115,7.14,20.939999,4.3199997
1448849279493,195456925075660,7.14,20.939999,4.38
1448849279533,195456965084205,7.2,20.939999,4.44
1448849279573,195457005031715,7.2599998,20.939999,4.5
1448849279613,195457045070777,7.3199997,20.939999,4.5
1448849279653,195457085140357,7.3199997,20.939999,4.5
1448849279693,195457125148902,7.3199997,20.939999,4.5
1448849279733,195457165065894,7.3199997,20.939999,4.5
1448849279773,195457205043922,7.3199997,20.939999,4.5
1448849279813,195457245052467,7.3199997,20.939999,4.5
1448849279853,195457285061011,7.3799996,20.939999,4.5
1448849279893,195457324978004,7.44,20.939999,4.5
1448849279938,195457364986549,7.5,20.939999,4.5
1448849279975,195457405269752,7.5,20.939999,4.5
1448849280016,195457444973121,7.5,20.939999,4.5
1448849280052,195457484920631,7.5,20.939999,4.5
1448849280098,195457524990211,7.44,20.939999,4.5
1448849280135,195457565212379,7.3799996,20.939999,4.5
1448849280173,195457605098853,7.3199997,20.939999,4.5
1448849280213,195457645076881,7.2,20.939999,4.5
1448849280253,195457685115943,7.2,20.939999,4.5
1448849280293,195457725063453,7.14,21.0,4.5
1448849280333,195457765163550,7.02,21.06,4.5
1448849280373,195457805080543,6.96,21.06,4.5
1448849280413,195457845180640,6.96,21.0,4.56
1448849280453,195457885067115,6.96,20.939999,4.62
1448849280493,195457925167213,6.96,20.939999,4.74
1448849280533,195457965114722,6.96,20.939999,4.8599997
1448849280578,195458004970679,6.96,20.939999,4.98
1448849280618,195458045223365,6.96,20.939999,5.1
1448849280653,195458085109840,6.96,20.939999,5.16
1448849280693,195458125148902,6.96,20.939999,5.3399997
1448849280736,195458164913306,6.96,20.939999,5.52
1448849280773,195458205196509,6.96,20.939999,5.7
1448849280813,195458245052467,6.8999996,20.939999,5.8799996
1448849280853,195458285122047,6.7799997,20.939999,5.94
1448849280893,195458325069556,6.6,20.939999,5.94
1448849280933,195458365078101,6.42,20.939999,5.94
1448849280973,195458405147681,6.2999997,20.939999,5.8199997
1448849281013,195458445095191,6.24,20.939999,5.58
1448849281053,195458485073218,6.2999997,20.939999,4.98
1448849281093,195458525051246,6.3599997,20.939999,4.14
1448849281133,195458565120826,6.42,20.939999,2.9399998
1448849281173,195458605007300,6.42,20.939999,1.8
1448849281218,195458644985328,6.48,20.939999,1.02
1448849281259,195458685268531,6.54,21.0,0.35999998
1448849281297,195458725216041,6.6,21.24,0.24
1448849281333,195458765071998,6.72,21.48,0.24
1448849281373,195458805050025,6.7799997,21.66,0.24
1448849281413,195458845089088,6.7799997,21.84,0.35999998
1448849281453,195458885067115,6.7799997,21.84,0.42
1448849281493,195458925075660,6.7799997,21.9,0.48
1448849281533,195458965084205,6.7799997,22.02,0.48
1448849281573,195459005031715,6.48,22.08,0.48
1448849281613,195459045070777,5.94,22.199999,0.48
1448849281653,195459085079322,5.04,22.199999,0.48
1448849281693,195459125087867,4.08,22.38,0.48
1448849281733,195459165065894,3.36,22.56,0.48
1448849281773,195459205074439,2.7,22.74,0.42
1448849281813,195459244991431,2.34,23.16,0.35999998
1448849281858,195459285030494,2.1,23.4,0.29999998
1448849281899,195459325252662,1.8,23.76,0.29999998
1448849281937,195459365230689,1.62,24.18,0.29999998
1448849281973,195459405086646,1.56,24.48,0.29999998
1448849282013,195459445064674,1.5,24.779999,0.29999998
1448849282053,195459485103736,1.4399999,25.019999,0.29999998
1448849282093,195459525081763,1.4399999,25.14,0.29999998
1448849282133,195459565151343,1.26,25.14,0.29999998
1448849282173,195459605068336,1.14,25.14,0.42
1448849282213,195459645137916,0.96,25.14,0.59999996
1448849282253,195459685085425,0.78,25.14,0.96
1448849282293,195459725063453,0.65999997,25.08,1.5
1448849282333,195459765041480,0.53999996,25.019999,2.34
1448849282373,195459805080543,0.42,24.96,3.54
1448849282413,195459845089088,0.35999998,24.779999,4.98
1448849282453,195459884975562,0.35999998,24.48,6.3599997
1448849282498,195459925075660,0.42,24.18,7.3199997
1448849282537,195459965297828,0.48,23.88,7.74
1448849282573,195460005062232,0.53999996,23.16,7.8599997
1448849282613,195460045070777,0.53999996,22.8,7.7999997
1448849282653,195460085079322,0.71999997,22.619999,7.3799996
1448849282693,195460125087867,0.53999996,22.619999,4.44
1448849282733,195460165035377,0.29999998,22.92,0.53999996
1448849282773,195460205043922,0.35999998,22.439999,-4.62
1448849282813,195460245113502,0.24,21.84,-9.96
1448849282853,195460285091529,0.48,20.939999,-13.08
1448849282893,195460325069556,0.71999997,20.34,-15.599999
1448849282933,195460365078101,0.71999997,20.1,-16.859999
1448849282973,195460405086646,0.71999997,19.74,-17.64
1448849283013,195460445064674,0.71999997,19.199999,-18.119999
1448849283053,195460485073218,0.71999997,18.48,-18.24
1448849283093,195460524990211,0.71999997,17.52,-18.539999
1448849283138,195460564998756,0.71999997,16.5,-18.72
1448849283179,195460605281959,0.71999997,15.839999,-18.96
1448849283217,195460645229468,0.71999997,15.42,-19.02
1448849283253,195460685085425,0.71999997,15.42,-19.02
1448849283293,195460725063453,0.71999997,15.66,-19.02
1448849283333,195460765071998,0.71999997,15.66,-18.96
1448849283373,195460805050025,0.71999997,15.54,-19.02
1448849283413,195460845089088,0.71999997,15.48,-19.08
1448849283453,195460885067115,0.71999997,15.299999,-19.199999
1448849283493,195460925136695,0.71999997,15.059999,-19.38
1448849283533,195460965145240,0.9,14.4,-19.8
1448849283573,195461005062232,1.02,13.0199995,-20.46
1448849283613,195461045131812,1.14,11.5199995,-21.119999
1448849283653,195461085048804,1.26,9.9,-21.66
1448849283693,195461125087867,1.26,8.58,-21.96
1448849283733,195461164974342,1.3199999,8.04,-21.96
1448849283778,195461204982886,1.56,7.74,-21.96
1448849283815,195461245266090,1.8,7.7999997,-21.96
1448849283853,195461285091529,2.04,7.9199996,-21.96
1448849283893,195461325069556,2.28,8.04,-21.96
1448849283933,195461365139136,2.58,8.099999,-21.96
1448849283973,195461405086646,3.3,8.34,-21.9
1448849284013,195461445064674,4.02,9.0,-21.779999
1448849284053,195461485073218,5.1,9.96,-21.359999
1448849284093,195461525081763,6.42,10.74,-20.4
1448849284133,195461565059791,8.22,10.98,-19.08
1448849284173,195461605068336,10.92,10.86,-17.22
1448849284213,195461645076881,13.86,10.32,-15.24
1448849284253,195461685115943,16.74,9.48,-13.44
1448849284293,195461725124488,19.199999,8.58,-11.58
1448849284333,195461765071998,21.06,7.14,-10.08
1448849284373,195461804988990,22.199999,5.16,-8.7
1448849284418,195461844997535,22.92,3.24,-7.56
1448849284453,195461885280738,23.16,1.3199999,-6.7799997
1448849284501,195461925106177,23.16,-0.24,-6.0
1448849284545,195461975002418,23.16,-1.4399999,-5.7599998
1448849284583,195462015102515,23.16,-2.28,-5.64
1448849284623,195462055111060,23.16,-3.06,-5.64
1448849284663,195462095089088,23.1,-3.6599998,-5.64
1448849284703,195462135097633,23.039999,-3.9599998,-5.7
1448849284743,195462175106177,22.98,-4.2599998,-5.8199997
1448849284783,195462215114722,22.98,-4.38,-6.18
1448849284823,195462255092750,22.98,-4.44,-7.08
1448849284863,195462295101295,22.98,-4.44,-8.34
1448849284903,195462335109840,22.74,-4.44,-9.66
1448849284943,195462375118384,22.439999,-4.44,-10.92
1448849284983,195462415096412,21.9,-4.44,-11.82
1448849285023,195462455196509,21.24,-4.14,-12.42
1448849285065,195462495021949,20.58,-3.6599998,-12.96
1448849285104,195462535030494,19.98,-3.06,-13.32
1448849285145,195462575069556,19.619999,-2.52,-13.62
1448849285183,195462615108619,19.439999,-2.1,-13.74
1448849285223,195462655117164,19.26,-1.92,-14.04
1448849285263,195462695095191,18.779999,-1.62,-14.46
1448849285303,195462735073218,18.3,-1.26,-14.82
1448849285343,195462775112281,17.76,-0.59999996,-15.24
1448849285383,195462815151343,17.279999,0.42,-15.839999
1448849285423,195462855098853,17.22,1.1999999,-16.44
1448849285463,195462895107398,17.1,2.04,-17.039999
1448849285503,195462935115943,17.039999,2.9399998,-17.52
1448849285543,195462975093970,16.92,3.6599998,-17.64
1448849285583,195463015071998,16.859999,4.14,-17.699999
1448849285623,195463055111060,16.8,4.44,-17.76
1448849285665,195463095028052,16.74,4.38,-17.88
1448849285705,195463135006080,16.74,4.2599998,-17.94
1448849285745,195463175106177,16.74,4.08,-18.0
1448849285783,195463215084205,16.74,3.78,-18.0
1448849285823,195463255062232,16.74,3.48,-18.06
1448849285863,195463295101295,16.74,3.48,-18.18
1448849285903,195463335109840,16.74,3.6599998,-18.359999
1448849285943,195463375118384,16.74,4.2599998,-18.539999
1448849285983,195463415096412,16.74,4.8599997,-18.6
1448849286023,195463455104957,16.74,5.2799997,-18.6
1448849286063,195463495113502,16.74,5.58,-18.6
1448849286103,195463535091529,16.56,5.8199997,-18.6
1448849286143,195463575100074,16.38,6.12,-18.6
1448849286183,195463615108619,16.199999,6.24,-18.539999
1448849286223,195463655117164,16.02,6.24,-18.42
1448849286263,195463695125709,15.9,6.06,-18.42
1448849286305,195463735042701,15.719999,5.8199997,-18.359999
1448849286345,195463775020728,15.66,5.64,-18.24
1448849286386,195463815334449,15.48,5.46,-18.24
1448849286426,195463855068336,15.299999,5.16,-18.24
1448849286465,195463895076881,15.36,4.68,-18.24
1448849286503,195463935115943,15.36,4.2,-18.3
1448849286543,195463975124488,15.42,4.02,-18.359999
1448849286583,195464015133033,15.48,3.8999999,-18.42
1448849286623,195464055111060,15.48,4.08,-18.42
1448849286663,195464095119605,15.48,4.2599998,-18.42
1448849286703,195464135097633,15.54,5.04,-18.24
1448849286743,195464175106177,15.599999,6.2999997,-17.76
1448849286783,195464215114722,15.66,8.34,-17.22
1448849286823,195464255062232,15.78,10.74,-16.56
1448849286863,195464295101295,15.839999,12.719999,-15.96
1448849286903,195464335140357,15.96,14.46,-15.54
1448849286946,195464375118384,16.02,15.299999,-15.12
1448849286984,195464415279517,16.14,15.719999,-14.7
1448849287023,195464455165992,16.199999,15.9,-14.219999
1448849287064,195464495784888,16.199999,15.9,-13.799999
1448849287103,195464535183082,16.199999,15.9,-12.9
1448849287143,195464575161109,16.199999,15.9,-11.88
1448849287183,195464615169654,16.199999,15.9,-10.5
1448849287223,195464655178199,16.199999,16.08,-8.4
1448849287263,195464695156226,16.199999,16.26,-6.48
1448849287303,195464735225806,16.199999,16.74,-4.56
1448849287343,195464775173316,16.199999,17.64,-2.76
1448849287383,195464815212379,16.199999,18.779999,-1.62
1448849287423,195464855190406,16.199999,19.68,-1.02
1448849287463,195464895168433,16.199999,20.34,-0.59999996
1448849287503,195464935176978,16.199999,20.46,-0.48
1448849287543,195464975155006,16.199999,20.279999,-0.42
1448849287590,195465015133033,16.199999,20.279999,-0.06
1448849287641,195465065181861,16.199999,20.279999,0.48
1448849287673,195465105129371,16.199999,20.279999,0.96
1448849287713,195465145137916,16.199999,20.279999,1.38
1448849287753,195465185146461,16.199999,20.279999,1.62
1448849287793,195465225124488,16.199999,20.279999,1.8
1448849287833,195465265133033,16.199999,20.279999,1.92
1448849287873,195465305141578,16.199999,20.279999,2.04
1448849287913,195465345150123,16.199999,20.279999,2.22
1448849287953,195465385036597,16.199999,20.279999,2.22
1448849287993,195465425136695,16.199999,20.279999,2.34
1448849288033,195465465145240,16.14,20.52,2.6399999
1448849288073,195465505123267,15.839999,20.939999,3.06
1448849288113,195465545131812,15.24,21.66,3.6
1448849288153,195465585140357,14.46,22.619999,4.08
1448849288193,195465625087867,13.32,23.699999,4.2599998
1448849288235,195465665126929,11.5199995,25.26,4.38
1448849288273,195465705135474,9.599999,26.64,4.2599998
1448849288313,195465745144019,7.3799996,27.779999,4.2
1448849288357,195465785274634,5.1,29.099998,4.2
1448849288393,195465825130592,3.54,29.64,4.14
1448849288433,195465865139136,2.34,30.0,3.8999999
1448849288473,195465905147681,1.62,30.42,3.48
1448849288513,195465945125709,1.14,30.42,2.6399999
1448849288553,195465985134254,0.96,30.539999,1.02
1448849288593,195466025112281,0.48,30.72,-0.48
1448849288633,195466065151343,-0.06,30.84,-2.28
1448849288673,195466105159888,-0.78,30.96,-3.8999999
1448849288713,195466145107398,-1.68,31.14,-5.1
1448849288753,195466185146461,-2.6399999,31.14,-6.24
1448849288793,195466225155006,-3.78,31.14,-6.96
1448849288833,195466265102515,-4.68,31.14,-7.3799996
1448849288876,195466305141578,-5.7599998,31.26,-7.62
1448849288915,195466345150123,-6.96,31.5,-7.7999997
1448849288953,195466385128150,-7.7999997,31.74,-7.9199996
1448849288993,195466425136695,-9.0,31.98,-8.099999
1448849289033,195466465114722,-10.26,32.1,-8.099999
1448849289073,195466505123267,-11.58,32.1,-8.16
1448849289113,195466545131812,-13.2,32.1,-8.28
1448849289153,195466585109840,-14.94,32.04,-8.46
1448849289193,195466625118384,-16.38,31.92,-8.639999
1448849289233,195466665126929,-17.58,31.439999,-8.82
1448849289273,195466705135474,-18.48,30.96,-8.94
1448849289313,195466745144019,-19.02,30.3,-8.88
1448849289357,195466785244117,-19.439999,29.64,-8.88
1448849289393,195466825100074,-19.859999,29.099998,-8.88
1448849289433,195466865108619,-20.52,28.619999,-8.88
1448849289473,195466905056129,-21.18,28.14,-8.7
1448849289515,195466945125709,-21.84,27.779999,-8.28
1448849289553,195466985103736,-22.56,27.599998,-7.9199996
1448849289593,195467025142799,-23.699999,27.539999,-7.02
1448849289633,195467065151343,-25.5,27.599998,-5.64
1448849289673,195467105129371,-27.779999,27.48,-3.6
1448849289713,195467145107398,-30.179998,27.24,-0.84
1448849289753,195467185115943,-32.52,26.64,2.6399999
1448849289793,195467225124488,-34.26,25.08,7.3199997
1448849289833,195467265133033,-36.66,22.199999,13.2
1448849289873,195467305111060,-38.82,18.24,21.119999
1448849289913,195467345119605,-41.34,13.44,28.859999
1448849289953,195467385097633,-44.1,6.8999996,36.059998
1448849289993,195467425106177,-47.1,-0.35999998,41.34
1448849290033,195467465053687,-49.86,-8.22,42.54
1448849290073,195467505092750,-51.539997,-15.54,42.48
1448849290115,195467545131812,-52.739998,-20.58,40.92
1448849290154,195467585079322,-52.079998,-23.76,38.04
1448849290195,195467625087867,-50.64,-25.199999,34.62
1448849290233,195467665096412,-48.78,-25.859999,30.359999
1448849290273,195467705135474,-46.92,-25.8,25.98
1448849290313,195467745113502,-45.3,-25.38,22.32
1448849290357,195467785244117,-44.04,-24.119999,19.56
1448849290393,195467825100074,-42.96,-22.619999,17.46
1448849290433,195467865047584,-41.52,-21.18,15.059999
1448849290473,195467905178199,-39.84,-19.26,12.36
1448849290513,195467945125709,-38.52,-17.52,10.38
1448849290553,195467985134254,-37.68,-15.12,8.4
1448849290593,195468025112281,-37.2,-12.42,7.02
1448849290633,195468065151343,-36.84,-10.08,6.42
1448849290673,195468105159888,-36.3,-7.9199996,6.06
1448849290713,195468145137916,-35.579998,-6.2999997,6.18
1448849290754,195468185085425,-34.739998,-5.22,6.3599997
1448849290794,195468225063453,-33.84,-4.02,6.6
1448849290833,195468265071998,-33.059998,-3.0,6.72
1448849290873,195468305141578,-32.1,-2.22,6.7799997
1448849290913,195468345119605,-31.26,-1.02,6.96
1448849290953,195468385097633,-30.539999,0.06,7.44
1448849290993,195468425136695,-29.58,1.26,8.04
1448849291033,195468465145240,-28.859999,2.58,8.639999
1448849291073,195468505092750,-28.26,3.8999999,9.48
1448849291113,195468545131812,-27.599998,5.3399997,10.2
1448849291153,195468585140357,-27.24,6.6,10.98
1448849291193,195468625148902,-27.06,7.62,12.0
1448849291233,195468665126929,-26.82,8.46,13.08
1448849291273,195468705135474,-26.519999,9.179999,14.16
1448849291313,195468745113502,-26.16,9.54,15.36
1448849291357,195468785274634,-25.74,9.78,16.5
1448849291393,195468825100074,-25.199999,9.84,17.279999
1448849291433,195468865108619,-24.72,9.78,17.94
1448849291473,195468905117164,-24.359999,9.78,18.359999
1448849291513,195468945095191,-23.76,9.84,18.539999
1448849291553,195468985134254,-23.16,9.9,18.9
1448849291593,195469025142799,-22.439999,9.96,19.26
1448849291633,195469065120826,-21.66,10.0199995,19.56
1448849291673,195469105129371,-21.119999,10.139999,20.039999
1448849291713,195469145107398,-20.4,10.32,20.76
1448849291753,195469185115943,-19.74,10.44,21.6
1448849291793,195469225093970,-19.02,10.559999,22.98
1448849291833,195469265133033,-18.3,10.679999,24.119999
1448849291873,195469305111060,-17.82,10.74,24.9
1448849291913,195469345119605,-17.22,10.8,25.439999
1448849291953,195469385128150,-16.68,10.86,25.56
1448849291993,195469425075660,-16.14,10.86,25.68
1448849292035,195469465145240,-15.78,10.86,25.74
1448849292073,195469505092750,-15.599999,10.86,25.859999
1448849292113,195469545131812,-15.66,10.86,25.859999
1448849292153,195469585140357,-15.719999,10.86,25.68
1448849292193,195469625148902,-15.839999,10.86,25.439999
1448849292233,195469665126929,-16.14,10.86,25.019999
1448849292273,195469705135474,-16.5,10.92,24.66
1448849292313,195469745113502,-16.859999,10.98,24.359999
1448849292357,195469785274634,-17.1,11.4,24.24
